FANN_FLO_2.1
num_layers=4
learning_rate=0.700000
connection_rate=1.000000
network_type=0
learning_momentum=0.000000
training_algorithm=2
train_error_function=0
train_stop_function=0
cascade_output_change_fraction=0.010000
quickprop_decay=-0.000100
quickprop_mu=1.750000
rprop_increase_factor=1.200000
rprop_decrease_factor=0.500000
rprop_delta_min=0.000000
rprop_delta_max=50.000000
rprop_delta_zero=0.100000
cascade_output_stagnation_epochs=12
cascade_candidate_change_fraction=0.010000
cascade_candidate_stagnation_epochs=12
cascade_max_out_epochs=150
cascade_min_out_epochs=50
cascade_max_cand_epochs=150
cascade_min_cand_epochs=50
cascade_num_candidate_groups=2
bit_fail_limit=3.49999994039535520000e-001
cascade_candidate_limit=1.00000000000000000000e+003
cascade_weight_multiplier=4.00000005960464480000e-001
cascade_activation_functions_count=10
cascade_activation_functions=3 5 7 8 10 11 14 15 16 17 
cascade_activation_steepnesses_count=4
cascade_activation_steepnesses=2.50000000000000000000e-001 5.00000000000000000000e-001 7.50000000000000000000e-001 1.00000000000000000000e+000 
layer_sizes=179 41 11 3 
scale_included=0
neurons (num_inputs, activation_function, activation_steepness)=(0, 0, 0.00000000000000000000e+000) (0, 0, 0.00000000000000000000e+000) (0, 0, 0.00000000000000000000e+000) (0, 0, 0.00000000000000000000e+000) (0, 0, 0.00000000000000000000e+000) (0, 0, 0.00000000000000000000e+000) (0, 0, 0.00000000000000000000e+000) (0, 0, 0.00000000000000000000e+000) (0, 0, 0.00000000000000000000e+000) (0, 0, 0.00000000000000000000e+000) (0, 0, 0.00000000000000000000e+000) (0, 0, 0.00000000000000000000e+000) (0, 0, 0.00000000000000000000e+000) (0, 0, 0.00000000000000000000e+000) (0, 0, 0.00000000000000000000e+000) (0, 0, 0.00000000000000000000e+000) (0, 0, 0.00000000000000000000e+000) (0, 0, 0.00000000000000000000e+000) (0, 0, 0.00000000000000000000e+000) (0, 0, 0.00000000000000000000e+000) (0, 0, 0.00000000000000000000e+000) (0, 0, 0.00000000000000000000e+000) (0, 0, 0.00000000000000000000e+000) (0, 0, 0.00000000000000000000e+000) (0, 0, 0.00000000000000000000e+000) (0, 0, 0.00000000000000000000e+000) (0, 0, 0.00000000000000000000e+000) (0, 0, 0.00000000000000000000e+000) (0, 0, 0.00000000000000000000e+000) (0, 0, 0.00000000000000000000e+000) (0, 0, 0.00000000000000000000e+000) (0, 0, 0.00000000000000000000e+000) (0, 0, 0.00000000000000000000e+000) (0, 0, 0.00000000000000000000e+000) (0, 0, 0.00000000000000000000e+000) (0, 0, 0.00000000000000000000e+000) (0, 0, 0.00000000000000000000e+000) (0, 0, 0.00000000000000000000e+000) (0, 0, 0.00000000000000000000e+000) (0, 0, 0.00000000000000000000e+000) (0, 0, 0.00000000000000000000e+000) (0, 0, 0.00000000000000000000e+000) (0, 0, 0.00000000000000000000e+000) (0, 0, 0.00000000000000000000e+000) (0, 0, 0.00000000000000000000e+000) (0, 0, 0.00000000000000000000e+000) (0, 0, 0.00000000000000000000e+000) (0, 0, 0.00000000000000000000e+000) (0, 0, 0.00000000000000000000e+000) (0, 0, 0.00000000000000000000e+000) (0, 0, 0.00000000000000000000e+000) (0, 0, 0.00000000000000000000e+000) (0, 0, 0.00000000000000000000e+000) (0, 0, 0.00000000000000000000e+000) (0, 0, 0.00000000000000000000e+000) (0, 0, 0.00000000000000000000e+000) (0, 0, 0.00000000000000000000e+000) (0, 0, 0.00000000000000000000e+000) (0, 0, 0.00000000000000000000e+000) (0, 0, 0.00000000000000000000e+000) (0, 0, 0.00000000000000000000e+000) (0, 0, 0.00000000000000000000e+000) (0, 0, 0.00000000000000000000e+000) (0, 0, 0.00000000000000000000e+000) (0, 0, 0.00000000000000000000e+000) (0, 0, 0.00000000000000000000e+000) (0, 0, 0.00000000000000000000e+000) (0, 0, 0.00000000000000000000e+000) (0, 0, 0.00000000000000000000e+000) (0, 0, 0.00000000000000000000e+000) (0, 0, 0.00000000000000000000e+000) (0, 0, 0.00000000000000000000e+000) (0, 0, 0.00000000000000000000e+000) (0, 0, 0.00000000000000000000e+000) (0, 0, 0.00000000000000000000e+000) (0, 0, 0.00000000000000000000e+000) (0, 0, 0.00000000000000000000e+000) (0, 0, 0.00000000000000000000e+000) (0, 0, 0.00000000000000000000e+000) (0, 0, 0.00000000000000000000e+000) (0, 0, 0.00000000000000000000e+000) (0, 0, 0.00000000000000000000e+000) (0, 0, 0.00000000000000000000e+000) (0, 0, 0.00000000000000000000e+000) (0, 0, 0.00000000000000000000e+000) (0, 0, 0.00000000000000000000e+000) (0, 0, 0.00000000000000000000e+000) (0, 0, 0.00000000000000000000e+000) (0, 0, 0.00000000000000000000e+000) (0, 0, 0.00000000000000000000e+000) (0, 0, 0.00000000000000000000e+000) (0, 0, 0.00000000000000000000e+000) (0, 0, 0.00000000000000000000e+000) (0, 0, 0.00000000000000000000e+000) (0, 0, 0.00000000000000000000e+000) (0, 0, 0.00000000000000000000e+000) (0, 0, 0.00000000000000000000e+000) (0, 0, 0.00000000000000000000e+000) (0, 0, 0.00000000000000000000e+000) (0, 0, 0.00000000000000000000e+000) (0, 0, 0.00000000000000000000e+000) (0, 0, 0.00000000000000000000e+000) (0, 0, 0.00000000000000000000e+000) (0, 0, 0.00000000000000000000e+000) (0, 0, 0.00000000000000000000e+000) (0, 0, 0.00000000000000000000e+000) (0, 0, 0.00000000000000000000e+000) (0, 0, 0.00000000000000000000e+000) (0, 0, 0.00000000000000000000e+000) (0, 0, 0.00000000000000000000e+000) (0, 0, 0.00000000000000000000e+000) (0, 0, 0.00000000000000000000e+000) (0, 0, 0.00000000000000000000e+000) (0, 0, 0.00000000000000000000e+000) (0, 0, 0.00000000000000000000e+000) (0, 0, 0.00000000000000000000e+000) (0, 0, 0.00000000000000000000e+000) (0, 0, 0.00000000000000000000e+000) (0, 0, 0.00000000000000000000e+000) (0, 0, 0.00000000000000000000e+000) (0, 0, 0.00000000000000000000e+000) (0, 0, 0.00000000000000000000e+000) (0, 0, 0.00000000000000000000e+000) (0, 0, 0.00000000000000000000e+000) (0, 0, 0.00000000000000000000e+000) (0, 0, 0.00000000000000000000e+000) (0, 0, 0.00000000000000000000e+000) (0, 0, 0.00000000000000000000e+000) (0, 0, 0.00000000000000000000e+000) (0, 0, 0.00000000000000000000e+000) (0, 0, 0.00000000000000000000e+000) (0, 0, 0.00000000000000000000e+000) (0, 0, 0.00000000000000000000e+000) (0, 0, 0.00000000000000000000e+000) (0, 0, 0.00000000000000000000e+000) (0, 0, 0.00000000000000000000e+000) (0, 0, 0.00000000000000000000e+000) (0, 0, 0.00000000000000000000e+000) (0, 0, 0.00000000000000000000e+000) (0, 0, 0.00000000000000000000e+000) (0, 0, 0.00000000000000000000e+000) (0, 0, 0.00000000000000000000e+000) (0, 0, 0.00000000000000000000e+000) (0, 0, 0.00000000000000000000e+000) (0, 0, 0.00000000000000000000e+000) (0, 0, 0.00000000000000000000e+000) (0, 0, 0.00000000000000000000e+000) (0, 0, 0.00000000000000000000e+000) (0, 0, 0.00000000000000000000e+000) (0, 0, 0.00000000000000000000e+000) (0, 0, 0.00000000000000000000e+000) (0, 0, 0.00000000000000000000e+000) (0, 0, 0.00000000000000000000e+000) (0, 0, 0.00000000000000000000e+000) (0, 0, 0.00000000000000000000e+000) (0, 0, 0.00000000000000000000e+000) (0, 0, 0.00000000000000000000e+000) (0, 0, 0.00000000000000000000e+000) (0, 0, 0.00000000000000000000e+000) (0, 0, 0.00000000000000000000e+000) (0, 0, 0.00000000000000000000e+000) (0, 0, 0.00000000000000000000e+000) (0, 0, 0.00000000000000000000e+000) (0, 0, 0.00000000000000000000e+000) (0, 0, 0.00000000000000000000e+000) (0, 0, 0.00000000000000000000e+000) (0, 0, 0.00000000000000000000e+000) (0, 0, 0.00000000000000000000e+000) (0, 0, 0.00000000000000000000e+000) (0, 0, 0.00000000000000000000e+000) (0, 0, 0.00000000000000000000e+000) (0, 0, 0.00000000000000000000e+000) (0, 0, 0.00000000000000000000e+000) (0, 0, 0.00000000000000000000e+000) (0, 0, 0.00000000000000000000e+000) (0, 0, 0.00000000000000000000e+000) (0, 0, 0.00000000000000000000e+000) (0, 0, 0.00000000000000000000e+000) (0, 0, 0.00000000000000000000e+000) (179, 5, 5.00000000000000000000e-001) (179, 5, 5.00000000000000000000e-001) (179, 5, 5.00000000000000000000e-001) (179, 5, 5.00000000000000000000e-001) (179, 5, 5.00000000000000000000e-001) (179, 5, 5.00000000000000000000e-001) (179, 5, 5.00000000000000000000e-001) (179, 5, 5.00000000000000000000e-001) (179, 5, 5.00000000000000000000e-001) (179, 5, 5.00000000000000000000e-001) (179, 5, 5.00000000000000000000e-001) (179, 5, 5.00000000000000000000e-001) (179, 5, 5.00000000000000000000e-001) (179, 5, 5.00000000000000000000e-001) (179, 5, 5.00000000000000000000e-001) (179, 5, 5.00000000000000000000e-001) (179, 5, 5.00000000000000000000e-001) (179, 5, 5.00000000000000000000e-001) (179, 5, 5.00000000000000000000e-001) (179, 5, 5.00000000000000000000e-001) (179, 5, 5.00000000000000000000e-001) (179, 5, 5.00000000000000000000e-001) (179, 5, 5.00000000000000000000e-001) (179, 5, 5.00000000000000000000e-001) (179, 5, 5.00000000000000000000e-001) (179, 5, 5.00000000000000000000e-001) (179, 5, 5.00000000000000000000e-001) (179, 5, 5.00000000000000000000e-001) (179, 5, 5.00000000000000000000e-001) (179, 5, 5.00000000000000000000e-001) (179, 5, 5.00000000000000000000e-001) (179, 5, 5.00000000000000000000e-001) (179, 5, 5.00000000000000000000e-001) (179, 5, 5.00000000000000000000e-001) (179, 5, 5.00000000000000000000e-001) (179, 5, 5.00000000000000000000e-001) (179, 5, 5.00000000000000000000e-001) (179, 5, 5.00000000000000000000e-001) (179, 5, 5.00000000000000000000e-001) (179, 5, 5.00000000000000000000e-001) (0, 5, 5.00000000000000000000e-001) (41, 5, 5.00000000000000000000e-001) (41, 5, 5.00000000000000000000e-001) (41, 5, 5.00000000000000000000e-001) (41, 5, 5.00000000000000000000e-001) (41, 5, 5.00000000000000000000e-001) (41, 5, 5.00000000000000000000e-001) (41, 5, 5.00000000000000000000e-001) (41, 5, 5.00000000000000000000e-001) (41, 5, 5.00000000000000000000e-001) (41, 5, 5.00000000000000000000e-001) (0, 5, 5.00000000000000000000e-001) (11, 5, 5.00000000000000000000e-001) (11, 5, 5.00000000000000000000e-001) (0, 5, 5.00000000000000000000e-001) 
connections (connected_to_neuron, weight)=(0, -4.19606238603591920000e-001) (1, -4.70653146505355830000e-001) (2, -4.75489258766174320000e-001) (3, -7.88023531436920170000e-001) (4, -1.85246035456657410000e-001) (5, -1.38232201337814330000e-001) (6, 3.06659162044525150000e-001) (7, 3.07825624942779540000e-001) (8, 1.41405954957008360000e-001) (9, 4.03676420450210570000e-001) (10, 3.77193599939346310000e-001) (11, 3.67670357227325440000e-001) (12, 3.98588001728057860000e-001) (13, 2.31446087360382080000e-001) (14, 4.19566482305526730000e-002) (15, 2.33462318778038020000e-001) (16, 1.90784573554992680000e-001) (17, -3.69329035282135010000e-001) (18, -2.36648887395858760000e-001) (19, -3.52808594703674320000e-001) (20, 3.80046516656875610000e-001) (21, 3.83796870708465580000e-001) (22, 4.97702896595001220000e-001) (23, 5.78411757946014400000e-001) (24, 3.84008705615997310000e-001) (25, 3.13843220472335820000e-001) (26, 2.37664014101028440000e-001) (27, 1.88163384795188900000e-001) (28, 2.29017853736877440000e-001) (29, 3.37286174297332760000e-001) (30, 2.37767070531845090000e-001) (31, 2.62921273708343510000e-001) (32, 3.49157303571701050000e-001) (33, 2.22219258546829220000e-001) (34, 3.26938509941101070000e-001) (35, 2.44636371731758120000e-001) (36, 1.59371361136436460000e-001) (37, 3.04049462080001830000e-001) (38, 1.22088164091110230000e-001) (39, -5.52126243710517880000e-002) (40, 2.09186617285013200000e-002) (41, 1.32774308323860170000e-001) (42, 1.43487274646759030000e-001) (43, 2.34534561634063720000e-001) (44, 5.60698322951793670000e-002) (45, -1.79070830345153810000e-001) (46, 2.93829411268234250000e-001) (47, -1.83811798691749570000e-001) (48, 2.65503644943237300000e-001) (49, 5.36019131541252140000e-002) (50, 1.96040779352188110000e-001) (51, -1.31381750106811520000e-001) (52, -1.31527796387672420000e-001) (53, -3.91382724046707150000e-001) (54, 8.49058479070663450000e-002) (55, -5.52161276340484620000e-001) (56, 3.47816437482833860000e-001) (57, -3.83876681327819820000e-001) (58, -3.76199752092361450000e-001) (59, -4.51706945896148680000e-001) (60, -5.81077158451080320000e-001) (61, -4.63752686977386470000e-001) (62, -3.16337138414382930000e-001) (63, 3.45157057046890260000e-001) (64, 2.77656286954879760000e-001) (65, 3.29226143658161160000e-002) (66, 3.26848030090332030000e-001) (67, 5.05945026874542240000e-001) (68, 9.89739835262298580000e-001) (69, 5.35632252693176270000e-001) (70, 5.63271105289459230000e-001) (71, 2.62783676385879520000e-001) (72, 2.55499988794326780000e-001) (73, 2.16584995388984680000e-001) (74, -7.63397157192230220000e-001) (75, -6.92197084426879880000e-001) (76, -5.00904440879821780000e-001) (77, -2.03055337071418760000e-001) (78, -2.94680625200271610000e-001) (79, 2.78918772935867310000e-001) (80, -3.94053250551223750000e-001) (81, -4.29948806762695310000e-001) (82, -3.08928787708282470000e-001) (83, -4.36266392469406130000e-001) (84, -4.72485303878784180000e-001) (85, -2.45502516627311710000e-001) (86, -3.17573368549346920000e-001) (87, -2.47053951025009160000e-001) (88, -2.78672844171524050000e-001) (89, -2.21382692456245420000e-001) (90, 2.71610796451568600000e-001) (91, 2.50146925449371340000e-001) (92, 3.12515288591384890000e-001) (93, 3.76008927822113040000e-001) (94, 3.51302266120910640000e-001) (95, 2.48733893036842350000e-001) (96, 3.26061934232711790000e-001) (97, 2.24289700388908390000e-001) (98, -4.30717259645462040000e-001) (99, -2.95052587985992430000e-001) (100, -3.12626540660858150000e-001) (101, 4.68349549919366840000e-003) (102, -3.95848840475082400000e-001) (103, -3.50916087627410890000e-001) (104, -5.42081713676452640000e-001) (105, -7.67739236354827880000e-001) (106, -7.61151432991027830000e-001) (107, -3.46576981246471410000e-002) (108, 2.14788779616355900000e-001) (109, 1.26800626516342160000e-001) (110, 2.04219296574592590000e-001) (111, 8.30952301621437070000e-002) (112, 5.16930401325225830000e-001) (113, 5.66565692424774170000e-001) (114, -1.41945496201515200000e-001) (115, -1.28477320075035100000e-001) (116, 1.46972499787807460000e-002) (117, 1.26190081238746640000e-001) (118, -5.31561039388179780000e-002) (119, 1.30610009655356410000e-002) (120, 3.23974817991256710000e-001) (121, 3.14342707395553590000e-001) (122, 1.82808503508567810000e-001) (123, -1.32240742444992070000e-001) (124, -7.59656131267547610000e-002) (125, -1.41833022236824040000e-001) (126, 6.06058128178119660000e-002) (127, 5.24122826755046840000e-002) (128, 3.84943634271621700000e-001) (129, 3.08739542961120610000e-001) (130, 4.22732859849929810000e-001) (131, 2.79816716909408570000e-001) (132, -4.04625803232192990000e-001) (133, -3.67754012346267700000e-001) (134, 1.87655866146087650000e-001) (135, 1.04574590921401980000e-001) (136, 4.55695360898971560000e-001) (137, -2.26930044591426850000e-002) (138, -5.94662368297576900000e-001) (139, -9.16224360466003420000e-001) (140, -4.93800163269042970000e-001) (141, -5.17757356166839600000e-001) (142, -6.85728073120117190000e-001) (143, -5.95747947692871090000e-001) (144, -5.13545691967010500000e-001) (145, -2.00104087591171260000e-001) (146, 2.43740797042846680000e-001) (147, 2.03577220439910890000e-001) (148, 3.52083951234817500000e-001) (149, 3.99911612272262570000e-001) (150, 4.49589490890502930000e-001) (151, 1.66574880480766300000e-001) (152, 2.26757436990737920000e-001) (153, 2.37681239843368530000e-001) (154, 1.94326356053352360000e-001) (155, 1.12662434577941890000e-001) (156, 3.38965535163879390000e-001) (157, 4.32620972394943240000e-001) (158, 4.26309734582901000000e-001) (159, 2.94046044349670410000e-001) (160, 4.47788894176483150000e-001) (161, 3.35492253303527830000e-001) (162, 3.13973963260650630000e-001) (163, 2.30525154620409010000e-002) (164, 2.31259524822235110000e-001) (165, 4.27902281284332280000e-001) (166, 3.35155457258224490000e-001) (167, 8.99469405412673950000e-002) (168, -3.61106991767883300000e-002) (169, -2.11522206664085390000e-002) (170, -9.59093123674392700000e-002) (171, -2.43761926889419560000e-001) (172, -3.65698844194412230000e-001) (173, -3.10525476932525630000e-001) (174, -3.12890261411666870000e-001) (175, -4.51628774404525760000e-001) (176, -1.81465093046426770000e-002) (177, 2.65453830361366270000e-002) (178, -2.40162229537963870000e+000) (0, 7.33596861362457280000e-001) (1, 7.72431790828704830000e-001) (2, 1.01033556461334230000e+000) (3, 1.98813998699188230000e+000) (4, 3.98924946784973140000e-001) (5, 1.10869795083999630000e-001) (6, 1.34650450199842450000e-002) (7, -2.19330051913857460000e-003) (8, -1.51776760816574100000e-001) (9, -1.98040574789047240000e-001) (10, -7.70285129547119140000e-001) (11, -9.48991701006889340000e-002) (12, 7.72718861699104310000e-002) (13, 2.84773290157318120000e-001) (14, 2.19270765781402590000e-001) (15, 7.78426229953765870000e-001) (16, 3.16083878278732300000e-002) (17, 1.23825029004365210000e-003) (18, 8.57039928436279300000e-001) (19, 7.88340985774993900000e-001) (20, 6.96287989616394040000e-001) (21, 7.56810665130615230000e-001) (22, 8.85104954242706300000e-001) (23, 2.84048710018396380000e-002) (24, -5.78647144138813020000e-002) (25, -2.99905929714441300000e-002) (26, 2.87619456648826600000e-002) (27, -3.03909212350845340000e-001) (28, -1.07809677720069890000e-001) (29, -2.52731870859861370000e-002) (30, -1.19981728494167330000e-001) (31, -1.42067417502403260000e-001) (32, -1.32145315408706670000e-001) (33, -3.23779135942459110000e-001) (34, -3.57200533151626590000e-001) (35, -9.92590248584747310000e-001) (36, -4.15449514985084530000e-002) (37, 3.91712397336959840000e-001) (38, -5.26085853576660160000e-001) (39, -5.46730048954486850000e-002) (40, 6.55276626348495480000e-002) (41, -6.75568869337439540000e-003) (42, 4.26244288682937620000e-002) (43, -2.53609269857406620000e-002) (44, -2.20254138112068180000e-001) (45, 7.04272240400314330000e-002) (46, 6.28860235214233400000e-001) (47, 7.73928284645080570000e-001) (48, 8.58668088912963870000e-001) (49, 1.86991882324218750000e+000) (50, 1.31839716434478760000e+000) (51, 1.11060166358947750000e+000) (52, 7.21630692481994630000e-001) (53, 8.79804193973541260000e-001) (54, 1.01339891552925110000e-002) (55, -7.42384195327758790000e-002) (56, -2.90204674005508420000e-001) (57, -2.77605146169662480000e-001) (58, 1.20420651510357860000e-002) (59, 3.53465601801872250000e-002) (60, 5.39597272872924800000e-001) (61, 5.10034441947937010000e-001) (62, 5.76974511146545410000e-001) (63, -2.17357903718948360000e-001) (64, 1.31363749504089360000e-001) (65, -6.36627078056335450000e-001) (66, -3.77138048410415650000e-001) (67, -2.46916979551315310000e-001) (68, -7.06761658191680910000e-001) (69, -3.07537525892257690000e-001) (70, -2.05974042415618900000e-001) (71, -2.63362936675548550000e-002) (72, 9.72137004137039180000e-002) (73, 7.91012167930603030000e-001) (74, 6.64018809795379640000e-001) (75, 4.39446508884429930000e-001) (76, 4.65912848711013790000e-001) (77, 4.73035201430320740000e-002) (78, -6.02131903171539310000e-001) (79, 2.13547825813293460000e-001) (80, 3.47043611109256740000e-002) (81, -4.36146603897213940000e-003) (82, 2.55889207124710080000e-001) (83, 1.62672907114028930000e-001) (84, 5.61665654182434080000e-001) (85, 7.65039443969726560000e-001) (86, 2.50972062349319460000e-001) (87, 4.52421396970748900000e-001) (88, -8.33600908517837520000e-002) (89, -1.32435292005538940000e-001) (90, -1.36782839894294740000e-001) (91, -2.04725474119186400000e-001) (92, 1.21789976954460140000e-001) (93, 1.25391051173210140000e-001) (94, 3.39777201414108280000e-001) (95, 4.90991994738578800000e-002) (96, 1.02878046035766600000e+000) (97, 6.31938040256500240000e-001) (98, 1.04857075214385990000e+000) (99, 8.83922874927520750000e-001) (100, 3.53115886449813840000e-001) (101, -2.72515177726745610000e-001) (102, -1.98715701699256900000e-001) (103, 5.20331151783466340000e-002) (104, 2.64483362436294560000e-001) (105, 5.23779571056365970000e-001) (106, 7.45715081691741940000e-001) (107, 3.94067406654357910000e-001) (108, 1.91828742623329160000e-001) (109, 1.53698697686195370000e-001) (110, 2.40030631422996520000e-001) (111, 3.70758138597011570000e-002) (112, 1.21459379792213440000e-001) (113, 4.71033245325088500000e-001) (114, 2.01889008283615110000e-001) (115, 1.18010960519313810000e-001) (116, 1.66711613535881040000e-001) (117, 2.23600700497627260000e-001) (118, 2.11077138781547550000e-001) (119, 5.36979138851165770000e-001) (120, 1.26474213600158690000e+000) (121, -5.57037768885493280000e-003) (122, -3.39816451072692870000e-001) (123, -1.57859195023775100000e-002) (124, 3.49296718835830690000e-001) (125, -1.01450419425964360000e+000) (126, 8.13354626297950740000e-002) (127, 7.71289542317390440000e-002) (128, 3.66337627172470090000e-001) (129, -8.72280538082122800000e-001) (130, -8.87123823165893550000e-001) (131, -7.38910198211669920000e-001) (132, -4.86419856548309330000e-001) (133, -1.82817280292510990000e-001) (134, -1.55656561255455020000e-001) (135, -6.28417506814002990000e-002) (136, 1.13327652215957640000e-001) (137, 6.69124007225036620000e-001) (138, 5.00282824039459230000e-001) (139, 2.59337909519672390000e-002) (140, 9.51012894511222840000e-002) (141, -2.02131226658821110000e-001) (142, 1.97306171059608460000e-001) (143, 4.42554265260696410000e-001) (144, 5.88382959365844730000e-001) (145, 1.74008496105670930000e-002) (146, 2.55706638097763060000e-001) (147, 2.80709892511367800000e-001) (148, 3.00106227397918700000e-001) (149, 7.98211768269538880000e-002) (150, -3.23906317353248600000e-002) (151, -4.40646987408399580000e-003) (152, 5.50862073898315430000e-001) (153, 8.44762504100799560000e-001) (154, 1.28378912806510930000e-001) (155, 6.66786879301071170000e-002) (156, 3.55126112699508670000e-002) (157, -5.89071139693260190000e-002) (158, -1.25133872032165530000e-001) (159, 9.00612398982048030000e-002) (160, 1.24763093888759610000e-001) (161, -1.54900044202804570000e-001) (162, 1.31792998313903810000e+000) (163, 1.33680117130279540000e+000) (164, 6.30552470684051510000e-001) (165, 4.44318890571594240000e-001) (166, 8.78937184810638430000e-001) (167, 8.58413577079772950000e-001) (168, 4.99517798423767090000e-001) (169, 3.23230624198913570000e-001) (170, -4.56791520118713380000e-001) (171, -5.02547621726989750000e-001) (172, 4.35641892254352570000e-002) (173, -4.83729690313339230000e-002) (174, -4.82668960466980930000e-003) (175, -9.06963646411895750000e-002) (176, -2.74267137050628660000e-001) (177, -9.36493158340454100000e-001) (178, 2.47424507141113280000e+000) (0, -1.55889779329299930000e-001) (1, 5.43663203716278080000e-002) (2, -4.69164848327636720000e-002) (3, -1.12919017672538760000e-001) (4, 2.56833732128143310000e-001) (5, 5.50137877464294430000e-001) (6, 5.04171609878540040000e-001) (7, 1.12008202075958250000e+000) (8, 7.68643081188201900000e-001) (9, 4.53405022621154790000e-001) (10, 4.37651395797729490000e-001) (11, 2.32816830277442930000e-001) (12, 2.71629840135574340000e-001) (13, 2.12807342410087590000e-001) (14, 1.90386101603508000000e-001) (15, 1.64614334702491760000e-001) (16, -2.06726893782615660000e-001) (17, -1.18937753140926360000e-001) (18, -1.70031011104583740000e-001) (19, 4.42338734865188600000e-001) (20, 5.47103226184844970000e-001) (21, 9.70140159130096440000e-001) (22, 6.70952856540679930000e-001) (23, 9.70830440521240230000e-001) (24, 1.46312737464904790000e+000) (25, 5.80360889434814450000e-001) (26, 6.47025644779205320000e-001) (27, 7.39876508712768550000e-001) (28, 4.45816069841384890000e-001) (29, 7.26272463798522950000e-001) (30, 9.05520796775817870000e-001) (31, -2.56394073367118840000e-002) (32, -4.04152534902095790000e-002) (33, 1.86850562691688540000e-001) (34, 2.22439110279083250000e-001) (35, 4.05342727899551390000e-001) (36, 3.59207987785339360000e-001) (37, -1.53271585702896120000e-001) (38, 1.03750191628932950000e-001) (39, 3.52393835783004760000e-001) (40, 6.32939696311950680000e-001) (41, 2.76090353727340700000e-001) (42, 4.00270193815231320000e-001) (43, 1.08160769939422610000e+000) (44, 6.44871532917022710000e-001) (45, 1.14712095260620120000e+000) (46, 3.23411643505096440000e-001) (47, -1.05755433440208440000e-001) (48, -6.79191574454307560000e-002) (49, -2.45525166392326350000e-001) (50, -1.88699990510940550000e-001) (51, -3.10022175312042240000e-001) (52, -2.99527794122695920000e-001) (53, -4.59946155548095700000e-001) (54, 3.82051557302474980000e-001) (55, 4.06538665294647220000e-001) (56, -1.55600020661950110000e-002) (57, -7.94893622398376460000e-001) (58, -3.41466158628463750000e-001) (59, -1.43271341919898990000e-001) (60, -4.11999017000198360000e-001) (61, -4.53102707862854000000e-001) (62, -8.59392061829566960000e-003) (63, 7.93153166770935060000e-001) (64, 2.89036184549331670000e-001) (65, 2.35117003321647640000e-001) (66, 1.82976484298706050000e-001) (67, 1.25809103250503540000e-001) (68, -5.61949133872985840000e-001) (69, -1.34593531489372250000e-001) (70, -3.39138954877853390000e-001) (71, -2.67239093780517580000e-001) (72, -1.95278763771057130000e-001) (73, 1.72145962715148930000e-001) (74, 2.11481258273124690000e-001) (75, -5.76833367347717290000e-001) (76, -2.21368864178657530000e-001) (77, -1.59470513463020320000e-001) (78, 2.02301546931266780000e-001) (79, 2.11849272251129150000e-001) (80, 2.29173991829156880000e-002) (81, -9.68337878584861760000e-002) (82, -1.16640992462635040000e-001) (83, 8.59739854931831360000e-002) (84, 1.69085100293159480000e-001) (85, 1.16807353496551510000e+000) (86, 5.57972908020019530000e-001) (87, -2.09040015935897830000e-001) (88, -3.59349906444549560000e-001) (89, -9.38973605632781980000e-001) (90, 1.46147131919860840000e-001) (91, 2.37312018871307370000e-001) (92, 1.63437247276306150000e-001) (93, 2.65206526964902880000e-002) (94, 5.23485941812396050000e-003) (95, 2.50105023384094240000e-001) (96, 1.87842816114425660000e-001) (97, -5.91292500495910640000e-001) (98, -1.97505801916122440000e-001) (99, -2.30206504464149480000e-001) (100, -2.31170311570167540000e-001) (101, -2.68102735280990600000e-001) (102, -6.48685634136199950000e-001) (103, -8.27711522579193120000e-001) (104, 4.39468451077118520000e-004) (105, -1.04991763830184940000e-001) (106, 6.40452682971954350000e-001) (107, 1.59480738639831540000e+000) (108, -4.44622375071048740000e-002) (109, 2.11681261658668520000e-001) (110, -4.53355088829994200000e-002) (111, -2.00602874159812930000e-001) (112, -2.45957136154174800000e+000) (113, -1.00471816956996920000e-001) (114, -1.36170792579650880000e+000) (115, -2.39792197942733760000e-001) (116, 3.45261663198471070000e-001) (117, -1.97736565023660660000e-002) (118, -7.94308602809906010000e-001) (119, -2.37405991554260250000e+000) (120, -2.96057033538818360000e+000) (121, -1.32951998710632320000e+000) (122, 2.97049283981323240000e-002) (123, -2.53462195396423340000e-001) (124, -7.52127647399902340000e-001) (125, -5.68097472190856930000e-001) (126, -1.34536838531494140000e+000) (127, -7.44616091251373290000e-001) (128, -7.35114276409149170000e-001) (129, -8.26098442077636720000e-001) (130, -7.82448887825012210000e-001) (131, 1.57134056091308590000e-001) (132, 4.28673297166824340000e-001) (133, 1.03794351220130920000e-001) (134, 3.86756479740142820000e-001) (135, 4.40005138516426090000e-002) (136, 2.53508210182189940000e-001) (137, 3.97115468978881840000e-001) (138, 1.44470083713531490000e+000) (139, 2.81008124351501460000e-001) (140, 2.49964475631713870000e-001) (141, -2.96359032392501830000e-001) (142, -1.12523004412651060000e-001) (143, 9.73923146724700930000e-001) (144, 1.62434029579162600000e+000) (145, 1.47917127609252930000e+000) (146, 1.21919178962707520000e+000) (147, 4.79600936174392700000e-001) (148, 5.96560001373291020000e-001) (149, 7.68110454082489010000e-001) (150, 3.64847630262374880000e-001) (151, 3.03698033094406130000e-001) (152, 3.10010582208633420000e-001) (153, 6.22905455529689790000e-002) (154, -2.31765490025281910000e-002) (155, 3.72034877538681030000e-001) (156, 3.21615815162658690000e-001) (157, 2.90765434503555300000e-001) (158, 1.48636376857757570000e+000) (159, 1.29247915744781490000e+000) (160, 3.42691928148269650000e-001) (161, -3.85005652904510500000e-001) (162, -9.88008677959442140000e-001) (163, -9.16042089462280270000e-001) (164, -9.23503935337066650000e-001) (165, -6.99423611164093020000e-001) (166, -1.30029395222663880000e-001) (167, 6.14940226078033450000e-001) (168, 5.22434771060943600000e-001) (169, 1.08974361419677730000e+000) (170, 2.75277853012084960000e-001) (171, -9.58046130836009980000e-003) (172, -3.87828558683395390000e-001) (173, -1.33574277162551880000e-001) (174, -4.13544401526451110000e-002) (175, -5.07553815841674800000e-001) (176, 3.45078885555267330000e-001) (177, 5.46207547187805180000e-001) (178, -5.99791288375854490000e-001) (0, -7.71349668502807620000e-002) (1, 2.66237854957580570000e-001) (2, 4.98180955648422240000e-001) (3, 4.21087443828582760000e-001) (4, 3.79070878028869630000e-001) (5, 3.79992216825485230000e-001) (6, 1.38583466410636900000e-001) (7, 3.78320068120956420000e-001) (8, 4.54517118632793430000e-002) (9, 4.17526364326477050000e-001) (10, 2.45086625218391420000e-001) (11, 3.02648723125457760000e-001) (12, 7.04997256398200990000e-002) (13, 1.34782373905181880000e-001) (14, 3.20169776678085330000e-001) (15, 4.16796654462814330000e-001) (16, 2.00959265232086180000e-001) (17, 3.51703375577926640000e-001) (18, 2.06306785345077510000e-001) (19, 2.86087810993194580000e-001) (20, 2.08468064665794370000e-001) (21, -9.59127724170684810000e-001) (22, -1.37723553180694580000e+000) (23, 3.74893173575401310000e-002) (24, 1.35783497244119640000e-002) (25, 9.40509662032127380000e-002) (26, 3.63462418317794800000e-001) (27, 2.71187961101531980000e-001) (28, 1.83696731925010680000e-001) (29, 2.30172201991081240000e-001) (30, 2.48833015561103820000e-001) (31, 4.01381969451904300000e-001) (32, 2.93144971132278440000e-001) (33, 3.19609493017196660000e-001) (34, 3.41632544994354250000e-001) (35, -2.72522926330566410000e-001) (36, 3.14602971076965330000e-001) (37, 3.20842981338500980000e-001) (38, -2.30496957898139950000e-001) (39, -4.89324599504470830000e-001) (40, -9.95305702090263370000e-002) (41, 1.38237655162811280000e-001) (42, 2.21224069595336910000e-001) (43, -9.58580449223518370000e-002) (44, -4.04462739825248720000e-002) (45, -1.03212133049964900000e-001) (46, 1.36550813913345340000e-001) (47, -5.45600175857543950000e-001) (48, -4.67412918806076050000e-001) (49, -5.03958761692047120000e-001) (50, -6.06133460998535160000e-001) (51, -5.22154748439788820000e-001) (52, -4.31492477655410770000e-001) (53, 2.85335391759872440000e-001) (54, 3.36574405431747440000e-001) (55, 4.77843403816223140000e-001) (56, 4.20997887849807740000e-001) (57, 4.06258285045623780000e-001) (58, 5.06765425205230710000e-001) (59, 5.94314038753509520000e-001) (60, 1.00950825214385990000e+000) (61, 7.43637740612030030000e-001) (62, 1.82063832879066470000e-001) (63, 4.33264493942260740000e-001) (64, 4.32135701179504390000e-001) (65, 3.08865338563919070000e-001) (66, 1.71453207731246950000e-001) (67, 2.77994811534881590000e-001) (68, 2.01558366417884830000e-001) (69, 3.95813405513763430000e-001) (70, 2.23222821950912480000e-001) (71, 3.32038342952728270000e-001) (72, 1.75278969109058380000e-002) (73, 6.41056150197982790000e-002) (74, -6.01092100143432620000e-001) (75, -7.81075298786163330000e-001) (76, -5.83755552768707280000e-001) (77, -8.71287286281585690000e-001) (78, -3.68158876895904540000e-001) (79, -4.42391991615295410000e-001) (80, -2.68725275993347170000e-001) (81, -2.28780522942543030000e-001) (82, -1.81337416172027590000e-001) (83, 2.20225770026445390000e-002) (84, 2.18607857823371890000e-002) (85, -2.79712736606597900000e-001) (86, -1.91639095544815060000e-001) (87, -1.54464870691299440000e-001) (88, 1.15967802703380580000e-001) (89, 4.38056945800781250000e-001) (90, 3.67166668176651000000e-001) (91, 2.00631678104400630000e-001) (92, 3.22705954313278200000e-001) (93, 3.73159050941467290000e-001) (94, 3.99447560310363770000e-001) (95, 3.91527771949768070000e-001) (96, 4.01100814342498780000e-001) (97, 2.80968248844146730000e-001) (98, -5.08214473724365230000e-001) (99, -4.95980322360992430000e-001) (100, -3.45842242240905760000e-001) (101, -5.01716315746307370000e-001) (102, 1.57068684697151180000e-001) (103, -5.49199581146240230000e-001) (104, -4.05273318290710450000e-001) (105, -3.21123212575912480000e-001) (106, -3.33428174257278440000e-001) (107, -2.42854073643684390000e-001) (108, -2.21796050667762760000e-001) (109, -1.99331209063529970000e-001) (110, 4.02752995491027830000e-001) (111, 3.12100589275360110000e-001) (112, 2.63293504714965820000e-001) (113, -1.39150843024253850000e-001) (114, 4.51553910970687870000e-002) (115, -2.04897806048393250000e-001) (116, -1.98545992374420170000e-001) (117, -7.39146769046783450000e-001) (118, -9.61206927895545960000e-002) (119, 3.13963860273361210000e-001) (120, 9.56819280982017520000e-002) (121, 3.97114269435405730000e-002) (122, -4.88102585077285770000e-001) (123, -5.03611385822296140000e-001) (124, -2.50719100236892700000e-001) (125, -2.80762940645217900000e-001) (126, -3.42744737863540650000e-001) (127, -5.74111044406890870000e-001) (128, -3.95292907953262330000e-001) (129, -2.33505070209503170000e-001) (130, -5.09490631520748140000e-003) (131, 9.40023064613342290000e-002) (132, -7.14411497116088870000e-001) (133, 1.84612125158309940000e-001) (134, 9.05694514513015750000e-002) (135, 1.61014661192893980000e-001) (136, 5.92295601963996890000e-002) (137, 1.04272805154323580000e-001) (138, 1.16109229624271390000e-001) (139, 2.95616149902343750000e-001) (140, 1.26488685607910160000e-001) (141, 2.56675034761428830000e-001) (142, 2.78610050678253170000e-001) (143, 2.98214018344879150000e-001) (144, 2.40008205175399780000e-001) (145, 2.96087920665740970000e-001) (146, -3.72501276433467860000e-002) (147, 5.16316555440425870000e-002) (148, 1.90946981310844420000e-001) (149, 3.21565330028533940000e-001) (150, 2.53399997949600220000e-001) (151, 3.14243555068969730000e-001) (152, -1.53700346127152440000e-002) (153, -4.45326477289199830000e-001) (154, 1.02467544376850130000e-001) (155, 1.38879016041755680000e-001) (156, 1.20513118803501130000e-001) (157, 1.76544692367315290000e-002) (158, 4.00538071990013120000e-002) (159, 1.77134454250335690000e-001) (160, -4.43942137062549590000e-002) (161, 1.10781960189342500000e-001) (162, 8.41943472623825070000e-002) (163, -9.60402488708496090000e-001) (164, -5.05154550075531010000e-001) (165, -2.61351108551025390000e-001) (166, 7.90811628103256230000e-002) (167, -3.69091778993606570000e-001) (168, -2.98466116189956670000e-001) (169, -1.31530314683914180000e-001) (170, -8.28812569379806520000e-002) (171, -1.00815698504447940000e-001) (172, -9.63639467954635620000e-002) (173, -4.48900669813156130000e-001) (174, -5.65332412719726560000e-001) (175, -2.91597425937652590000e-001) (176, -5.51881313323974610000e-001) (177, -5.99385142326354980000e-001) (178, -3.56779193878173830000e+000) (0, -5.40085971355438230000e-001) (1, -6.55967056751251220000e-001) (2, 3.08543026447296140000e-001) (3, 5.96018314361572270000e-001) (4, 8.42063248157501220000e-001) (5, 7.76939928531646730000e-001) (6, 7.12309837341308590000e-001) (7, 5.52809238433837890000e-001) (8, -1.27183064818382260000e-001) (9, 2.77663886547088620000e-001) (10, 3.11576187610626220000e-001) (11, 4.44401353597640990000e-001) (12, 5.10618269443511960000e-001) (13, 5.04318654537200930000e-001) (14, 7.34716355800628660000e-001) (15, 7.51710176467895510000e-001) (16, 6.04958236217498780000e-001) (17, -2.27445945143699650000e-001) (18, -3.42304915189743040000e-001) (19, -5.68123817443847660000e-001) (20, -3.74086350202560420000e-001) (21, -2.83861219882965090000e-001) (22, -1.64108097553253170000e-001) (23, 2.46678829193115230000e-001) (24, 1.20180928707122800000e+000) (25, 6.27177238464355470000e-001) (26, 2.21524095535278320000e+000) (27, 2.86379480361938480000e+000) (28, 1.73751235008239750000e+000) (29, 7.05523729324340820000e-001) (30, 8.99376273155212400000e-001) (31, 2.26469874382019040000e+000) (32, 1.72945129871368410000e+000) (33, 8.25509071350097660000e-001) (34, 4.78613197803497310000e-001) (35, 4.99787926673889160000e-001) (36, 5.49374997615814210000e-001) (37, 4.71558153629302980000e-001) (38, 2.05934166908264160000e-001) (39, 1.40044108033180240000e-001) (40, -1.08677506446838380000e+000) (41, 2.62067377567291260000e-001) (42, 2.13573962450027470000e-001) (43, 4.02879595756530760000e-001) (44, 5.96285998821258540000e-001) (45, 4.69177812337875370000e-001) (46, 2.42576137185096740000e-001) (47, 6.80516541004180910000e-001) (48, 9.67932939529418950000e-002) (49, 2.08443682640790940000e-002) (50, 2.32241600751876830000e-001) (51, 1.53756320476531980000e-001) (52, 1.23178973793983460000e-001) (53, 6.65192067623138430000e-001) (54, 1.18818330764770510000e+000) (55, 9.50346708297729490000e-001) (56, 1.84180080890655520000e-001) (57, -4.50099915266036990000e-001) (58, -1.18421149253845210000e+000) (59, -1.04199051856994630000e+000) (60, -1.58661043643951420000e+000) (61, -6.79507851600646970000e-001) (62, -1.18234324455261230000e+000) (63, 2.47644826769828800000e-001) (64, 4.85973805189132690000e-001) (65, 1.15210962295532230000e+000) (66, 1.03418040275573730000e+000) (67, 5.92009007930755620000e-001) (68, 9.89803969860076900000e-001) (69, 9.51863288879394530000e-001) (70, 1.03761231899261470000e+000) (71, 8.46908330917358400000e-001) (72, -3.74300852417945860000e-002) (73, 3.52344699203968050000e-002) (74, -1.86461299657821660000e-001) (75, -6.76482319831848140000e-001) (76, -1.60898029804229740000e-001) (77, -2.48417973518371580000e-001) (78, 4.99932244420051570000e-002) (79, -6.55073150992393490000e-002) (80, -3.65986764430999760000e-001) (81, -1.03580141067504880000e+000) (82, -1.39397263526916500000e-001) (83, -4.06199783086776730000e-001) (84, -9.64876234531402590000e-001) (85, -2.19725036621093750000e+000) (86, -1.39468050003051760000e+000) (87, -2.64221280813217160000e-001) (88, 7.24392414093017580000e-001) (89, 4.70821142196655270000e-001) (90, 6.63527309894561770000e-001) (91, 7.19157904386520390000e-002) (92, 3.16158980131149290000e-001) (93, 4.46437925100326540000e-001) (94, 4.86666202545166020000e-001) (95, 4.54554468393325810000e-001) (96, 4.67169672250747680000e-001) (97, 9.48810935020446780000e-001) (98, -5.00752404332160950000e-003) (99, -7.53764361143112180000e-002) (100, -1.57399237155914310000e-001) (101, 3.37197750806808470000e-001) (102, 4.06330049037933350000e-001) (103, -4.17647212743759160000e-001) (104, -8.94911289215087890000e-001) (105, -7.23411142826080320000e-001) (106, -3.18077117204666140000e-001) (107, -1.57051771879196170000e-001) (108, -7.03142955899238590000e-002) (109, -4.19975280761718750000e-001) (110, -3.72740387916564940000e-001) (111, -1.84150978922843930000e-001) (112, 9.02609750628471370000e-002) (113, 1.95891465991735460000e-002) (114, 2.58162477985024450000e-003) (115, -9.59689244627952580000e-002) (116, 2.42613360285758970000e-001) (117, 2.94927597045898440000e-001) (118, 4.48542833328247070000e-001) (119, 5.02897024154663090000e-001) (120, 5.19955813884735110000e-001) (121, 3.88597361743450160000e-002) (122, -1.43365785479545590000e-001) (123, -4.75982576608657840000e-001) (124, -6.16686761379241940000e-001) (125, -6.09730541706085210000e-001) (126, -8.69675397872924800000e-001) (127, -9.39460694789886470000e-001) (128, -2.27221280336380000000e-001) (129, -2.98286508768796920000e-003) (130, -2.25615520030260090000e-002) (131, 2.11150184273719790000e-001) (132, 1.48123353719711300000e-001) (133, -5.00830598175525670000e-002) (134, 1.15353390574455260000e-001) (135, -9.60196316242218020000e-001) (136, -9.56410467624664310000e-001) (137, 9.23704057931900020000e-002) (138, 2.42222964763641360000e-001) (139, 5.07054567337036130000e-001) (140, 2.52283066511154170000e-001) (141, 6.00306689739227290000e-001) (142, 8.15846920013427730000e-001) (143, 9.09685850143432620000e-001) (144, 1.17174220085144040000e+000) (145, 1.45928645133972170000e+000) (146, 1.45954203605651860000e+000) (147, 9.09646689891815190000e-001) (148, 1.29185628890991210000e+000) (149, 1.60197496414184570000e+000) (150, 1.85828900337219240000e+000) (151, 1.74265015125274660000e+000) (152, 4.69468235969543460000e-001) (153, 4.62079614400863650000e-001) (154, 6.50716960430145260000e-001) (155, 1.36467230319976810000e+000) (156, 1.17588818073272710000e+000) (157, 4.70266848802566530000e-001) (158, 4.37896490097045900000e-001) (159, 3.93097877502441410000e-001) (160, 4.65797245502471920000e-001) (161, 7.89549294859170910000e-003) (162, 2.73016393184661870000e-001) (163, -1.37406796216964720000e-001) (164, 3.30587953329086300000e-001) (165, 2.05776318907737730000e-001) (166, 5.47588355839252470000e-002) (167, 3.12598228454589840000e-001) (168, 5.81388235092163090000e-001) (169, -1.20776146650314330000e-001) (170, 1.06845952570438390000e-001) (171, 3.24425920844078060000e-002) (172, -3.53523939847946170000e-002) (173, -3.33290174603462220000e-002) (174, -6.94927036762237550000e-001) (175, 1.50051191449165340000e-001) (176, -5.66654920578002930000e-001) (177, -8.09667229652404790000e-001) (178, 4.51997423171997070000e+000) (0, 2.38251581788063050000e-001) (1, 4.06713187694549560000e-001) (2, 1.80765226483345030000e-001) (3, -2.32087105512619020000e-001) (4, 3.41418504714965820000e-001) (5, 2.00163140892982480000e-001) (6, 7.40804672241210940000e-001) (7, 2.95401215553283690000e-001) (8, 3.16256284713745120000e-001) (9, 2.51300096511840820000e-001) (10, 2.39457562565803530000e-001) (11, 3.60789328813552860000e-001) (12, 5.11911094188690190000e-001) (13, 4.60890412330627440000e-001) (14, 5.76839506626129150000e-001) (15, 4.15662825107574460000e-001) (16, 3.67982625961303710000e-001) (17, 3.97347003221511840000e-001) (18, -6.51194229722023010000e-002) (19, -3.44452261924743650000e-001) (20, 1.86724767088890080000e-001) (21, 1.95865839719772340000e-001) (22, 1.11377499997615810000e-001) (23, 3.12037110328674320000e-001) (24, 3.09717416763305660000e-001) (25, 7.53666341304779050000e-001) (26, -4.97831583023071290000e-001) (27, 4.57846343517303470000e-001) (28, -5.23706018924713130000e-001) (29, -3.06249052286148070000e-001) (30, -1.79900243878364560000e-001) (31, -1.18886567652225490000e-001) (32, 2.79888093471527100000e-001) (33, 1.44287049770355220000e-001) (34, -2.70803105086088180000e-002) (35, 5.54674246814101930000e-004) (36, -3.58246237039566040000e-001) (37, -7.57383644580841060000e-001) (38, -1.08268249034881590000e+000) (39, -2.34266233444213870000e+000) (40, -9.64872896671295170000e-001) (41, 7.80630633234977720000e-002) (42, 2.17082723975181580000e-001) (43, 3.15473556518554690000e-001) (44, 1.34699538350105290000e-001) (45, 5.53325474262237550000e-001) (46, 3.12802553176879880000e-001) (47, 1.79633781313896180000e-001) (48, 1.00473925471305850000e-001) (49, -1.61891147494316100000e-001) (50, -1.73625707626342770000e+000) (51, 1.34654298424720760000e-001) (52, 5.18693387508392330000e-001) (53, 8.17945599555969240000e-001) (54, 7.28280603885650630000e-001) (55, 5.35487413406372070000e-001) (56, 2.79500395059585570000e-001) (57, -3.19426059722900390000e-001) (58, -3.78608286380767820000e-001) (59, -4.06582444906234740000e-001) (60, -4.51631277799606320000e-001) (61, -3.54719132184982300000e-001) (62, -3.25328975915908810000e-001) (63, 9.45266857743263240000e-002) (64, 9.11476276814937590000e-003) (65, -5.02944961190223690000e-002) (66, 8.45673158764839170000e-002) (67, 3.85113544762134550000e-002) (68, -2.99412701278924940000e-002) (69, 4.30159479379653930000e-001) (70, 4.82726037502288820000e-001) (71, 4.99498337507247920000e-001) (72, 3.48673641681671140000e-001) (73, 3.08342039585113530000e-001) (74, -5.37173628807067870000e-001) (75, -4.62629683315753940000e-002) (76, 3.07176142930984500000e-001) (77, 1.01605367660522460000e+000) (78, 2.70368599891662600000e+000) (79, 7.24957466125488280000e-001) (80, 7.92390525341033940000e-001) (81, 3.60742807388305660000e-001) (82, -2.20150768756866460000e-001) (83, -1.55568972229957580000e-001) (84, -3.98002639412879940000e-002) (85, 7.38060399889945980000e-002) (86, 6.40312016010284420000e-001) (87, 3.48923057317733760000e-001) (88, -4.97864224016666410000e-002) (89, -5.72926282882690430000e-001) (90, -1.99156656861305240000e-001) (91, 9.23390150070190430000e-001) (92, 8.24763119220733640000e-001) (93, 7.80278563499450680000e-001) (94, 8.90363872051239010000e-001) (95, 5.86929798126220700000e-001) (96, 6.04245483875274660000e-001) (97, -4.02874834835529330000e-002) (98, -1.95608007907867430000e+000) (99, -8.62202644348144530000e-001) (100, 2.91589587926864620000e-001) (101, 8.10628592967987060000e-001) (102, 2.03959560394287110000e+000) (103, 2.34354257583618160000e+000) (104, 7.69702315330505370000e-001) (105, -4.84555512666702270000e-002) (106, -2.86357849836349490000e-001) (107, -2.22456410527229310000e-001) (108, -2.95246750116348270000e-001) (109, -4.38692301511764530000e-001) (110, 2.09259435534477230000e-001) (111, 1.09792195260524750000e-001) (112, -2.80521541833877560000e-001) (113, -8.23409482836723330000e-002) (114, -1.13730467855930330000e-001) (115, 4.11732606589794160000e-002) (116, -7.28600546717643740000e-002) (117, -3.43318469822406770000e-002) (118, -1.16653122007846830000e-001) (119, 6.39879256486892700000e-002) (120, 3.34783308207988740000e-002) (121, -2.10423931479454040000e-001) (122, -1.21195740997791290000e-001) (123, -1.30485510453581810000e-002) (124, 7.76147656142711640000e-003) (125, 1.00391633808612820000e-001) (126, 3.15226286649703980000e-001) (127, 4.90658789873123170000e-001) (128, 4.44516032934188840000e-001) (129, 1.69315123558044430000e+000) (130, 1.31392371654510500000e+000) (131, 1.55441835522651670000e-001) (132, 2.43126064538955690000e-001) (133, 2.41787075996398930000e-001) (134, 4.58449810743331910000e-001) (135, 1.12550640106201170000e+000) (136, 6.44123852252960210000e-001) (137, 2.76212483644485470000e-001) (138, 1.30089715123176570000e-001) (139, -3.54820564389228820000e-002) (140, -1.14227212965488430000e-001) (141, -1.95581316947937010000e-001) (142, -1.67950853705406190000e-001) (143, -1.19737517833709720000e+000) (144, 1.55003843829035760000e-002) (145, 2.53553062677383420000e-001) (146, 3.01418423652648930000e-001) (147, 2.69060760736465450000e-001) (148, 2.25168958306312560000e-001) (149, 6.85762092471122740000e-002) (150, 2.18804284930229190000e-001) (151, 2.43499115109443660000e-001) (152, -8.98845791816711430000e-002) (153, -3.45765352249145510000e-002) (154, 1.44025564193725590000e-001) (155, 2.02808156609535220000e-001) (156, 1.47542729973793030000e-001) (157, 1.64899110794067380000e-001) (158, -3.67878198623657230000e-001) (159, 6.15927949547767640000e-002) (160, 1.61145642399787900000e-001) (161, 1.80228911340236660000e-002) (162, 2.44547501206398010000e-001) (163, -5.18687069416046140000e-001) (164, -8.06025266647338870000e-002) (165, -4.98089730739593510000e-001) (166, -3.42349320650100710000e-001) (167, 4.02206510305404660000e-001) (168, -3.79289269447326660000e-001) (169, 1.48484468460083010000e-001) (170, 1.56941488385200500000e-001) (171, 2.64479573816061020000e-002) (172, 2.01091393828392030000e-001) (173, 2.43513435125350950000e-001) (174, 1.73274204134941100000e-001) (175, 5.35027861595153810000e-001) (176, 5.51894485950469970000e-001) (177, 4.69880849123001100000e-001) (178, -2.70833253860473630000e+000) (0, 1.89254956785589460000e-003) (1, 2.05727014690637590000e-002) (2, -1.97612568736076350000e-001) (3, -1.15635626018047330000e-001) (4, 3.21916699409484860000e-001) (5, 1.64118289947509770000e-001) (6, 2.67583012580871580000e-001) (7, 1.72124892473220830000e-001) (8, -1.20707437396049500000e-001) (9, 7.95931741595268250000e-003) (10, 2.69295930862426760000e-001) (11, 1.03603102266788480000e-001) (12, -4.32592257857322690000e-002) (13, -9.76409316062927250000e-002) (14, 2.24689468741416930000e-002) (15, 2.44512762874364850000e-002) (16, 1.74457967281341550000e-001) (17, 3.24981033802032470000e-001) (18, 3.63433003425598140000e-001) (19, 2.26552605628967290000e-001) (20, 2.12645187973976140000e-001) (21, -2.36657440662384030000e-001) (22, -9.72050011157989500000e-001) (23, -2.05492758750915530000e+000) (24, -6.95338368415832520000e-001) (25, -8.69211435317993160000e-001) (26, -1.43836244940757750000e-001) (27, 5.16026206314563750000e-002) (28, -4.70510795712471010000e-002) (29, -1.15699279308319090000e+000) (30, -4.76317763328552250000e-001) (31, -2.82276682555675510000e-002) (32, 1.73866868019104000000e-001) (33, 1.38457581400871280000e-001) (34, 8.07623684406280520000e-001) (35, 9.70149815082550050000e-001) (36, 5.39981901645660400000e-001) (37, 5.04488229751586910000e-001) (38, -3.84015478193759920000e-002) (39, 2.54835844039916990000e-001) (40, 3.36810469627380370000e-001) (41, 5.03974795341491700000e-001) (42, 3.74842673540115360000e-001) (43, 3.78971338272094730000e-001) (44, 4.52644914388656620000e-001) (45, 2.31373772025108340000e-001) (46, 1.46582320332527160000e-001) (47, -4.29904848337173460000e-001) (48, -4.12031114101409910000e-001) (49, -3.38819831609725950000e-001) (50, -3.28700184822082520000e-001) (51, -5.43241739273071290000e-001) (52, -6.45093977451324460000e-001) (53, -4.68986341729760170000e-003) (54, 1.13928146660327910000e-001) (55, 2.31218361295759680000e-003) (56, -4.59998250007629390000e-001) (57, -3.01676809787750240000e-001) (58, 7.00243264436721800000e-002) (59, 2.81915128231048580000e-001) (60, 1.30850866436958310000e-001) (61, 7.43449032306671140000e-001) (62, 5.16802780330181120000e-002) (63, 3.36998939514160160000e-001) (64, 2.20111712813377380000e-001) (65, 2.91289061307907100000e-001) (66, 2.31079936027526860000e-001) (67, 2.86887645721435550000e-001) (68, 3.56885552406311040000e-001) (69, -2.08531450480222700000e-002) (70, -6.22640103101730350000e-002) (71, 1.56693473458290100000e-001) (72, 2.08957731723785400000e-001) (73, 3.02195399999618530000e-001) (74, -2.63662487268447880000e-001) (75, -1.35352849960327150000e-001) (76, -2.38063082098960880000e-001) (77, 1.15494914352893830000e-001) (78, -4.78570580482482910000e-001) (79, -3.63633245229721070000e-001) (80, -4.20072138309478760000e-001) (81, -3.68425220251083370000e-001) (82, -4.38207656145095830000e-001) (83, -1.34129509329795840000e-001) (84, -2.55663305521011350000e-001) (85, -3.04189413785934450000e-001) (86, -4.29343665018677710000e-003) (87, 5.03483653068542480000e-001) (88, 2.57981181144714360000e-001) (89, 2.68648296594619750000e-001) (90, 3.31673592329025270000e-001) (91, 1.23607637360692020000e-002) (92, -7.19735443592071530000e-001) (93, 1.19228586554527280000e-001) (94, 2.50289857387542720000e-001) (95, 2.88611501455307010000e-001) (96, 5.96125304698944090000e-001) (97, 3.84431600570678710000e-001) (98, 3.00654053688049320000e-001) (99, 3.56453508138656620000e-001) (100, 6.74799501895904540000e-001) (101, 7.30672657489776610000e-001) (102, 3.22664380073547360000e-001) (103, 5.11513650417327880000e-001) (104, -2.40480586886405940000e-001) (105, -2.01949551701545720000e-001) (106, -3.00817161798477170000e-001) (107, -3.97833958268165590000e-002) (108, -1.87382253352552650000e-003) (109, -3.56611996889114380000e-001) (110, -1.61976531147956850000e-001) (111, 3.33089865744113920000e-002) (112, -4.47288930416107180000e-001) (113, -4.16246652603149410000e-001) (114, -7.11071014404296880000e-001) (115, -5.00153422355651860000e-001) (116, -2.93638736009597780000e-001) (117, -6.26156806945800780000e-001) (118, -2.91712045669555660000e-001) (119, -1.97549879550933840000e-001) (120, -2.50331878662109380000e-001) (121, -4.77989017963409420000e-001) (122, -5.22198557853698730000e-001) (123, -5.94465017318725590000e-001) (124, -3.52995395660400390000e-002) (125, -1.72096103429794310000e-001) (126, -2.99665778875350950000e-001) (127, -6.17918312549591060000e-001) (128, -9.94275152683258060000e-001) (129, -1.26408562064170840000e-001) (130, 2.41225138306617740000e-001) (131, 3.33548307418823240000e-001) (132, -2.71579980850219730000e-001) (133, -4.09233093261718750000e-001) (134, 3.38319301605224610000e-001) (135, 1.96907177567481990000e-001) (136, 2.04064831137657170000e-001) (137, 2.91959613561630250000e-001) (138, 2.76918292045593260000e-001) (139, 2.12026849389076230000e-001) (140, 2.25655943155288700000e-001) (141, 2.54391342401504520000e-001) (142, 1.67471572756767270000e-001) (143, 2.97556400299072270000e-001) (144, 4.98064309358596800000e-001) (145, 8.62371742725372310000e-001) (146, 3.90965342521667480000e-001) (147, 3.49793106317520140000e-001) (148, 2.50778794288635250000e-001) (149, 4.08536970615386960000e-001) (150, 3.81850659847259520000e-001) (151, 2.50058412551879880000e-001) (152, -9.81017500162124630000e-002) (153, 1.21811747550964360000e-001) (154, 2.35585540533065800000e-001) (155, 5.14659404754638670000e-001) (156, 2.27280825376510620000e-001) (157, 3.74052792787551880000e-001) (158, 2.76473790407180790000e-001) (159, 2.23622530698776250000e-001) (160, 1.58631235361099240000e-001) (161, 1.50853484869003300000e-001) (162, -4.25752639770507810000e-001) (163, -2.21135467290878300000e-001) (164, -2.69096851348876950000e-001) (165, -2.18701779842376710000e-001) (166, -2.88988590240478520000e-001) (167, 1.30860999226570130000e-001) (168, -3.84531259536743160000e-001) (169, -3.26872229576110840000e-001) (170, -3.67201454937458040000e-002) (171, -1.30723677575588230000e-002) (172, 1.28266274929046630000e-001) (173, 3.95494028925895690000e-002) (174, 3.39944243431091310000e-001) (175, 1.33492439985275270000e-001) (176, 7.59612768888473510000e-002) (177, -4.49562907218933110000e-001) (178, -4.75575399398803710000e+000) (0, 1.87054544687271120000e-001) (1, -1.10016576945781710000e-001) (2, -1.05261184275150300000e-001) (3, 1.90690398216247560000e-001) (4, -1.40652671456336980000e-001) (5, -3.34691137075424190000e-001) (6, -4.93783444166183470000e-001) (7, -5.53680717945098880000e-001) (8, -8.36993515491485600000e-001) (9, -3.13598625361919400000e-002) (10, 2.72024989128112790000e-001) (11, 2.01539263129234310000e-001) (12, 3.32655251026153560000e-001) (13, -3.10901552438735960000e-001) (14, -4.39577698707580570000e-001) (15, -4.68967556953430180000e-001) (16, -1.38541984558105470000e+000) (17, 1.58461987972259520000e-001) (18, 1.47689670324325560000e-001) (19, 2.03103855252265930000e-001) (20, 2.67303645610809330000e-001) (21, 2.78423458337783810000e-001) (22, 3.23608607053756710000e-001) (23, 4.02629852294921880000e-001) (24, 4.22869175672531130000e-001) (25, 3.93561899662017820000e-001) (26, 2.61228233575820920000e-001) (27, 4.60146874189376830000e-001) (28, 8.17507624626159670000e-001) (29, 4.06840622425079350000e-001) (30, 4.14014697074890140000e-001) (31, 4.35747712850570680000e-001) (32, 3.41120928525924680000e-001) (33, -2.13486194610595700000e-001) (34, -2.34581381082534790000e-001) (35, -3.00875604152679440000e-001) (36, -5.15559911727905270000e-002) (37, -2.59068548679351810000e-001) (38, -7.09262564778327940000e-002) (39, -2.68611967563629150000e-001) (40, -6.78827881813049320000e-001) (41, -3.96973967552185060000e-001) (42, -4.01182144880294800000e-001) (43, -4.19651985168457030000e-001) (44, -3.53912711143493650000e-001) (45, -4.12095069885253910000e-001) (46, -3.18006306886672970000e-001) (47, -1.29018634557724000000e-001) (48, -1.28946304321289060000e-002) (49, -2.23742261528968810000e-001) (50, 3.39101850986480710000e-001) (51, 3.19368720054626460000e-001) (52, 2.52541482448577880000e-001) (53, 2.33857363462448120000e-001) (54, 3.40964198112487790000e-001) (55, 3.59218686819076540000e-001) (56, 6.69138610363006590000e-001) (57, 2.70208358764648440000e-001) (58, 2.49798327684402470000e-001) (59, -4.15003985166549680000e-001) (60, 2.95289397239685060000e-001) (61, 3.59491080045700070000e-001) (62, 1.60999909043312070000e-001) (63, 1.97929024696350100000e-001) (64, 3.46102006733417510000e-002) (65, 6.61904662847518920000e-002) (66, -1.49539615958929060000e-002) (67, 2.15372279286384580000e-001) (68, -4.91966396570205690000e-001) (69, -7.81259417533874510000e-001) (70, -4.23917144536972050000e-001) (71, -3.67602139711380000000e-001) (72, -2.46509805321693420000e-001) (73, -3.22319775819778440000e-001) (74, 1.73058196902275090000e-001) (75, 1.32539331912994380000e-001) (76, 2.06248819828033450000e-001) (77, 4.00205850601196290000e-001) (78, 3.27139586210250850000e-001) (79, 2.75632798671722410000e-001) (80, 4.94615346193313600000e-001) (81, 5.48259675502777100000e-001) (82, 4.27594333887100220000e-001) (83, 5.71215391159057620000e-001) (84, 4.58383500576019290000e-001) (85, 2.68684357404708860000e-001) (86, 2.32655793428421020000e-001) (87, 1.49821072816848750000e-001) (88, -5.58998510241508480000e-002) (89, -3.09457778930664060000e-001) (90, -4.99582707881927490000e-001) (91, -4.82423186302185060000e-001) (92, -6.54991447925567630000e-001) (93, -8.79996836185455320000e-001) (94, -5.91645896434783940000e-001) (95, -6.89710915088653560000e-001) (96, 3.96280065178871150000e-002) (97, 6.87763839960098270000e-003) (98, -4.05607044696807860000e-001) (99, -5.42364895343780520000e-001) (100, 8.05509742349386220000e-003) (101, 1.81408450007438660000e-001) (102, 2.32822135090827940000e-001) (103, 1.66079357266426090000e-001) (104, -4.89033222198486330000e-001) (105, 6.12221378833055500000e-003) (106, -3.51045936346054080000e-001) (107, 5.72935529053211210000e-002) (108, -3.07257380336523060000e-002) (109, -4.74508106708526610000e-002) (110, 2.31780186295509340000e-001) (111, 3.08133333921432500000e-001) (112, 1.04174636304378510000e-001) (113, 3.33786010742187500000e-001) (114, 3.58075052499771120000e-001) (115, 2.47778683900833130000e-001) (116, 5.79339385032653810000e-001) (117, 2.66386091709136960000e-001) (118, 3.28233093023300170000e-001) (119, 2.33314827084541320000e-001) (120, 3.77615898847579960000e-001) (121, 3.17364305257797240000e-001) (122, 6.30875304341316220000e-002) (123, -5.57811081409454350000e-001) (124, -6.82103633880615230000e-001) (125, -7.70571053028106690000e-001) (126, -3.81302982568740840000e-001) (127, -8.69876146316528320000e-002) (128, -4.54959608614444730000e-002) (129, 1.13034062087535860000e-002) (130, -1.98532473295927050000e-002) (131, 2.71399170160293580000e-001) (132, 5.60953140258789060000e-001) (133, 4.06460046768188480000e-001) (134, 3.98697614669799800000e-001) (135, 5.85078716278076170000e-001) (136, 8.16233098506927490000e-001) (137, 6.98416590690612790000e-001) (138, 6.45990550518035890000e-001) (139, 3.16037029027938840000e-001) (140, 3.31655263900756840000e-001) (141, 4.74554836750030520000e-001) (142, 6.01123452186584470000e-001) (143, 2.82022118568420410000e-001) (144, 2.86784589290618900000e-001) (145, 4.00521457195281980000e-001) (146, -5.40920607745647430000e-002) (147, -6.30860149860382080000e-001) (148, -9.16195094585418700000e-001) (149, 1.17207802832126620000e-001) (150, 1.78585141897201540000e-001) (151, -3.60394120216369630000e-001) (152, -2.48364403843879700000e-001) (153, -3.02601993083953860000e-001) (154, -2.97132104635238650000e-001) (155, -2.89086222648620610000e-001) (156, -6.04162931442260740000e-001) (157, -4.05614644289016720000e-001) (158, -2.88536638021469120000e-001) (159, -2.29865267872810360000e-001) (160, -2.29657992720603940000e-001) (161, -2.59118109941482540000e-001) (162, -2.16159805655479430000e-001) (163, -3.13552618026733400000e-001) (164, -2.84369707107543950000e-001) (165, -9.83932837843894960000e-002) (166, -2.64885693788528440000e-001) (167, -5.09281396865844730000e-001) (168, -3.17871034145355220000e-001) (169, -3.66189628839492800000e-001) (170, -3.58930706977844240000e-001) (171, -5.45189082622528080000e-001) (172, 3.01073253154754640000e-001) (173, 1.82105675339698790000e-001) (174, 3.18380504846572880000e-001) (175, 1.75973206758499150000e-001) (176, 1.87715277075767520000e-001) (177, -2.32923936843872070000e+000) (178, -3.54100656509399410000e+000) (0, -6.69385731220245360000e-001) (1, 5.08213460445404050000e-001) (2, 7.03676939010620120000e-001) (3, 2.69517719745635990000e-001) (4, -8.68796482682228090000e-002) (5, -5.88261663913726810000e-001) (6, 7.29216560721397400000e-002) (7, -8.27030777931213380000e-001) (8, 1.21212817728519440000e-001) (9, 1.68338686227798460000e-001) (10, -3.38510185480117800000e-001) (11, -1.08525224030017850000e-001) (12, -4.56026434898376460000e-001) (13, -1.14905968308448790000e-001) (14, 5.73278078809380530000e-003) (15, -4.31801289319992070000e-001) (16, -4.77918207645416260000e-001) (17, -5.77056467533111570000e-001) (18, -6.23207211494445800000e-001) (19, -8.35468053817749020000e-001) (20, 3.61487716436386110000e-002) (21, 2.06621065735816960000e-001) (22, -2.30664670467376710000e-001) (23, 2.46704310178756710000e-001) (24, 3.27316552400588990000e-001) (25, 3.38098466396331790000e-001) (26, 1.73696801066398620000e-001) (27, 3.84174615144729610000e-001) (28, 3.04231703281402590000e-001) (29, 3.30972641706466670000e-001) (30, 2.45368316769599910000e-001) (31, 2.56786733865737920000e-001) (32, 2.23212376236915590000e-001) (33, 3.00710320472717290000e-001) (34, 3.18888068199157710000e-001) (35, 2.59976089000701900000e-001) (36, -5.47454953193664550000e-001) (37, 3.96911561489105220000e-001) (38, 5.99177718162536620000e-001) (39, 3.54026138782501220000e-001) (40, 3.69205117225646970000e-001) (41, 4.84819531440734860000e-001) (42, 3.49036842584609990000e-001) (43, 8.60563814640045170000e-002) (44, -4.11225169897079470000e-001) (45, 6.56851306557655330000e-002) (46, 2.18457400798797610000e-001) (47, -2.14612603187561040000e-001) (48, 8.83041620254516600000e-001) (49, 1.84655949473381040000e-001) (50, -8.62856581807136540000e-002) (51, -2.18118861317634580000e-001) (52, -4.50737625360488890000e-001) (53, -5.79593718051910400000e-001) (54, -2.98870682716369630000e-001) (55, 3.21611225605010990000e-001) (56, 6.46499454975128170000e-001) (57, 5.16789972782135010000e-001) (58, -4.10896182060241700000e-001) (59, -3.15733581781387330000e-001) (60, -2.59562939405441280000e-001) (61, -1.48075744509696960000e-001) (62, 6.14705502986907960000e-001) (63, 6.56614661216735840000e-001) (64, 3.35809350013732910000e-001) (65, 2.48829022049903870000e-001) (66, 3.23367714881896970000e-001) (67, 3.47331523895263670000e-001) (68, 3.34030836820602420000e-001) (69, 2.53989666700363160000e-001) (70, 1.51618555188179020000e-001) (71, 1.70660272240638730000e-001) (72, 3.86861443519592290000e-001) (73, -2.84536927938461300000e-002) (74, -3.37634325027465820000e-001) (75, -4.62548941373825070000e-001) (76, -3.24046045541763310000e-001) (77, 2.37936899065971370000e-002) (78, -1.40582874417304990000e-001) (79, -2.78161555528640750000e-001) (80, -1.60663276910781860000e-001) (81, 1.47456526756286620000e-002) (82, -2.34928682446479800000e-001) (83, -4.52974885702133180000e-001) (84, -6.75544977188110350000e-001) (85, -8.79170775413513180000e-001) (86, -1.00256288051605220000e+000) (87, 1.55607592314481740000e-002) (88, -4.10058706998825070000e-001) (89, -3.03951919078826900000e-001) (90, -5.62687873840332030000e-001) (91, 1.50596275925636290000e-001) (92, 1.78206846117973330000e-001) (93, 8.71177494525909420000e-001) (94, 1.22727465629577640000e+000) (95, 1.06382369995117190000e+000) (96, 5.12567520141601560000e-001) (97, 3.10800373554229740000e-001) (98, 2.51745488494634630000e-002) (99, 7.11978748440742490000e-002) (100, 8.30307677388191220000e-002) (101, 7.20254145562648770000e-003) (102, 3.85895162820816040000e-001) (103, 2.20190927386283870000e-001) (104, 2.90326058864593510000e-001) (105, 8.84936153888702390000e-002) (106, -3.71600463986396790000e-002) (107, -1.48598209023475650000e-001) (108, -8.80538344383239750000e-001) (109, -7.42625772953033450000e-001) (110, -6.87945559620857240000e-002) (111, -1.00021794438362120000e-001) (112, 5.93508780002593990000e-001) (113, -8.35547685623168950000e-001) (114, -5.06044089794158940000e-001) (115, -4.76150840520858760000e-001) (116, -2.94882506132125850000e-002) (117, -3.18787634372711180000e-001) (118, -3.97371560335159300000e-001) (119, 1.98957100510597230000e-001) (120, 2.24195346236228940000e-001) (121, 3.47433179616928100000e-001) (122, 1.28154709935188290000e-001) (123, 1.17900632321834560000e-001) (124, 1.86442255973815920000e-001) (125, 3.43793570995330810000e-001) (126, 6.34176075458526610000e-001) (127, 5.61451554298400880000e-001) (128, 1.19698309898376460000e+000) (129, 7.50278413295745850000e-001) (130, 9.11105334758758540000e-001) (131, 5.31805753707885740000e-001) (132, -9.41177010536193850000e-002) (133, -8.89789611101150510000e-002) (134, -7.33197778463363650000e-002) (135, 8.01515638828277590000e-001) (136, -3.98727729916572570000e-002) (137, -2.03771424293518070000e+000) (138, -2.08638262748718260000e+000) (139, -1.84245502948760990000e+000) (140, -3.60530205070972440000e-002) (141, 4.50492510572075840000e-003) (142, -2.74709910154342650000e-002) (143, 3.47128450870513920000e-001) (144, 3.88934493064880370000e-001) (145, 3.76108616590499880000e-001) (146, 2.93251842260360720000e-001) (147, 3.08467119932174680000e-001) (148, 5.98367214202880860000e-001) (149, 2.21139099448919300000e-002) (150, -1.36073395609855650000e-001) (151, -1.67525425553321840000e-001) (152, -2.68100476264953610000e+000) (153, -1.22866415977478030000e+000) (154, 1.67176455259323120000e-001) (155, 3.25594097375869750000e-001) (156, 5.04912614822387700000e-001) (157, 6.72079861164093020000e-001) (158, 4.60861593484878540000e-001) (159, 5.49878120422363280000e-001) (160, 2.81955987215042110000e-001) (161, 3.79712700843811040000e-001) (162, 3.47737342119216920000e-001) (163, 3.08613270521163940000e-001) (164, 3.52408677339553830000e-001) (165, 3.19597274065017700000e-001) (166, -4.35850620269775390000e-001) (167, -1.18739545345306400000e+000) (168, 1.06586061418056490000e-001) (169, 2.85369288176298140000e-002) (170, 1.42619267106056210000e-001) (171, 3.06511163711547850000e-001) (172, 3.31734806299209590000e-001) (173, 3.76345068216323850000e-001) (174, 1.08050405979156490000e+000) (175, 5.89540421962738040000e-001) (176, -8.95433649420738220000e-002) (177, -2.82617866992950440000e-001) (178, -6.07158470153808590000e+000) (0, 1.16166079044342040000e+000) (1, 1.24453747272491460000e+000) (2, 5.77232062816619870000e-001) (3, -1.16794777568429710000e-003) (4, -1.51414275169372560000e-001) (5, -5.33749997615814210000e-001) (6, -1.05760943889617920000e+000) (7, -1.42919778823852540000e+000) (8, -1.02585554122924800000e+000) (9, -1.15490663051605220000e+000) (10, -1.48326277732849120000e-001) (11, -2.76489436626434330000e-001) (12, 1.19770444929599760000e-001) (13, 8.48045706748962400000e-001) (14, 1.65042376518249510000e+000) (15, -1.79824493825435640000e-002) (16, -7.09244161844253540000e-002) (17, 9.58795771002769470000e-002) (18, -1.52805134654045100000e-001) (19, 3.28176766633987430000e-001) (20, 2.85734832286834720000e-001) (21, 5.32870948314666750000e-001) (22, 1.27757489681243900000e+000) (23, 8.98258745670318600000e-001) (24, 8.16650271415710450000e-001) (25, 9.03978586196899410000e-001) (26, 6.76353812217712400000e-001) (27, 2.25762814283370970000e-001) (28, 1.98069155216217040000e-001) (29, -3.62820118665695190000e-001) (30, -1.05715382099151610000e+000) (31, -7.45674729347229000000e-001) (32, -1.84331372380256650000e-001) (33, -4.78856861591339110000e-001) (34, -4.79634642601013180000e-001) (35, -5.96445985138416290000e-002) (36, 1.16301909089088440000e-001) (37, 4.98402148485183720000e-001) (38, 1.76337972283363340000e-001) (39, 2.59636223316192630000e-001) (40, 6.01098179817199710000e-001) (41, 4.82482790946960450000e-001) (42, 4.16350886225700380000e-002) (43, -1.57036613672971730000e-002) (44, -1.27655699849128720000e-001) (45, 1.51042371988296510000e-001) (46, 1.20933747291564940000e+000) (47, 1.37910485267639160000e+000) (48, 1.16734552383422850000e+000) (49, 1.50509119033813480000e+000) (50, 1.76570892333984380000e+000) (51, 1.38075244426727290000e+000) (52, 1.30219316482543950000e+000) (53, 8.83377075195312500000e-001) (54, 4.04611676931381230000e-001) (55, 3.83091807365417480000e-001) (56, 5.33486425876617430000e-001) (57, 1.22649036347866060000e-001) (58, 1.09691751003265380000e+000) (59, 1.93052268028259280000e+000) (60, 1.90825259685516360000e+000) (61, 1.61672627925872800000e+000) (62, 6.23059570789337160000e-001) (63, 6.16311989724636080000e-002) (64, -1.24119329452514650000e+000) (65, -1.24142813682556150000e+000) (66, -1.39768195152282710000e+000) (67, 7.10239857435226440000e-002) (68, 2.69191145896911620000e-001) (69, 1.53751417994499210000e-001) (70, 5.82017421722412110000e-001) (71, 2.61055648326873780000e-001) (72, 3.41994255781173710000e-001) (73, 1.36928689479827880000e+000) (74, 1.10013055801391600000e+000) (75, 6.31427192687988280000e+000) (76, 2.25157833099365230000e+000) (77, 1.47227704524993900000e+000) (78, 7.74760663509368900000e-001) (79, 5.90353846549987790000e-001) (80, 1.48350250720977780000e+000) (81, 6.79237902164459230000e-001) (82, 4.86157655715942380000e-001) (83, 6.72478258609771730000e-001) (84, 9.72076535224914550000e-001) (85, 8.30805003643035890000e-001) (86, 7.81905949115753170000e-001) (87, 7.66828238964080810000e-001) (88, 4.23619329929351810000e-001) (89, -7.68981516361236570000e-001) (90, 2.20142155885696410000e-001) (91, -3.56616407632827760000e-001) (92, -4.27506774663925170000e-001) (93, -7.38632798194885250000e-001) (94, -1.38855981826782230000e+000) (95, -1.57799553871154790000e+000) (96, -1.31508231163024900000e+000) (97, -2.36599516868591310000e+000) (98, -5.25219023227691650000e-001) (99, 1.92727178335189820000e-001) (100, 2.25376069545745850000e-001) (101, 3.34495961666107180000e-001) (102, 2.18920677900314330000e-001) (103, 1.83226600289344790000e-001) (104, 3.05684924125671390000e-001) (105, 7.64003813266754150000e-001) (106, 6.28543317317962650000e-001) (107, 4.15503025054931640000e-001) (108, -4.68719713389873500000e-002) (109, 2.44334414601325990000e-001) (110, 2.59606629610061650000e-001) (111, 2.22572311758995060000e-001) (112, 1.16482503712177280000e-001) (113, -5.41264563798904420000e-003) (114, 7.71751463413238530000e-001) (115, 1.33862137794494630000e+000) (116, 2.48188734054565430000e+000) (117, 9.23384368419647220000e-001) (118, 8.69615674018859860000e-001) (119, 5.16114950180053710000e-001) (120, 6.83633327484130860000e-001) (121, 1.81646868586540220000e-001) (122, -3.49576383829116820000e-001) (123, 4.52060163021087650000e-001) (124, 8.02191078662872310000e-001) (125, 6.23732030391693120000e-001) (126, 1.50827193260192870000e+000) (127, 1.97334349155426030000e+000) (128, 2.05265140533447270000e+000) (129, 6.49551272392272950000e-001) (130, -8.81474614143371580000e-002) (131, 8.78374993801116940000e-001) (132, 1.16532552242279050000e+000) (133, 2.98674917221069340000e+000) (134, 1.78880357742309570000e+000) (135, 9.03783738613128660000e-001) (136, 8.88973176479339600000e-001) (137, 1.24706065654754640000e+000) (138, 1.21805393695831300000e+000) (139, 1.61224997043609620000e+000) (140, 5.75960040092468260000e-001) (141, 2.83294022083282470000e-001) (142, 5.77885150909423830000e-001) (143, 7.53632426261901860000e-001) (144, 3.38504403829574580000e-001) (145, 3.94496262073516850000e-001) (146, -3.69469791650772090000e-001) (147, -3.08156646788120270000e-002) (148, -1.01365733146667480000e+000) (149, -1.43876597285270690000e-001) (150, 3.75571817159652710000e-001) (151, 4.33260709047317500000e-001) (152, 2.40247249603271480000e-001) (153, 5.89110016822814940000e-001) (154, 8.44847023487091060000e-001) (155, 6.46746516227722170000e-001) (156, 5.22238388657569890000e-002) (157, 3.06551873683929440000e-001) (158, 3.44531029462814330000e-001) (159, -1.06761544942855830000e-001) (160, 1.55177619308233260000e-002) (161, -2.66821414232254030000e-001) (162, -9.08575534820556640000e-001) (163, -2.40139916539192200000e-001) (164, -9.45522010326385500000e-001) (165, -5.31596243381500240000e-001) (166, -5.35774707794189450000e-001) (167, 4.42283228039741520000e-002) (168, 4.36647087335586550000e-001) (169, 7.41186857223510740000e-001) (170, 9.86572206020355220000e-001) (171, 1.16312205791473390000e+000) (172, 1.12303626537323000000e+000) (173, 5.56512117385864260000e-001) (174, 6.69886946678161620000e-001) (175, 4.84869897365570070000e-001) (176, 5.41327372193336490000e-002) (177, 5.75852990150451660000e-001) (178, -4.64264154434204100000e-001) (0, 1.31694912910461430000e+000) (1, 1.31953978538513180000e+000) (2, 7.41636037826538090000e-001) (3, 7.83476531505584720000e-001) (4, 3.33654046058654790000e-001) (5, 6.33525907993316650000e-001) (6, 3.33362430334091190000e-001) (7, 9.52227532863616940000e-001) (8, 2.20034345984458920000e-001) (9, -2.54828501492738720000e-002) (10, -1.05310189723968510000e+000) (11, 1.85654625296592710000e-001) (12, -4.36801493167877200000e-001) (13, 1.51350498199462890000e-001) (14, 1.00678837299346920000e+000) (15, 7.62901008129119870000e-001) (16, -4.97006118297576900000e-001) (17, 2.96673387289047240000e-001) (18, 2.77911782264709470000e-001) (19, 4.19396400451660160000e-001) (20, 5.68096876144409180000e-001) (21, 1.81267946958541870000e-001) (22, 2.78954863548278810000e-001) (23, 1.90277218818664550000e-001) (24, -3.76072704792022710000e-001) (25, -8.06339144706726070000e-001) (26, -1.20692059397697450000e-001) (27, 1.72519594430923460000e-001) (28, 1.32966592907905580000e-001) (29, -8.00152271986007690000e-002) (30, -1.21822319924831390000e-001) (31, -9.81910526752471920000e-001) (32, -1.82425725460052490000e+000) (33, -5.20509481430053710000e-001) (34, -2.08155393600463870000e-001) (35, -2.37753003835678100000e-001) (36, -2.13932842016220090000e-001) (37, -4.35228824615478520000e-001) (38, -2.35583186149597170000e-001) (39, -6.86418358236551280000e-003) (40, -1.76314890384674070000e-001) (41, -2.03879654407501220000e-001) (42, -1.96596682071685790000e-001) (43, 6.52276203036308290000e-002) (44, 6.49740025401115420000e-002) (45, 8.30233544111251830000e-002) (46, 4.54892009496688840000e-001) (47, 1.38241839408874510000e+000) (48, 1.48209881782531740000e+000) (49, 8.35469782352447510000e-001) (50, 9.30904567241668700000e-001) (51, 1.21649456024169920000e+000) (52, 1.27295029163360600000e+000) (53, 6.88897907733917240000e-001) (54, 2.47599422931671140000e-001) (55, 5.93816220760345460000e-001) (56, 2.82696604728698730000e-001) (57, 6.54544293880462650000e-001) (58, 8.29728603363037110000e-001) (59, 2.85857200622558590000e-001) (60, 2.43905991315841670000e-001) (61, 3.37675660848617550000e-001) (62, 1.97299331426620480000e-001) (63, -5.37649691104888920000e-001) (64, -9.89794015884399410000e-001) (65, -4.05092388391494750000e-001) (66, -2.60122388601303100000e-001) (67, -1.59797921776771550000e-001) (68, -2.98511162400245670000e-002) (69, -1.44600525498390200000e-001) (70, -9.91792231798172000000e-002) (71, 8.03164392709732060000e-002) (72, 6.70530974864959720000e-001) (73, 6.46449983119964600000e-001) (74, 4.83675718307495120000e-001) (75, 5.23322105407714840000e-001) (76, 8.12678873538970950000e-001) (77, 7.63107180595397950000e-001) (78, 8.07966053485870360000e-001) (79, 3.74603092670440670000e-001) (80, 5.43679952621459960000e-001) (81, 5.59456229209899900000e-001) (82, 6.94003939628601070000e-001) (83, 1.02713131904602050000e+000) (84, 1.28211939334869380000e+000) (85, 1.12789046764373780000e+000) (86, 3.60938578844070430000e-001) (87, 4.17306602001190190000e-001) (88, 4.41273421049118040000e-001) (89, 1.95547252893447880000e-001) (90, 4.15825620293617250000e-002) (91, -4.02684435248374940000e-002) (92, -9.03736054897308350000e-001) (93, -1.78056657314300540000e+000) (94, -1.26891720294952390000e+000) (95, -3.76527309417724610000e-001) (96, -2.70880442112684250000e-002) (97, -3.15288782119750980000e-001) (98, 5.02464354038238530000e-001) (99, 4.84194070100784300000e-001) (100, 1.07020199298858640000e+000) (101, 8.62590074539184570000e-001) (102, 9.42793369293212890000e-001) (103, 1.46661400794982910000e+000) (104, 1.33663809299468990000e+000) (105, 9.55847144126892090000e-001) (106, 1.03759098052978520000e+000) (107, 4.91147577762603760000e-001) (108, 5.72717547416687010000e-001) (109, 9.83261764049530030000e-001) (110, 3.61213922500610350000e-001) (111, 2.29624137282371520000e-001) (112, 1.67974084615707400000e-001) (113, -4.23934422433376310000e-002) (114, -9.99905169010162350000e-002) (115, 2.20992863178253170000e-001) (116, 3.95186275243759160000e-001) (117, 8.40846747159957890000e-002) (118, 1.81485742330551150000e-001) (119, -1.30256041884422300000e-001) (120, -7.14366585016250610000e-002) (121, -7.20725720748305320000e-003) (122, -9.06365588307380680000e-002) (123, 5.19148148596286770000e-002) (124, 4.48537379503250120000e-001) (125, 4.49609458446502690000e-001) (126, 4.80529218912124630000e-001) (127, 3.21307361125946040000e-001) (128, -4.30748313665390010000e-001) (129, -5.76917290687561040000e-001) (130, 1.57137647271156310000e-001) (131, 2.48319819569587710000e-001) (132, 2.84273177385330200000e-001) (133, 4.37631011009216310000e-001) (134, 5.10469555854797360000e-001) (135, -5.40920317173004150000e-001) (136, -1.68065142631530760000e+000) (137, -1.00772774219512940000e+000) (138, -7.92556762695312500000e-001) (139, -8.70857000350952150000e-001) (140, -1.23294246196746830000e+000) (141, 5.54112076759338380000e-001) (142, 1.24533605575561520000e+000) (143, 4.78913545608520510000e-001) (144, 5.28353452682495120000e-001) (145, 1.00025975704193120000e+000) (146, 3.44410330057144170000e-001) (147, 5.29943764209747310000e-001) (148, 5.19989073276519780000e-001) (149, 5.70595085620880130000e-001) (150, 8.33970963954925540000e-001) (151, -1.62621047347784040000e-002) (152, 8.56602936983108520000e-002) (153, -3.81837725639343260000e-001) (154, -2.62886613607406620000e-001) (155, -2.45322510600090030000e-001) (156, -1.09465599060058590000e+000) (157, -8.19905221462249760000e-001) (158, -3.16001385450363160000e-001) (159, -3.49510461091995240000e-001) (160, -1.39463275671005250000e-001) (161, 1.67681097984313960000e-001) (162, 6.95717811584472660000e-001) (163, 6.06717944145202640000e-001) (164, 4.69484299421310420000e-001) (165, -7.68136680126190190000e-002) (166, 6.79553449153900150000e-002) (167, 4.48868088424205780000e-002) (168, 1.24289125204086300000e-001) (169, -2.58545488119125370000e-001) (170, 2.30921342968940730000e-001) (171, 3.22963416576385500000e-001) (172, 3.58908623456954960000e-001) (173, 6.95008218288421630000e-001) (174, 6.47984027862548830000e-001) (175, 8.89533400535583500000e-001) (176, 6.54326438903808590000e-001) (177, 1.84831663966178890000e-001) (178, -7.86193192005157470000e-001) (0, 6.91376626491546630000e-001) (1, 4.20610696077346800000e-001) (2, 5.84380686283111570000e-001) (3, -1.22319042682647710000e+000) (4, -7.68849372863769530000e-001) (5, 2.61971473693847660000e-001) (6, 1.25760942697525020000e-001) (7, 2.92693495750427250000e-001) (8, 2.17406079173088070000e-001) (9, -2.26152032613754270000e-001) (10, -1.78004190325737000000e-001) (11, 3.05814325809478760000e-001) (12, 7.70866811275482180000e-001) (13, 8.13703835010528560000e-001) (14, 9.01479721069335940000e-001) (15, 3.28740566968917850000e-001) (16, 5.04605293273925780000e-001) (17, 7.21228778362274170000e-001) (18, 9.42532658576965330000e-001) (19, 7.08586931228637700000e-001) (20, 8.92048478126525880000e-001) (21, 6.22528851032257080000e-001) (22, 4.08222407102584840000e-001) (23, 4.60220187902450560000e-001) (24, 2.72363811731338500000e-001) (25, -3.59056368470191960000e-002) (26, -6.11994504928588870000e-001) (27, -5.07114648818969730000e-001) (28, -1.66893684864044190000e+000) (29, -2.07574915885925290000e+000) (30, -2.03017425537109370000e+000) (31, -1.01611697673797610000e+000) (32, -1.39464986324310300000e+000) (33, -4.11221355199813840000e-001) (34, 1.10368013381958010000e-001) (35, 1.17218077182769780000e-001) (36, 6.96447551250457760000e-001) (37, 1.46050620079040530000e+000) (38, 1.73787951469421390000e+000) (39, 1.23901259899139400000e+000) (40, 6.29315495491027830000e-001) (41, 2.72533655166625980000e-001) (42, 1.06993362307548520000e-001) (43, -2.21669292449951170000e+000) (44, -1.54629066586494450000e-001) (45, -1.54958873987197880000e-001) (46, 1.09547134488821030000e-002) (47, 2.11183968931436540000e-002) (48, 1.18867230415344240000e+000) (49, 9.44505393505096440000e-001) (50, 4.04024213552474980000e-001) (51, -8.08446779847145080000e-002) (52, -1.11878797411918640000e-001) (53, -2.04117402434349060000e-001) (54, 7.80877694487571720000e-002) (55, 3.84056806564331050000e-001) (56, 6.43972933292388920000e-001) (57, 1.24602687358856200000e+000) (58, 8.12712907791137700000e-001) (59, 7.29131162166595460000e-001) (60, 8.26430261135101320000e-001) (61, 3.51792275905609130000e-001) (62, 5.20579814910888670000e-001) (63, 4.09324496984481810000e-001) (64, -9.49366271495819090000e-001) (65, -1.92840725183486940000e-001) (66, -1.18530178070068360000e+000) (67, -8.18898320198059080000e-001) (68, -5.79928874969482420000e-001) (69, -1.72166749835014340000e-001) (70, -3.99644188582897190000e-002) (71, -3.42441171407699580000e-001) (72, -4.04403269290924070000e-001) (73, -5.06579689681530000000e-002) (74, 2.09401011466979980000e-001) (75, -9.50248986482620240000e-002) (76, -3.17352920770645140000e-001) (77, -8.30914735794067380000e-001) (78, -8.17195951938629150000e-001) (79, -2.68321126699447630000e-001) (80, -5.81725675147026780000e-004) (81, 6.46400213241577150000e-001) (82, 9.19144451618194580000e-001) (83, 1.13057172298431400000e+000) (84, 6.18829965591430660000e-001) (85, 2.52870470285415650000e-002) (86, 4.85573858022689820000e-002) (87, 7.01029002666473390000e-001) (88, 1.94070190191268920000e-001) (89, 7.68410027027130130000e-001) (90, 6.92389726638793950000e-001) (91, 1.51947140693664550000e-001) (92, -3.21013420820236210000e-001) (93, -3.19101214408874510000e-002) (94, 1.92430779337883000000e-001) (95, -1.02321796119213100000e-001) (96, 2.88127791136503220000e-002) (97, -1.83252111077308650000e-001) (98, -1.33688822388648990000e-001) (99, -8.74026566743850710000e-002) (100, 2.82359629869461060000e-001) (101, 3.87513302266597750000e-002) (102, -3.14639329910278320000e-001) (103, -2.08243981003761290000e-001) (104, -1.96576178073883060000e-001) (105, 6.22648775577545170000e-001) (106, 3.97796601057052610000e-001) (107, 6.64850175380706790000e-002) (108, 4.63588535785675050000e-001) (109, 4.71882760524749760000e-001) (110, 8.95331561565399170000e-001) (111, 7.09568798542022710000e-001) (112, 2.33122348785400390000e-001) (113, 3.56956899166107180000e-001) (114, 5.06800591945648190000e-001) (115, 8.06598961353302000000e-001) (116, 7.21896946430206300000e-001) (117, 6.42206609249114990000e-001) (118, 1.33661592006683350000e+000) (119, 2.78458267450332640000e-001) (120, 6.70991480350494380000e-001) (121, 4.56168264150619510000e-001) (122, 7.97695755958557130000e-001) (123, 8.45654428005218510000e-001) (124, 9.53202128410339360000e-001) (125, 1.17445802688598630000e+000) (126, 4.26782757043838500000e-001) (127, 1.35116353631019590000e-001) (128, -1.47483277320861820000e+000) (129, 1.43900915980339050000e-001) (130, 6.91843032836914060000e-002) (131, -4.22534286975860600000e-001) (132, 1.75854492187500000000e+000) (133, 5.98807275295257570000e-001) (134, -1.69761896133422850000e-001) (135, -2.23341509699821470000e-001) (136, -6.84672296047210690000e-002) (137, 5.09110212326049800000e-001) (138, 1.02511918544769290000e+000) (139, 1.19126534461975100000e+000) (140, 1.17376148700714110000e+000) (141, 1.52034378051757810000e+000) (142, 1.38545680046081540000e+000) (143, 1.33448600769042970000e+000) (144, 3.00858640670776370000e+000) (145, 6.01767539978027340000e-001) (146, 4.38905209302902220000e-001) (147, 4.62181180715560910000e-001) (148, 5.28215885162353520000e-001) (149, 2.51222610473632810000e-001) (150, 7.20173478126525880000e-001) (151, 1.38370275497436520000e+000) (152, 1.67386591434478760000e+000) (153, 1.47163558006286620000e+000) (154, 9.90749537944793700000e-001) (155, 2.29458883404731750000e-001) (156, 2.73418217897415160000e-001) (157, 1.90987944602966310000e-001) (158, 8.28491523861885070000e-002) (159, -1.41337543725967410000e-001) (160, 7.23831951618194580000e-002) (161, 5.21849393844604490000e-001) (162, 4.56955641508102420000e-001) (163, 1.89513921737670900000e-001) (164, 1.08554139733314510000e-001) (165, 3.39311033487319950000e-001) (166, 4.56277251243591310000e-001) (167, -7.21944272518157960000e-002) (168, -1.53063669800758360000e-001) (169, 2.55894903093576430000e-002) (170, 2.07061216235160830000e-001) (171, 4.41585212945938110000e-001) (172, 3.24767142534255980000e-001) (173, 4.85201835632324220000e-001) (174, -1.73612803220748900000e-001) (175, 3.51949512958526610000e-001) (176, 1.64880305528640750000e-001) (177, 2.52086788415908810000e-001) (178, -1.26854395866394040000e+000) (0, -1.43401563167572020000e+000) (1, -2.05164527893066410000e+000) (2, -1.10748302936553960000e+000) (3, 7.07882881164550780000e-001) (4, 8.68750289082527160000e-002) (5, -3.03016975522041320000e-002) (6, 2.58938055485486980000e-002) (7, -1.26245440915226940000e-002) (8, 1.02562494575977330000e-001) (9, -5.31010515987873080000e-002) (10, 9.39072342589497570000e-004) (11, -1.17504045367240910000e-001) (12, -1.20266683399677280000e-001) (13, -2.61215925216674800000e-001) (14, -7.72371068596839900000e-002) (15, -2.10187695920467380000e-002) (16, 5.99159598350524900000e-002) (17, 6.72302365303039550000e-001) (18, 5.12108802795410160000e-001) (19, 6.70098006725311280000e-001) (20, 5.45465350151062010000e-001) (21, -4.66937124729156490000e-002) (22, -1.45245909690856930000e-001) (23, -2.67015904188156130000e-001) (24, -1.92848920822143550000e-001) (25, 9.83091630041599270000e-003) (26, -1.49749085307121280000e-001) (27, 5.10227084159851070000e-001) (28, 1.18027858436107640000e-001) (29, -8.33547487854957580000e-002) (30, -1.07057191431522370000e-001) (31, -4.10651952028274540000e-001) (32, -4.06546682119369510000e-001) (33, -3.56189966201782230000e-001) (34, -1.74926474690437320000e-001) (35, -1.89034998416900630000e-001) (36, -5.09071759879589080000e-002) (37, -1.66645750403404240000e-001) (38, -3.82069200277328490000e-002) (39, -1.46627098321914670000e-001) (40, -1.06834031641483310000e-001) (41, 3.53200733661651610000e-002) (42, 6.54323548078536990000e-002) (43, -1.15154422819614410000e-001) (44, -1.49650931358337400000e-001) (45, 7.78644904494285580000e-002) (46, 6.86904907226562500000e-001) (47, 1.01297187805175780000e+000) (48, 1.03108644485473630000e+000) (49, 6.17498755455017090000e-001) (50, 5.86665809154510500000e-001) (51, 5.57228386402130130000e-001) (52, 5.56741118431091310000e-001) (53, -6.28987923264503480000e-002) (54, 1.52909100055694580000e-001) (55, 1.61895960569381710000e-001) (56, -1.08432734012603760000e+000) (57, -6.30119562149047850000e-001) (58, 4.12309676408767700000e-001) (59, 7.85562276840209960000e-001) (60, 2.26411461830139160000e-001) (61, 3.44646632671356200000e-001) (62, 7.42866992950439450000e-002) (63, -3.60450297594070430000e-001) (64, -2.44278609752655030000e-001) (65, 1.62497758865356450000e-002) (66, -1.07055641710758210000e-001) (67, -6.85920640826225280000e-002) (68, -1.64433628320693970000e-001) (69, -2.95362979173660280000e-001) (70, -1.43747150897979740000e-001) (71, -1.41556262969970700000e-001) (72, -2.40671351552009580000e-001) (73, 9.15966629981994630000e-001) (74, 4.70704615116119380000e-001) (75, 5.89336991310119630000e-001) (76, 5.05652368068695070000e-001) (77, -1.88399195671081540000e-001) (78, -5.58461666107177730000e-001) (79, 8.81569758057594300000e-002) (80, 4.19865250587463380000e-001) (81, 5.68627119064331050000e-001) (82, -1.36930838227272030000e-001) (83, -1.34563282132148740000e-001) (84, 2.56155699491500850000e-001) (85, -1.56808853149414060000e-001) (86, 4.26162362098693850000e-001) (87, 4.63760435581207280000e-001) (88, -3.49945455789566040000e-001) (89, -4.23266500234603880000e-001) (90, -2.53054469823837280000e-001) (91, -2.52818793058395390000e-001) (92, -1.76493957638740540000e-001) (93, -2.70231544971466060000e-001) (94, -3.97627204656600950000e-001) (95, -3.20948094129562380000e-001) (96, -1.57908886671066280000e-001) (97, 2.17561542987823490000e-001) (98, 7.73334503173828130000e-001) (99, 7.15667247772216800000e-001) (100, 8.10826718807220460000e-001) (101, 7.48349905014038090000e-001) (102, 1.25727713108062740000e-001) (103, 5.89571237564086910000e-001) (104, 3.47171753644943240000e-001) (105, -1.56640037894248960000e-001) (106, -2.08468377590179440000e-001) (107, -2.04695582389831540000e+000) (108, -4.16323989629745480000e-001) (109, 1.32247954607009890000e-001) (110, 6.35966584086418150000e-002) (111, -3.82388643920421600000e-002) (112, -3.52822494506835940000e+000) (113, -6.11009180545806880000e-001) (114, -6.18766427040100100000e-001) (115, -5.27072489261627200000e-001) (116, -3.15285146236419680000e-001) (117, -6.15344792604446410000e-002) (118, -1.26893250271677970000e-002) (119, -8.41996908187866210000e-001) (120, -3.35873693227767940000e-001) (121, 2.61938869953155520000e-001) (122, 4.08675909042358400000e-001) (123, 5.49265503883361820000e-001) (124, 6.03884994983673100000e-001) (125, 6.61974191665649410000e-001) (126, 6.39342308044433590000e-001) (127, 6.87971591949462890000e-001) (128, 4.74664360284805300000e-001) (129, 5.44309556484222410000e-001) (130, 5.78133702278137210000e-001) (131, 4.57347363233566280000e-001) (132, 2.56357967853546140000e-001) (133, -1.38763144612312320000e-001) (134, 1.14699043333530430000e-001) (135, 9.18345600366592410000e-002) (136, -3.39351207017898560000e-001) (137, -4.01986539363861080000e-001) (138, 1.23060122132301330000e-001) (139, 1.94190621376037600000e-001) (140, -2.12493762373924260000e-001) (141, 5.11226356029510500000e-002) (142, -9.79082360863685610000e-002) (143, -7.05223903059959410000e-002) (144, 6.98024511337280270000e-001) (145, -5.52979782223701480000e-002) (146, -1.84891149401664730000e-001) (147, 8.61164405941963200000e-002) (148, 8.62732455134391780000e-002) (149, -4.62784804403781890000e-002) (150, -3.13911527395248410000e-001) (151, -3.66202831268310550000e-001) (152, -2.51573733985424040000e-002) (153, 1.20270378887653350000e-001) (154, 3.10622423887252810000e-001) (155, 1.80887788534164430000e-001) (156, 1.60390645265579220000e-001) (157, 4.56315129995346070000e-001) (158, 9.47489812970161440000e-002) (159, -2.59928382001817230000e-003) (160, -5.51656372845172880000e-002) (161, -1.40428334474563600000e-001) (162, -2.84435808658599850000e-001) (163, -1.64103582501411440000e-001) (164, -1.44514715671539310000e+000) (165, -9.76427257061004640000e-001) (166, -2.31222048401832580000e-001) (167, -2.58126825094223020000e-001) (168, -3.49655956029891970000e-001) (169, 1.84493839740753170000e-001) (170, 3.35723459720611570000e-001) (171, 2.39451169967651370000e-001) (172, 3.68080675601959230000e-001) (173, 3.67780894041061400000e-001) (174, 4.26381468772888180000e-001) (175, 1.76140040159225460000e-001) (176, -5.15287339687347410000e-001) (177, -9.43712353706359860000e-001) (178, 5.18925571441650390000e+000) (0, -2.61023283004760740000e-001) (1, 1.63683183491230010000e-002) (2, 2.68111024051904680000e-002) (3, -3.21443587541580200000e-001) (4, 2.98223167657852170000e-001) (5, -6.68433010578155520000e-001) (6, -5.54427146911621090000e-001) (7, -1.35776281356811520000e-001) (8, 3.24463486671447750000e-001) (9, 4.44021075963974000000e-001) (10, -4.79771606624126430000e-002) (11, 2.73076415061950680000e-001) (12, 1.23506605625152590000e-001) (13, -5.66427595913410190000e-003) (14, 2.76546850800514220000e-002) (15, -2.19653435051441190000e-002) (16, -2.74893976747989650000e-002) (17, 5.37680983543396000000e-001) (18, 1.68185964226722720000e-001) (19, 4.20919984579086300000e-001) (20, 9.66559350490570070000e-002) (21, 2.45112761855125430000e-001) (22, 1.10979504883289340000e-001) (23, 1.18720903992652890000e-001) (24, 6.47524178028106690000e-001) (25, 5.30640006065368650000e-001) (26, 4.21222716569900510000e-001) (27, 1.53771832585334780000e-001) (28, 4.67902392148971560000e-001) (29, 5.40926337242126460000e-001) (30, 7.87333965301513670000e-001) (31, 8.91375362873077390000e-001) (32, 1.56479561328887940000e+000) (33, 1.37061643600463870000e+000) (34, 7.94643223285675050000e-001) (35, 3.63919645547866820000e-001) (36, 2.16933935880661010000e-001) (37, 2.32067644596099850000e-001) (38, 3.47866415977478030000e-001) (39, 1.06060731410980220000e+000) (40, 6.95274829864501950000e-001) (41, 5.47718107700347900000e-001) (42, 5.41062355041503910000e-001) (43, -1.05435594916343690000e-001) (44, 4.66391295194625850000e-001) (45, 1.34454593062400820000e-001) (46, -1.54306501150131230000e-001) (47, 7.01825395226478580000e-002) (48, 1.11780529841780660000e-002) (49, -1.99625864624977110000e-002) (50, 1.01410232484340670000e-001) (51, 9.31834101676940920000e-001) (52, 3.20807576179504390000e-001) (53, 3.09619516134262080000e-001) (54, 2.33087822794914250000e-001) (55, -2.78066277503967290000e-001) (56, -5.62534570693969730000e-001) (57, -6.57072842121124270000e-001) (58, -7.62687325477600100000e-001) (59, -2.32410117983818050000e-001) (60, -1.89102366566658020000e-001) (61, -1.73524424433708190000e-001) (62, -8.33763852715492250000e-002) (63, 6.38814508914947510000e-001) (64, 3.64570260047912600000e-001) (65, 4.28709745407104490000e-001) (66, 2.38473311066627500000e-001) (67, 3.62284243106842040000e-001) (68, 1.24351873993873600000e-001) (69, 2.51714944839477540000e-001) (70, 7.90228068828582760000e-001) (71, 4.11638408899307250000e-001) (72, 2.82810896635055540000e-001) (73, 4.42894041538238530000e-001) (74, -1.61860026419162750000e-002) (75, 8.50867569446563720000e-001) (76, 8.52198302745819090000e-001) (77, 4.06313776969909670000e-001) (78, -4.16710041463375090000e-002) (79, -4.42441590130329130000e-002) (80, -4.10833567380905150000e-001) (81, -8.90719890594482420000e-001) (82, -4.32664006948471070000e-001) (83, -8.34668651223182680000e-002) (84, -2.22970828413963320000e-001) (85, -4.80662792921066280000e-001) (86, -8.67796897888183590000e-001) (87, -3.71482312679290770000e-001) (88, -2.26272121071815490000e-001) (89, 2.16326981782913210000e-001) (90, 1.08389532566070560000e+000) (91, 1.28860938549041750000e+000) (92, 9.64399814605712890000e-001) (93, 1.75629961490631100000e+000) (94, 3.17925602197647090000e-001) (95, 5.87819278240203860000e-001) (96, 2.74361610412597660000e+000) (97, 3.52167415618896480000e+000) (98, 8.24322521686553960000e-001) (99, 4.01668906211853030000e-001) (100, 1.00431285798549650000e-001) (101, -7.24978864192962650000e-001) (102, -3.72691184282302860000e-001) (103, 2.18311592936515810000e-001) (104, -5.77104091644287110000e-001) (105, 2.81346917152404790000e-001) (106, -1.85438528656959530000e-001) (107, -2.88300722837448120000e-001) (108, -2.66651183366775510000e-001) (109, -1.00689494609832760000e+000) (110, -2.06791758537292480000e+000) (111, -3.87818276882171630000e-001) (112, -1.54428824782371520000e-001) (113, 4.19958889484405520000e-001) (114, 4.55817319452762600000e-002) (115, 6.15203194320201870000e-002) (116, 1.14034473896026610000e-001) (117, -3.35806421935558320000e-002) (118, -3.05532574653625490000e-001) (119, 3.82569938898086550000e-001) (120, -4.83979463577270510000e-001) (121, -1.74984887242317200000e-001) (122, 1.15959113463759420000e-002) (123, 1.06987692415714260000e-001) (124, 2.26486891508102420000e-001) (125, -3.39568965137004850000e-002) (126, 2.70207911729812620000e-001) (127, 2.46134757995605470000e-001) (128, 9.17014837265014650000e-001) (129, 2.57519185543060300000e-001) (130, 1.54895639419555660000e+000) (131, 2.66379714012146000000e-001) (132, 3.83828252553939820000e-001) (133, -1.86626806855201720000e-001) (134, 1.66562035679817200000e-001) (135, 2.08558872342109680000e-001) (136, 1.60300031304359440000e-001) (137, 6.04441761970520020000e-001) (138, 6.51955366134643550000e-001) (139, 2.54584550857543950000e-001) (140, 3.18768382072448730000e-001) (141, 1.06347002089023590000e-001) (142, 3.44160437583923340000e-001) (143, 8.53549599647521970000e-001) (144, 1.58173906803131100000e+000) (145, 1.42452538013458250000e+000) (146, 4.72500354051589970000e-001) (147, 7.02938854694366460000e-001) (148, 6.92941725254058840000e-001) (149, 7.26472675800323490000e-001) (150, 7.32520580291748050000e-001) (151, 8.07188630104064940000e-001) (152, 8.98349404335021970000e-001) (153, 3.82820755243301390000e-001) (154, 2.27757126092910770000e-001) (155, 5.70591270923614500000e-001) (156, 6.55373752117156980000e-001) (157, 2.72010982036590580000e-001) (158, 1.88039764761924740000e-001) (159, 6.79803907871246340000e-001) (160, 6.51020050048828130000e-001) (161, 5.01542329788208010000e-001) (162, 7.78626799583435060000e-001) (163, 6.47677659988403320000e-001) (164, 3.90457004308700560000e-001) (165, 3.85129421949386600000e-001) (166, 1.42396958544850350000e-002) (167, 6.01172670722007750000e-002) (168, 2.55810860544443130000e-002) (169, -3.92083436250686650000e-001) (170, -3.11999797821044920000e-001) (171, -2.97674894332885740000e-001) (172, -2.50649482011795040000e-001) (173, -3.06347668170928960000e-001) (174, -8.82732093334198000000e-001) (175, -6.33919417858123780000e-001) (176, -2.88443803787231450000e-001) (177, -4.76379275321960450000e-001) (178, -1.90470516681671140000e-001) (0, -4.64901685714721680000e-001) (1, -6.55352532863616940000e-001) (2, -2.19844579696655270000e-001) (3, 1.08698531985282900000e-001) (4, -5.14226019382476810000e-001) (5, 3.90288680791854860000e-001) (6, 4.61404085159301760000e-001) (7, -2.05019220709800720000e-001) (8, -9.70152765512466430000e-002) (9, -4.83576804399490360000e-002) (10, -5.18173277378082280000e-002) (11, -1.24574355781078340000e-001) (12, 3.02536010742187500000e-001) (13, 4.96028456836938860000e-003) (14, -4.43776100873947140000e-002) (15, -3.13111305236816410000e-001) (16, 3.58937054872512820000e-001) (17, 3.42825710773468020000e-001) (18, 3.53192925453186040000e-001) (19, 4.42101173102855680000e-002) (20, 1.23425669968128200000e-001) (21, -8.13673958182334900000e-002) (22, -2.21673727035522460000e-001) (23, 2.78056979179382320000e-001) (24, -3.04135650396347050000e-001) (25, -7.59842693805694580000e-001) (26, 1.36653363704681400000e-001) (27, 1.93438276648521420000e-001) (28, -2.24623024463653560000e-001) (29, 1.55263870954513550000e-001) (30, 1.41560673713684080000e-001) (31, -3.79387944936752320000e-001) (32, -1.09975874423980710000e-001) (33, 2.59400308132171630000e-002) (34, 3.30274552106857300000e-001) (35, 4.53268498182296750000e-001) (36, 5.85903108119964600000e-001) (37, 9.53251242637634280000e-001) (38, 9.87364888191223140000e-001) (39, 8.16273629665374760000e-001) (40, 5.85637569427490230000e-001) (41, 2.61754781007766720000e-001) (42, 1.17910265922546390000e-001) (43, 4.61502850055694580000e-001) (44, 3.70905935764312740000e-001) (45, 5.72663545608520510000e-001) (46, 4.28425848484039310000e-001) (47, -1.62524521350860600000e-001) (48, -4.47611838579177860000e-001) (49, -4.71465915441513060000e-001) (50, -5.88612616062164310000e-001) (51, -1.55621385574340820000e+000) (52, -6.93054318428039550000e-001) (53, -1.92956626415252690000e-001) (54, -1.00011654198169710000e-001) (55, 1.74958631396293640000e-001) (56, -1.60619542002677920000e-001) (57, -4.29823547601699830000e-001) (58, -3.20144802331924440000e-001) (59, -2.70064651966094970000e-001) (60, -3.66612106561660770000e-001) (61, -1.20780929923057560000e-001) (62, -8.83125513792037960000e-002) (63, 8.97866189479827880000e-001) (64, 2.27334809303283690000e+000) (65, 9.58919882774353030000e-001) (66, 5.54533302783966060000e-001) (67, 3.66480380296707150000e-001) (68, -3.22884291410446170000e-001) (69, -5.66979348659515380000e-002) (70, -7.24420621991157530000e-002) (71, 4.07800078392028810000e-001) (72, 5.99500060081481930000e-001) (73, -2.06923052668571470000e-001) (74, -4.78782914578914640000e-002) (75, -9.65369194746017460000e-002) (76, -3.52043211460113530000e-001) (77, -1.32276132702827450000e-001) (78, 5.07603548467159270000e-002) (79, 4.22308556735515590000e-002) (80, -1.02119162678718570000e-001) (81, -9.54329490661621090000e-001) (82, -2.21889591217041020000e+000) (83, -1.17860162258148190000e+000) (84, -4.94568705558776860000e-001) (85, -5.25721907615661620000e-002) (86, -2.11200892925262450000e-001) (87, 1.46091893315315250000e-001) (88, 9.71707925200462340000e-002) (89, -7.37516731023788450000e-002) (90, 