FANN_FLO_2.1
num_layers=5
learning_rate=0.700000
connection_rate=1.000000
network_type=0
learning_momentum=0.000000
training_algorithm=2
train_error_function=0
train_stop_function=0
cascade_output_change_fraction=0.010000
quickprop_decay=-0.000100
quickprop_mu=1.750000
rprop_increase_factor=1.200000
rprop_decrease_factor=0.500000
rprop_delta_min=0.000000
rprop_delta_max=50.000000
rprop_delta_zero=0.100000
cascade_output_stagnation_epochs=12
cascade_candidate_change_fraction=0.010000
cascade_candidate_stagnation_epochs=12
cascade_max_out_epochs=150
cascade_min_out_epochs=50
cascade_max_cand_epochs=150
cascade_min_cand_epochs=50
cascade_num_candidate_groups=2
bit_fail_limit=3.49999994039535520000e-001
cascade_candidate_limit=1.00000000000000000000e+003
cascade_weight_multiplier=4.00000005960464480000e-001
cascade_activation_functions_count=10
cascade_activation_functions=3 5 7 8 10 11 14 15 16 17 
cascade_activation_steepnesses_count=4
cascade_activation_steepnesses=2.50000000000000000000e-001 5.00000000000000000000e-001 7.50000000000000000000e-001 1.00000000000000000000e+000 
layer_sizes=26 22 22 22 5 
scale_included=0
neurons (num_inputs, activation_function, activation_steepness)=(0, 0, 0.00000000000000000000e+000) (0, 0, 0.00000000000000000000e+000) (0, 0, 0.00000000000000000000e+000) (0, 0, 0.00000000000000000000e+000) (0, 0, 0.00000000000000000000e+000) (0, 0, 0.00000000000000000000e+000) (0, 0, 0.00000000000000000000e+000) (0, 0, 0.00000000000000000000e+000) (0, 0, 0.00000000000000000000e+000) (0, 0, 0.00000000000000000000e+000) (0, 0, 0.00000000000000000000e+000) (0, 0, 0.00000000000000000000e+000) (0, 0, 0.00000000000000000000e+000) (0, 0, 0.00000000000000000000e+000) (0, 0, 0.00000000000000000000e+000) (0, 0, 0.00000000000000000000e+000) (0, 0, 0.00000000000000000000e+000) (0, 0, 0.00000000000000000000e+000) (0, 0, 0.00000000000000000000e+000) (0, 0, 0.00000000000000000000e+000) (0, 0, 0.00000000000000000000e+000) (0, 0, 0.00000000000000000000e+000) (0, 0, 0.00000000000000000000e+000) (0, 0, 0.00000000000000000000e+000) (0, 0, 0.00000000000000000000e+000) (0, 0, 0.00000000000000000000e+000) (26, 5, 5.00000000000000000000e-001) (26, 5, 5.00000000000000000000e-001) (26, 5, 5.00000000000000000000e-001) (26, 5, 5.00000000000000000000e-001) (26, 5, 5.00000000000000000000e-001) (26, 5, 5.00000000000000000000e-001) (26, 5, 5.00000000000000000000e-001) (26, 5, 5.00000000000000000000e-001) (26, 5, 5.00000000000000000000e-001) (26, 5, 5.00000000000000000000e-001) (26, 5, 5.00000000000000000000e-001) (26, 5, 5.00000000000000000000e-001) (26, 5, 5.00000000000000000000e-001) (26, 5, 5.00000000000000000000e-001) (26, 5, 5.00000000000000000000e-001) (26, 5, 5.00000000000000000000e-001) (26, 5, 5.00000000000000000000e-001) (26, 5, 5.00000000000000000000e-001) (26, 5, 5.00000000000000000000e-001) (26, 5, 5.00000000000000000000e-001) (26, 5, 5.00000000000000000000e-001) (0, 5, 5.00000000000000000000e-001) (22, 5, 5.00000000000000000000e-001) (22, 5, 5.00000000000000000000e-001) (22, 5, 5.00000000000000000000e-001) (22, 5, 5.00000000000000000000e-001) (22, 5, 5.00000000000000000000e-001) (22, 5, 5.00000000000000000000e-001) (22, 5, 5.00000000000000000000e-001) (22, 5, 5.00000000000000000000e-001) (22, 5, 5.00000000000000000000e-001) (22, 5, 5.00000000000000000000e-001) (22, 5, 5.00000000000000000000e-001) (22, 5, 5.00000000000000000000e-001) (22, 5, 5.00000000000000000000e-001) (22, 5, 5.00000000000000000000e-001) (22, 5, 5.00000000000000000000e-001) (22, 5, 5.00000000000000000000e-001) (22, 5, 5.00000000000000000000e-001) (22, 5, 5.00000000000000000000e-001) (22, 5, 5.00000000000000000000e-001) (22, 5, 5.00000000000000000000e-001) (22, 5, 5.00000000000000000000e-001) (0, 5, 5.00000000000000000000e-001) (22, 5, 5.00000000000000000000e-001) (22, 5, 5.00000000000000000000e-001) (22, 5, 5.00000000000000000000e-001) (22, 5, 5.00000000000000000000e-001) (22, 5, 5.00000000000000000000e-001) (22, 5, 5.00000000000000000000e-001) (22, 5, 5.00000000000000000000e-001) (22, 5, 5.00000000000000000000e-001) (22, 5, 5.00000000000000000000e-001) (22, 5, 5.00000000000000000000e-001) (22, 5, 5.00000000000000000000e-001) (22, 5, 5.00000000000000000000e-001) (22, 5, 5.00000000000000000000e-001) (22, 5, 5.00000000000000000000e-001) (22, 5, 5.00000000000000000000e-001) (22, 5, 5.00000000000000000000e-001) (22, 5, 5.00000000000000000000e-001) (22, 5, 5.00000000000000000000e-001) (22, 5, 5.00000000000000000000e-001) (22, 5, 5.00000000000000000000e-001) (22, 5, 5.00000000000000000000e-001) (0, 5, 5.00000000000000000000e-001) (22, 5, 5.00000000000000000000e-001) (22, 5, 5.00000000000000000000e-001) (22, 5, 5.00000000000000000000e-001) (22, 5, 5.00000000000000000000e-001) (0, 5, 5.00000000000000000000e-001) 
connections (connected_to_neuron, weight)=(0, 2.67031043767929080000e-002) (1, 2.93314003944396970000e+000) (2, 6.11799383163452150000e+000) (3, -1.15101408958435060000e+000) (4, 2.85280197858810420000e-001) (5, 2.78991162776947020000e-001) (6, 8.70524406433105470000e-001) (7, 3.02683860063552860000e-001) (8, 7.76640176773071290000e-001) (9, 1.07697331905364990000e+000) (10, -2.10530447959899900000e+000) (11, -9.19987142086029050000e-001) (12, 2.90185242891311650000e-001) (13, 5.69002509117126460000e-001) (14, 9.08924102783203130000e-001) (15, 1.42257738113403320000e+000) (16, 2.94743686914443970000e-001) (17, 3.40294241905212400000e-001) (18, 2.21062332391738890000e-001) (19, -2.02262066304683690000e-002) (20, 5.09006023406982420000e-001) (21, -1.05585396289825440000e+000) (22, 5.87432086467742920000e-001) (23, -2.59011596441268920000e-001) (24, -6.34867250919342040000e-001) (25, 1.43257975578308110000e-001) (0, 9.18922349810600280000e-002) (1, 6.17776095867156980000e-001) (2, 6.87246501445770260000e-001) (3, 5.71586251258850100000e-001) (4, -8.39301705360412600000e-001) (5, 9.83871459960937500000e-001) (6, 2.61580497026443480000e-001) (7, 7.52404391765594480000e-001) (8, 2.13788807392120360000e-001) (9, 7.68813014030456540000e-001) (10, 1.01874291896820070000e+000) (11, 1.08233046531677250000e+000) (12, 3.59914898872375490000e-001) (13, 1.76047468185424800000e+000) (14, -1.31916427612304690000e+000) (15, -1.41046142578125000000e+000) (16, 1.48007214069366460000e+000) (17, -1.40429055690765380000e+000) (18, -1.56303972005844120000e-001) (19, -1.61071032285690310000e-001) (20, 4.94846880435943600000e-001) (21, -4.02126967906951900000e-001) (22, -3.25573951005935670000e-001) (23, 3.61804664134979250000e-001) (24, -9.51841354370117190000e-001) (25, 2.21840786933898930000e+000) (0, 4.85211551189422610000e-001) (1, -3.47691029310226440000e-002) (2, -3.60801726579666140000e-001) (3, -8.33428323268890380000e-001) (4, -7.78128921985626220000e-001) (5, -7.83067792654037480000e-002) (6, -5.09275078773498540000e-001) (7, -6.74111783504486080000e-001) (8, -1.66321143507957460000e-001) (9, -2.65590876340866090000e-001) (10, 3.77547234296798710000e-001) (11, 3.29526960849761960000e-001) (12, 1.12522625923156740000e+000) (13, 2.67773896455764770000e-001) (14, 6.62779808044433590000e-001) (15, 3.33225190639495850000e-001) (16, 1.36845573782920840000e-001) (17, 6.99431821703910830000e-003) (18, -7.05969691276550290000e-001) (19, 1.19019858539104460000e-001) (20, -8.87879192829132080000e-001) (21, 1.99955746531486510000e-001) (22, 5.03170073032379150000e-001) (23, 1.35373175144195560000e-001) (24, -9.89106357097625730000e-001) (25, -4.09712523221969600000e-001) (0, -1.27020108699798580000e+000) (1, 2.63653254508972170000e+000) (2, 4.38249140977859500000e-001) (3, 7.23885744810104370000e-002) (4, -3.64985495805740360000e-001) (5, -3.23132663965225220000e-001) (6, -1.12962079048156740000e+000) (7, -1.90532520413398740000e-001) (8, 1.23383891582489010000e+000) (9, -9.09366607666015630000e-001) (10, -4.38691265881061550000e-002) (11, 4.91895735263824460000e-001) (12, -4.29070472717285160000e-001) (13, -4.39475998282432560000e-002) (14, 2.30157002806663510000e-001) (15, 1.42731618881225590000e+000) (16, 4.49775725603103640000e-001) (17, 4.88153964281082150000e-001) (18, 1.81769952178001400000e-002) (19, -5.37225782871246340000e-001) (20, 4.95252192020416260000e-001) (21, -2.31552541255950930000e-001) (22, 1.11135029792785640000e+000) (23, 2.50348240137100220000e-001) (24, 8.99687230587005620000e-001) (25, -1.68147236108779910000e-001) (0, 7.34637141227722170000e-001) (1, -2.16618347167968750000e+000) (2, -3.45190882682800290000e+000) (3, -1.07602298259735110000e+000) (4, -1.05728757381439210000e+000) (5, -4.59799826145172120000e-001) (6, 9.56967413425445560000e-001) (7, 9.14948359131813050000e-002) (8, -8.07753086090087890000e+000) (9, -1.59896397590637210000e+000) (10, 1.98679417371749880000e-001) (11, 3.81873279809951780000e-001) (12, -6.56108930706977840000e-002) (13, 3.62583011388778690000e-001) (14, 7.76664495468139650000e-001) (15, -9.94558259844779970000e-003) (16, -3.68226826190948490000e-001) (17, 3.18088114261627200000e-001) (18, 7.58672237396240230000e-001) (19, -5.17414748668670650000e-001) (20, -9.28108930587768550000e-001) (21, 7.70151197910308840000e-001) (22, 6.10776722431182860000e-001) (23, 1.86873584985733030000e-001) (24, -4.98769909143447880000e-001) (25, 6.91277801990509030000e-001) (0, 1.41767835617065430000e+000) (1, 9.81501787900924680000e-002) (2, -5.30168302357196810000e-002) (3, 5.78493416309356690000e-001) (4, 2.65522390604019170000e-001) (5, 1.48931336402893070000e+000) (6, 9.52499806880950930000e-002) (7, 6.88229501247406010000e-001) (8, 6.65723383426666260000e-002) (9, 2.51528531312942500000e-001) (10, 3.02114725112915040000e+000) (11, 1.57838201522827150000e+000) (12, 2.49822473526000980000e+000) (13, -1.74418210983276370000e-001) (14, 4.42271679639816280000e-001) (15, -1.16477262973785400000e+000) (16, 6.55227780342102050000e-001) (17, 8.01310062408447270000e-001) (18, 4.87035140395164490000e-002) (19, -8.05655121803283690000e-002) (20, -2.99459695816040040000e-001) (21, 7.17814788222312930000e-002) (22, -4.59947705268859860000e-001) (23, 1.80425536632537840000e+000) (24, -3.82630944252014160000e-001) (25, 3.25059980154037480000e-001) (0, -1.35480058193206790000e+000) (1, 6.87788248062133790000e-001) (2, 2.12777316570281980000e-001) (3, 3.15903834998607640000e-002) (4, 2.74168252944946290000e-001) (5, 2.36524805426597600000e-001) (6, -2.82946471124887470000e-002) (7, 8.26299041509628300000e-002) (8, 2.79957920312881470000e-001) (9, 1.92519128322601320000e-001) (10, 7.92877674102783200000e-001) (11, 4.09590244293212890000e-001) (12, 7.57762968540191650000e-001) (13, 5.20550012588500980000e-001) (14, 2.16001057624816890000e+000) (15, 1.73426604270935060000e+000) (16, 2.60770112276077270000e-001) (17, 3.45485895872116090000e-001) (18, 6.80295884609222410000e-001) (19, -5.60130834579467770000e-001) (20, 8.51848661899566650000e-001) (21, 1.72000932693481450000e+000) (22, -1.29605099558830260000e-001) (23, -8.15278172492980960000e-001) (24, 5.90659260749816890000e-001) (25, 8.24303865432739260000e-001) (0, 2.75049209594726560000e-002) (1, 1.73614621162414550000e-001) (2, 8.21281806565821170000e-004) (3, 1.53813064098358150000e-001) (4, 2.15157061815261840000e-001) (5, 1.75425648689270020000e+000) (6, -1.08512066304683690000e-001) (7, 5.89814722537994380000e-001) (8, 1.76565364003181460000e-001) (9, 3.26959311962127690000e-001) (10, 9.74633514881134030000e-001) (11, 1.19152748584747310000e+000) (12, 3.26399385929107670000e-001) (13, 8.42098534107208250000e-001) (14, -4.00690913200378420000e-001) (15, 1.47343301773071290000e+000) (16, -3.57958041131496430000e-002) (17, 2.17282563447952270000e-001) (18, 3.87517422437667850000e-001) (19, -3.17080728709697720000e-002) (20, 1.30318593978881840000e+000) (21, 8.30448716878890990000e-002) (22, -5.96751645207405090000e-002) (23, 3.45409423112869260000e-001) (24, -2.14897587895393370000e-001) (25, -8.57466876506805420000e-001) (0, -1.25994142144918440000e-002) (1, 7.29790627956390380000e-001) (2, -2.97214597463607790000e-001) (3, -7.16261267662048340000e-001) (4, -1.13185420632362370000e-001) (5, -1.78392374515533450000e+000) (6, 1.43268868327140810000e-001) (7, -6.86711907386779790000e-001) (8, -1.78528577089309690000e-001) (9, 4.41112816333770750000e-001) (10, -2.11568742990493770000e-001) (11, -1.03149540722370150000e-001) (12, 9.54695641994476320000e-001) (13, -1.16494335234165190000e-001) (14, -3.62905785441398620000e-002) (15, 3.60772788524627690000e-001) (16, -6.50550946593284610000e-002) (17, -3.66050712764263150000e-002) (18, 3.83224636316299440000e-001) (19, 2.32803821563720700000e-003) (20, 8.02784800529479980000e-001) (21, -3.65585982799530030000e-002) (22, 5.99673211574554440000e-001) (23, -4.08634275197982790000e-001) (24, -3.11488151550292970000e-001) (25, 1.43939709663391110000e+000) (0, -1.43351152539253230000e-001) (1, 6.66899144649505620000e-001) (2, 8.73770594596862790000e-001) (3, 2.50766324996948240000e+000) (4, 1.82783275842666630000e-001) (5, 6.24836730957031250000e+000) (6, -1.12449705600738530000e+000) (7, 4.01757526397705080000e+000) (8, 7.76240289211273190000e-001) (9, 1.08707964420318600000e+000) (10, 4.88463014364242550000e-001) (11, -1.69473397731781010000e+000) (12, 2.66494989395141600000e+000) (13, 3.92600089311599730000e-001) (14, -1.22335994243621830000e+000) (15, 2.02813220024108890000e+000) (16, -1.47928583621978760000e+000) (17, -1.72930881381034850000e-001) (18, 1.40245926380157470000e+000) (19, 2.58051633834838870000e-001) (20, 5.06690382957458500000e-001) (21, 9.69970226287841800000e-003) (22, -4.67555850744247440000e-001) (23, -2.21168532967567440000e-001) (24, -2.93088890612125400000e-002) (25, -2.80947327613830570000e-001) (0, 1.35482907295227050000e+000) (1, -2.35707104206085210000e-001) (2, 1.98321819305419920000e-001) (3, 1.90757596492767330000e+000) (4, -6.80223166942596440000e-001) (5, 2.26658987998962400000e+000) (6, 6.39898240566253660000e-001) (7, -9.64691221714019780000e-001) (8, 4.24767851829528810000e-001) (9, 7.48895406723022460000e-001) (10, 1.12737512588500980000e+000) (11, 5.06913602352142330000e-001) (12, 1.34846806526184080000e-001) (13, 1.30764380097389220000e-001) (14, -3.06475102901458740000e-001) (15, -1.44470393657684330000e+000) (16, -3.70905287563800810000e-002) (17, 2.00680390000343320000e-001) (18, 1.25102251768112180000e-001) (19, 2.46457636356353760000e-001) (20, -2.71734476089477540000e-001) (21, -3.67244482040405270000e-001) (22, 1.52714792639017110000e-002) (23, 5.78019618988037110000e-001) (24, 3.20869743824005130000e-001) (25, -1.27205252647399900000e+000) (0, 7.14235067367553710000e-001) (1, -1.06807398796081540000e+000) (2, -3.71003359556198120000e-001) (3, -3.94498556852340700000e-001) (4, 4.23269361257553100000e-001) (5, 7.48138189315795900000e-001) (6, 7.32917010784149170000e-001) (7, -2.27512165904045100000e-001) (8, -7.73872315883636470000e-001) (9, -2.24350959062576290000e-001) (10, 8.72733294963836670000e-001) (11, -7.67181932926177980000e-001) (12, 3.68532627820968630000e-001) (13, -2.30665937066078190000e-001) (14, 5.66106081008911130000e-001) (15, 4.65093463659286500000e-001) (16, -4.70257401466369630000e-001) (17, 5.25054037570953370000e-001) (18, 6.74424707889556880000e-001) (19, 4.43621933460235600000e-001) (20, -7.02309757471084590000e-002) (21, 1.94818258285522460000e+000) (22, -7.66643762588500980000e-001) (23, 6.16023838520050050000e-001) (24, -7.35751390457153320000e-001) (25, -2.57622671127319340000e+000) (0, 2.42964673042297360000e+000) (1, -1.08867764472961430000e+000) (2, 1.54805809259414670000e-001) (3, 1.71388164162635800000e-001) (4, 3.59317898750305180000e-001) (5, 7.17108011245727540000e-001) (6, -5.87645530700683590000e-001) (7, 3.09379279613494870000e-001) (8, 2.05941706895828250000e-001) (9, -1.91997155547142030000e-001) (10, -2.82938271760940550000e-001) (11, -7.78954029083251950000e-001) (12, 1.35598909854888920000e+000) (13, 1.59775912761688230000e+000) (14, 1.00177139043807980000e-001) (15, 6.07727885246276860000e-001) (16, 3.10044944286346440000e-001) (17, -7.13449776172637940000e-001) (18, 2.75109887123107910000e-001) (19, 4.67144191265106200000e-001) (20, -6.69073283672332760000e-001) (21, 4.10317003726959230000e-001) (22, 5.58630526065826420000e-002) (23, -3.32368344068527220000e-001) (24, -1.43371671438217160000e-001) (25, -1.01872161030769350000e-001) (0, -2.11579469032585620000e-003) (1, 6.36623203754425050000e-001) (2, 1.16736245155334470000e+000) (3, 9.97544765472412110000e-001) (4, 6.73164010047912600000e-001) (5, 5.75035154819488530000e-001) (6, -2.27847203612327580000e-001) (7, -1.93820238113403320000e-001) (8, -1.83706223964691160000e-001) (9, 5.87663888931274410000e-001) (10, -2.56825804710388180000e-001) (11, 2.15805917978286740000e-001) (12, -2.55166441202163700000e-001) (13, -9.77913364768028260000e-002) (14, -9.43378388881683350000e-001) (15, 1.03640139102935790000e+000) (16, -1.75835654139518740000e-001) (17, -2.63948380947113040000e-001) (18, -8.35014581680297850000e-002) (19, 7.81585872173309330000e-002) (20, 4.45761740207672120000e-001) (21, 3.24454188346862790000e-001) (22, 2.58939594030380250000e-001) (23, 3.89291584491729740000e-001) (24, 6.71342194080352780000e-001) (25, -2.12582015991210940000e+000) (0, 3.04631996154785160000e+000) (1, 3.92179816961288450000e-001) (2, 2.07683607935905460000e-001) (3, 5.60420274734497070000e-001) (4, -3.00904107280075550000e-003) (5, 3.37781810760498050000e+000) (6, 4.06652748584747310000e-001) (7, 7.52144455909729000000e-001) (8, 9.29464474320411680000e-002) (9, 1.33936691284179690000e+000) (10, 5.97660183906555180000e-001) (11, 8.68778109550476070000e-001) (12, 1.01411688327789310000e+000) (13, -7.63417780399322510000e-002) (14, 3.03622215986251830000e-001) (15, -4.19465035200119020000e-001) (16, 5.02867698669433590000e-001) (17, 2.65415966510772710000e-001) (18, 7.19561517238616940000e-001) (19, -1.52097895741462710000e-001) (20, -2.00342750549316410000e+000) (21, -8.73622223734855650000e-002) (22, -4.38125729560852050000e-001) (23, 4.83599185943603520000e-001) (24, 8.84554326534271240000e-001) (25, 1.27751576900482180000e+000) (0, 6.13364994525909420000e-001) (1, -1.38210368156433110000e+000) (2, -5.34803438186645510000e+000) (3, -3.89903259277343750000e+000) (4, -7.68721029162406920000e-002) (5, -4.82227623462677000000e-001) (6, 1.16004621982574460000e+000) (7, -5.72863638401031490000e-001) (8, 8.39828848838806150000e-001) (9, 3.16622443497180940000e-002) (10, 3.24580460786819460000e-001) (11, 1.39360293745994570000e-001) (12, 2.48567283153533940000e-001) (13, -2.45889753103256230000e-001) (14, 2.33933508396148680000e-001) (15, -7.48348951339721680000e-001) (16, -1.87612399458885190000e-001) (17, 2.83115416765213010000e-001) (18, 1.29531788825988770000e+000) (19, -8.94897341728210450000e-001) (20, -2.80336588621139530000e-001) (21, -9.68277037143707280000e-001) (22, -2.64164030551910400000e-001) (23, 4.48313444852828980000e-001) (24, 3.90561670064926150000e-002) (25, 2.53008341789245610000e+000) (0, -2.50470787286758420000e-001) (1, 2.60606277734041210000e-002) (2, -6.16581022739410400000e-001) (3, -6.08995594084262850000e-002) (4, -4.04294997453689580000e-001) (5, -8.04119229316711430000e-001) (6, 2.41158574819564820000e-001) (7, -5.84900915622711180000e-001) (8, 2.27938652038574220000e-001) (9, 2.64138996601104740000e-001) (10, -3.32217603921890260000e-001) (11, 5.17425417900085450000e-001) (12, 3.27625036239624020000e-001) (13, -1.87628909945487980000e-001) (14, 7.47682273387908940000e-001) (15, -3.34150671958923340000e+000) (16, 2.05581426620483400000e-001) (17, 6.62047564983367920000e-001) (18, 6.61875426769256590000e-001) (19, 5.12504577636718750000e-001) (20, 3.83697807788848880000e-001) (21, -6.82692527770996090000e-001) (22, -4.94666606187820430000e-001) (23, -5.26680648326873780000e-002) (24, 8.65532040596008300000e-001) (25, 4.43734109401702880000e-001) (0, 3.18582564592361450000e-001) (1, 1.60350844264030460000e-001) (2, -3.46088349819183350000e-001) (3, -3.17252904176712040000e-001) (4, -2.95799970626831050000e-001) (5, 8.17667245864868160000e-002) (6, 9.41262766718864440000e-003) (7, -9.06804263591766360000e-001) (8, -1.17624722421169280000e-001) (9, 5.16357831656932830000e-002) (10, 3.39255094528198240000e-001) (11, 1.44059866666793820000e-001) (12, -5.20305037498474120000e-001) (13, 1.20172731578350070000e-001) (14, 1.94182455539703370000e-001) (15, -2.33814239501953130000e-001) (16, 4.67488437891006470000e-001) (17, 6.29131793975830080000e-001) (18, 1.90770849585533140000e-001) (19, 3.99993598461151120000e-001) (20, 1.13625252246856690000e+000) (21, -1.33810746669769290000e+000) (22, 8.25881838798522950000e-001) (23, 5.06352424621582030000e-001) (24, -1.12065657973289490000e-001) (25, 1.27663958072662350000e+000) (0, 1.88432371616363530000e+000) (1, -2.06793642044067380000e+000) (2, -3.36838078498840330000e+000) (3, -3.80024552345275880000e-001) (4, -1.30960345268249510000e-001) (5, 2.72374927997589110000e-001) (6, 2.82935708761215210000e-001) (7, -2.95882254838943480000e-001) (8, -8.83095741271972660000e-001) (9, -5.44364750385284420000e-001) (10, -5.61537802219390870000e-001) (11, 2.23071560263633730000e-001) (12, -1.77569746971130370000e-001) (13, -2.53857523202896120000e-001) (14, -8.00354957580566410000e-001) (15, 1.29461690783500670000e-001) (16, -3.37052255868911740000e-001) (17, 2.21930518746376040000e-001) (18, 3.08367490768432620000e-001) (19, 5.50263859331607820000e-002) (20, 8.69201719760894780000e-001) (21, -2.21696272492408750000e-002) (22, 4.37723636627197270000e-001) (23, 5.32865464687347410000e-001) (24, -2.90314316749572750000e-001) (25, -7.01323032379150390000e-001) (0, -3.20845186710357670000e-001) (1, 1.03407658636569980000e-001) (2, 1.21387481689453130000e-001) (3, 2.75232106447219850000e-001) (4, 6.42669856548309330000e-001) (5, 2.43215590715408330000e-001) (6, 2.56225705146789550000e-001) (7, 1.52849748730659480000e-001) (8, 3.51775288581848140000e-001) (9, 1.51350319385528560000e-001) (10, 1.59657806158065800000e-001) (11, 8.17890614271163940000e-002) (12, 4.70343440771102910000e-001) (13, 7.63289690017700200000e-001) (14, 3.61284703016281130000e-001) (15, 1.61719664931297300000e-001) (16, 1.06491589546203610000e+000) (17, 2.06539228558540340000e-001) (18, -3.66444528102874760000e-001) (19, 6.57136619091033940000e-001) (20, 7.55430161952972410000e-001) (21, -2.82899379730224610000e-001) (22, 4.03287053108215330000e-001) (23, -1.14441439509391780000e-001) (24, 2.91116416454315190000e-001) (25, 6.85172438621521000000e-001) (0, 8.84176731109619140000e-001) (1, -2.43254899978637700000e+000) (2, -4.50175571441650390000e+000) (3, -5.96639156341552730000e-001) (4, -7.69613564014434810000e-001) (5, 2.28702440857887270000e-001) (6, 3.85709851980209350000e-001) (7, -2.76623904705047610000e-001) (8, -1.14147937297821040000e+000) (9, -7.39967525005340580000e-001) (10, 3.16778391599655150000e-001) (11, 1.91397356986999510000e+000) (12, -2.40506917238235470000e-001) (13, -3.09381425380706790000e-001) (14, 3.78729015588760380000e-001) (15, -3.97338569164276120000e-001) (16, -2.61647760868072510000e-001) (17, 3.35723698139190670000e-001) (18, 1.06085622310638430000e+000) (19, -1.17308890819549560000e+000) (20, -4.51009899377822880000e-001) (21, 5.27339398860931400000e-001) (22, 2.26318880915641780000e-001) (23, 4.21076983213424680000e-001) (24, -2.26212758570909500000e-002) (25, -4.11770761013031010000e-001) (26, 5.57164132595062260000e-001) (27, 7.55019128322601320000e-001) (28, 5.04210650920867920000e-001) (29, -1.60251545906066890000e+000) (30, -6.51110410690307620000e-001) (31, 2.17259049415588380000e-001) (32, 7.56451510824263100000e-004) (33, 2.54080686718225480000e-002) (34, -2.28462144732475280000e-001) (35, 3.42597752809524540000e-001) (36, 5.78148961067199710000e-001) (37, 7.53613933920860290000e-002) (38, -6.53454720973968510000e-001) (39, 1.13773846626281740000e+000) (40, 3.14231783151626590000e-001) (41, -2.47168898582458500000e+000) (42, -1.89711406826972960000e-001) (43, 2.89912968873977660000e-002) (44, -9.70346033573150630000e-001) (45, 4.81164231896400450000e-002) (46, -7.27251470088958740000e-001) (47, -9.83945667743682860000e-001) (26, 2.53255724906921390000e-001) (27, 5.42129397392272950000e-001) (28, 6.95570886135101320000e-001) (29, -3.00560593605041500000e-001) (30, 2.85164356231689450000e-001) (31, 1.72767087817192080000e-001) (32, -6.02364897727966310000e-001) (33, 3.72993230819702150000e-001) (34, 2.46054917573928830000e-001) (35, 7.89753973484039310000e-001) (36, -8.83037298917770390000e-002) (37, 5.16445875167846680000e-001) (38, -8.12767803668975830000e-001) (39, 1.02142214775085450000e-001) (40, 8.13053071498870850000e-001) (41, 1.19568472728133200000e-002) (42, 2.30849340558052060000e-001) (43, -4.60088960826396940000e-002) (44, 4.10112947225570680000e-001) (45, -9.45795401930809020000e-002) (46, 2.69268542528152470000e-001) (47, -2.71266251802444460000e-001) (26, -1.27512261271476750000e-001) (27, 1.31686758995056150000e+000) (28, 4.32748943567276000000e-001) (29, 8.64258110523223880000e-001) (30, 4.81533825397491460000e-001) (31, 7.69144892692565920000e-002) (32, -8.41204762458801270000e-001) (33, -1.33569896221160890000e+000) (34, 2.31108093261718750000e+000) (35, 3.81778478622436520000e-001) (36, 2.50365752726793290000e-002) (37, 3.66612911224365230000e-001) (38, -2.87087273597717290000e+000) (39, -5.46877205371856690000e-001) (40, 7.08325743675231930000e-001) (41, 2.49497398734092710000e-001) (42, 7.79427111148834230000e-001) (43, 3.53035449981689450000e-001) (44, 5.60469865798950200000e-001) (45, -1.55659914016723630000e-001) (46, 5.64578652381896970000e-001) (47, 3.70584249496459960000e-001) (26, -2.51464217901229860000e-001) (27, 5.27230560779571530000e-001) (28, 3.50979208946228030000e-001) (29, -2.13953122496604920000e-001) (30, 9.16526138782501220000e-001) (31, 1.33837372064590450000e-001) (32, -4.55298125743865970000e-001) (33, 1.60193920135498050000e-001) (34, -5.03038950264453890000e-002) (35, 9.73717421293258670000e-002) (36, 5.66448390483856200000e-001) (37, 3.69905233383178710000e-001) (38, -6.69106364250183110000e-001) (39, 1.00490343570709230000e+000) (40, 8.84968400001525880000e-001) (41, 5.89533805847167970000e-001) (42, 3.52993994951248170000e-001) (43, 1.48007711395621300000e-002) (44, 5.84755718708038330000e-001) (45, 1.50994718074798580000e-001) (46, 2.96463012695312500000e-001) (47, 1.21998238563537600000e+000) (26, -2.49997183680534360000e-001) (27, -5.86790621280670170000e-001) (28, 5.84182441234588620000e-001) (29, 3.69807392358779910000e-001) (30, 3.68968844413757320000e-001) (31, -1.66180506348609920000e-001) (32, 2.08150207996368410000e-001) (33, 8.66405442357063290000e-002) (34, -1.88604187965393070000e+000) (35, -5.79349100589752200000e-001) (36, 4.13788139820098880000e-001) (37, 7.87805676460266110000e-001) (38, 6.04690790176391600000e-001) (39, 1.90653145313262940000e-001) (40, -2.66604006290435790000e-001) (41, 4.75784480571746830000e-001) (42, 3.71432602405548100000e-001) (43, -2.36920192837715150000e-001) (44, 9.28767383098602290000e-001) (45, 5.38060784339904790000e-001) (46, 6.07269965112209320000e-002) (47, 3.51760312914848330000e-002) (26, -8.57377704232931140000e-003) (27, -1.47873744368553160000e-001) (28, 4.99498873949050900000e-001) (29, 3.27733874320983890000e-001) (30, 2.81224548816680910000e-001) (31, 2.18911200761795040000e-001) (32, 4.14385706186294560000e-001) (33, 4.86463457345962520000e-002) (34, 4.75011765956878660000e-001) (35, 2.15472236275672910000e-001) (36, 6.31247997283935550000e-001) (37, 2.50002056360244750000e-001) (38, 7.98822008073329930000e-003) (39, -1.69923448562622070000e+000) (40, 2.69910633563995360000e-001) (41, 1.49267828464508060000e+000) (42, 4.38591569662094120000e-001) (43, 1.03304922580718990000e-001) (44, 2.79211372137069700000e-001) (45, 2.06877246499061580000e-001) (46, 3.59700202941894530000e-001) (47, 1.73286288976669310000e-001) (26, -2.65074044466018680000e-001) (27, -6.39214217662811280000e-002) (28, 2.58129268884658810000e-001) (29, 7.28541910648345950000e-001) (30, 2.93071776628494260000e-001) (31, -7.51056015491485600000e-001) (32, 3.63522917032241820000e-001) (33, -2.10217013955116270000e-001) (34, 1.44198894500732420000e+000) (35, 7.21310004591941830000e-002) (36, -9.56211030483245850000e-001) (37, 2.18878924846649170000e-001) (38, -7.79041647911071780000e-001) (39, -9.41450521349906920000e-002) (40, 3.80145847797393800000e-001) (41, 7.41173699498176570000e-002) (42, 8.34980249404907230000e-001) (43, 3.42350691556930540000e-001) (44, -8.34229066967964170000e-002) (45, -7.76870608329772950000e-001) (46, -9.31785702705383300000e-002) (47, 2.65187680721282960000e-001) (26, -2.78420627117156980000e-001) (27, -2.60518938302993770000e-001) (28, 1.71753358840942380000e+000) (29, -5.28129696846008300000e-001) (30, 1.56172126531600950000e-001) (31, 4.07857835292816160000e-001) (32, 4.34588581323623660000e-001) (33, 2.19461694359779360000e-002) (34, -1.36202573776245120000e+000) (35, -4.22191977500915530000e-001) (36, 1.91267788410186770000e-001) (37, 9.19953584671020510000e-001) (38, 2.28520303964614870000e-001) (39, -7.00842142105102540000e-001) (40, 5.85566610097885130000e-002) (41, 1.00569868087768550000e+000) (42, 3.51581275463104250000e-001) (43, 1.00783698260784150000e-001) (44, 1.94406926631927490000e+000) (45, 5.86666055023670200000e-002) (46, 4.44735705852508540000e-001) (47, -9.87981781363487240000e-002) (26, 6.79260015487670900000e-001) (27, 6.29443347454071040000e-001) (28, 3.89000684022903440000e-001) (29, -3.63705724477767940000e-001) (30, -2.89604067802429200000e-001) (31, 3.92982810735702510000e-001) (32, 1.66257172822952270000e-001) (33, 7.29475840926170350000e-002) (34, -2.16576725244522090000e-001) (35, 3.09942364692687990000e-001) (36, -6.91954419016838070000e-002) (37, -7.90171563625335690000e-001) (38, 4.14172559976577760000e-001) (39, 6.23939037322998050000e-001) (40, 2.97263301908969880000e-002) (41, -1.85315713286399840000e-001) (42, 1.17902614176273350000e-001) (43, 7.91784524917602540000e-002) (44, 4.23488438129425050000e-001) (45, -2.61177886277437210000e-002) (46, -7.63566255569458010000e-001) (47, 1.05281972885131840000e+000) (26, -1.76254156976938250000e-002) (27, 2.93811708688735960000e-001) (28, 3.63858997821807860000e-001) (29, 3.69046360254287720000e-001) (30, 8.27189385890960690000e-001) (31, 3.11183243989944460000e-001) (32, 1.18528291583061220000e-001) (33, 1.23626761138439180000e-001) (34, 1.84303700923919680000e+000) (35, -2.47151598334312440000e-001) (36, -9.49003919959068300000e-002) (37, 1.08600296080112460000e-001) (38, -1.75640308856964110000e+000) (39, -1.35647392272949220000e+000) (40, 3.31314444541931150000e-001) (41, 9.55391466617584230000e-001) (42, 1.11125004291534420000e+000) (43, 4.78453725576400760000e-001) (44, 1.37184903025627140000e-001) (45, -9.49318055063486100000e-003) (46, 8.87577608227729800000e-002) (47, 1.00768768787384030000e+000) (26, 9.78771746158599850000e-001) (27, 3.23176950216293330000e-001) (28, 1.18852779269218440000e-001) (29, 1.99421882629394530000e+000) (30, -2.91048079729080200000e-001) (31, -1.06309807300567630000e+000) (32, 5.73538169264793400000e-002) (33, -6.67150080204010010000e-001) (34, 9.20961737632751460000e-001) (35, 2.28687971830368040000e-001) (36, -9.14732038974761960000e-001) (37, 5.70814497768878940000e-002) (38, 3.33942100405693050000e-002) (39, 4.87651944160461430000e-001) (40, -9.71760377287864690000e-002) (41, -3.38512867689132690000e-001) (42, 1.31668782234191890000e+000) (43, -4.17808294296264650000e-001) (44, -6.07775330543518070000e-001) (45, -1.64366781711578370000e-001) (46, -1.29832792282104490000e+000) (47, -2.35244131088256840000e+000) (26, 4.49470967054367070000e-001) (27, -1.93156003952026370000e-001) (28, 7.28984057903289790000e-001) (29, 6.47866845130920410000e-001) (30, -1.83194559067487720000e-002) (31, 1.57203406095504760000e-001) (32, 5.90589582920074460000e-001) (33, 2.35302257537841800000e+000) (34, -1.01701065897941590000e-001) (35, -3.64103287458419800000e-001) (36, 1.44205123186111450000e-001) (37, 6.26550242304801940000e-002) (38, 4.40728813409805300000e-001) (39, 3.73538792133331300000e-001) (40, -5.83556830883026120000e-001) (41, 6.50754094123840330000e-001) (42, 6.75285756587982180000e-001) (43, 3.12548458576202390000e-001) (44, -5.27947008609771730000e-001) (45, 2.99876093864440920000e-001) (46, -1.81702399253845210000e+000) (47, -5.44770419597625730000e-001) (26, 1.78758259862661360000e-002) (27, 1.87694311141967770000e-001) (28, -6.33700788021087650000e-001) (29, 1.96373119950294490000e-001) (30, -2.86053512245416640000e-002) (31, -9.02057737112045290000e-002) (32, -1.09892189502716060000e+000) (33, 1.14761084318161010000e-001) (34, -1.45759254693984990000e-001) (35, 6.18027985095977780000e-001) (36, 9.46493685245513920000e-001) (37, 7.86261707544326780000e-002) (38, -7.53915429115295410000e-001) (39, 2.39904060959815980000e-001) (40, 1.00274775177240370000e-002) (41, -1.78254222869873050000e+000) (42, -4.86216008663177490000e-001) (43, 1.38947054743766780000e-001) (44, -3.96164834499359130000e-001) (45, -3.32813672721385960000e-002) (46, -1.64545569568872450000e-002) (47, -3.39435450732707980000e-002) (26, -1.31652988493442540000e-002) (27, 7.70887196063995360000e-001) (28, 5.73624223470687870000e-002) (29, -2.74803608655929570000e-001) (30, 1.37710642814636230000e+000) (31, 1.83688116073608400000e+000) (32, -2.74470359086990360000e-001) (33, -2.02639922499656680000e-001) (34, -9.63080227375030520000e-002) (35, 1.85997039079666140000e-001) (36, 7.80623078346252440000e-001) (37, -7.01868653297424320000e-001) (38, -3.08707594871521000000e-001) (39, 2.16898530721664430000e-001) (40, 1.17921710014343260000e+000) (41, 4.20655846595764160000e-001) (42, 7.38003432750701900000e-001) (43, 7.88840770721435550000e-001) (44, 4.89494711160659790000e-001) (45, 1.47080302238464360000e+000) (46, 1.97402334213256840000e+000) (47, 1.11930835247039790000e+000) (26, 1.56543269753456120000e-001) (27, -3.04717659950256350000e-001) (28, -2.25351247936487200000e-002) (29, 1.64243772625923160000e-001) (30, 2.39035949110984800000e-001) (31, 5.05473539233207700000e-002) (32, 4.62197624146938320000e-002) (33, 1.93220555782318120000e-001) (34, 4.53526489436626430000e-002) (35, -8.48100781440734860000e-001) (36, 5.91081799939274790000e-003) (37, 7.51232385635375980000e-001) (38, 3.90837609767913820000e-001) (39, 6.09111845493316650000e-001) (40, -1.11749224364757540000e-001) (41, 3.45342546701431270000e-001) (42, 6.93010613322258000000e-002) (43, -6.34303390979766850000e-001) (44, 8.44424605369567870000e-001) (45, 7.33215689659118650000e-001) (46, 9.48908999562263490000e-002) (47, -2.13481664657592770000e-001) (26, 5.44683039188385010000e-001) (27, -1.35475605726242070000e-001) (28, -2.16684460639953610000e-001) (29, 4.16576445102691650000e-001) (30, -4.32039290666580200000e-001) (31, 1.33532688021659850000e-001) (32, -3.12951266765594480000e-001) (33, 2.18651905655860900000e-001) (34, 3.99162508547306060000e-002) (35, -5.01767992973327640000e-001) (36, -1.21406041085720060000e-001) (37, 2.20961764454841610000e-001) (38, 2.80350714921951290000e-001) (39, 6.65205299854278560000e-001) (40, -1.04453690350055690000e-001) (41, 4.44608688354492190000e-001) (42, -3.18030685186386110000e-001) (43, -3.87330800294876100000e-001) (44, 1.53120175004005430000e-001) (45, -7.21294760704040530000e-001) (46, -9.65210974216461180000e-001) (47, 1.35310208797454830000e+000) (26, -6.10257506370544430000e-001) (27, 3.82322013378143310000e-001) (28, -1.79032817482948300000e-001) (29, -3.60631972551345830000e-001) (30, 3.89691114425659180000e-001) (31, 5.54934918880462650000e-001) (32, 5.38581132888793950000e-001) (33, -1.06867873668670650000e+000) (34, 6.62510320544242860000e-002) (35, 4.04034674167633060000e-001) (36, 2.27719753980636600000e-001) (37, -1.31579101085662840000e-001) (38, 4.93185073137283330000e-001) (39, 6.04911506175994870000e-001) (40, 1.18046544492244720000e-001) (41, -2.49881565570831300000e-001) (42, -1.11349031329154970000e-001) (43, 8.31335604190826420000e-001) (44, -1.17463856935501100000e-001) (45, 5.36558210849761960000e-001) (46, 6.85494780540466310000e-001) (47, -4.29797559976577760000e-001) (26, -2.31114640831947330000e-001) (27, 3.07961672544479370000e-001) (28, 7.00369060039520260000e-001) (29, 1.34244754910469060000e-001) (30, 8.40368449687957760000e-001) (31, 5.43589293956756590000e-001) (32, 3.19839119911193850000e-002) (33, -4.76491630077362060000e-001) (34, 4.77116525173187260000e-001) (35, 3.23919087648391720000e-001) (36, 3.58077704906463620000e-001) (37, 7.00814902782440190000e-001) (38, -1.85471400618553160000e-001) (39, 4.60920810699462890000e-001) (40, 4.09303247928619380000e-001) (41, -6.34900629520416260000e-002) (42, 4.81980055570602420000e-001) (43, 7.55073204636573790000e-002) (44, 1.50512635707855220000e+000) (45, -8.58265385031700130000e-002) (46, 1.41854786872863770000e+000) (47, 4.74667340517044070000e-001) (26, -9.69522744417190550000e-002) (27, 4.86425101757049560000e-001) (28, 1.41392931342124940000e-001) (29, -2.19122576713562010000e+000) (30, 3.90029639005661010000e-001) (31, 1.52000144124031070000e-001) (32, -5.43649077415466310000e-001) (33, 2.72813051939010620000e-001) (34, -1.04122006893157960000e+000) (35, 8.03730487823486330000e-001) (36, 8.23037922382354740000e-001) (37, 4.30843085050582890000e-002) (38, 2.04250738024711610000e-001) (39, 4.45880603790283200000e+000) (40, -7.44896382093429570000e-002) (41, -3.89475226402282710000e-001) (42, -5.98749577999114990000e-001) (43, 1.69312641024589540000e-001) (44, 7.86546543240547180000e-002) (45, 8.25370997190475460000e-002) (46, 6.18678987026214600000e-001) (47, -1.51476669311523440000e+000) (26, -1.08330547809600830000e-001) (27, -1.53602614998817440000e-001) (28, -5.57475052773952480000e-002) (29, 5.71141302585601810000e-001) (30, 4.54828113317489620000e-001) (31, 1.00476324558258060000e-001) (32, -7.51974940299987790000e-001) (33, -2.38337904214859010000e-001) (34, 5.52445530891418460000e-001) (35, 6.00773215293884280000e-001) (36, -8.11650976538658140000e-002) (37, 7.20166385173797610000e-001) (38, 7.16872036457061770000e-001) (39, -9.10515785217285160000e-002) (40, 5.60735687613487240000e-002) (41, -1.85950204730033870000e-001) (42, -1.98110848665237430000e-001) (43, 2.66369909048080440000e-001) (44, 3.59244383871555330000e-002) (45, -7.60302305221557620000e-001) (46, -2.59437501430511470000e-001) (47, 7.87546038627624510000e-001) (26, 6.11069202423095700000e-001) (27, 6.87015116214752200000e-001) (28, 8.55543762445449830000e-002) (29, -2.52721477299928670000e-002) (30, 3.79334986209869380000e-001) (31, 1.46614685654640200000e-001) (32, -4.26308244466781620000e-001) (33, -2.42919847369194030000e-001) (34, -4.13715839385986330000e-001) (35, 8.48255276679992680000e-001) (36, 4.52753752470016480000e-001) (37, -1.65361225605010990000e-001) (38, -3.31370145082473750000e-001) (39, 1.22407233715057370000e+000) (40, 7.11064457893371580000e-001) (41, -1.61803930997848510000e-001) (42, 2.53545790910720830000e-001) (43, 3.48584502935409550000e-001) (44, 3.74349504709243770000e-001) (45, -8.45142751932144170000e-002) (46, 4.52879210934042930000e-003) (47, 2.10119557380676270000e+000) (48, 3.32314103841781620000e-001) (49, -2.42382571101188660000e-001) (50, -3.10628414154052730000e-001) (51, 2.24329605698585510000e-001) (52, 1.53902024030685420000e-001) (53, 1.26380339264869690000e-001) (54, 1.64673611521720890000e-001) (55, 1.76291763782501220000e-001) (56, 2.06936478614807130000e-001) (57, 2.67703413963317870000e-001) (58, 2.46717650443315510000e-002) (59, 6.59613072872161870000e-001) (60, -3.18347156047821040000e-001) (61, 2.63644039630889890000e-001) (62, 1.72583654522895810000e-001) (63, 5.38784027099609380000e-001) (64, -1.09034729003906250000e+000) (65, 9.56943258643150330000e-002) (66, 1.99454843997955320000e-001) (67, 2.24107643589377400000e-003) (68, -1.35817885398864750000e-001) (69, -3.39385122060775760000e-001) (48, 1.02736808359622960000e-001) (49, -5.83686292171478270000e-001) (50, -1.91045060753822330000e-001) (51, -1.29059985280036930000e-001) (52, 3.27670097351074220000e-001) (53, 3.34241062402725220000e-001) (54, 6.32606983184814450000e-001) (55, 1.05863404273986820000e+000) (56, -5.37230610847473140000e-001) (57, 8.02058219909667970000e-001) (58, -5.57465851306915280000e-001) (59, 4.27655726671218870000e-001) (60, -1.75874251872301100000e-002) (61, -7.25442647933959960000e-001) (62, 7.49731957912445070000e-001) (63, -8.24422597885131840000e-001) (64, 8.65363121032714840000e-001) (65, 1.08109450340271000000e+000) (66, -4.64761048555374150000e-001) (67, -1.62185579538345340000e-001) (68, -1.01160950958728790000e-001) (69, -2.02181130647659300000e-001) (48, 1.27822935581207280000e+000) (49, 6.77282750606536870000e-001) (50, 1.03319501876831050000e+000) (51, -1.38354122638702390000e-001) (52, 6.82203024625778200000e-002) (53, 2.89275258779525760000e-001) (54, -2.69484162330627440000e+000) (55, -5.51107048988342290000e-001) (56, 1.01935416460037230000e-001) (57, 2.32570394873619080000e-001) (58, 8.41916501522064210000e-001) (59, 1.68778121471405030000e-001) (60, 7.23944425582885740000e-001) (61, 6.64884224534034730000e-002) (62, 1.20362408459186550000e-001) (63, 1.26557016372680660000e+000) (64, 1.11077025532722470000e-001) (65, 3.47807183861732480000e-002) (66, 3.49800616502761840000e-001) (67, 2.18486234545707700000e-001) (68, 5.14437437057495120000e-001) (69, -2.64852166175842290000e-001) (48, 9.78159755468368530000e-002) (49, -9.49414893984794620000e-002) (50, 5.89782148599624630000e-002) (51, 1.14613026380538940000e-001) (52, 1.28794983029365540000e-001) (53, 2.12745323777198790000e-001) (54, 1.19188618659973140000e+000) (55, 1.87116280198097230000e-001) (56, -2.14990630745887760000e-001) (57, 1.75088778138160710000e-001) (58, 1.64437592029571530000e-001) (59, 1.92194089293479920000e-001) (60, -1.86311915516853330000e-001) (61, 3.11174571514129640000e-001) (62, 1.61425605416297910000e-001) (63, 2.63093352317810060000e-001) (64, 1.52369141578674320000e-001) (65, 1.95173218846321110000e-001) (66, 4.73853349685668950000e-001) (67, 1.48618832230567930000e-001) (68, 1.08594875782728200000e-002) (69, -1.05856634676456450000e-001) (48, 1.37813314795494080000e-001) (49, 4.15371954441070560000e-001) (50, 3.96816492080688480000e-001) (51, 6.27349168062210080000e-002) (52, 7.83479571342468260000e-001) (53, 6.07479691505432130000e-001) (54, -7.22084105014801030000e-001) (55, 7.83576309680938720000e-001) (56, -9.32272002100944520000e-002) (57, 7.61333465576171880000e-001) (58, 1.66000127792358400000e-001) (59, -1.04816496372222900000e-001) (60, -1.82943880558013920000e-001) (61, 3.61924529075622560000e-001) (62, 5.65828800201416020000e-001) (63, 4.20042634010314940000e-001) (64, 7.17021286487579350000e-001) (65, 9.34695959091186520000e-001) (66, -6.05142563581466670000e-002) (67, 7.23207276314496990000e-003) (68, 3.67127754725515840000e-003) (69, -1.07473805546760560000e-001) (48, 1.91828957758843900000e-003) (49, 3.66652935743331910000e-001) (50, 7.98455402255058290000e-002) (51, 1.66564062237739560000e-001) (52, 6.33502602577209470000e-001) (53, 5.35377979278564450000e-001) (54, 2.36072316765785220000e-001) (55, 2.99332588911056520000e-001) (56, -1.26174584031105040000e-001) (57, 5.97308397293090820000e-001) (58, 2.12606862187385560000e-001) (59, 2.63096332550048830000e-001) (60, -1.93669751286506650000e-001) (61, 4.91984605789184570000e-001) (62, 6.64699673652648930000e-001) (63, 4.75061625242233280000e-001) (64, 9.44219708442687990000e-001) (65, 9.92165803909301760000e-001) (66, 1.34782433509826660000e-001) (67, 3.95996809005737300000e-001) (68, -1.90983384847640990000e-001) (69, -1.40873998403549190000e-001) (48, 7.10692644119262700000e-001) (49, 3.87318193912506100000e-001) (50, 7.84451723098754880000e-001) (51, 6.32330715656280520000e-001) (52, 2.99437344074249270000e-001) (53, 2.59712964296340940000e-001) (54, -4.79845374822616580000e-001) (55, 2.68548220396041870000e-001) (56, 5.61395406723022460000e-001) (57, 1.71617224812507630000e-001) (58, -1.03665626049041750000e+000) (59, -1.21320199966430660000e+000) (60, 2.91411578655242920000e-001) (61, 1.43340384960174560000e+000) (62, 8.76776725053787230000e-002) (63, 6.58529281616210940000e-001) (64, 2.60924196243286130000e+000) (65, 4.03662830591201780000e-001) (66, 1.39000928401947020000e+000) (67, 4.80844676494598390000e-001) (68, 5.07724344730377200000e-001) (69, 8.69406044483184810000e-001) (48, -4.37953442335128780000e-001) (49, -1.58248096704483030000e-001) (50, -3.70539814233779910000e-001) (51, 5.15300072729587550000e-002) (52, 1.42658606171607970000e-001) (53, 2.39626288414001460000e-001) (54, 2.02233761548995970000e-001) (55, 8.62663745880126950000e-001) (56, -1.04982845485210420000e-001) (57, 2.83160001039505000000e-001) (58, -6.38940691947937010000e-001) (59, -6.96612894535064700000e-002) (60, -4.28849458694458010000e-001) (61, 3.54231089353561400000e-001) (62, 2.57097673416137700000e+000) (63, -1.72501057386398320000e-001) (64, 7.93963491916656490000e-001) (65, 1.21383345127105710000e+000) (66, 2.62112945318222050000e-001) (67, 6.93398296833038330000e-001) (68, -7.54514485597610470000e-002) (69, 5.07100939750671390000e-001) (48, -2.37798042297363280000e+001) (49, -3.77868145704269410000e-001) (50, -3.59705775976181030000e-001) (51, 3.31349045038223270000e-001) (52, 8.67506563663482670000e-001) (53, 5.14911766052246090000e+001) (54, 8.74032676219940190000e-002) (55, 8.93698930740356450000e-001) (56, -2.43979871273040770000e-001) (57, 4.62347650527954100000e+000) (58, -5.34677028656005860000e-001) (59, -1.55607715249061580000e-001) (60, -3.19063472747802730000e+000) (61, -1.02079808712005620000e-001) (62, 1.24985015392303470000e+000) (63, -2.20464989542961120000e-001) (64, 2.14491367340087890000e-001) (65, 8.55476975440979000000e-001) (66, -7.32104480266571040000e-001) (67, 6.87173008918762210000e-002) (68, -7.10174739360809330000e-002) (69, 5.01976668834686280000e-001) (48, 4.23299551010131840000e-001) (49, 5.65902292728424070000e-001) (50, 2.41787031292915340000e-001) (51, 3.64464879035949710000e-001) (52, 8.03736686706542970000e-001) (53, 2.24304258823394780000e-001) (54, 2.13938012719154360000e-001) (55, 2.66089051961898800000e-001) (56, 9.10438522696495060000e-002) (57, 3.27471405267715450000e-001) (58, 1.42719075083732600000e-001) (59, 4.05399918556213380000e-001) (60, -9.21372994780540470000e-002) (61, 2.29896098375320430000e-001) (62, -1.52086496353149410000e-001) (63, 2.54242956638336180000e-001) (64, 3.09108436107635500000e-001) (65, 2.07795590162277220000e-001) (66, -7.92412161827087400000e-002) (67, 3.36441844701766970000e-001) (68, 7.78718069195747380000e-002) (69, -3.59805315732955930000e-001) (48, 3.65858614444732670000e-001) (49, 3.61641347408294680000e-002) (50, 1.96190774440765380000e-001) (51, 1.07317104935646060000e-001) (52, 2.15210318565368650000e-001) (53, 1.97268009185791020000e-001) (54, 4.03262019157409670000e-001) (55, 9.04134511947631840000e-002) (56, 4.32251065969467160000e-001) (57, 2.21157714724540710000e-001) (58, 1.33717924356460570000e-001) (59, 3.72498668730258940000e-002) (60, 5.25070250034332280000e-001) (61, -5.53315460681915280000e-001) (62, 1.25158309936523440000e-001) (63, 1.06675244867801670000e-001) (64, 4.97819222509860990000e-002) (65, -3.13055336475372310000e-001) (66, 9.48345512151718140000e-002) (67, 8.72655063867568970000e-002) (68, 4.28101658821105960000e-001) (69, 1.36550569534301760000e+000) (48, 1.99573636054992680000e-001) (49, 1.05005875229835510000e-001) (50, 2.79102295637130740000e-001) (51, 1.37567669153213500000e-001) (52, -2.58518636226654050000e-001) (53, -2.97981768846511840000e-001) (54, 1.67772918939590450000e-001) (55, 2.29882046580314640000e-001) (56, 3.00211191177368160000e-001) (57, -2.31897145509719850000e-001) (58, 1.06107987463474270000e-001) (59, -1.74961715936660770000e-001) (60, 6.02063417434692380000e-001) (61, 6.54091462492942810000e-002) (62, -4.06699240207672120000e-001) (63, 1.31860300898551940000e-001) (64, 1.53357014060020450000e-001) (65, -7.46864914894104000000e-001) (66, 4.92217168211936950000e-002) (67, 1.60739183425903320000e-001) (68, 3.90526831150054930000e-001) (69, 1.14568066596984860000e+000) (48, 7.62110874056816100000e-002) (49, 1.09712648391723630000e+000) (50, 5.78867435455322270000e-001) (51, 5.89445054531097410000e-001) (52, -7.84745588898658750000e-002) (53, 2.88281738758087160000e-001) (54, -1.09319984912872310000e-001) (55, 6.17778562009334560000e-002) (56, 6.27790749073028560000e-001) (57, 3.72442096471786500000e-001) (58, 8.76765310764312740000e-001) (59, -1.29969995468854900000e-002) (60, -8.93212556838989260000e-002) (61, 3.33127468824386600000e-001) (62, 1.20627805590629580000e-001) (63, 1.16893160343170170000e+000) (64, -1.07478380203247070000e-001) (65, 3.27916383743286130000e-001) (66, -2.05673217773437500000e-001) (67, 7.07176327705383300000e-001) (68, 4.41001653671264650000e-001) (69, 5.25844432413578030000e-002) (48, 3.41896146535873410000e-001) (49, 4.02424067258834840000e-001) (50, 6.64618670940399170000e-001) (51, 1.04191154241561890000e-001) (52, -5.88340051472187040000e-002) (53, -9.64572966098785400000e-001) (54, 2.72421509027481080000e-001) (55, 1.45713597536087040000e-001) (56, 7.90473043918609620000e-001) (57, -1.63231417536735530000e-001) (58, 4.39628912135958670000e-003) (59, -2.34338760375976560000e+000) (60, 2.72183322906494140000e+000) (61, 1.52461886405944820000e+000) (62, 9.68173146247863770000e-002) (63, -1.21040768921375270000e-001) (64, 4.59926176071166990000e+000) (65, 1.53438031673431400000e-001) (66, 3.06302815675735470000e-001) (67, 8.72859537601470950000e-001) (68, 7.79735326766967770000e-001) (69, 2.97931313514709470000e+000) (48, 7.61184215545654300000e-001) (49, 6.41497313976287840000e-001) (50, 3.54366183280944820000e-001) (51, 1.25307306647300720000e-001) (52, -4.94593121111392970000e-002) (53, -3.08766436576843260000e+000) (54, -2.26301431655883790000e+000) (55, -1.16711378097534180000e-001) (56, 6.96919798851013180000e-001) (57, -8.54943215847015380000e-001) (58, 5.29613018035888670000e-001) (59, -1.31429624557495120000e+000) (60, 1.10894620418548580000e+000) (61, 3.82553935050964360000e-001) (62, -4.65123981237411500000e-001) (63, 1.25072613358497620000e-001) (64, 2.20964837074279790000e+000) (65, -5.64144551753997800000e-001) (66, 3.62673848867416380000e-001) (67, 4.88971531391143800000e-001) (68, 6.28214299678802490000e-001) (69, 1.20661115646362300000e+000) (48, 1.11272230744361880000e-001) (49, 5.30149191617965700000e-002) (50, 3.73028337955474850000e-001) (51, -2.27201372385025020000e-001) (52, 8.82392302155494690000e-002) (53, 1.00742861628532410000e-001) (54, 6.64913117885589600000e-001) (55, 9.72280055284500120000e-002) (56, 4.45586323738098140000e-001) (57, 9.76883649826049800000e-001) (58, 7.80109643936157230000e-001) (59, 6.47074580192565920000e-001) (60, 6.41241908073425290000e-001) (61, -5.98026096820831300000e-001) (62, 3.18726956844329830000e-001) (63, 2.86674662493169310000e-003) (64, -9.52266991138458250000e-001) (65, -1.36638626456260680000e-001) (66, -1.08822119235992430000e+000) (67, 1.61270424723625180000e-001) (68, 3.20424884557724000000e-001) (69, -5.62721669673919680000e-001) (48, 1.58832803368568420000e-001) (49, 5.67327439785003660000e-001) (50, 3.28622043132781980000e-001) (51, 3.69902133941650390000e-001) (52, -3.10334980487823490000e-001) (53, 1.43743693828582760000e-001) (54, -8.56732189655303960000e-001) (55, 7.92490720748901370000e-001) (56, 4.64483290910720830000e-001) (57, 1.49116665124893190000e-001) (58, 5.38496207445859910000e-003) (59, -1.12267717719078060000e-001) (60, 1.82869389653205870000e-001) (61, 3.60010385513305660000e-001) (62, 9.21233057975769040000e-001) (63, 8.51916521787643430000e-002) (64, -8.01478847861289980000e-002) (65, 1.67377248406410220000e-001) (66, 3.19460332393646240000e-001) (67, 4.19025480747222900000e-001) (68, 5.18256306648254390000e-001) (69, 7.05081701278686520000e-001) (48, -4.46648538112640380000e-001) (49, -8.69314074516296390000e-001) (50, -7.36899495124816890000e-001) (51, -2.94412553310394290000e-001) (52, 4.99720573425292970000e-001) (53, 9.36304509639739990000e-001) (54, 4.91154305636882780000e-002) (55, 2.92989522218704220000e-001) (56, -3.06256145238876340000e-001) (57, 3.68259817361831670000e-001) (58, -1.30084842443466190000e-001) (59, 6.29174172878265380000e-001) (60, 3.35858575999736790000e-002) (61, -6.75864219665527340000e-001) (62, 9.34333622455596920000e-001) (63, -1.92325741052627560000e-001) (64, 6.00840866565704350000e-001) (65, -2.74537336081266400000e-002) (66, -5.79086542129516600000e-001) (67, -8.56324732303619380000e-002) (68, -6.62165224552154540000e-001) (69, -8.10631141066551210000e-002) (48, 1.42966210842132570000e-001) (49, 1.87654113769531250000e+000) (50, 3.10638403892517090000e+000) (51, 5.84788680076599120000e-001) (52, 6.23790696263313290000e-002) (53, 6.65991827845573430000e-002) (54, 2.70243078470230100000e-001) (55, 8.57227593660354610000e-002) (56, 4.41710531711578370000e-001) (57, -3.49816642701625820000e-002) (58, -3.61909180879592900000e-001) (59, 1.32958230096846820000e-004) (60, -1.27569079399108890000e-001) (61, 1.28444027900695800000e+000) (62, -4.89403694868087770000e-001) (63, 3.84661734104156490000e-001) (64, -1.86557397246360780000e-001) (65, 3.56542468070983890000e-001) (66, 2.14073255658149720000e-001) (67, 1.02263474464416500000e+000) (68, 3.75567138195037840000e-001) (69, -1.35572814941406250000e+000) (48, 6.36711642146110530000e-002) (49, 5.15268385410308840000e-001) (50, 6.75491571426391600000e-001) (51, 4.16884958744049070000e-001) (52, 2.84046739339828490000e-001) (53, -9.25109684467315670000e-002) (54, 3.66328239440917970000e-001) (55, 3.02729099988937380000e-001) (56, 3.95297765731811520000e-001) (57, 3.49452495574951170000e-001) (58, 1.64868507999926810000e-003) (59, -5.80475687980651860000e-001) (60, 4.74907904863357540000e-001) (61, 3.89648258686065670000e-001) (62, 2.78352677822113040000e-001) (63, -2.85061478614807130000e-001) (64, 2.42224425077438350000e-001) (65, 8.55208992958068850000e-001) (66, -1.78072288632392880000e-001) (67, 8.57881903648376460000e-001) (68, 5.21920740604400630000e-001) (69, 7.03580439090728760000e-001) (48, -3.82463902235031130000e-001) (49, 6.91439568996429440000e-001) (50, 3.71218949556350710000e-001) (51, 2.62187600135803220000e-001) (52, 5.81749439239501950000e-001) (53, 7.46686995029449460000e-001) (54, -5.74031829833984380000e-001) (55, 7.35784590244293210000e-001) (56, -1.74810308963060380000e-002) (57, 5.72648942470550540000e-001) (58, -2.74120777845382690000e-001) (59, -1.05181062221527100000e+000) (60, -3.53617221117019650000e-001) (61, 8.96556138992309570000e-001) (62, 1.80715769529342650000e-001) (63, -4.10443353652954100000e+000) (64, 1.49824392795562740000e+000) (65, 1.38267123699188230000e+000) (66, 9.72421109676361080000e-001) (67, -1.04217696189880370000e+000) (68, 1.85560613870620730000e-001) (69, -1.11010146141052250000e+000) (70, 3.11001777648925780000e-001) (71, 3.52789163589477540000e-001) (72, 2.75390386581420900000e-001) (73, 1.90479502081871030000e-001) (74, -4.78251308202743530000e-001) (75, -4.53673928976058960000e-001) (76, -2.19549015164375310000e-002) (77, 1.07954558916389940000e-003) (78, 1.11954164505004880000e+000) (79, 1.42491340637207030000e-001) (80, 7.31169879436492920000e-001) (81, 6.09000623226165770000e-001) (82, -1.84017091989517210000e-001) (83, -9.38298881053924560000e-001) (84, -5.67237660288810730000e-002) (85, 2.46009826660156250000e-001) (86, 4.59808200597763060000e-001) (87, 3.22393983602523800000e-001) (88, -2.78181821107864380000e-001) (89, 1.18063636124134060000e-001) (90, -1.53381332755088810000e-001) (91, 4.25174415111541750000e-001) (70, -4.08962219953536990000e-001) (71, 3.75880211591720580000e-001) (72, -4.49655145406723020000e-001) (73, 3.37519556283950810000e-001) (74, -2.59728968143463130000e-001) (75, -2.16726183891296390000e-001) (76, 1.10099084675312040000e-001) (77, 4.57480847835540770000e-001) (78, 5.13520956039428710000e-001) (79, -2.74394214153289790000e-001) (80, 4.38536643981933590000e-001) (81, 6.57220304012298580000e-001) (82, 6.42211735248565670000e-002) (83, 1.00000846385955810000e+000) (84, -1.13223865628242490000e-001) (85, 1.04772277176380160000e-001) (86, 2.48032927513122560000e-001) (87, 1.23179093003273010000e-001) (88, 3.21915149688720700000e-001) (89, -6.03737950325012210000e-001) (90, 9.30434644222259520000e-001) (91, 4.40206319093704220000e-001) (70, 5.99065542221069340000e-001) (71, 4.01749938726425170000e-001) (72, 1.63450017571449280000e-001) (73, 4.03303533792495730000e-001) (74, -5.25876700878143310000e-001) (75, -4.53385442495346070000e-001) (76, 7.58640374988317490000e-003) (77, -1.59415394067764280000e-001) (78, -1.03772178292274480000e-001) (79, -1.07068173587322240000e-001) (80, 3.51560145616531370000e-001) (81, 4.07125711441040040000e-001) (82, -2.98421710729599000000e-001) (83, 3.80627401173114780000e-002) (84, -2.22731426358222960000e-001) (85, -1.52690076828002930000e+000) (86, 3.24058115482330320000e-001) (87, 3.73022817075252530000e-002) (88, -2.85137593746185300000e-001) (89, 2.41813853383064270000e-001) (90, -1.59868091344833370000e-001) (91, 2.74246186017990110000e-001) (70, 2.43107019923627380000e-003) (71, 6.69127643108367920000e-001) (72, 1.03844620287418370000e-001) (73, 2.79775679111480710000e-001) (74, -2.94519156217575070000e-001) (75, -3.13908785581588750000e-001) (76, -2.12640628218650820000e-001) (77, -1.44697753712534900000e-002) (78, -4.00507330894470210000e-001) (79, 4.27368253469467160000e-001) (80, 1.11376419663429260000e-001) (81, 5.99125146865844730000e-001) (82, -2.62066453695297240000e-001) (83, 5.18151879310607910000e-001) (84, 5.50712406635284420000e-001) (85, 1.46062576770782470000e+000) (86, 9.53537449240684510000e-002) (87, 2.21437066793441770000e-001) (88, 1.53319761157035830000e-002) (89, 7.85651147365570070000e-001) (90, -1.14174783229827880000e-001) (91, 1.44307702779769900000e-001) 
