#ifndef FANN_FANN_NET_H_
#define FANN_FANN_NET_H_

const enum fann_nettype_enum network_type = 0;

const fann_neuron fann_neurons[97] = {{0, 0, 0.00000000000000000000e+000, 0}, {0, 0, 0.00000000000000000000e+000, 0}, {0, 0, 0.00000000000000000000e+000, 0}, {0, 0, 0.00000000000000000000e+000, 0}, {0, 0, 0.00000000000000000000e+000, 0}, {0, 0, 0.00000000000000000000e+000, 0}, {0, 0, 0.00000000000000000000e+000, 0}, {0, 0, 0.00000000000000000000e+000, 0}, {0, 0, 0.00000000000000000000e+000, 0}, {0, 0, 0.00000000000000000000e+000, 0}, {0, 0, 0.00000000000000000000e+000, 0}, {0, 0, 0.00000000000000000000e+000, 0}, {0, 0, 0.00000000000000000000e+000, 0}, {0, 0, 0.00000000000000000000e+000, 0}, {0, 0, 0.00000000000000000000e+000, 0}, {0, 0, 0.00000000000000000000e+000, 0}, {0, 0, 0.00000000000000000000e+000, 0}, {0, 0, 0.00000000000000000000e+000, 0}, {0, 0, 0.00000000000000000000e+000, 0}, {0, 0, 0.00000000000000000000e+000, 0}, {0, 0, 0.00000000000000000000e+000, 0}, {0, 0, 0.00000000000000000000e+000, 0}, {0, 0, 0.00000000000000000000e+000, 0}, {0, 0, 0.00000000000000000000e+000, 0}, {0, 0, 0.00000000000000000000e+000, 0}, {0, 0, 0.00000000000000000000e+000, 0}, {0, 26, 5.00000000000000000000e-001, 5}, {26, 52, 5.00000000000000000000e-001, 5}, {52, 78, 5.00000000000000000000e-001, 5}, {78, 104, 5.00000000000000000000e-001, 5}, {104, 130, 5.00000000000000000000e-001, 5}, {130, 156, 5.00000000000000000000e-001, 5}, {156, 182, 5.00000000000000000000e-001, 5}, {182, 208, 5.00000000000000000000e-001, 5}, {208, 234, 5.00000000000000000000e-001, 5}, {234, 260, 5.00000000000000000000e-001, 5}, {260, 286, 5.00000000000000000000e-001, 5}, {286, 312, 5.00000000000000000000e-001, 5}, {312, 338, 5.00000000000000000000e-001, 5}, {338, 364, 5.00000000000000000000e-001, 5}, {364, 390, 5.00000000000000000000e-001, 5}, {390, 416, 5.00000000000000000000e-001, 5}, {416, 442, 5.00000000000000000000e-001, 5}, {442, 468, 5.00000000000000000000e-001, 5}, {468, 494, 5.00000000000000000000e-001, 5}, {494, 520, 5.00000000000000000000e-001, 5}, {520, 546, 5.00000000000000000000e-001, 5}, {546, 546, 5.00000000000000000000e-001, 5}, {546, 568, 5.00000000000000000000e-001, 5}, {568, 590, 5.00000000000000000000e-001, 5}, {590, 612, 5.00000000000000000000e-001, 5}, {612, 634, 5.00000000000000000000e-001, 5}, {634, 656, 5.00000000000000000000e-001, 5}, {656, 678, 5.00000000000000000000e-001, 5}, {678, 700, 5.00000000000000000000e-001, 5}, {700, 722, 5.00000000000000000000e-001, 5}, {722, 744, 5.00000000000000000000e-001, 5}, {744, 766, 5.00000000000000000000e-001, 5}, {766, 788, 5.00000000000000000000e-001, 5}, {788, 810, 5.00000000000000000000e-001, 5}, {810, 832, 5.00000000000000000000e-001, 5}, {832, 854, 5.00000000000000000000e-001, 5}, {854, 876, 5.00000000000000000000e-001, 5}, {876, 898, 5.00000000000000000000e-001, 5}, {898, 920, 5.00000000000000000000e-001, 5}, {920, 942, 5.00000000000000000000e-001, 5}, {942, 964, 5.00000000000000000000e-001, 5}, {964, 986, 5.00000000000000000000e-001, 5}, {986, 1008, 5.00000000000000000000e-001, 5}, {1008, 1008, 5.00000000000000000000e-001, 5}, {1008, 1030, 5.00000000000000000000e-001, 5}, {1030, 1052, 5.00000000000000000000e-001, 5}, {1052, 1074, 5.00000000000000000000e-001, 5}, {1074, 1096, 5.00000000000000000000e-001, 5}, {1096, 1118, 5.00000000000000000000e-001, 5}, {1118, 1140, 5.00000000000000000000e-001, 5}, {1140, 1162, 5.00000000000000000000e-001, 5}, {1162, 1184, 5.00000000000000000000e-001, 5}, {1184, 1206, 5.00000000000000000000e-001, 5}, {1206, 1228, 5.00000000000000000000e-001, 5}, {1228, 1250, 5.00000000000000000000e-001, 5}, {1250, 1272, 5.00000000000000000000e-001, 5}, {1272, 1294, 5.00000000000000000000e-001, 5}, {1294, 1316, 5.00000000000000000000e-001, 5}, {1316, 1338, 5.00000000000000000000e-001, 5}, {1338, 1360, 5.00000000000000000000e-001, 5}, {1360, 1382, 5.00000000000000000000e-001, 5}, {1382, 1404, 5.00000000000000000000e-001, 5}, {1404, 1426, 5.00000000000000000000e-001, 5}, {1426, 1448, 5.00000000000000000000e-001, 5}, {1448, 1470, 5.00000000000000000000e-001, 5}, {1470, 1470, 5.00000000000000000000e-001, 5}, {1470, 1492, 5.00000000000000000000e-001, 5}, {1492, 1514, 5.00000000000000000000e-001, 5}, {1514, 1536, 5.00000000000000000000e-001, 5}, {1536, 1558, 5.00000000000000000000e-001, 5}, {1558, 1558, 5.00000000000000000000e-001, 5}};

const fann_type fann_weights[1558] = {-4.23078890889883040000e-003, 8.53908479213714600000e-001, 2.52268463373184200000e-001, 2.83045858144760130000e-001, 4.43402439355850220000e-001, 3.73802274465560910000e-001, -3.53031098842620850000e-001, -4.79898244142532350000e-001, 1.07126104831695560000e+000, 3.17225456237792970000e-001, -5.52298605442047120000e-001, -6.10928297042846680000e-001, 2.49740362167358400000e-001, 1.96910053491592410000e-001, 1.62892699241638180000e-001, 1.04213428497314450000e+000, 1.33592084050178530000e-001, 2.73763626813888550000e-001, -1.68902933597564700000e-001, -6.12412095069885250000e-001, -1.57980218529701230000e-001, 9.75085198879241940000e-002, -1.72988157719373700000e-002, -6.67299181222915650000e-002, 2.14544177055358890000e-001, 2.70037746429443360000e+000, 3.38345468044281010000e-001, 2.67308115959167480000e-001, 1.49404418468475340000e+000, 3.15026998519897460000e-001, 5.81695497035980220000e-001, 7.63088524341583250000e-001, 1.04523755609989170000e-001, 9.91550207138061520000e-001, 6.17739558219909670000e-001, 6.84906065464019780000e-001, 3.49738383293151860000e+000, -3.86623851954936980000e-002, 8.41141760349273680000e-001, 3.55009824037551880000e-001, 1.90784186124801640000e-001, 2.78348892927169800000e-001, 1.09535300731658940000e+000, 1.87414035201072690000e-001, 3.09890240430831910000e-001, -1.82744935154914860000e-001, -2.21074715256690980000e-001, 1.45337402820587160000e+000, -7.84646987915039060000e-001, 7.71561190485954280000e-002, -4.35089677572250370000e-001, -1.93162524700164790000e+000, -2.04063877463340760000e-001, 2.62831866741180420000e-001, 3.57870310544967650000e-001, 8.61954763531684880000e-002, 7.37422704696655270000e-002, 1.18786227703094480000e+000, 3.63263636827468870000e-001, -6.47700484842062000000e-003, 3.66830378770828250000e-001, 1.87344774603843690000e-001, -4.71096336841583250000e-001, -7.27078974246978760000e-001, -3.75363491475582120000e-002, 5.10316848754882810000e-001, -7.75674879550933840000e-002, 8.62501919269561770000e-001, -9.18132141232490540000e-002, -3.06053787469863890000e-001, -8.24281126260757450000e-002, 8.18906575441360470000e-002, 2.97192484140396120000e-003, -1.09278209507465360000e-001, -1.24701984226703640000e-001, -4.29706513881683350000e-001, -2.47194066643714900000e-001, 4.33887958526611330000e-001, 2.03776121139526370000e-001, -6.56533002853393550000e-001, -1.21390938758850100000e+000, -1.82004082202911380000e+000, 7.32977628707885740000e-001, 6.84892944991588590000e-003, -4.01286214590072630000e-001, 3.67738753557205200000e-002, 4.38835173845291140000e-001, -2.36196070909500120000e-001, -1.82870760560035710000e-001, 7.63870775699615480000e-001, 5.29780566692352290000e-001, -5.16647279262542720000e-001, 1.84369516372680660000e+000, -7.04017877578735350000e-001, -1.46366627886891370000e-002, 8.98272335529327390000e-001, 1.71622848510742190000e+000, 5.67452728748321530000e-001, 2.48443752527236940000e-001, 3.19878637790679930000e-001, 2.49079331755638120000e-001, 9.82223093509674070000e-001, 5.09871184825897220000e-001, 3.22387486696243290000e-001, -1.09346389770507810000e+000, 7.53372967243194580000e-001, -2.75036394596099850000e-002, 2.65561968088150020000e-001, -3.29029917716979980000e-001, 1.83087930083274840000e-001, -4.57247346639633180000e-002, -2.69412826746702190000e-002, -2.43080407381057740000e-001, -3.32770973443984990000e-001, -1.39036253094673160000e-001, 9.05051946640014650000e-001, -6.00093379616737370000e-002, -6.09304830431938170000e-002, -9.77678537368774410000e-001, 5.78501284122467040000e-001, 8.04592013359069820000e-001, 3.60318273305892940000e-001, -6.68886303901672360000e-001, -1.35072842240333560000e-001, 5.91667532920837400000e-001, -2.28273481130599980000e-001, 2.06986628472805020000e-002, -9.07610431313514710000e-002, 6.62823796272277830000e-001, -4.76083427667617800000e-001, 4.28064137697219850000e-001, 4.68007117509841920000e-001, 2.78121590614318850000e+000, 1.00945353507995610000e+000, 1.51067078113555910000e+000, 6.19726836681365970000e-001, -1.23649036884307860000e+000, -2.88354694843292240000e-001, 1.69768586754798890000e-001, 4.84305024147033690000e-001, -1.64217138290405270000e+000, 2.70919322967529300000e-001, -2.15427741408348080000e-001, 5.75506865978240970000e-001, -4.86238658428192140000e-001, 7.00450778007507320000e-001, -5.34007966518402100000e-001, 9.73927617073059080000e-001, 5.69558382034301760000e-001, -6.47292196750640870000e-001, 5.61693131923675540000e-001, 8.57004046440124510000e-001, 2.36247634887695310000e+000, 1.35087585449218750000e+000, -1.26078009605407710000e+000, -4.84887063503265380000e-001, 8.56133639812469480000e-001, 2.23990178108215330000e+000, 7.34475231170654300000e+000, 4.82372236251831050000e+000, 1.32528078556060790000e+000, 2.44235467910766600000e+000, -1.43936514854431150000e+000, 8.23660671710968020000e-001, 2.07096517086029050000e-001, 1.71696293354034420000e+000, 2.16834768652915950000e-001, -9.08417999744415280000e-001, 3.12803119421005250000e-001, 3.11662554740905760000e-001, -1.74429237842559810000e+000, 9.82624173164367680000e-001, 7.95987769961357120000e-002, -2.97861814498901370000e+000, -2.51505017280578610000e-001, 4.19260591268539430000e-001, 3.57046991586685180000e-001, 1.90677928924560550000e+000, -1.52468979358673100000e-001, 6.32682383060455320000e-001, 7.64076530933380130000e-001, -2.37123155593872070000e+000, 3.64058673381805420000e-001, -1.64883422851562500000e+000, -3.79859066009521480000e+000, -4.57199484109878540000e-001, -8.21712076663970950000e-001, -1.74293667078018190000e-001, -3.11834454536437990000e-001, -7.31287479400634770000e-001, -3.26141327619552610000e-001, -4.77679818868637080000e-001, 5.77854812145233150000e-001, 7.17133939266204830000e-001, 4.83853846788406370000e-001, 2.23620653152465820000e-001, 1.23314082622528080000e-001, -9.27922502160072330000e-002, 3.78828555345535280000e-001, -2.38549724221229550000e-001, 1.01554572582244870000e+000, -4.76791620254516600000e-001, -3.20568472146987920000e-001, -6.38271212577819820000e-001, 5.52122592926025390000e-001, -4.26355674862861630000e-002, -6.16292282938957210000e-002, -1.32450714707374570000e-001, -6.06571972370147710000e-001, 8.45974609255790710000e-002, 1.02140091359615330000e-001, -1.25790581107139590000e-001, -3.70979607105255130000e-001, 1.43681013584136960000e+000, 2.89746224880218510000e-001, 2.82623618841171260000e-001, 4.40157115459442140000e-001, -4.71650250256061550000e-003, 8.74185562133789060000e-001, 1.42748281359672550000e-001, -1.63775011897087100000e-001, -3.50908696651458740000e-001, -1.66009700298309330000e+000, 2.23392558097839360000e+000, 1.06216382980346680000e+000, 3.91625165939331050000e-001, 1.19148746132850650000e-001, -1.30598515272140500000e-001, 8.42804193496704100000e-001, 1.83482289314270020000e+000, 7.27335453033447270000e-001, 5.30855178833007810000e-001, 1.19614863395690920000e+000, 2.20011329650878910000e+000, 9.40139591693878170000e-002, -1.01044826209545140000e-001, -1.58875796478241680000e-003, -3.81598830223083500000e-001, -2.92060762643814090000e-001, -1.95559561252593990000e-001, -9.38752219080924990000e-002, -1.58340543508529660000e-001, -4.19174671173095700000e-001, -4.21253859996795650000e-001, -3.21273542940616610000e-002, 1.51951909065246580000e-001, 1.20087552070617680000e+000, -7.25104808807373050000e-001, -1.81207358837127690000e+000, -7.50386059284210210000e-001, -4.06819969415664670000e-001, 4.40917313098907470000e-001, 7.25968405604362490000e-002, -4.32284146547317500000e-001, 1.17911674082279210000e-001, 3.63200187683105470000e-001, 5.47137260437011720000e-001, -7.29961156845092770000e-001, 4.61161017417907710000e-001, 5.72903096675872800000e-001, 1.34930872917175290000e+000, -1.78922608494758610000e-001, 1.50253772735595700000e-001, -8.06316137313842770000e-001, -3.67944777011871340000e-001, 1.42506798729300500000e-002, -5.58922708034515380000e-001, -1.68283656239509580000e-001, 1.06672100722789760000e-001, 4.77595388889312740000e-001, -1.00293248891830440000e-001, 7.37358689308166500000e-001, 3.11990231275558470000e-001, 3.99312585592269900000e-001, 5.68250000476837160000e-001, -1.71774291992187500000e+000, -5.36671280860900880000e-001, 3.67685019969940190000e-001, -7.77471736073493960000e-002, -7.45855271816253660000e-002, -9.53052341938018800000e-001, -8.71293067932128910000e-001, -6.84641003608703610000e-001, 1.95076659321784970000e-001, -1.08040595054626460000e+000, 7.29547321796417240000e-001, 5.81415116786956790000e-001, 4.28995698690414430000e-001, 8.72270107269287110000e-001, 3.61935734748840330000e-001, 3.36782068014144900000e-001, 8.47105205059051510000e-001, -2.98301994800567630000e-001, 1.34982800483703610000e+000, 5.63059806823730470000e-001, 5.06184518337249760000e-001, 6.09413325786590580000e-001, 9.65154886245727540000e-001, -1.49557560682296750000e-001, 1.03995785117149350000e-001, -4.75870549678802490000e-001, 4.13061290979385380000e-001, -3.20638239383697510000e-001, -3.78657668828964230000e-001, -5.13370484113693240000e-002, -3.81180524826049800000e-001, -9.71681252121925350000e-002, 8.92513170838356020000e-002, -3.24089974164962770000e-001, -2.29734601452946660000e-003, -1.09725832939147950000e+000, 6.71044230461120610000e-001, 7.89463818073272710000e-001, -5.01722609624266620000e-003, -2.23858857154846190000e+000, 7.88652658462524410000e-001, -8.35772693157196040000e-001, 2.52151489257812500000e+000, -7.33413770794868470000e-002, -1.52034521102905270000e+000, -7.99100518226623540000e-001, 1.02543509006500240000e+000, 2.03655862808227540000e+000, 1.38193583488464360000e+000, -3.73402237892150880000e-001, 1.26495313644409180000e+000, 2.05645847320556640000e+000, -5.26135079562664030000e-002, 6.11577928066253660000e-001, 8.44050765037536620000e-001, 9.81663882732391360000e-001, -4.69687551259994510000e-001, 1.55842646956443790000e-001, 4.12876307964324950000e-001, 2.84273862838745120000e+000, 1.30657148361206050000e+000, 3.33315193653106690000e-001, 2.76948451995849610000e-001, 2.47250944375991820000e-001, 3.54724109172821040000e-001, -7.74620175361633300000e-001, -8.46210181713104250000e-001, -9.33252274990081790000e-002, -1.11429047584533690000e+000, 1.24793469905853270000e-001, -3.48579466342926030000e-001, -1.01798318326473240000e-001, -7.59885385632514950000e-002, -1.23654052615165710000e-001, 2.43065226823091510000e-002, -1.07045836746692660000e-001, 8.18445533514022830000e-002, 1.08634853363037110000e+000, -6.89788341522216800000e-001, 2.55365669727325440000e-001, 5.98933458328247070000e-001, -3.47719073295593260000e-001, -7.01006874442100520000e-003, -1.18472427129745480000e-001, 3.49234253168106080000e-001, 2.53253042697906490000e-001, 1.31117939949035640000e-001, -1.42267894744873050000e+000, 2.31473278999328610000e+000, -2.19230699539184570000e+000, 8.12449276447296140000e-001, 1.86026126146316530000e-001, -6.76843464374542240000e-001, -1.66750371456146240000e-001, -2.56219458580017090000e+000, 2.94578969478607180000e-001, -4.87943798303604130000e-001, 5.02170741558074950000e-001, 3.84119033813476560000e-001, -3.26414704322814940000e-001, 4.44089412689208980000e-001, -4.38022404909133910000e-001, -7.41934657096862790000e-001, -4.39843237400054930000e-002, 7.16521218419075010000e-002, 7.90483057498931880000e-002, -3.36430042982101440000e-001, 8.41915488243103030000e-001, 8.28745007514953610000e-001, 1.03845512866973880000e+000, -5.09657800197601320000e-001, -1.54356524348258970000e-001, 3.58637422323226930000e-001, 7.77500867843627930000e-001, 3.58118146657943730000e-001, 3.51193755865097050000e-001, 3.99309694766998290000e-001, 4.52069848775863650000e-001, 5.39190530776977540000e-001, 6.12152636051177980000e-001, 1.17574250698089600000e+000, 1.22460711002349850000e+000, 6.58425688743591310000e-001, 9.49191302061080930000e-002, 1.43318295478820800000e+000, 3.22651767730712890000e+000, 1.89157581329345700000e+000, 4.96640384197235110000e-001, 5.74889719486236570000e-001, -7.97378957271575930000e-001, 1.28926420211791990000e+000, 1.55535221099853520000e-001, 2.47509002685546880000e-001, 4.06533241271972660000e-001, 1.46236884593963620000e+000, 2.22490096092224120000e+000, 7.98385217785835270000e-002, 3.69446456432342530000e-001, -1.98418438434600830000e-001, 6.22508108615875240000e-001, 2.44718089699745180000e-001, -1.22235548496246340000e+000, 2.83147406578063960000e+000, 8.89823853969573970000e-001, -1.15239983424544330000e-002, 2.53919839859008790000e-001, -9.64928388595581050000e-001, -1.89398574829101560000e+000, -2.00113606452941890000e+000, 1.03966856002807620000e+000, -4.93370136246085170000e-003, 2.06509754061698910000e-001, -1.89025974273681640000e+000, 3.64869713783264160000e-001, 9.06934499740600590000e-001, 1.21931910514831540000e+000, 2.52980947494506840000e+000, -1.38706460595130920000e-001, -4.10272777080535890000e-001, 1.40553086996078490000e-001, -1.61686018109321590000e-001, 7.59843289852142330000e-001, 2.83936023712158200000e-001, 1.06495845317840580000e+000, -7.61571228504180910000e-001, 1.10488557815551760000e+000, 2.08914089202880860000e+000, -9.20885354280471800000e-002, 8.67941319942474370000e-001, 1.83606421947479250000e+000, 6.63820326328277590000e-001, 8.26574921607971190000e-001, 1.00062720477581020000e-001, -2.86145716905593870000e-001, 1.30882561206817630000e-001, 7.09954798221588130000e-001, 1.05682039260864260000e+000, 3.66064161062240600000e-001, -1.14622139930725100000e+000, 1.36833980679512020000e-001, 8.35322260856628420000e-001, 2.03304886817932130000e-001, 3.46705734729766850000e-001, -2.15458437800407410000e-001, -3.41775536537170410000e-001, -1.91476583480834960000e+000, -6.21395111083984380000e-001, 7.12108165025711060000e-002, -3.66129010915756230000e-001, -2.64026612043380740000e-001, -2.22509220242500310000e-001, 5.38567341864109040000e-002, 1.12258231639862060000e+000, -2.61664777994155880000e-001, 1.53189396858215330000e+000, 2.54591369628906250000e+000, -4.20564949512481690000e-001, -4.31427299976348880000e-001, 4.56399351358413700000e-001, 4.15710896253585820000e-001, 1.46302402019500730000e-001, 9.09108698368072510000e-001, 6.65852844715118410000e-001, -4.41216617822647090000e-001, -1.10887575149536130000e+000, 2.84577071666717530000e-001, -7.79590845108032230000e-001, -5.06693482398986820000e-001, 3.74037474393844600000e-001, 1.04145973920822140000e-001, 2.38013099879026410000e-002, 1.76488757133483890000e+000, 2.53469300270080570000e+000, 9.00721192359924320000e-001, -2.73773849010467530000e-001, -1.05370843410491940000e+000, -3.70143175125122070000e-001, -4.00773473083972930000e-002, 4.12929087877273560000e-001, -1.05926644802093510000e+000, 4.65087890625000000000e-001, 3.37286531925201420000e-001, -1.97603374719619750000e-001, 2.72805541753768920000e-001, -7.32794821262359620000e-001, 9.82361212372779850000e-002, -2.52156972885131840000e-001, 3.09379041194915770000e-001, 1.11609384417533870000e-001, -2.16511577367782590000e-001, -1.63719624280929570000e-001, -4.85883146524429320000e-001, 2.03105092048645020000e-001, -1.04384437203407290000e-001, -3.14767688512802120000e-001, 4.97563391923904420000e-001, -1.42646148800849910000e-001, -3.52494567632675170000e-001, -6.94415047764778140000e-002, 4.25850987434387210000e-001, -1.82776108384132390000e-001, -1.99065892957150940000e-003, -3.65639716386795040000e-001, 4.85731452703475950000e-001, 2.22274705767631530000e-001, 1.71988141536712650000e+000, -1.12770950794219970000e+000, 5.05063414573669430000e-001, 4.76977014541625980000e+000, -3.23642678558826450000e-002, 1.66881370544433590000e+000, -3.43488425016403200000e-001, 8.33546519279479980000e-001, 1.97479784488677980000e-001, 4.57402735948562620000e-001, 4.24888491630554200000e-001, -1.03518438339233400000e+000, -3.03903490304946900000e-001, -8.19499552249908450000e-001, 1.96883782744407650000e-001, 2.79155019670724870000e-002, 6.23026192188262940000e-001, -1.60638892650604250000e+000, -6.92588686943054200000e-001, 6.04179561138153080000e-001, 2.68919378519058230000e-001, -6.17697596549987790000e-001, 1.16457760334014890000e-001, 1.04606196284294130000e-001, 8.79831552505493160000e-001, -8.90147089958190920000e-002, -1.40442579984664920000e-001, 3.53264927864074710000e-001, 1.39101535081863400000e-001, -2.04205334186553960000e-001, 4.21959519386291500000e-001, 6.54084503650665280000e-001, 1.09143018722534180000e+000, 4.88491989672183990000e-002, -6.16323612630367280000e-002, -5.51559329032897950000e-001, 1.34191632270812990000e-001, 2.32230901718139650000e-001, 3.89817833900451660000e-001, 4.91080045700073240000e-001, 2.85502672195434570000e-001, -1.03143942356109620000e+000, 9.60794746875762940000e-001, 1.00118875503540040000e-001, 1.51820555329322810000e-001, 2.79024749994277950000e-001, 2.56496280431747440000e-001, -6.62507474422454830000e-001, -2.47131362557411190000e-001, 1.05159446597099300000e-001, 2.21331030130386350000e-001, 1.26174360513687130000e-001, -2.22835287451744080000e-001, -1.11660018563270570000e-001, 5.97703158855438230000e-001, 4.11900840699672700000e-002, 5.53451001644134520000e-001, 1.25780749320983890000e+000, 1.03912425041198730000e+000, 3.72648030519485470000e-001, 8.95717501640319820000e-001, 1.45124092698097230000e-001, 4.29729342460632320000e-001, -1.99469432234764100000e-001, -6.46316707134246830000e-001, 2.62764275074005130000e-001, 4.94526028633117680000e-001, 3.51685047149658200000e-001, 5.07784366607666020000e-001, 7.70082890987396240000e-001, -4.92407798767089840000e-001, 4.35681015253067020000e-001, 8.02478268742561340000e-002, 4.43781614303588870000e-002, 6.40401124954223630000e-001, 4.30162817239761350000e-001, 9.72369313240051270000e-001, 5.90034782886505130000e-001, -4.78799119591712950000e-002, 1.41782671213150020000e-001, 8.26204046607017520000e-002, -5.57615049183368680000e-002, 3.26448589563369750000e-001, 5.43800175189971920000e-001, -4.96109016239643100000e-003, -4.11091864109039310000e-001, -7.97140747308731080000e-002, 5.44718503952026370000e-002, -7.26856337860226630000e-003, -1.38701349496841430000e-001, -1.09868152067065240000e-002, 1.21007847785949710000e+000, 4.02583718299865720000e-001, -1.24341219663620000000e-001, -2.86739040166139600000e-003, 8.31559121608734130000e-001, 3.33288498222827910000e-002, -1.17667913436889650000e-001, -7.35858440399169920000e-001, 7.11491048336029050000e-001, 1.15750479698181150000e+000, 9.29210036993026730000e-002, 6.33439242839813230000e-001, -1.84822559356689450000e-001, -1.04085706174373630000e-001, 1.69058656692504880000e+000, 1.23525726795196530000e+000, -1.25391259789466860000e-001, 3.95582579076290130000e-002, 3.13412636518478390000e-001, -8.14287960529327390000e-001, -1.64102241396903990000e-001, -2.09926262497901920000e-001, 4.36881966888904570000e-002, 1.68468445539474490000e-001, 1.85160323977470400000e-001, -2.14553438127040860000e-002, 7.45079457759857180000e-001, -1.83601528406143190000e-001, 6.45928606390953060000e-002, 2.04780176281929020000e-001, 9.00422513484954830000e-001, 2.43589267134666440000e-001, 2.62886285781860350000e-001, 1.59901246428489690000e-001, 4.64096032083034520000e-002, 3.52897822856903080000e-001, -1.15621760487556460000e-001, -4.52292948961257930000e-001, -2.03400030732154850000e-001, -3.45722913742065430000e-001, -1.60695686936378480000e-001, -2.78148174285888670000e-001, -2.34992668032646180000e-001, 2.18375548720359800000e-001, -4.70454168319702150000e+000, -7.31167048215866090000e-002, 1.95975303649902340000e-001, 3.62417638301849370000e-001, -2.98603028059005740000e-001, 1.78767308592796330000e-001, 2.11246520280838010000e-001, 7.09422051906585690000e-001, -2.48765015602111820000e+000, 4.10419583320617680000e-001, -1.67854353785514830000e-001, -1.28290548920631410000e-001, 1.32745110988616940000e+000, -4.27387982606887820000e-001, -3.40148568153381350000e-001, 9.63170051574707030000e-001, 2.76233583688735960000e-001, 4.20809209346771240000e-001, 7.51865565776824950000e-001, 1.79678750038146970000e+000, 1.13508188724517820000e+000, 8.40292334556579590000e-001, -3.32112997770309450000e-001, -1.18113708496093750000e+000, 1.69710516929626460000e+000, 3.72977614402771000000e-001, -1.54698088765144350000e-001, -1.22027158737182620000e+000, 1.05389237403869630000e+000, 2.12435865402221680000e+000, 1.04400411248207090000e-001, -1.34698224067687990000e+000, -1.41470059752464290000e-001, 5.01594655215740200000e-002, 6.30061447620391850000e-001, -4.91544276475906370000e-001, -1.38129174709320070000e+000, 1.05604112148284910000e+000, -4.28080737590789790000e-001, 2.70773291587829590000e-001, 2.32577726244926450000e-001, 1.24052453041076660000e+000, 1.79313644766807560000e-001, 9.42004919052124020000e-001, 4.81146901845932010000e-001, 6.13529682159423830000e-001, -3.67545545101165770000e-001, -1.11148513853549960000e-001, 2.21374702453613280000e+000, 4.24636781215667720000e-001, -3.40012645721435550000e+000, -5.23626565933227540000e-001, -2.38868266344070430000e-001, 1.59930631518363950000e-001, 3.05263733863830570000e+000, 7.33746647834777830000e-001, 8.92327606678009030000e-001, 1.49267303943634030000e+000, 5.45790433883666990000e+000, 3.79095292091369630000e+000, -1.39270675182342530000e+000, 6.13833725452423100000e-001, -2.31552496552467350000e-001, 1.30531620979309080000e+000, 4.46611434221267700000e-001, 7.59914755821228030000e-001, 9.76786017417907710000e-001, 4.59502100944519040000e-001, -4.05747182667255400000e-002, -4.62702512741088870000e-001, 8.27978909015655520000e-001, 2.45323389768600460000e-001, -3.45415771007537840000e-001, -7.09435522556304930000e-001, 9.75433051586151120000e-001, -4.54108230769634250000e-002, 1.38402774930000310000e-001, 2.49461114406585690000e-001, -9.28942859172821040000e-001, 1.61744207143783570000e-001, 8.75535130500793460000e-001, -3.89330863952636720000e-001, 2.78991982340812680000e-002, -3.33221763372421260000e-001, -2.07843750715255740000e-001, -1.04748284816741940000e+000, -3.23644459247589110000e-001, -2.58148103952407840000e-001, 9.43393353372812270000e-003, -6.70699998736381530000e-002, 6.32486402988433840000e-001, 6.02827072143554690000e-001, -5.72067499160766600000e-001, 7.90206372737884520000e-001, 3.89229599386453630000e-003, 5.13225746154785160000e+000, 1.43188834190368650000e-001, 2.14969372749328610000e+000, -4.62501496076583860000e-002, 1.31062967702746390000e-002, -2.86323845386505130000e-001, 5.34115016460418700000e-001, 3.02711814641952510000e-001, -1.23308360576629640000e-001, -1.27800059318542480000e+000, 3.50254893302917480000e-001, 4.21502381563186650000e-001, 1.38540804386138920000e-001, -8.79054516553878780000e-003, 8.08783590793609620000e-001, -1.07985460758209230000e+000, 7.12788403034210210000e-002, 4.61115054786205290000e-002, -8.40566396713256840000e-001, 9.75687801837921140000e-001, 1.99915900826454160000e-001, -6.63923993706703190000e-002, -1.79954320192337040000e-001, 1.91798973083496090000e+000, -7.75481522083282470000e-001, 3.73851716518402100000e-001, 2.71151334047317500000e-001, -3.13206434249877930000e-001, 8.20142805576324460000e-001, 5.74897944927215580000e-001, -3.56413215398788450000e-001, 6.66926652193069460000e-002, -1.02875518798828120000e+000, -1.94154906272888180000e+000, -1.01739192008972170000e+000, -3.96458119153976440000e-001, -7.21900612115859990000e-002, -4.26275491714477540000e-001, 3.02987694740295410000e-001, 6.33696094155311580000e-002, 1.21373593807220460000e-001, 9.45199251174926760000e-001, 6.50691807270050050000e-001, -5.93852579593658450000e-001, 1.73442795872688290000e-001, 1.64978280663490300000e-001, -2.77371674776077270000e-001, 2.09204852581024170000e-001, 6.26332908868789670000e-002, -1.23129680752754210000e-001, -1.06357407569885250000e+000, 9.17182743549346920000e-001, 5.75436115264892580000e-001, 1.22873753309249880000e-001, 9.65506672859191890000e-001, 6.90138697624206540000e-001, 1.17071487009525300000e-001, -5.91088905930519100000e-002, -4.45867359638214110000e-001, -1.62119567394256590000e-001, 2.53526210784912110000e+000, 1.20853312313556670000e-001, 5.49860954284667970000e-001, -6.99580729007720950000e-001, 4.01306450366973880000e-001, 2.20095634460449220000e+000, 3.14245164394378660000e-001, -1.88881456851959230000e+000, -9.44404065608978270000e-001, -5.39499044418334960000e-001, -1.51207828521728520000e+000, -6.28961503505706790000e-001, -2.82898998260498050000e+000, 9.30575802922248840000e-002, -7.90866553783416750000e-001, 2.56380367279052730000e+000, 2.69729137420654300000e+000, 2.51631236076354980000e+000, 8.03998470306396480000e-001, -3.73896026611328130000e+000, -1.52349591255187990000e+000, 1.43353450298309330000e+000, 4.45958673954010010000e-001, 9.51131358742713930000e-002, 8.30611505080014470000e-004, -8.65747272968292240000e-001, -1.24329403042793270000e-001, 2.71027565002441410000e-001, 2.38127541542053220000e+000, 5.88816069066524510000e-002, 2.87925064563751220000e-001, -1.74993410706520080000e-001, 1.53006479144096370000e-001, 2.36389935016632080000e-002, 1.13681443035602570000e-001, -3.69497030973434450000e-001, -3.06702226400375370000e-001, -1.04460150003433230000e-001, 2.77664232999086380000e-002, 5.16396105289459230000e-001, 6.14706575870513920000e-001, -5.15116378664970400000e-003, 7.62071788311004640000e-001, -3.52319717407226560000e-001, 2.98006802797317500000e-001, 4.94400650262832640000e-001, 4.92190599441528320000e-001, 1.28736346960067750000e-001, -7.76488631963729860000e-002, -1.29031583666801450000e-001, 4.36354607343673710000e-001, -1.57365631312131880000e-002, 4.36930656433105470000e-001, 1.98025420308113100000e-001, 4.36880975961685180000e-001, 7.59653806686401370000e-001, 4.17974561452865600000e-001, -5.75163364410400390000e-002, 4.65738236904144290000e-001, -2.62124061584472660000e-001, 1.92273489665240050000e-003, -1.90555248409509660000e-002, 5.26480004191398620000e-002, 6.88927829265594480000e-001, 5.20080685615539550000e-001, 1.08688724040985110000e+000, -1.29649937152862550000e-001, 8.50438714027404790000e-001, 4.84457284212112430000e-001, 1.03199027478694920000e-001, -2.12950468063354490000e-001, 9.00278925895690920000e-001, 2.19793781638145450000e-001, 9.62864086031913760000e-002, -2.46502801775932310000e-001, -2.42503449320793150000e-001, 7.58650898933410640000e-002, 2.42009982466697690000e-001, -3.74627292156219480000e-001, 9.13442298769950870000e-002, 1.43784612417221070000e-001, -5.70280887186527250000e-002, 1.11809754371643070000e+000, 1.15515828132629390000e+000, 2.30819985270500180000e-001, 7.57277250289916990000e-001, 9.52087566256523130000e-002, 3.65263313055038450000e-001, 1.73931741714477540000e+000, -7.22057372331619260000e-002, 2.37590804696083070000e-001, -4.94681268930435180000e-001, 3.13924819231033330000e-001, 1.47793078422546390000e+000, 7.96328723430633540000e-001, 1.21672246605157850000e-002, 1.54473170638084410000e-001, -6.44432485103607180000e-001, -8.53753983974456790000e-001, -6.97433531284332280000e-001, -2.06093740463256840000e+000, 1.81966513395309450000e-001, -6.84394299983978270000e-001, 1.66208744049072270000e+000, 8.32581877708435060000e-001, 1.64399421215057370000e+000, 3.96584302186965940000e-001, -1.45500659942626950000e+000, -3.16252827644348140000e-001, 9.49823737144470210000e-001, -1.52408027648925780000e+000, 5.73461689054965970000e-002, 2.54201859235763550000e-001, -3.85282456874847410000e-001, 4.33692157268524170000e-001, -1.28788784146308900000e-001, 1.03526070713996890000e-001, 2.33520925045013430000e-001, 5.08562661707401280000e-002, -4.08779144287109380000e-001, 2.25594654679298400000e-001, 5.65164312720298770000e-002, 2.70244687795639040000e-001, -1.02020483464002610000e-002, -2.17830255627632140000e-001, 6.81557878851890560000e-002, -5.81965923309326170000e-001, -5.38211822509765630000e-001, -6.80662274360656740000e-001, 7.80505686998367310000e-002, 1.51238635182380680000e-001, -1.14166826009750370000e-001, -3.08985233306884770000e-001, 4.03647311031818390000e-003, 1.66639670729637150000e-001, 2.41334602236747740000e-001, -3.13954465091228490000e-002, -5.90149581432342530000e-001, 7.06938058137893680000e-002, 9.71918404102325440000e-002, 3.56685638427734380000e-001, 9.31015133857727050000e-001, 6.04609489440917970000e-001, 2.15757101774215700000e-001, 1.08114349842071530000e+000, 8.42216238379478450000e-002, 7.99055755138397220000e-001, -1.07801508903503420000e+000, -4.48723942041397090000e-001, 1.70524194836616520000e-001, 3.10980439186096190000e-001, 3.26919913291931150000e-001, 3.47560733556747440000e-001, -1.62627156823873520000e-002, 3.12596708536148070000e-001, 3.62528949975967410000e-001, 9.45461764931678770000e-002, -2.91847437620162960000e-001, 3.42303484678268430000e-001, -2.61366873979568480000e-001, 1.13860654830932620000e+001, -1.34893730282783510000e-001, 6.44233345985412600000e-001, 1.97689250111579900000e-001, 3.08104097843170170000e-001, 1.06080198287963870000e+000, 3.04961681365966800000e-001, -8.92121493816375730000e-001, -5.52322721481323240000e+000, 1.07671654224395750000e+000, -1.23702228069305420000e-001, 3.40614050626754760000e-001, 5.95483398437500000000e+000, -2.49781340360641480000e-001, 4.22910898923873900000e-001, -6.83443725109100340000e-001, -3.51164080202579500000e-002, -1.61524146795272830000e-001, 2.44066715240478520000e-001, 8.93653333187103270000e-002, 2.22874104976654050000e-001, -1.65427684783935550000e-001, 1.88611801713705060000e-002, 3.75177040696144100000e-002, -2.14164257049560550000e-001, 1.10370397567749020000e+000, 1.61158874630928040000e-001, 8.03710818290710450000e-002, -3.70547994971275330000e-002, 3.34251940250396730000e-001, 6.90199077129364010000e-001, -1.26119665801525120000e-002, 6.76312983036041260000e-001, 1.04775428771972660000e-001, 6.42730891704559330000e-001, 4.77435618638992310000e-001, -4.42867130041122440000e-001, -2.04872265458106990000e-001, 1.97999536991119380000e+000, 3.91778397560119630000e+000, 5.17000317573547360000e-001, -9.07470226287841800000e-001, -1.76933574676513670000e+000, -5.16726791858673100000e-001, 3.52286905050277710000e-001, 1.12580895423889160000e+000, 7.44835333898663520000e-003, 8.78831505775451660000e-001, 6.40889883041381840000e-001, -6.01031720638275150000e-001, -2.29600453376770020000e+000, 6.03331923484802250000e-001, 1.56211316585540770000e+000, 3.94678801298141480000e-001, -4.66803044080734250000e-001, 2.00033172965049740000e-001, 2.88839673995971680000e+000, 7.22433030605316160000e-001, -3.72023701667785640000e-001, 1.22847664356231690000e+000, 3.16927321255207060000e-002, -3.69261771440505980000e-001, -2.26421058177948000000e-001, 3.13238203525543210000e-001, 1.45583391189575200000e-001, 4.58945572376251220000e-001, -5.56712597608566280000e-002, -5.89676141738891600000e-001, -6.32531940937042240000e-002, 3.79407972097396850000e-001, -4.91769202053546910000e-002, 3.25575709342956540000e-001, 6.59172892570495610000e-001, -2.03141435980796810000e-001, 3.37874203920364380000e-001, -4.39961180090904240000e-002, 1.24711668491363530000e+000, 2.76385754346847530000e-001, -2.66292840242385860000e-001, 4.08180177211761470000e-001, 5.09376883506774900000e-001, -4.23418134450912480000e-001, 4.91141378879547120000e-001, 3.13500910997390750000e-001, 1.48718997836112980000e-001, 4.26237344741821290000e-001, 1.46657061576843260000e+000, -3.30323487520217900000e-001, -7.67212361097335820000e-002, 3.81436347961425780000e-001, 7.61692285537719730000e-001, 6.62106350064277650000e-002, 8.42625021934509280000e-001, -9.17083695530891420000e-002, -5.22723734378814700000e-001, -6.58150970935821530000e-001, -6.66214525699615480000e-002, 5.47576606273651120000e-001, -7.46130466461181640000e-001, 8.62484931945800780000e-001, 1.09364259243011470000e+000, 1.79465427994728090000e-001, -1.34671842679381370000e-002, 4.76715385913848880000e-001, -7.89641797542572020000e-001, 1.09109453856945040000e-001, -2.41750764846801760000e+000, 3.97249311208724980000e-001, 3.19516062736511230000e-001, -2.39810347557067870000e-003, -1.37725844979286190000e-001, 4.91572260856628420000e-001, 3.91352295875549320000e-001, -7.45429575443267820000e-001, 1.37887090444564820000e-001, -3.20896625518798830000e-001, -3.84528726339340210000e-001, -2.12671145796775820000e-001, 4.39533293247222900000e-001, -6.74117207527160640000e-002, 1.72087013721466060000e-001, 3.83613765239715580000e-001, 2.32011616230010990000e-001, -1.73186734318733220000e-001, 4.96600806713104250000e-001, 5.18624717369675640000e-003, -5.14451086521148680000e-001, -3.24700847268104550000e-002, -3.00633400678634640000e-001, 4.31311845779418950000e-001, 2.88625717163085940000e-001, -2.35102837905287740000e-003, -1.48544445633888240000e-001, -1.57016783952713010000e-001, 4.60387468338012700000e-001, -4.30488348007202150000e-001, -1.69401124119758610000e-001, 3.95784452557563780000e-002, -3.72565716505050660000e-001, 8.07398408651351930000e-002, 6.45929872989654540000e-001, -1.63454115390777590000e-001, 1.79921030998229980000e-001, 3.25960367918014530000e-001, -1.76720976829528810000e-001, -5.66118478775024410000e-001, 4.40763145685195920000e-001, 6.56356588006019590000e-002, -9.82213392853736880000e-002, -3.17859798669815060000e-001, -1.18108488619327550000e-001, 3.26914101839065550000e-001, 3.84195417165756230000e-001, -1.50310602039098740000e-002, -6.70146197080612180000e-002, 5.35803318023681640000e-001, 3.29539984464645390000e-001, -3.35624426603317260000e-001, 2.35404402017593380000e-001, 2.97016240656375890000e-002, 1.31144598126411440000e-001, 7.64309242367744450000e-002, 3.23841124773025510000e-001, -1.86115622520446780000e-001, 1.79725617170333860000e-001, 2.94330924749374390000e-001, -1.69189035892486570000e-001, -3.52216124534606930000e-001, 5.23800909519195560000e-001, 1.70768946409225460000e-001, 3.09574082493782040000e-002, 1.06291241943836210000e-001, 1.82124286890029910000e-001, -4.32190708816051480000e-002, -8.75045545399189000000e-003, 3.45379710197448730000e-001, 5.25818884372711180000e-001, -2.73507565259933470000e-001, -4.25578206777572630000e-002, 1.79087758064270020000e-001, -1.34139060974121090000e-001, 1.68415248394012450000e-001, 3.59647303819656370000e-001, 5.27184545993804930000e-001, 1.13662794232368470000e-001, 3.09330314397811890000e-001, -2.15067341923713680000e-002, -3.90159450471401210000e-002, 3.28959524631500240000e-001, 2.49830186367034910000e-001, 3.63318800926208500000e-001, 3.65363955497741700000e-001, 1.83732092380523680000e-001, -3.48345637321472170000e-002, -3.16027790307998660000e-001, 3.94077241420745850000e-001, 7.48396754264831540000e-001, 5.30632913112640380000e-001, 2.53723025321960450000e-001, 1.38743734359741210000e+000, 3.62949013710021970000e-001, 2.30179086327552800000e-001, -1.36306390166282650000e-001, 2.49496355652809140000e-001, 6.00575864315032960000e-001, -1.04359149932861330000e-001, -1.43564924597740170000e-001, -8.24627652764320370000e-002, 8.06593477725982670000e-001, 4.13674682378768920000e-001, 3.53286899626255040000e-002, 6.02966845035552980000e-001, -3.92196476459503170000e-002, -7.25554168224334720000e-001, -1.27427625656127930000e+000, -5.11790990829467770000e-001, -1.85874238610267640000e-001, 3.82923811674118040000e-001, 2.94146806001663210000e-001, -7.44295194745063780000e-002, -5.23475110530853270000e-001, -2.86127906292676930000e-002, 4.56003904342651370000e-001, -1.05083692073822020000e+000, 1.76788686076179150000e-004, 1.31039142608642580000e-001, 7.38672539591789250000e-002, -4.70601737499237060000e-001, 3.35615187883377080000e-001, -4.19372282922267910000e-002, 8.05153325200080870000e-002, 3.82458835840225220000e-001, -5.58060742914676670000e-002, -1.96222376823425290000e+000, 4.62703555822372440000e-001, 2.26482957601547240000e-001, 1.25938028097152710000e-001, 3.09183131903409960000e-002, -1.03778094053268430000e-001, 3.85514467954635620000e-001, 5.47693014144897460000e-001, 6.71182933729141950000e-004, 1.23361833393573760000e-002, 5.67397952079772950000e-001, -8.87646153569221500000e-002, 4.46845404803752900000e-002, 4.42148149013519290000e-001, 2.44980290532112120000e-001, -6.99827494099736210000e-003, 9.43010687828063960000e-001, 1.88884273171424870000e-001, -6.06608949601650240000e-002, 1.62960644811391830000e-002, 4.50135469436645510000e-001, 1.31824404001235960000e-001, 2.41099819540977480000e-001, 1.93763270974159240000e-001, -4.68192458152771000000e-001, 3.64080667495727540000e-001, 5.53967773914337160000e-001, 3.22171390056610110000e-001, -2.83902764320373540000e-001, 2.52175629138946530000e-001, -8.81341919302940370000e-002, 4.58707213401794430000e-001, 5.04233360290527340000e-001, 3.96082699298858640000e-001, 1.50293752551078800000e-001, 7.93382525444030760000e-001, -2.74049729108810420000e-001, -4.26100969314575200000e-001, 1.10024893656373020000e-002, 5.95431728288531300000e-003, 4.68129813671112060000e-001, -4.51373547315597530000e-001, -1.06842763721942900000e-001, 4.25164163112640380000e-001, 2.88896948099136350000e-001, -4.80107426643371580000e-001, 8.49304914474487300000e-001, -3.77027064561843870000e-001, 1.08683176338672640000e-001, -1.95098027586936950000e-001, 1.17076206207275390000e+000, 7.95585736632347110000e-002, 2.35316231846809390000e-001, -2.23907500505447390000e-001, -1.02077268064022060000e-001, -6.26008361577987670000e-002, 1.97995126247406010000e-001, -2.24391911178827290000e-002, 5.26224732398986820000e-001, -8.04346650838851930000e-002, 5.40128648281097410000e-001, 1.89819350838661190000e-001, -3.66428583860397340000e-001, -1.43537381663918500000e-002, 5.17951250076293950000e-001, -7.42801204323768620000e-002, 5.03053069114685060000e-001, 4.46787253022193910000e-002, 2.99328248947858810000e-002, -1.12941730022430420000e+000, -3.80526602268218990000e-001, -2.01198041439056400000e-001, 3.76412570476531980000e-001, 2.85528689622879030000e-001, -1.12745344638824460000e-001, -4.61918145418167110000e-001, -3.70573773980140690000e-002, 3.98674130439758300000e-001, -5.12866914272308350000e-001, -1.48358047008514400000e-001, 1.12328767776489260000e-001, 2.16964721679687500000e-001, -2.72494386881589890000e-002, 4.25989687442779540000e-001, -1.63660451769828800000e-001, 6.98519423604011540000e-002, 3.64056110382080080000e-001, -5.17304949462413790000e-002, -7.82294154167175290000e-001, 3.36612433195114140000e-001, 1.25836521387100220000e-001, 3.16033124923706050000e-001, 1.00277113914489750000e+000, 6.52801692485809330000e-001, -1.36843994259834290000e-001, -1.08684040606021880000e-002, -4.40157204866409300000e-001, 5.27461469173431400000e-001, 1.31717467308044430000e+000, 1.71187773346900940000e-001, 7.31767296791076660000e-001, 9.02562558650970460000e-001, 9.85473394393920900000e-001, -1.33961963653564450000e+000, -2.78574943542480470000e-001, -1.92154198884963990000e-001, -7.14184045791625980000e-002, -3.97325634956359860000e-001, 4.07094717025756840000e-001, 1.91210782527923580000e+000, 2.28115901350975040000e-001, 1.47479757666587830000e-001, 1.10414731502532960000e+000, -3.58348309993743900000e-001, 7.00419783592224120000e-001, -1.18242537975311280000e+000, 9.35153942555189130000e-003, 1.54107904434204100000e+000, -1.46613895893096920000e-001, 3.96255105733871460000e-001, 9.67760086059570310000e-001, -2.82403989695012570000e-003, 9.96374785900115970000e-001, 3.80855768918991090000e-001, -1.50043189525604250000e-001, -1.38652816414833070000e-001, 6.97935998439788820000e-001, -2.58622646331787110000e-001, 5.10315418243408200000e-001, 2.52271831035614010000e-001, 9.02449935674667360000e-002, -4.26329851150512700000e-001, 1.23536181449890140000e+000, 4.90970313549041750000e-001, -4.60660994052886960000e-001, -3.76708239316940310000e-001, -5.44624507427215580000e-001, -1.03088237345218660000e-001, -1.69591739773750310000e-001, 2.58959650993347170000e-001, 4.03322368860244750000e-001, -1.62971839308738710000e-001, -1.44618630409240720000e-001, -1.18410848081111910000e-001, -9.36437118798494340000e-003, -1.01797610521316530000e-001, 3.70459258556365970000e-001, 1.45465838909149170000e+000, 5.29690980911254880000e-001, 5.30153453350067140000e-001, -1.40205230563879010000e-002, 1.06056773662567140000e+000, -1.06515514850616460000e+000, -8.07552099227905270000e-001, -4.55597549676895140000e-001, 2.98731952905654910000e-001, 3.68598520755767820000e-001, 3.25848549604415890000e-001, 1.95339202880859380000e-001, 2.25997015833854680000e-001, -5.49798570573329930000e-002, -1.81094616651535030000e-001, 4.15714174509048460000e-001, 5.50447285175323490000e-001, -2.35689461231231690000e-001, -4.93711940944194790000e-002, 4.96006518602371220000e-001, 3.95606279373168950000e-001, -3.37686389684677120000e-001, 4.27656233310699460000e-001, 5.10788798332214360000e-001, 1.86369448900222780000e-001, 5.32186448574066160000e-001, 5.24705788120627400000e-003, -3.47723695449531080000e-003, 3.82418364286422730000e-001, 1.13654553890228270000e-001, -6.44205734133720400000e-002, 2.96465694904327390000e-001, 2.86500573158264160000e+000, 2.69971680641174320000e+000, -1.11135888099670410000e+000, 1.65755450725555420000e-002, -1.03557996451854710000e-001, -3.47936749458312990000e-002, 3.19257378578186040000e-001, 3.09697580337524410000e+000, 5.02255320549011230000e-001, 7.34637975692749020000e-001, 4.14592564105987550000e-001, 4.27676230669021610000e-001, -2.80575299263000490000e+000, -1.13446541130542760000e-001, 7.80690431594848630000e-001, 2.49571532011032100000e-001, -1.11730372905731200000e+000, 4.51363444328308110000e-001, 1.73650491237640380000e+000, 8.43018472194671630000e-001, 4.27211493253707890000e-001, 2.57855832576751710000e-001, 2.07949936389923100000e-001, 9.58462595939636230000e-001, -1.34548246860504150000e-002, 3.87940943241119380000e-001, -1.05012319982051850000e-001, -9.59244072437286380000e-002, -1.96409579366445540000e-002, 9.94622516632080080000e+000, 9.71340313553810120000e-002, -4.86867308616638180000e-001, 4.39084589481353760000e-001, 1.11818301677703860000e+000, -1.83447122573852540000e-001, 3.32547128200531010000e-001, -3.34687948226928710000e-001, 1.51146098971366880000e-001, -5.33847928047180180000e-001, 1.51037517935037610000e-002, 8.52806150913238530000e-001, -2.93959408998489380000e-001, -7.94904851913452150000e+000, 1.43816006183624270000e+000, -7.32471570372581480000e-002, -5.67525565624237060000e-001, 1.43403753638267520000e-001, -2.02402412891387940000e-001, -1.98264762759208680000e-001, 3.66791993379592900000e-001, 5.04757404327392580000e-001, -2.57491856813430790000e-001, -1.34526312351226810000e-001, 3.86561572551727290000e-001, -1.38322502374649050000e-001, 9.69694033265113830000e-002, 4.26102727651596070000e-001, 2.67280071973800660000e-001, -1.31677472591400150000e+000, 4.85272020101547240000e-001, 3.84069263935089110000e-001, -1.00104138255119320000e-001, 5.49594983458518980000e-002, 1.18576601147651670000e-001, -1.81616228073835370000e-002, 4.89911258220672610000e-001, -5.66903531551361080000e-001, -6.58829569816589360000e-001, 3.83535921573638920000e-001, 4.93430376052856450000e-001, 3.02039235830307010000e-001, 4.73146066069602970000e-002, -3.95313084125518800000e-001, 4.29531723260879520000e-001, 3.00328165292739870000e-001, 9.29369330406188960000e-002, 4.09689754247665410000e-001, -3.51936876773834230000e-001, -1.70137405395507810000e-001, 1.69915575534105300000e-002, -1.75943598151206970000e-001, -1.91189646720886230000e-001, 4.13272351026535030000e-001, 4.68144387006759640000e-001, 8.21675956249237060000e-001, 1.86473757028579710000e-001, -1.17098473012447360000e-001, 1.29155397415161130000e-001, -7.38952100276947020000e-001, 4.91913765668869020000e-001, 3.34700614213943480000e-001, 3.87247115373611450000e-001, 3.33270728588104250000e-001, 4.96773362159729000000e-001, 5.08665800094604490000e-001, 7.46707558631896970000e-001, 4.65425968170166020000e-001, -7.24477231502532960000e-001, 2.40850910544395450000e-001, -1.68494552373886110000e-001, 4.79423850774765010000e-001, -2.33176544308662410000e-001, -2.15265527367591860000e-001, 4.36548709869384770000e-001, 5.16203463077545170000e-001, -1.93527892231941220000e-001, 1.79551646113395690000e-001, 6.19486451148986820000e-001, 4.48991864919662480000e-001, 7.46156394481658940000e-001, 1.24188339710235600000e+000, 4.87957596778869630000e-001, 1.15320754051208500000e+000, 5.95646262168884280000e-001, 4.77540761232376100000e-001, 3.85431587696075440000e-001, 4.69160109758377080000e-001, -2.18982666730880740000e-001, 4.38681930303573610000e-001, -3.40439788997173310000e-002, 3.19225758314132690000e-001, -1.43071785569190980000e-001, 4.18827205896377560000e-001, -3.66900831460952760000e-001, -8.85207131505012510000e-002, 2.12663952261209490000e-002, 4.57333177328109740000e-001, 4.08710479736328130000e-001, -3.15367728471755980000e-002, 2.50923514366149900000e-001, 4.95341509580612180000e-001, 7.15783417224884030000e-001, 1.43476039171218870000e-001, 3.41214925050735470000e-001, 3.30921083688735960000e-001, 3.95601131021976470000e-002, 9.86213162541389470000e-002, -2.03151628375053410000e-002, 4.44978773593902590000e-001, -7.62413680553436280000e-001, 1.51342734694480900000e-001, -9.14378225803375240000e-001, 3.28859776258468630000e-001, 4.29563462734222410000e-001, 1.13995231688022610000e-001, -3.75121310353279110000e-002, -9.39332395792007450000e-002, 3.80844831466674800000e-001, 4.67479974031448360000e-001, -6.22430704534053800000e-002, -1.08039999008178710000e+000, 5.67067742347717290000e-001, 3.40021848678588870000e-001, 6.43548130989074710000e-001, 4.34571623802185060000e-001, 1.74655333161354060000e-001, 3.09693187475204470000e-001, 1.17032095789909360000e-001, 3.64946350455284120000e-002, 1.59341081976890560000e-001, 6.24027371406555180000e-001, 7.11358070373535160000e-001, -1.96755840443074700000e-003, 8.33629593253135680000e-002, 4.00584191083908080000e-001, 2.09643512964248660000e-001, -9.78392288088798520000e-002, 5.35466074943542480000e-001, 2.36569985747337340000e-001, 4.94492173194885250000e-001, 4.87730562686920170000e-001, -1.20201921090483670000e-002, 9.72644388675689700000e-001, 7.01601326465606690000e-001, 3.72635006904602050000e-001, -9.10285580903291700000e-003};

const fann_layer fann_layers[5] = {{0, 26}, {26, 48}, {48, 70}, {70, 92}, {92, 97}};


#endif // FANN_FANN_NET_H_
