FANN_FLO_2.1
num_layers=3
learning_rate=0.700000
connection_rate=1.000000
network_type=0
learning_momentum=0.000000
training_algorithm=2
train_error_function=0
train_stop_function=0
cascade_output_change_fraction=0.010000
quickprop_decay=-0.000100
quickprop_mu=1.750000
rprop_increase_factor=1.200000
rprop_decrease_factor=0.500000
rprop_delta_min=0.000000
rprop_delta_max=50.000000
rprop_delta_zero=0.100000
cascade_output_stagnation_epochs=12
cascade_candidate_change_fraction=0.010000
cascade_candidate_stagnation_epochs=12
cascade_max_out_epochs=150
cascade_min_out_epochs=50
cascade_max_cand_epochs=150
cascade_min_cand_epochs=50
cascade_num_candidate_groups=2
bit_fail_limit=3.49999994039535520000e-001
cascade_candidate_limit=1.00000000000000000000e+003
cascade_weight_multiplier=4.00000005960464480000e-001
cascade_activation_functions_count=10
cascade_activation_functions=3 5 7 8 10 11 14 15 16 17 
cascade_activation_steepnesses_count=4
cascade_activation_steepnesses=2.50000000000000000000e-001 5.00000000000000000000e-001 7.50000000000000000000e-001 1.00000000000000000000e+000 
layer_sizes=179 89 3 
scale_included=0
neurons (num_inputs, activation_function, activation_steepness)=(0, 0, 0.00000000000000000000e+000) (0, 0, 0.00000000000000000000e+000) (0, 0, 0.00000000000000000000e+000) (0, 0, 0.00000000000000000000e+000) (0, 0, 0.00000000000000000000e+000) (0, 0, 0.00000000000000000000e+000) (0, 0, 0.00000000000000000000e+000) (0, 0, 0.00000000000000000000e+000) (0, 0, 0.00000000000000000000e+000) (0, 0, 0.00000000000000000000e+000) (0, 0, 0.00000000000000000000e+000) (0, 0, 0.00000000000000000000e+000) (0, 0, 0.00000000000000000000e+000) (0, 0, 0.00000000000000000000e+000) (0, 0, 0.00000000000000000000e+000) (0, 0, 0.00000000000000000000e+000) (0, 0, 0.00000000000000000000e+000) (0, 0, 0.00000000000000000000e+000) (0, 0, 0.00000000000000000000e+000) (0, 0, 0.00000000000000000000e+000) (0, 0, 0.00000000000000000000e+000) (0, 0, 0.00000000000000000000e+000) (0, 0, 0.00000000000000000000e+000) (0, 0, 0.00000000000000000000e+000) (0, 0, 0.00000000000000000000e+000) (0, 0, 0.00000000000000000000e+000) (0, 0, 0.00000000000000000000e+000) (0, 0, 0.00000000000000000000e+000) (0, 0, 0.00000000000000000000e+000) (0, 0, 0.00000000000000000000e+000) (0, 0, 0.00000000000000000000e+000) (0, 0, 0.00000000000000000000e+000) (0, 0, 0.00000000000000000000e+000) (0, 0, 0.00000000000000000000e+000) (0, 0, 0.00000000000000000000e+000) (0, 0, 0.00000000000000000000e+000) (0, 0, 0.00000000000000000000e+000) (0, 0, 0.00000000000000000000e+000) (0, 0, 0.00000000000000000000e+000) (0, 0, 0.00000000000000000000e+000) (0, 0, 0.00000000000000000000e+000) (0, 0, 0.00000000000000000000e+000) (0, 0, 0.00000000000000000000e+000) (0, 0, 0.00000000000000000000e+000) (0, 0, 0.00000000000000000000e+000) (0, 0, 0.00000000000000000000e+000) (0, 0, 0.00000000000000000000e+000) (0, 0, 0.00000000000000000000e+000) (0, 0, 0.00000000000000000000e+000) (0, 0, 0.00000000000000000000e+000) (0, 0, 0.00000000000000000000e+000) (0, 0, 0.00000000000000000000e+000) (0, 0, 0.00000000000000000000e+000) (0, 0, 0.00000000000000000000e+000) (0, 0, 0.00000000000000000000e+000) (0, 0, 0.00000000000000000000e+000) (0, 0, 0.00000000000000000000e+000) (0, 0, 0.00000000000000000000e+000) (0, 0, 0.00000000000000000000e+000) (0, 0, 0.00000000000000000000e+000) (0, 0, 0.00000000000000000000e+000) (0, 0, 0.00000000000000000000e+000) (0, 0, 0.00000000000000000000e+000) (0, 0, 0.00000000000000000000e+000) (0, 0, 0.00000000000000000000e+000) (0, 0, 0.00000000000000000000e+000) (0, 0, 0.00000000000000000000e+000) (0, 0, 0.00000000000000000000e+000) (0, 0, 0.00000000000000000000e+000) (0, 0, 0.00000000000000000000e+000) (0, 0, 0.00000000000000000000e+000) (0, 0, 0.00000000000000000000e+000) (0, 0, 0.00000000000000000000e+000) (0, 0, 0.00000000000000000000e+000) (0, 0, 0.00000000000000000000e+000) (0, 0, 0.00000000000000000000e+000) (0, 0, 0.00000000000000000000e+000) (0, 0, 0.00000000000000000000e+000) (0, 0, 0.00000000000000000000e+000) (0, 0, 0.00000000000000000000e+000) (0, 0, 0.00000000000000000000e+000) (0, 0, 0.00000000000000000000e+000) (0, 0, 0.00000000000000000000e+000) (0, 0, 0.00000000000000000000e+000) (0, 0, 0.00000000000000000000e+000) (0, 0, 0.00000000000000000000e+000) (0, 0, 0.00000000000000000000e+000) (0, 0, 0.00000000000000000000e+000) (0, 0, 0.00000000000000000000e+000) (0, 0, 0.00000000000000000000e+000) (0, 0, 0.00000000000000000000e+000) (0, 0, 0.00000000000000000000e+000) (0, 0, 0.00000000000000000000e+000) (0, 0, 0.00000000000000000000e+000) (0, 0, 0.00000000000000000000e+000) (0, 0, 0.00000000000000000000e+000) (0, 0, 0.00000000000000000000e+000) (0, 0, 0.00000000000000000000e+000) (0, 0, 0.00000000000000000000e+000) (0, 0, 0.00000000000000000000e+000) (0, 0, 0.00000000000000000000e+000) (0, 0, 0.00000000000000000000e+000) (0, 0, 0.00000000000000000000e+000) (0, 0, 0.00000000000000000000e+000) (0, 0, 0.00000000000000000000e+000) (0, 0, 0.00000000000000000000e+000) (0, 0, 0.00000000000000000000e+000) (0, 0, 0.00000000000000000000e+000) (0, 0, 0.00000000000000000000e+000) (0, 0, 0.00000000000000000000e+000) (0, 0, 0.00000000000000000000e+000) (0, 0, 0.00000000000000000000e+000) (0, 0, 0.00000000000000000000e+000) (0, 0, 0.00000000000000000000e+000) (0, 0, 0.00000000000000000000e+000) (0, 0, 0.00000000000000000000e+000) (0, 0, 0.00000000000000000000e+000) (0, 0, 0.00000000000000000000e+000) (0, 0, 0.00000000000000000000e+000) (0, 0, 0.00000000000000000000e+000) (0, 0, 0.00000000000000000000e+000) (0, 0, 0.00000000000000000000e+000) (0, 0, 0.00000000000000000000e+000) (0, 0, 0.00000000000000000000e+000) (0, 0, 0.00000000000000000000e+000) (0, 0, 0.00000000000000000000e+000) (0, 0, 0.00000000000000000000e+000) (0, 0, 0.00000000000000000000e+000) (0, 0, 0.00000000000000000000e+000) (0, 0, 0.00000000000000000000e+000) (0, 0, 0.00000000000000000000e+000) (0, 0, 0.00000000000000000000e+000) (0, 0, 0.00000000000000000000e+000) (0, 0, 0.00000000000000000000e+000) (0, 0, 0.00000000000000000000e+000) (0, 0, 0.00000000000000000000e+000) (0, 0, 0.00000000000000000000e+000) (0, 0, 0.00000000000000000000e+000) (0, 0, 0.00000000000000000000e+000) (0, 0, 0.00000000000000000000e+000) (0, 0, 0.00000000000000000000e+000) (0, 0, 0.00000000000000000000e+000) (0, 0, 0.00000000000000000000e+000) (0, 0, 0.00000000000000000000e+000) (0, 0, 0.00000000000000000000e+000) (0, 0, 0.00000000000000000000e+000) (0, 0, 0.00000000000000000000e+000) (0, 0, 0.00000000000000000000e+000) (0, 0, 0.00000000000000000000e+000) (0, 0, 0.00000000000000000000e+000) (0, 0, 0.00000000000000000000e+000) (0, 0, 0.00000000000000000000e+000) (0, 0, 0.00000000000000000000e+000) (0, 0, 0.00000000000000000000e+000) (0, 0, 0.00000000000000000000e+000) (0, 0, 0.00000000000000000000e+000) (0, 0, 0.00000000000000000000e+000) (0, 0, 0.00000000000000000000e+000) (0, 0, 0.00000000000000000000e+000) (0, 0, 0.00000000000000000000e+000) (0, 0, 0.00000000000000000000e+000) (0, 0, 0.00000000000000000000e+000) (0, 0, 0.00000000000000000000e+000) (0, 0, 0.00000000000000000000e+000) (0, 0, 0.00000000000000000000e+000) (0, 0, 0.00000000000000000000e+000) (0, 0, 0.00000000000000000000e+000) (0, 0, 0.00000000000000000000e+000) (0, 0, 0.00000000000000000000e+000) (0, 0, 0.00000000000000000000e+000) (0, 0, 0.00000000000000000000e+000) (0, 0, 0.00000000000000000000e+000) (0, 0, 0.00000000000000000000e+000) (0, 0, 0.00000000000000000000e+000) (0, 0, 0.00000000000000000000e+000) (0, 0, 0.00000000000000000000e+000) (0, 0, 0.00000000000000000000e+000) (0, 0, 0.00000000000000000000e+000) (0, 0, 0.00000000000000000000e+000) (179, 5, 5.00000000000000000000e-001) (179, 5, 5.00000000000000000000e-001) (179, 5, 5.00000000000000000000e-001) (179, 5, 5.00000000000000000000e-001) (179, 5, 5.00000000000000000000e-001) (179, 5, 5.00000000000000000000e-001) (179, 5, 5.00000000000000000000e-001) (179, 5, 5.00000000000000000000e-001) (179, 5, 5.00000000000000000000e-001) (179, 5, 5.00000000000000000000e-001) (179, 5, 5.00000000000000000000e-001) (179, 5, 5.00000000000000000000e-001) (179, 5, 5.00000000000000000000e-001) (179, 5, 5.00000000000000000000e-001) (179, 5, 5.00000000000000000000e-001) (179, 5, 5.00000000000000000000e-001) (179, 5, 5.00000000000000000000e-001) (179, 5, 5.00000000000000000000e-001) (179, 5, 5.00000000000000000000e-001) (179, 5, 5.00000000000000000000e-001) (179, 5, 5.00000000000000000000e-001) (179, 5, 5.00000000000000000000e-001) (179, 5, 5.00000000000000000000e-001) (179, 5, 5.00000000000000000000e-001) (179, 5, 5.00000000000000000000e-001) (179, 5, 5.00000000000000000000e-001) (179, 5, 5.00000000000000000000e-001) (179, 5, 5.00000000000000000000e-001) (179, 5, 5.00000000000000000000e-001) (179, 5, 5.00000000000000000000e-001) (179, 5, 5.00000000000000000000e-001) (179, 5, 5.00000000000000000000e-001) (179, 5, 5.00000000000000000000e-001) (179, 5, 5.00000000000000000000e-001) (179, 5, 5.00000000000000000000e-001) (179, 5, 5.00000000000000000000e-001) (179, 5, 5.00000000000000000000e-001) (179, 5, 5.00000000000000000000e-001) (179, 5, 5.00000000000000000000e-001) (179, 5, 5.00000000000000000000e-001) (179, 5, 5.00000000000000000000e-001) (179, 5, 5.00000000000000000000e-001) (179, 5, 5.00000000000000000000e-001) (179, 5, 5.00000000000000000000e-001) (179, 5, 5.00000000000000000000e-001) (179, 5, 5.00000000000000000000e-001) (179, 5, 5.00000000000000000000e-001) (179, 5, 5.00000000000000000000e-001) (179, 5, 5.00000000000000000000e-001) (179, 5, 5.00000000000000000000e-001) (179, 5, 5.00000000000000000000e-001) (179, 5, 5.00000000000000000000e-001) (179, 5, 5.00000000000000000000e-001) (179, 5, 5.00000000000000000000e-001) (179, 5, 5.00000000000000000000e-001) (179, 5, 5.00000000000000000000e-001) (179, 5, 5.00000000000000000000e-001) (179, 5, 5.00000000000000000000e-001) (179, 5, 5.00000000000000000000e-001) (179, 5, 5.00000000000000000000e-001) (179, 5, 5.00000000000000000000e-001) (179, 5, 5.00000000000000000000e-001) (179, 5, 5.00000000000000000000e-001) (179, 5, 5.00000000000000000000e-001) (179, 5, 5.00000000000000000000e-001) (179, 5, 5.00000000000000000000e-001) (179, 5, 5.00000000000000000000e-001) (179, 5, 5.00000000000000000000e-001) (179, 5, 5.00000000000000000000e-001) (179, 5, 5.00000000000000000000e-001) (179, 5, 5.00000000000000000000e-001) (179, 5, 5.00000000000000000000e-001) (179, 5, 5.00000000000000000000e-001) (179, 5, 5.00000000000000000000e-001) (179, 5, 5.00000000000000000000e-001) (179, 5, 5.00000000000000000000e-001) (179, 5, 5.00000000000000000000e-001) (179, 5, 5.00000000000000000000e-001) (179, 5, 5.00000000000000000000e-001) (179, 5, 5.00000000000000000000e-001) (179, 5, 5.00000000000000000000e-001) (179, 5, 5.00000000000000000000e-001) (179, 5, 5.00000000000000000000e-001) (179, 5, 5.00000000000000000000e-001) (179, 5, 5.00000000000000000000e-001) (179, 5, 5.00000000000000000000e-001) (179, 5, 5.00000000000000000000e-001) (179, 5, 5.00000000000000000000e-001) (0, 5, 5.00000000000000000000e-001) (89, 5, 5.00000000000000000000e-001) (89, 5, 5.00000000000000000000e-001) (0, 5, 5.00000000000000000000e-001) 
connections (connected_to_neuron, weight)=(0, -5.39164841175079350000e-001) (1, -6.03699684143066410000e-001) (2, 4.34615984559059140000e-002) (3, 2.58583307266235350000e-001) (4, -8.27678561210632320000e-001) (5, -6.95437669754028320000e-001) (6, -2.14364543557167050000e-001) (7, -2.94073790311813350000e-001) (8, -1.42115652561187740000e-002) (9, 7.57274851202964780000e-002) (10, 4.35067079961299900000e-002) (11, 1.52627089992165570000e-002) (12, -9.97385233640670780000e-002) (13, 2.84952484071254730000e-002) (14, 1.90684095025062560000e-001) (15, 1.42097711563110350000e-001) (16, 1.55944585800170900000e-001) (17, 3.68166327476501460000e-001) (18, 4.05140519142150880000e-001) (19, 7.73443505167961120000e-002) (20, 2.12893292307853700000e-001) (21, 4.12912517786026000000e-002) (22, -5.81852681934833530000e-002) (23, 1.93327456712722780000e-001) (24, 9.92616266012191770000e-002) (25, 1.16089947521686550000e-001) (26, -4.01099063456058500000e-002) (27, 5.32160513103008270000e-002) (28, -3.96392434835433960000e-001) (29, -1.91204279661178590000e-001) (30, -1.28950938582420350000e-001) (31, 1.60482171922922130000e-002) (32, -3.77779230475425720000e-002) (33, 8.73543545603752140000e-002) (34, 9.27253067493438720000e-002) (35, 1.96728140115737920000e-001) (36, 1.04110218584537510000e-001) (37, -4.97608492150902750000e-003) (38, 1.43750548362731930000e-001) (39, 2.14516043663024900000e-001) (40, 5.17331361770629880000e-001) (41, 2.75795578956604000000e-001) (42, 1.98895215988159180000e-001) (43, 2.29093000292778020000e-001) (44, 2.81104356050491330000e-001) (45, 9.70964729785919190000e-002) (46, 1.24589771032333370000e-001) (47, -1.21312379837036130000e-001) (48, 2.22765788435935970000e-001) (49, 1.14392064511775970000e-001) (50, 6.06345176696777340000e-001) (51, -3.81475478410720830000e-001) (52, -1.53665930032730100000e-001) (53, 7.77044147253036500000e-002) (54, 7.60723650455474850000e-002) (55, 5.57036660611629490000e-002) (56, -1.51572465896606450000e-001) (57, -1.57495960593223570000e-001) (58, -1.88082441687583920000e-001) (59, -6.62016987800598140000e-001) (60, -4.40676927566528320000e-001) (61, 2.23347898572683330000e-002) (62, 5.59840165078639980000e-002) (63, 4.09029498696327210000e-002) (64, -9.43920481950044630000e-003) (65, -5.37848532199859620000e-001) (66, 5.00739812850952150000e-001) (67, 4.63250845670700070000e-001) (68, 2.60110855102539060000e-001) (69, 1.32295608520507810000e-001) (70, -6.10682427883148190000e-001) (71, -1.89948856830596920000e-001) (72, 1.65720447897911070000e-001) (73, 3.97069990634918210000e-001) (74, -4.35898378491401670000e-002) (75, 6.97980001568794250000e-002) (76, -1.84948056936264040000e-001) (77, 7.40914270281791690000e-002) (78, -4.62905257940292360000e-001) (79, -3.24704319238662720000e-001) (80, -5.12936294078826900000e-001) (81, -5.38171112537384030000e-001) (82, -6.42120122909545900000e-001) (83, -1.32264912128448490000e-001) (84, -7.32956305146217350000e-002) (85, -3.16838175058364870000e-001) (86, 9.27417650818824770000e-002) (87, 8.54814052581787110000e-002) (88, -1.01299956440925600000e-001) (89, -4.33685258030891420000e-002) (90, -4.92810398340225220000e-001) (91, -1.19794882833957670000e-001) (92, 9.21038463711738590000e-002) (93, 3.93437892198562620000e-001) (94, 7.68290221691131590000e-001) (95, 5.52116513252258300000e-001) (96, 2.11428210139274600000e-001) (97, -6.59084498882293700000e-001) (98, -2.78474897146224980000e-001) (99, -5.99426329135894780000e-002) (100, 2.50115811824798580000e-001) (101, 3.47324132919311520000e-001) (102, 4.51487243175506590000e-001) (103, 3.26369583606719970000e-001) (104, 2.64660775661468510000e-001) (105, 2.67711371183395390000e-001) (106, -7.56639689207077030000e-002) (107, -1.39116225764155390000e-002) (108, -7.92565464973449710000e-001) (109, -7.80535638332366940000e-001) (110, -2.03274652361869810000e-001) (111, -2.29559481143951420000e-001) (112, -3.75925630331039430000e-001) (113, -5.34330308437347410000e-001) (114, -2.28928342461586000000e-001) (115, 2.86483556032180790000e-001) (116, 1.21470674872398380000e-001) (117, 3.01939360797405240000e-002) (118, -2.53632038831710820000e-001) (119, -1.36161133646965030000e-001) (120, 1.89761251211166380000e-001) (121, 4.08085018396377560000e-001) (122, 1.85254693031311040000e-001) (123, -1.59449711441993710000e-001) (124, -2.21306830644607540000e-001) (125, -3.12010288238525390000e-001) (126, 2.44439855217933650000e-001) (127, 5.78088462352752690000e-001) (128, 4.94232952594757080000e-001) (129, 3.31989191472530360000e-002) (130, -1.54162913560867310000e-001) (131, 3.65809589624404910000e-001) (132, 4.91077393293380740000e-001) (133, -1.53214961290359500000e-001) (134, -2.83220201730728150000e-001) (135, 1.04489721357822420000e-001) (136, 2.66713559627532960000e-001) (137, -7.32559800148010250000e-001) (138, 5.21217703819274900000e-001) (139, 1.74126863479614260000e-001) (140, 1.78424775600433350000e-001) (141, 4.78861890733242030000e-002) (142, -2.77661867439746860000e-002) (143, -1.98467984795570370000e-001) (144, -3.63894015550613400000e-001) (145, -3.25950503349304200000e-001) (146, 3.10299620032310490000e-002) (147, 7.83060118556022640000e-002) (148, -2.56126224994659420000e-001) (149, 2.31626391410827640000e-001) (150, -1.40024065971374510000e+000) (151, -1.97658479213714600000e-001) (152, -2.44123153388500210000e-002) (153, 1.41999050974845890000e-001) (154, 8.65202486515045170000e-001) (155, 1.21632464230060580000e-001) (156, -1.08485095202922820000e-001) (157, -2.64737933874130250000e-001) (158, -5.86791276931762700000e-001) (159, -1.20609179139137270000e-001) (160, 3.32658514380455020000e-002) (161, 6.08117818832397460000e-001) (162, -9.39385890960693360000e-002) (163, -3.02031606435775760000e-001) (164, 1.71313241124153140000e-001) (165, -3.17682147026062010000e-001) (166, 2.58090674877166750000e-001) (167, 2.81515240669250490000e-001) (168, -8.42561572790145870000e-002) (169, -4.19626533985137940000e-002) (170, -6.89018368721008300000e-002) (171, -1.09110139310359950000e-001) (172, -4.74718660116195680000e-002) (173, -1.29550978541374210000e-001) (174, 7.58157312870025630000e-001) (175, -1.81932657957077030000e-001) (176, -1.91647917032241820000e-001) (177, -2.88118962198495860000e-002) (178, -4.66443777084350590000e+000) (0, 6.06128945946693420000e-003) (1, 3.31065028905868530000e-001) (2, 5.28883695602416990000e-001) (3, 3.01957130432128910000e-001) (4, 4.62044328451156620000e-001) (5, -5.22582232952117920000e-001) (6, -2.18594878911972050000e-001) (7, -2.12756335735321040000e-001) (8, -1.48481950163841250000e-001) (9, 1.76551323384046550000e-002) (10, 2.37229406833648680000e-001) (11, 1.13487459719181060000e-001) (12, 3.71742933988571170000e-001) (13, -2.84649264067411420000e-002) (14, 6.73153772950172420000e-002) (15, 3.02122801542282100000e-001) (16, 2.80880302190780640000e-001) (17, 3.15702289342880250000e-001) (18, 1.26032054424285890000e-001) (19, -4.85298275947570800000e-001) (20, -5.53341925144195560000e-001) (21, -4.33318525552749630000e-001) (22, 1.59381970763206480000e-001) (23, 2.76971142739057540000e-002) (24, 9.39248278737068180000e-002) (25, 4.09930914640426640000e-001) (26, 3.07263344526290890000e-001) (27, 2.19389840960502620000e-001) (28, 1.71134328842163090000e+000) (29, 1.06612443923950200000e+000) (30, 1.46809804439544680000e+000) (31, 6.21476948261260990000e-001) (32, 1.54315841197967530000e+000) (33, 7.22697436809539790000e-001) (34, 4.93623346090316770000e-001) (35, 1.68904855847358700000e-001) (36, 9.56180840730667110000e-002) (37, 1.98840349912643430000e-002) (38, -1.17733813822269440000e-001) (39, -1.33074566721916200000e-001) (40, 8.44751968979835510000e-002) (41, 9.94907990097999570000e-002) (42, 8.99374410510063170000e-002) (43, -1.73790529370307920000e-001) (44, -6.19821250438690190000e-001) (45, 3.41137439012527470000e-001) (46, 2.80688256025314330000e-001) (47, 5.47819852828979490000e-001) (48, 3.64451676607131960000e-001) (49, 1.64479881525039670000e-001) (50, 2.30250284075737000000e-001) (51, 1.36703014373779300000e+000) (52, 1.93851399421691890000e+000) (53, 8.64582479000091550000e-001) (54, 2.10374474525451660000e-001) (55, -3.38368862867355350000e-002) (56, -1.61198433488607410000e-003) (57, 4.70193743705749510000e-001) (58, 1.84072583913803100000e-001) (59, 3.00118416547775270000e-001) (60, 2.17156887054443360000e-001) (61, 1.11334480345249180000e-001) (62, 6.43076002597808840000e-001) (63, 1.31344303488731380000e-001) (64, 1.10928878188133240000e-001) (65, -1.72806605696678160000e-001) (66, -1.02246113121509550000e-001) (67, -1.73328325152397160000e-001) (68, -8.07562656700611110000e-003) (69, -5.34617677330970760000e-002) (70, 2.12803296744823460000e-002) (71, -4.13778685033321380000e-002) (72, 4.84346270561218260000e-001) (73, 9.77289974689483640000e-001) (74, 3.32991480827331540000e-001) (75, 3.74209284782409670000e-001) (76, 1.06455993652343750000e+000) (77, 4.33661311864852910000e-001) (78, 1.18649967014789580000e-001) (79, 2.25302129983901980000e-001) (80, 6.19097769260406490000e-001) (81, 1.51000893115997310000e+000) (82, 1.36788725852966310000e+000) (83, 8.33929419517517090000e-001) (84, 1.72602713108062740000e-001) (85, 2.69762992858886720000e-001) (86, 6.42755448818206790000e-001) (87, 6.74382805824279790000e-001) (88, 7.39279270172119140000e-001) (89, 8.20638358592987060000e-001) (90, 1.61754858493804930000e+000) (91, 7.44600355625152590000e-001) (92, 4.56677496433258060000e-001) (93, 5.74274182319641110000e-001) (94, -9.80765670537948610000e-002) (95, 2.69812978804111480000e-002) (96, -9.00043025612831120000e-002) (97, -6.82106912136077880000e-001) (98, 1.93389784544706340000e-002) (99, -1.33148292661644520000e-004) (100, -1.55091300606727600000e-001) (101, 3.01309525966644290000e-002) (102, 5.74504673480987550000e-001) (103, 2.18472391366958620000e-001) (104, 4.50787805020809170000e-002) (105, 4.66878376901149750000e-002) (106, 3.80502015352249150000e-001) (107, -1.32990568876266480000e-001) (108, 2.82866179943084720000e-001) (109, 7.57080972194671630000e-001) (110, 9.61323499679565430000e-001) (111, 6.64914906024932860000e-001) (112, 5.54686546325683590000e-001) (113, 6.51773214340209960000e-001) (114, 5.20821750164031980000e-001) (115, 3.83304178714752200000e-001) (116, 2.93531984090805050000e-001) (117, 4.74755227565765380000e-001) (118, 3.65335434675216670000e-001) (119, 3.04408460855484010000e-001) (120, 5.94287872314453130000e-001) (121, 6.08992636203765870000e-001) (122, 8.57528150081634520000e-001) (123, 2.02923655509948730000e-001) (124, 3.59174668788909910000e-001) (125, 9.50341522693634030000e-001) (126, 4.23219740390777590000e-001) (127, 1.69091260433197020000e+000) (128, 8.03970158100128170000e-001) (129, 8.48140776157379150000e-001) (130, 1.58691093325614930000e-001) (131, 1.01891922950744630000e+000) (132, 5.21323680877685550000e-001) (133, 1.03506970405578610000e+000) (134, 4.98046249151229860000e-001) (135, -1.81949898600578310000e-001) (136, -5.29382526874542240000e-001) (137, 2.04107747413218020000e-003) (138, 5.28038263320922850000e-001) (139, 5.51843285560607910000e-001) (140, 6.41416966915130620000e-001) (141, 7.18243241310119630000e-001) (142, 1.21444404125213620000e+000) (143, 1.87005984783172610000e+000) (144, 9.43484842777252200000e-001) (145, 1.36531496047973630000e+000) (146, 8.34903538227081300000e-001) (147, 1.13064609467983250000e-001) (148, 1.68037772178649900000e-001) (149, 9.82527434825897220000e-001) (150, 2.14918851852416990000e-001) (151, 6.00450485944747920000e-002) (152, 1.65226384997367860000e-001) (153, -2.53293551504611970000e-002) (154, -1.61697015166282650000e-001) (155, 1.86342209577560420000e-001) (156, 5.14985024929046630000e-001) (157, 1.35809838771820070000e-001) (158, 1.02795444428920750000e-001) (159, 3.13462734222412110000e-001) (160, 8.54060873389244080000e-002) (161, 3.59277576208114620000e-001) (162, 4.64481145143508910000e-001) (163, 1.60820460319519040000e+000) (164, 3.37515443563461300000e-001) (165, 6.30110144615173340000e-001) (166, 7.12419509887695310000e-001) (167, 7.11885750293731690000e-001) (168, 6.29831671714782710000e-001) (169, 2.71514773368835450000e-001) (170, 1.55877336859703060000e-001) (171, 1.25727191567420960000e-001) (172, 3.92698258161544800000e-001) (173, 1.85449540615081790000e-001) (174, -4.27079975605010990000e-001) (175, -5.96328198909759520000e-001) (176, 9.26889061927795410000e-001) (177, 2.27349114418029790000e+000) (178, 5.50644278526306150000e-001) (0, -8.17692041397094730000e-001) (1, -6.16737008094787600000e-002) (2, -2.19419568777084350000e-001) (3, -3.70918214321136470000e-001) (4, 2.94024437665939330000e-001) (5, 3.25058817863464360000e-001) (6, 7.89361119270324710000e-001) (7, 1.07881605625152590000e+000) (8, 4.76167738437652590000e-001) (9, 6.68037414550781250000e-001) (10, 7.40042448043823240000e-001) (11, 8.18831145763397220000e-001) (12, 5.35134077072143550000e-001) (13, -7.86197856068611150000e-002) (14, -7.23397076129913330000e-001) (15, 3.76695096492767330000e-002) (16, 1.11792437732219700000e-001) (17, 9.66806933283805850000e-002) (18, 5.24133630096912380000e-002) (19, -7.49359801411628720000e-002) (20, -8.43197405338287350000e-002) (21, 3.35092544555664060000e-001) (22, 2.97037720680236820000e-001) (23, 9.39823910593986510000e-002) (24, 9.15392756462097170000e-001) (25, -8.29006493091583250000e-001) (26, 6.19545876979827880000e-001) (27, 9.61025297641754150000e-001) (28, 5.05266606807708740000e-001) (29, 7.99489259719848630000e-001) (30, 1.60372361540794370000e-001) (31, 4.56638365983963010000e-001) (32, 5.82943558692932130000e-001) (33, -1.34135589003562930000e-001) (34, 1.14336204528808590000e+000) (35, 1.13128745555877690000e+000) (36, 9.11265373229980470000e-001) (37, 7.72841155529022220000e-001) (38, -5.12177944183349610000e-001) (39, 4.41704653203487400000e-002) (40, 8.69777500629425050000e-001) (41, 3.71031969785690310000e-001) (42, 3.67810308933258060000e-001) (43, 1.94246873259544370000e-001) (44, 3.55262547731399540000e-001) (45, 2.87138670682907100000e-001) (46, -3.94257098436355590000e-001) (47, 8.09124559164047240000e-002) (48, -1.61477327346801760000e-002) (49, -2.45224714279174800000e-001) (50, 1.66232064366340640000e-001) (51, 6.56041258480399850000e-004) (52, -7.26644396781921390000e-002) (53, 9.23485398292541500000e-001) (54, 7.83502101898193360000e-001) (55, 8.07359755039215090000e-001) (56, 1.95299401879310610000e-001) (57, 4.66985702514648440000e-001) (58, -3.17874312400817870000e-001) (59, -3.42927783727645870000e-001) (60, 2.53991037607192990000e-002) (61, -5.49893416464328770000e-002) (62, -3.58039326965808870000e-002) (63, 5.03131389617919920000e-001) (64, 7.35887944698333740000e-001) (65, 3.88314366340637210000e-001) (66, 1.44360333681106570000e-001) (67, 5.92965900897979740000e-001) (68, 5.68615734577178960000e-001) (69, 9.68544036149978640000e-002) (70, 3.03475469350814820000e-001) (71, 8.37343394756317140000e-001) (72, 6.81147396564483640000e-001) (73, 2.21636947244405750000e-002) (74, 4.95021045207977290000e-001) (75, 4.34107571840286250000e-001) (76, 4.28263723850250240000e-001) (77, 3.62258970737457280000e-001) (78, 5.04014194011688230000e-001) (79, 5.84177970886230470000e-001) (80, 3.19980174303054810000e-001) (81, 1.02400891482830050000e-001) (82, -2.85513520240783690000e-001) (83, -2.55321770906448360000e-001) (84, -3.93503457307815550000e-002) (85, 7.22384229302406310000e-002) (86, 5.81237673759460450000e-002) (87, 1.55280396342277530000e-001) (88, 3.49937289953231810000e-001) (89, 2.33567327260971070000e-001) (90, 2.47785705141723160000e-004) (91, 5.12824766337871550000e-002) (92, 6.00837171077728270000e-001) (93, 5.95408499240875240000e-001) (94, 7.26797997951507570000e-001) (95, 5.39648890495300290000e-001) (96, 8.37467908859252930000e-001) (97, 1.08820378780364990000e+000) (98, 7.48960793018341060000e-001) (99, 1.47391557693481450000e-001) (100, 1.42092376947402950000e-001) (101, 9.66106057167053220000e-002) (102, 2.98648383468389510000e-002) (103, 1.56743198633193970000e-001) (104, -1.47316426038742070000e-001) (105, -4.14452970027923580000e-001) (106, -3.21102112531661990000e-001) (107, 9.61345359683036800000e-002) (108, 6.93089962005615230000e-002) (109, 5.90347707271575930000e-001) (110, 1.61062747240066530000e-001) (111, -9.96854156255722050000e-002) (112, -3.97156983613967900000e-001) (113, 1.09956726431846620000e-001) (114, -5.44186905026435850000e-002) (115, -4.77593615651130680000e-002) (116, -5.12013435363769530000e-002) (117, -1.17972552776336670000e-001) (118, -7.19637349247932430000e-002) (119, 1.02493800222873690000e-001) (120, -1.03214509785175320000e-001) (121, -8.23296010494232180000e-002) (122, -5.67072182893753050000e-002) (123, 1.84514746069908140000e-002) (124, 2.88422200828790660000e-002) (125, 8.09522792696952820000e-002) (126, 9.53435152769088750000e-002) (127, 1.91928073763847350000e-002) (128, -9.07584875822067260000e-002) (129, -1.05808980762958530000e-001) (130, 1.96493268013000490000e-002) (131, 1.71291634440422060000e-001) (132, 3.75425338745117190000e-001) (133, 4.02053222060203550000e-002) (134, 7.65833407640457150000e-002) (135, -1.65826752781867980000e-002) (136, 4.23652259632945060000e-003) (137, 6.69220164418220520000e-002) (138, 6.58184960484504700000e-002) (139, -7.21952617168426510000e-002) (140, 1.35841608047485350000e-001) (141, -1.22717417776584630000e-001) (142, -2.06946671009063720000e-001) (143, -1.29609256982803340000e-001) (144, 1.21847748756408690000e-001) (145, 9.51979696750640870000e-001) (146, 1.16203629970550540000e+000) (147, 4.45430219173431400000e-001) (148, 7.55086362361907960000e-001) (149, 3.58465880155563350000e-001) (150, 4.96781885623931880000e-001) (151, 1.66587546467781070000e-001) (152, 3.36698383092880250000e-001) (153, 1.09680175781250000000e-001) (154, -7.03145097941160200000e-003) (155, -4.07478995621204380000e-002) (156, 2.33887284994125370000e-002) (157, 4.67860251665115360000e-001) (158, 3.34952235221862790000e-001) (159, 6.00062191486358640000e-001) (160, 7.22666203975677490000e-001) (161, 4.41754519939422610000e-001) (162, -9.52817946672439580000e-002) (163, -4.78958010673522950000e-001) (164, -6.79453909397125240000e-001) (165, -5.90883731842041020000e-001) (166, -2.15077236294746400000e-001) (167, -2.99311615526676180000e-002) (168, -4.51228916645050050000e-001) (169, -3.38036328554153440000e-001) (170, -1.70376524329185490000e-001) (171, -1.04727618396282200000e-001) (172, 8.80565643310546880000e-002) (173, 1.01155474781990050000e-001) (174, 1.20200989767909050000e-002) (175, -1.25742942094802860000e-001) (176, 7.97294825315475460000e-002) (177, -1.93351536989212040000e-001) (178, -1.08396089076995850000e+000) (0, 2.00906991958618160000e+000) (1, 1.18978393077850340000e+000) (2, 7.93617546558380130000e-001) (3, 1.39057576656341550000e+000) (4, 1.66925990581512450000e+000) (5, 1.12397432327270510000e+000) (6, 6.52204632759094240000e-001) (7, -1.31000801920890810000e-001) (8, -6.82962656021118160000e-001) (9, -1.59558027982711790000e-001) (10, -8.06759417057037350000e-001) (11, -3.97972732782363890000e-001) (12, 8.45525562763214110000e-002) (13, 1.51328241825103760000e+000) (14, 1.52171838283538820000e+000) (15, 9.97852802276611330000e-001) (16, 8.92498373985290530000e-001) (17, 1.03000283241271970000e+000) (18, 5.44798135757446290000e-001) (19, 4.13417667150497440000e-001) (20, 1.11336171627044680000e-001) (21, 5.43173909187316890000e-001) (22, 1.28040766716003420000e+000) (23, 8.66878807544708250000e-001) (24, 4.58533734083175660000e-001) (25, 9.15913805365562440000e-002) (26, -1.94436892867088320000e-001) (27, -4.74493324756622310000e-001) (28, -1.03280270099639890000e+000) (29, -6.35077893733978270000e-001) (30, -7.14065790176391600000e-001) (31, 2.49039810150861740000e-002) (32, 1.32237896323204040000e-001) (33, 1.21582135558128360000e-001) (34, -2.44341343641281130000e-002) (35, -2.16744109988212590000e-001) (36, -1.37640014290809630000e-001) (37, -2.51686245203018190000e-001) (38, -2.71531611680984500000e-001) (39, 1.56601294875144960000e-001) (40, 2.28010460734367370000e-001) (41, 2.00071617960929870000e-001) (42, 7.40085601806640630000e-001) (43, 5.13745427131652830000e-001) (44, 6.06013722717761990000e-002) (45, -4.46524024009704590000e-001) (46, -2.18136966228485110000e-001) (47, 7.33874738216400150000e-001) (48, 6.31403923034667970000e-001) (49, 3.69407147169113160000e-001) (50, 5.38488388061523440000e-001) (51, 9.88955438137054440000e-001) (52, 7.41159677505493160000e-001) (53, 8.20128798484802250000e-001) (54, 1.21092259883880620000e-001) (55, 2.05485075712203980000e-001) (56, 4.98535595834255220000e-002) (57, 5.27112841606140140000e-001) (58, 6.16829574108123780000e-001) (59, 2.66704261302948000000e-001) (60, 6.18657827377319340000e-001) (61, 2.78062224388122560000e-001) (62, 5.49225687980651860000e-001) (63, 2.05323800444602970000e-001) (64, 7.36743152141571040000e-001) (65, 5.24197638034820560000e-001) (66, 3.47592562437057500000e-001) (67, 6.32169097661972050000e-002) (68, -1.40173450112342830000e-001) (69, -1.22461766004562380000e-001) (70, -1.08119621872901920000e-001) (71, -6.40811622142791750000e-001) (72, -2.41923734545707700000e-001) (73, -3.44246983528137210000e-001) (74, -3.84425014257431030000e-001) (75, -4.47587162256240840000e-001) (76, -3.37098568677902220000e-001) (77, -2.19097346067428590000e-001) (78, -5.19166231155395510000e-001) (79, -3.96990150213241580000e-001) (80, 2.79738456010818480000e-001) (81, 2.42107585072517400000e-001) (82, 7.61038601398468020000e-001) (83, 6.87778711318969730000e-001) (84, 7.29436159133911130000e-001) (85, 1.88044100999832150000e-001) (86, 1.57594278454780580000e-001) (87, 3.00242215394973750000e-001) (88, 5.49181938171386720000e-001) (89, 9.57733631134033200000e-001) (90, 1.22256708145141600000e+000) (91, 1.97836780548095700000e+000) (92, 3.42288464307785030000e-001) (93, 2.05901414155960080000e-001) (94, 2.57080107927322390000e-001) (95, 1.13616399466991420000e-001) (96, -1.43878264352679250000e-002) (97, 1.90589763224124910000e-002) (98, -2.67948240041732790000e-001) (99, -1.38322901725769040000e+000) (100, -6.68590366840362550000e-001) (101, -1.27146029472351070000e+000) (102, -9.24837172031402590000e-001) (103, -1.03484439849853520000e+000) (104, -7.62034475803375240000e-001) (105, -5.66876173019409180000e-001) (106, -3.86550635099411010000e-001) (107, -5.22762119770050050000e-001) (108, 4.35485333204269410000e-001) (109, 1.40091204643249510000e+000) (110, 2.06059861183166500000e+000) (111, 2.64786124229431150000e+000) (112, 1.46732568740844730000e+000) (113, 1.22478175163269040000e+000) (114, 1.21872901916503910000e+000) (115, 1.40502095222473140000e+000) (116, 1.33194351196289060000e+000) (117, 1.19968044757843020000e+000) (118, 2.68573373556137080000e-001) (119, 1.08735346794128420000e+000) (120, 2.90406852960586550000e-001) (121, 1.56681373715400700000e-001) (122, 1.05153419077396390000e-001) (123, 2.45318755507469180000e-001) (124, 5.50972759723663330000e-001) (125, 8.02459120750427250000e-001) (126, 1.44326078891754150000e+000) (127, 3.71507614850997920000e-001) (128, 2.66094148159027100000e-001) (129, -1.66020601987838750000e-001) (130, -9.95396912097930910000e-001) (131, -4.16632980108261110000e-001) (132, 5.15909790992736820000e-001) (133, 4.76745039224624630000e-001) (134, -2.03573569655418400000e-001) (135, -2.49907016754150390000e-001) (136, -3.35542440414428710000e-001) (137, -2.69900470972061160000e-001) (138, -3.03566992282867430000e-001) (139, 3.59270662069320680000e-001) (140, 5.88585913181304930000e-001) (141, 8.82456123828887940000e-001) (142, 3.49201232194900510000e-001) (143, 1.91741809248924260000e-001) (144, -6.49789154529571530000e-001) (145, -2.51716047525405880000e-001) (146, -1.09443694353103640000e-001) (147, -7.20140337944030760000e-002) (148, -2.65748083591461180000e-001) (149, -3.53269815444946290000e-001) (150, -4.18958693742752080000e-001) (151, -2.55637526512146000000e-001) (152, -3.22993814945220950000e-001) (153, 1.63506731390953060000e-001) (154, -3.61728221178054810000e-001) (155, -2.45030149817466740000e-001) (156, -1.52873903512954710000e-001) (157, 6.92619234323501590000e-002) (158, 8.95576700568199160000e-002) (159, 2.28375077247619630000e-001) (160, 3.09423089027404790000e-001) (161, 5.72168529033660890000e-001) (162, 3.47979396581649780000e-001) (163, 1.84549421072006230000e-001) (164, 1.40931510925292970000e+000) (165, 7.44211494922637940000e-001) (166, 1.28620421886444090000e+000) (167, 1.55740201473236080000e+000) (168, 9.97255682945251460000e-001) (169, 9.60313618183135990000e-001) (170, 5.53447067737579350000e-001) (171, 6.25837028026580810000e-001) (172, 4.58145111799240110000e-001) (173, 5.26782810688018800000e-001) (174, 1.87366366386413570000e+000) (175, 2.03376388549804690000e+000) (176, 1.03858876228332520000e+000) (177, 4.15171593427658080000e-001) (178, -9.53909635543823240000e-001) (0, 6.84309720993041990000e-001) (1, 2.26328775286674500000e-001) (2, 1.56479462981224060000e-001) (3, 1.26585841178894040000e-001) (4, 5.68694531917572020000e-001) (5, 5.52326261997222900000e-001) (6, 1.78164064884185790000e-001) (7, 1.29890870302915570000e-002) (8, 3.07555764913558960000e-001) (9, 6.98173046112060550000e-001) (10, 7.30884432792663570000e-001) (11, 1.18222391605377200000e+000) (12, 3.51813435554504390000e-001) (13, -3.09273034334182740000e-001) (14, -2.33046650886535640000e-001) (15, -1.57823339104652400000e-001) (16, 4.29830290377140050000e-002) (17, 4.99275512993335720000e-002) (18, 1.65770947933197020000e-002) (19, 2.65895649790763850000e-002) (20, -3.22573781013488770000e-001) (21, 1.52655139565467830000e-001) (22, 1.02260082960128780000e-001) (23, 7.11985900998115540000e-002) (24, 7.53079235553741460000e-001) (25, 6.59100651741027830000e-001) (26, 6.47505521774291990000e-001) (27, 3.42334806919097900000e-001) (28, 6.43071413040161130000e-001) (29, -1.11004106700420380000e-001) (30, -2.05035209655761720000e-001) (31, 2.55199313163757320000e-001) (32, 3.40670257806777950000e-001) (33, 3.61227303743362430000e-001) (34, 1.37357389926910400000e+000) (35, 1.06544482707977290000e+000) (36, 1.03512501716613770000e+000) (37, 9.79906618595123290000e-001) (38, 8.37397634983062740000e-001) (39, 6.67412817478179930000e-001) (40, 3.24190407991409300000e-001) (41, -4.26100581884384160000e-001) (42, 1.65801033377647400000e-001) (43, 1.05148589611053470000e+000) (44, 2.73676902055740360000e-001) (45, 2.84722056239843370000e-002) (46, 6.81056901812553410000e-002) (47, -6.58744499087333680000e-002) (48, -9.36681777238845830000e-002) (49, 2.35366478562355040000e-001) (50, 3.11648756265640260000e-001) (51, 3.30748587846755980000e-001) (52, 2.34883934259414670000e-001) (53, 2.41081371903419490000e-001) (54, 6.18829786777496340000e-001) (55, 1.43363522365689280000e-002) (56, -2.49706104397773740000e-001) (57, -3.53976100683212280000e-001) (58, -2.81804174184799190000e-001) (59, -3.53368073701858520000e-001) (60, -3.83806467056274410000e-001) (61, 6.43704012036323550000e-002) (62, 1.07363298535346980000e-001) (63, 4.19384777545928960000e-001) (64, 2.63087362051010130000e-001) (65, 2.31088951230049130000e-001) (66, 4.39262449741363530000e-001) (67, 8.76936197280883790000e-001) (68, 1.19015216827392580000e+000) (69, -1.34212926030159000000e-001) (70, 8.11961218714714050000e-002) (71, -4.40492659807205200000e-001) (72, 5.54991662502288820000e-001) (73, 8.58297705650329590000e-001) (74, 1.04514062404632570000e+000) (75, 1.04380428791046140000e+000) (76, 9.27520811557769780000e-001) (77, 3.70962947607040410000e-001) (78, 3.69893103837966920000e-001) (79, 1.79690092802047730000e-001) (80, -4.12502944469451900000e-001) (81, 1.30661070346832280000e-001) (82, 3.60057204961776730000e-001) (83, 1.16058662533760070000e-001) (84, 5.83025515079498290000e-001) (85, 1.06590442359447480000e-001) (86, -4.98199105262756350000e-001) (87, -9.00742471218109130000e-001) (88, -1.29824697971343990000e-001) (89, -1.05744786560535430000e-001) (90, -3.71837951242923740000e-002) (91, 4.73528891801834110000e-001) (92, 4.69221323728561400000e-001) (93, 7.52047836780548100000e-001) (94, 6.07352256774902340000e-001) (95, 9.81840431690216060000e-001) (96, 6.62887096405029300000e-001) (97, 1.09305119514465330000e+000) (98, -5.17743127420544620000e-003) (99, -1.16796806454658510000e-001) (100, -7.26685345172882080000e-001) (101, 1.48838475346565250000e-001) (102, 6.71810328960418700000e-001) (103, 7.71477937698364260000e-001) (104, 9.16047632694244380000e-001) (105, 6.15468263626098630000e-001) (106, 6.47447168827056880000e-001) (107, 6.43988370895385740000e-001) (108, 2.50293314456939700000e-001) (109, 4.02529776096343990000e-001) (110, -1.11442662775516510000e-001) (111, -7.46164172887802120000e-002) (112, 6.93291872739791870000e-002) (113, -9.73773933947086330000e-003) (114, -1.51106461882591250000e-001) (115, -5.59536814689636230000e-002) (116, 1.06940641999244690000e-001) (117, 7.95030966401100160000e-002) (118, 1.58496603369712830000e-001) (119, 3.81468757987022400000e-002) (120, 3.18225175142288210000e-001) (121, 1.68230712413787840000e-001) (122, 2.57472023367881770000e-002) (123, 1.83828145265579220000e-001) (124, 2.32090935111045840000e-001) (125, 6.91873505711555480000e-002) (126, 6.30203783512115480000e-002) (127, 1.65315777063369750000e-001) (128, 1.79959550499916080000e-001) (129, 3.40773090720176700000e-002) (130, 2.14095935225486760000e-001) (131, 2.26464092731475830000e-001) (132, 3.99494022130966190000e-001) (133, 4.97466981410980220000e-001) (134, 2.60746717453002930000e-001) (135, 7.56498217582702640000e-001) (136, 1.00068247318267820000e+000) (137, 3.93923372030258180000e-001) (138, 7.24367797374725340000e-002) (139, 9.80779062956571580000e-003) (140, -4.37618196010589600000e-001) (141, -3.81379164755344390000e-002) (142, 1.27270564436912540000e-001) (143, -3.49931627511978150000e-001) (144, -3.04086625576019290000e-001) (145, 2.99078851938247680000e-001) (146, 5.55377781391143800000e-001) (147, 4.57212626934051510000e-001) (148, 3.65155428647995000000e-001) (149, 4.89856779575347900000e-001) (150, 5.25199472904205320000e-001) (151, 3.29290449619293210000e-001) (152, -4.84635233879089360000e-001) (153, 1.76850352436304090000e-002) (154, 6.62289142608642580000e-001) (155, 1.31471407413482670000e+000) (156, 6.37472093105316160000e-001) (157, 5.62865912914276120000e-001) (158, 2.36803278326988220000e-001) (159, 1.24984964728355410000e-001) (160, 3.37358802556991580000e-001) (161, 9.55797076225280760000e-001) (162, 4.94972646236419680000e-001) (163, 2.59466823190450670000e-002) (164, -3.73683035373687740000e-001) (165, -1.37873858213424680000e-001) (166, 5.58981835842132570000e-001) (167, 4.36309784650802610000e-001) (168, 6.62287354469299320000e-001) (169, 7.01666846871376040000e-002) (170, -3.62165778875350950000e-001) (171, -8.92605558037757870000e-002) (172, -3.79662126302719120000e-001) (173, -4.54727679491043090000e-001) (174, -3.39186668395996090000e-001) (175, -4.81258004903793330000e-001) (176, -4.37605321407318120000e-001) (177, -3.73215615749359130000e-001) (178, 1.82306304574012760000e-001) (0, 5.84934830665588380000e-001) (1, -6.99266791343688960000e-001) (2, -5.88956415653228760000e-001) (3, -3.96250188350677490000e-001) (4, -5.11115252971649170000e-001) (5, -3.73622596263885500000e-001) (6, -3.94141793251037600000e-001) (7, -5.02196907997131350000e-001) (8, -5.66167593002319340000e-001) (9, -2.47824192047119140000e-001) (10, -2.21340209245681760000e-001) (11, -1.52882739901542660000e-001) (12, 1.77532166242599490000e-001) (13, 5.90160310268402100000e-001) (14, 3.89905959367752080000e-001) (15, 2.26076290011405940000e-001) (16, 3.61013770103454590000e-001) (17, 3.96610647439956670000e-001) (18, 8.62267136573791500000e-001) (19, 4.92184847593307500000e-001) (20, 4.70921993255615230000e-001) (21, 5.75933277606964110000e-001) (22, 4.01625603437423710000e-001) (23, 4.95601415634155270000e-001) (24, 3.47745448350906370000e-001) (25, -5.18441140651702880000e-001) (26, -5.45612454414367680000e-001) (27, -4.92589324712753300000e-001) (28, -4.73823904991149900000e-001) (29, -4.44025546312332150000e-001) (30, -8.48451197147369380000e-001) (31, -6.23811244964599610000e-001) (32, -5.79864442348480220000e-001) (33, -4.01109069585800170000e-001) (34, -3.68182063102722170000e-001) (35, -2.79768079519271850000e-001) (36, -3.44145298004150390000e-001) (37, -5.09641349315643310000e-001) (38, -3.25023829936981200000e-001) (39, 5.26245869696140290000e-002) (40, 2.36499309539794920000e-001) (41, 1.00011199712753300000e-001) (42, -4.90144155919551850000e-002) (43, -2.21756756305694580000e-001) (44, -2.93285906314849850000e-001) (45, 2.98450976610183720000e-001) (46, 6.42896592617034910000e-001) (47, 5.13898432254791260000e-002) (48, 2.37214595079422000000e-001) (49, 3.28731983900070190000e-001) (50, 4.66142594814300540000e-001) (51, 3.07478964328765870000e-001) (52, 2.05627918243408200000e-001) (53, 3.02979260683059690000e-001) (54, -3.35695326328277590000e-001) (55, -1.93042501807212830000e-001) (56, -1.09809547662734990000e-001) (57, -7.41634845733642580000e-001) (58, -7.85316765308380130000e-001) (59, 1.08104459941387180000e-001) (60, 2.42238655686378480000e-001) (61, -5.87933123111724850000e-001) (62, -1.13192403316497800000e+000) (63, -6.41334533691406250000e-001) (64, -7.59843707084655760000e-001) (65, -2.86281764507293700000e-001) (66, -1.07625924050807950000e-001) (67, -1.59520387649536130000e-001) (68, -3.17566186189651490000e-001) (69, 1.04303717613220210000e-001) (70, 1.60994306206703190000e-001) (71, 1.16043679416179660000e-001) (72, -3.96907776594161990000e-002) (73, -4.56751167774200440000e-001) (74, 1.44133582711219790000e-001) (75, 1.14415109157562260000e+000) (76, 4.89798933267593380000e-001) (77, 2.04546868801116940000e-001) (78, 6.19938671588897710000e-002) (79, 5.23936271667480470000e-001) (80, 5.48078775405883790000e-001) (81, 4.82240706682205200000e-001) (82, 2.61340022087097170000e-001) (83, 8.43697488307952880000e-002) (84, 5.55164879187941550000e-003) (85, 1.47586748003959660000e-001) (86, 3.99600900709629060000e-003) (87, 4.39600832760334010000e-002) (88, 1.82270675897598270000e-001) (89, 2.21458092331886290000e-001) (90, 8.99650081992149350000e-002) (91, -5.81177353858947750000e-001) (92, -2.89317523129284380000e-003) (93, -1.96258604526519780000e-001) (94, -1.65558889508247380000e-001) (95, -2.13689491152763370000e-001) (96, -1.96773186326026920000e-001) (97, -1.46043691784143450000e-002) (98, 4.71405208110809330000e-001) (99, 3.15277665853500370000e-001) (100, -1.03551326319575310000e-002) (101, -3.92021626234054570000e-001) (102, 3.20230156183242800000e-001) (103, -5.13032265007495880000e-002) (104, 5.38426265120506290000e-002) (105, 4.47980523109436040000e-001) (106, 4.34599816799163820000e-001) (107, 1.19496412575244900000e-001) (108, 4.24645155668258670000e-001) (109, 4.10723000764846800000e-001) (110, 4.32866483926773070000e-001) (111, -2.33688339591026310000e-001) (112, 6.77400231361389160000e-001) (113, 6.87675476074218750000e-001) (114, 3.33676367998123170000e-001) (115, 1.02648986503481860000e-002) (116, -1.99099466204643250000e-001) (117, -1.44866079092025760000e-001) (118, 1.62644281983375550000e-001) (119, 1.02134242653846740000e-001) (120, 1.89173325896263120000e-001) (121, 4.88641075789928440000e-002) (122, -6.61341249942779540000e-002) (123, -3.34865376353263850000e-002) (124, -5.51680056378245350000e-003) (125, -1.86807632446289060000e-001) (126, -1.78786382079124450000e-001) (127, -6.05350673198699950000e-001) (128, -2.85013049840927120000e-001) (129, 2.41159871220588680000e-001) (130, 2.03629642724990840000e-001) (131, 2.34946772456169130000e-001) (132, 3.43689531087875370000e-001) (133, 4.97404396533966060000e-001) (134, 3.43935132026672360000e-001) (135, 1.43110722303390500000e-001) (136, -2.22920671105384830000e-001) (137, 9.32905524969100950000e-002) (138, -1.29145011305809020000e-001) (139, -7.96216130256652830000e-002) (140, 2.76142120361328130000e-001) (141, 2.59003788232803340000e-001) (142, 3.77535045146942140000e-001) (143, 3.07420969009399410000e-001) (144, 2.92739212512969970000e-001) (145, -6.05075545608997340000e-002) (146, -7.09621012210845950000e-001) (147, -3.69917184114456180000e-001) (148, -5.45903384685516360000e-001) (149, -2.13243961334228520000e-001) (150, 2.23250880837440490000e-001) (151, 4.08350855112075810000e-001) (152, 1.06394600868225100000e+000) (153, 7.34942927956581120000e-002) (154, -1.31484881043434140000e-001) (155, -2.73865461349487300000e-001) (156, -2.47203603386878970000e-001) (157, -9.81990039348602290000e-001) (158, -2.73346841335296630000e-001) (159, -2.57098913192749020000e-001) (160, 1.32571840658783910000e-002) (161, 2.48901657760143280000e-002) (162, -3.97312581539154050000e-001) (163, 3.12588691711425780000e-001) (164, 1.93902924656867980000e-001) (165, 1.94268748164176940000e-001) (166, 3.62583965063095090000e-001) (167, 3.41054201126098630000e-001) (168, -9.11054834723472600000e-002) (169, -3.49143669009208680000e-002) (170, -6.19982540607452390000e-001) (171, 8.90300348401069640000e-002) (172, 2.41518586874008180000e-001) (173, 3.58784437179565430000e-001) (174, 1.82077497243881230000e-001) (175, 1.85557931661605830000e-001) (176, -4.20574210584163670000e-002) (177, -7.49410390853881840000e-001) (178, 5.90430641174316410000e+000) (0, 2.72716909646987920000e-001) (1, 5.41368186473846440000e-001) (2, 7.51661583781242370000e-002) (3, 4.85526800155639650000e-001) (4, 6.72879397869110110000e-001) (5, 1.74387339502573010000e-002) (6, 2.47069075703620910000e-001) (7, 7.86335587501525880000e-001) (8, 6.03576153516769410000e-002) (9, 4.95798550546169280000e-002) (10, -2.61552631855010990000e-001) (11, -1.80807709693908690000e-001) (12, -5.76478958129882810000e-001) (13, -5.33254086971282960000e-001) (14, -4.18298512697219850000e-001) (15, -3.02467644214630130000e-001) (16, -4.75392848253250120000e-001) (17, -5.28765559196472170000e-001) (18, -2.54809230566024780000e-001) (19, -2.36790746450424190000e-001) (20, -5.21405696868896480000e-001) (21, -2.02224940061569210000e-001) (22, -3.62649083137512210000e-001) (23, 4.95078444480896000000e-001) (24, 3.64874988794326780000e-001) (25, 2.90429383516311650000e-001) (26, 3.70576113462448120000e-001) (27, 4.75351661443710330000e-001) (28, 3.50998014211654660000e-001) (29, 5.76364994049072270000e-001) (30, 6.45085871219635010000e-001) (31, 1.17885839939117430000e+000) (32, 5.07817924022674560000e-001) (33, -1.36450543999671940000e-001) (34, -1.12225497141480450000e-002) (35, 2.97478158026933670000e-002) (36, -1.43714129924774170000e-001) (37, -1.17293477058410640000e-001) (38, -4.27264310419559480000e-002) (39, 1.95133462548255920000e-001) (40, -2.79864221811294560000e-002) (41, -1.63210347294807430000e-001) (42, -2.19893470406532290000e-001) (43, 2.89795696735382080000e-001) (44, -3.34842383861541750000e-001) (45, -4.45241302251815800000e-001) (46, -6.24258875846862790000e-001) (47, -2.88458734750747680000e-001) (48, 1.34873732924461360000e-001) (49, 1.78383454680442810000e-001) (50, 1.59250244498252870000e-001) (51, 1.85642749071121220000e-001) (52, 3.32860469818115230000e-001) (53, 3.15276771783828740000e-001) (54, 4.22494649887084960000e-001) (55, 1.94330170750617980000e-001) (56, 6.91173374652862550000e-001) (57, 6.89275801181793210000e-001) (58, 7.01584517955780030000e-001) (59, 6.89513266086578370000e-001) (60, 3.18678170442581180000e-001) (61, 3.95446389913558960000e-001) (62, 3.17332267761230470000e-001) (63, 5.94369053840637210000e-001) (64, -8.06397646665573120000e-002) (65, -1.41164124011993410000e-001) (66, -5.17922900617122650000e-002) (67, -8.43863636255264280000e-002) (68, 1.03973425924777980000e-001) (69, -5.75161576271057130000e-002) (70, -1.44486218690872190000e-001) (71, -2.02364981174468990000e-001) (72, -1.02215014398097990000e-001) (73, -2.57408887147903440000e-001) (74, -2.47538879513740540000e-001) (75, -1.22337698936462400000e-001) (76, -1.83203130960464480000e-001) (77, -6.15309402346611020000e-002) (78, -2.42648705840110780000e-001) (79, -2.95357137918472290000e-001) (80, -1.80401861667633060000e-001) (81, 1.70466929674148560000e-001) (82, 1.87078833580017090000e-001) (83, 2.50187903642654420000e-001) (84, 6.60054445266723630000e-001) (85, 2.92069822549819950000e-001) (86, 6.71346962451934810000e-001) (87, 6.63650274276733400000e-001) (88, 6.07318580150604250000e-001) (89, 6.52371466159820560000e-001) (90, 5.60761094093322750000e-001) (91, 2.37192049622535710000e-001) (92, 4.43622350692749020000e-001) (93, 7.74813070893287660000e-002) (94, -1.99931859970092770000e-001) (95, -3.89068722724914550000e-001) (96, -2.94593393802642820000e-001) (97, -8.60852718353271480000e-001) (98, -6.90127730369567870000e-001) (99, -4.37046617269515990000e-001) (100, -4.36365425586700440000e-001) (101, -5.53733706474304200000e-001) (102, -2.28975117206573490000e-001) (103, -1.33386507630348210000e-001) (104, -2.07810848951339720000e-001) (105, -6.07665022835135460000e-003) (106, -1.93540960550308230000e-001) (107, -3.48784744739532470000e-001) (108, -3.69899392127990720000e-001) (109, 4.25155639648437500000e-001) (110, 3.25908631086349490000e-001) (111, 4.92390006780624390000e-001) (112, 2.95545607805252080000e-001) (113, 1.63736253976821900000e-001) (114, 6.70397043228149410000e-001) (115, 6.48999094963073730000e-001) (116, 8.15790235996246340000e-001) (117, 1.12226223945617680000e+000) (118, 1.34858858585357670000e+000) (119, 1.11192679405212400000e+000) (120, 3.47863972187042240000e-001) (121, 3.60797762870788570000e-001) (122, 4.87545758485794070000e-001) (123, 4.38641905784606930000e-001) (124, 2.35148161649703980000e-001) (125, 4.08587187528610230000e-001) (126, 6.01295530796051030000e-001) (127, 4.49865370988845830000e-001) (128, 4.77535635232925420000e-001) (129, 4.06752288341522220000e-001) (130, 1.93602234125137330000e-001) (131, 1.45988002419471740000e-001) (132, 2.22213134169578550000e-001) (133, 7.99652095884084700000e-003) (134, -6.32812917232513430000e-001) (135, -4.90394949913024900000e-001) (136, -6.40258848667144780000e-001) (137, -4.73368614912033080000e-001) (138, -3.83771359920501710000e-001) (139, 1.24743007123470310000e-001) (140, 6.85801133513450620000e-002) (141, 1.34973153471946720000e-001) (142, 9.78302121162414550000e-001) (143, 6.70015454292297360000e-001) (144, 8.86617243289947510000e-001) (145, 1.01084375381469730000e+000) (146, 7.62284815311431880000e-001) (147, -4.00098972022533420000e-002) (148, 2.01802048832178120000e-002) (149, -1.20849490165710450000e-001) (150, -1.46116197109222410000e-001) (151, -3.40432792901992800000e-001) (152, -1.50547757744789120000e-001) (153, 4.95082259178161620000e-001) (154, -6.49702191352844240000e-001) (155, -3.97335588932037350000e-002) (156, -1.35785654187202450000e-001) (157, -3.64317297935485840000e-002) (158, -2.24014028906822200000e-001) (159, -7.24855735898017880000e-002) (160, -4.76562529802322390000e-001) (161, -1.49084046483039860000e-001) (162, -4.63794380426406860000e-001) (163, -4.17112439870834350000e-001) (164, -3.85809630155563350000e-001) (165, 3.48745971918106080000e-001) (166, 4.00383345549926160000e-004) (167, -5.21672844886779790000e-001) (168, -3.42262685298919680000e-001) (169, 1.59675106406211850000e-001) (170, 1.68170541524887080000e-001) (171, 1.65665492415428160000e-001) (172, 4.09580953419208530000e-002) (173, 5.14731049537658690000e-001) (174, 7.20790326595306400000e-001) (175, 1.60170897841453550000e-001) (176, 1.16574391722679140000e-001) (177, -2.41161789745092390000e-003) (178, -8.74557256698608400000e-001) (0, -6.45295977592468260000e-002) (1, -3.73950958251953130000e-001) (2, -6.47467076778411870000e-001) (3, -4.02172595262527470000e-001) (4, -7.55916535854339600000e-001) (5, -6.62147045135498050000e-001) (6, 8.45287740230560300000e-002) (7, 3.73503789305686950000e-002) (8, 1.42270654439926150000e-001) (9, 1.21078573167324070000e-001) (10, -4.36417050659656520000e-002) (11, -2.87154950201511380000e-002) (12, 4.58823889493942260000e-001) (13, 5.95740139484405520000e-001) (14, 5.55892169475555420000e-001) (15, 4.04010325670242310000e-001) (16, 4.97746735811233520000e-001) (17, 2.51098483800888060000e-001) (18, -7.86297246813774110000e-002) (19, 3.77272188663482670000e-001) (20, 4.18147116899490360000e-001) (21, 1.85135006904602050000e-001) (22, -2.91314661502838130000e-001) (23, -4.48144227266311650000e-002) (24, -1.10889935493469240000e+000) (25, -8.56161832809448240000e-001) (26, -5.88036835193634030000e-001) (27, -5.09872257709503170000e-001) (28, -2.45846435427665710000e-001) (29, -4.37871873378753660000e-001) (30, -5.35083591938018800000e-001) (31, -6.89959645271301270000e-001) (32, -3.74264955520629880000e-001) (33, -4.94499832391738890000e-001) (34, 2.45223939418792720000e-001) (35, 2.23006054759025570000e-001) (36, 2.09417685866355900000e-001) (37, 3.06412667036056520000e-001) (38, 3.08657824993133540000e-001) (39, 1.85181438922882080000e-001) (40, -3.76400649547576900000e-001) (41, 2.08628371357917790000e-001) (42, 2.40650370717048650000e-001) (43, 2.75174885988235470000e-001) (44, 3.11264991760253910000e-001) (45, 2.95666962862014770000e-001) (46, 2.59799718856811520000e-001) (47, -2.46113874018192290000e-002) (48, -7.76924863457679750000e-002) (49, -6.95497617125511170000e-002) (50, -7.25809708237648010000e-002) (51, -3.26839759945869450000e-002) (52, -4.79410111904144290000e-001) (53, -4.44358885288238530000e-001) (54, -3.37239801883697510000e-001) (55, -7.65942037105560300000e-001) (56, -7.38437950611114500000e-001) (57, -6.50347590446472170000e-001) (58, -5.72522222995758060000e-001) (59, -6.22703850269317630000e-001) (60, -4.46889281272888180000e-001) (61, -2.84658759832382200000e-001) (62, -3.63672256469726560000e-001) (63, -4.77275848388671880000e-001) (64, 2.60883927345275880000e-001) (65, 2.28394940495491030000e-001) (66, 2.45917290449142460000e-001) (67, 1.80315393954515460000e-002) (68, 1.18123508989810940000e-001) (69, 1.82220309972763060000e-001) (70, 4.41118190065026280000e-003) (71, 5.05363382399082180000e-002) (72, 3.07187199592590330000e-001) (73, 3.62079590559005740000e-001) (74, 4.88784581422805790000e-001) (75, 5.05012989044189450000e-001) (76, 3.20980429649353030000e-001) (77, 1.72132119536399840000e-001) (78, 2.09816887974739070000e-001) (79, 1.78478255867958070000e-001) (80, 2.30183139443397520000e-001) (81, 4.58554588258266450000e-002) (82, 1.38353593647480010000e-002) (83, 1.12288825213909150000e-001) (84, 1.32393419742584230000e-001) (85, -2.08821475505828860000e-001) (86, -5.32734334468841550000e-001) (87, -6.18025958538055420000e-001) (88, -7.99194395542144780000e-001) (89, -4.59488302469253540000e-001) (90, -6.00534677505493160000e-001) (91, -7.08110988140106200000e-001) (92, -9.88915041089057920000e-002) (93, 6.75256550312042240000e-002) (94, 3.40347588062286380000e-001) (95, 5.05050718784332280000e-001) (96, 5.04996299743652340000e-001) (97, 5.26743531227111820000e-001) (98, 4.69625353813171390000e-001) (99, 4.35209393501281740000e-001) (100, 4.49656158685684200000e-001) (101, -1.57178372144699100000e-001) (102, -2.67865866422653200000e-001) (103, 1.65071085095405580000e-001) (104, 9.91575717926025390000e-002) (105, 4.89407867193222050000e-001) (106, 1.16678133606910710000e-001) (107, 3.07359099388122560000e-001) (108, -1.96065790951251980000e-002) (109, 1.32739454507827760000e-001) (110, -4.80584949254989620000e-001) (111, -5.48385322093963620000e-001) (112, -4.35358941555023190000e-001) (113, -6.76323175430297850000e-001) (114, -4.56439822912216190000e-001) (115, -8.20217609405517580000e-001) (116, -2.36306011676788330000e-001) (117, -8.40273380279541020000e-001) (118, -9.16447877883911130000e-001) (119, -8.00633132457733150000e-001) (120, -1.09139525890350340000e+000) (121, -2.91875600814819340000e-001) (122, -1.33533990010619160000e-002) (123, -2.40809962153434750000e-001) (124, -4.70992565155029300000e-001) (125, -4.28673505783081050000e-001) (126, -6.36813640594482420000e-001) (127, -3.44952136278152470000e-001) (128, -1.72458261251449580000e-001) (129, -4.19573932886123660000e-001) (130, -1.75856664776802060000e-001) (131, 1.77742943167686460000e-001) (132, 2.43775323033332820000e-001) (133, 2.71796762943267820000e-001) (134, 2.00651615858078000000e-001) (135, 1.82918861508369450000e-001) (136, 3.41857910156250000000e-001) (137, 2.52517521381378170000e-001) (138, 5.16779363155364990000e-001) (139, 3.33312720060348510000e-001) (140, -2.13122740387916560000e-001) (141, -3.41316372156143190000e-001) (142, -4.16794776916503910000e-001) (143, -4.91008013486862180000e-001) (144, -3.59913527965545650000e-001) (145, -3.73498737812042240000e-001) (146, -3.66919875144958500000e-001) (147, 1.40906572341918950000e-001) (148, 1.61483615636825560000e-001) (149, 1.60326451063156130000e-001) (150, -1.22545234858989720000e-001) (151, -4.88387122750282290000e-002) (152, -3.22722733020782470000e-001) (153, 1.22501239180564880000e-001) (154, 1.51747211813926700000e-001) (155, 2.10469216108322140000e-001) (156, 1.30822047591209410000e-001) (157, 3.32108467817306520000e-001) (158, 2.69657045602798460000e-001) (159, 1.36033713817596440000e-001) (160, -8.34580045193433760000e-003) (161, 4.12476241588592530000e-001) (162, 2.59107381105422970000e-001) (163, 3.35436463356018070000e-001) (164, 6.07463270425796510000e-002) (165, -3.38691860437393190000e-001) (166, -7.13738650083541870000e-002) (167, -1.56669065356254580000e-001) (168, 2.88011301308870320000e-002) (169, 1.99307471513748170000e-001) (170, 1.84501465409994130000e-002) (171, -5.25811910629272460000e-001) (172, -4.89967405796051030000e-001) (173, -3.00498694181442260000e-001) (174, -3.83175373077392580000e-001) (175, -3.91299068927764890000e-001) (176, -3.96237641572952270000e-001) (177, -2.68893688917160030000e-001) (178, 2.73456037044525150000e-001) (0, 8.20915922522544860000e-002) (1, 7.92496576905250550000e-002) (2, 9.12442281842231750000e-002) (3, 9.14430975914001460000e-001) (4, 1.47791373729705810000e+000) (5, 1.35118782520294190000e+000) (6, 1.15128672122955320000e+000) (7, 1.50332915782928470000e+000) (8, 1.42007923126220700000e+000) (9, 6.98879837989807130000e-001) (10, 1.17780363559722900000e+000) (11, 6.11016988754272460000e-001) (12, -5.64855746924877170000e-002) (13, -2.97885745763778690000e-001) (14, -9.33791041374206540000e-001) (15, -4.43194478750228880000e-001) (16, -3.70556786656379700000e-002) (17, 9.19506132602691650000e-001) (18, 9.49616789817810060000e-001) (19, -1.23389242216944690000e-002) (20, 3.26427146792411800000e-002) (21, 1.89341604709625240000e-001) (22, 8.57365354895591740000e-002) (23, 1.23741095885634420000e-002) (24, 6.58407986164093020000e-001) (25, 3.66520196199417110000e-001) (26, 2.70539700984954830000e-001) (27, 4.28076446056365970000e-001) (28, 1.09457540512084960000e+000) (29, 1.31471216678619380000e+000) (30, 1.27435672283172610000e+000) (31, 9.62765753269195560000e-001) (32, 6.27377212047576900000e-001) (33, 9.60672974586486820000e-001) (34, 9.58831548690795900000e-001) (35, 1.43192160129547120000e+000) (36, 1.49987459182739260000e+000) (37, 6.44203484058380130000e-001) (38, 8.62006843090057370000e-001) (39, 9.03723895549774170000e-001) (40, 8.57173264026641850000e-001) (41, 2.35669091343879700000e-001) (42, 1.31410822272300720000e-001) (43, -1.17145366966724400000e-001) (44, 1.80287346243858340000e-001) (45, -2.08158880472183230000e-001) (46, -1.03968381881713870000e+000) (47, -1.01760946214199070000e-001) (48, 8.59846174716949460000e-002) (49, 2.30933427810668950000e-001) (50, 1.94702029228210450000e+000) (51, 4.28894519805908200000e-001) (52, 2.10062414407730100000e-002) (53, 6.83744013309478760000e-001) (54, 8.20823609828948970000e-001) (55, 3.97009789943695070000e-001) (56, 1.16877591609954830000e+000) (57, 7.97882378101348880000e-001) (58, 1.56921386718750000000e+000) (59, 3.24194252490997310000e-001) (60, 4.96192902326583860000e-001) (61, 2.14079171419143680000e-001) (62, 1.06932973861694340000e+000) (63, 1.17254257202148440000e+000) (64, 1.68992304801940920000e+000) (65, 6.36107385158538820000e-001) (66, 8.20703983306884770000e-001) (67, 5.37898540496826170000e-001) (68, 8.27849507331848140000e-001) (69, 1.33845901489257810000e+000) (70, 1.23411345481872560000e+000) (71, 7.54709184169769290000e-001) (72, 6.36217713356018070000e-001) (73, 5.02081394195556640000e-001) (74, 3.61344486474990840000e-001) (75, 1.74412637948989870000e-001) (76, 3.23948770761489870000e-001) (77, 3.56172621250152590000e-001) (78, 6.80182754993438720000e-001) (79, 3.90639811754226680000e-001) (80, 2.02613964676856990000e-001) (81, 4.32864613831043240000e-002) (82, -5.57419192045927050000e-003) (83, 4.97206896543502810000e-002) (84, 8.22925031185150150000e-001) (85, 7.55280196666717530000e-001) (86, 7.07867503166198730000e-001) (87, 1.58768251538276670000e-001) (88, 1.04098744690418240000e-001) (89, -5.00356182456016540000e-002) (90, -1.32215604186058040000e-001) (91, -1.55440077185630800000e-001) (92, 2.63864248991012570000e-001) (93, 1.24780213832855220000e+000) (94, 1.88849174976348880000e+000) (95, 1.22803688049316410000e+000) (96, 8.81682872772216800000e-001) (97, 4.28038448095321660000e-001) (98, 4.96461093425750730000e-001) (99, 2.00643256306648250000e-001) (100, 4.81196492910385130000e-001) (101, 4.35978509485721590000e-002) (102, 6.37743294239044190000e-001) (103, 1.58615097403526310000e-001) (104, 1.46233111619949340000e-001) (105, -3.06792445480823520000e-002) (106, -6.47896602749824520000e-002) (107, -3.29963043332099910000e-002) (108, -4.42221388220787050000e-002) (109, -2.95892376452684400000e-002) (110, -2.55281567573547360000e-001) (111, 3.22527945041656490000e-001) (112, 5.18657207489013670000e-001) (113, 1.14744529128074650000e-001) (114, 2.50000596046447750000e-001) (115, 3.01392942667007450000e-001) (116, 1.22805088758468630000e-001) (117, 4.37875203788280490000e-002) (118, -1.35727956891059880000e-001) (119, 2.15867068618536000000e-003) (120, 3.52917522192001340000e-001) (121, 4.12373512983322140000e-001) (122, 3.86377722024917600000e-002) (123, 6.41667544841766360000e-002) (124, 2.19294145703315730000e-001) (125, 1.05957753956317900000e-001) (126, 2.22246751189231870000e-001) (127, 8.05747136473655700000e-002) (128, -8.38032737374305730000e-002) (129, -3.33344578742980960000e-001) (130, -3.91688555479049680000e-001) (131, -1.13973546028137210000e+000) (132, 1.19881918653845790000e-002) (133, 1.44913345575332640000e-001) (134, 9.18617248535156250000e-001) (135, 1.20965313911437990000e+000) (136, -5.63374608755111690000e-002) (137, -1.74854680895805360000e-001) (138, -3.29480946063995360000e-001) (139, -8.87160226702690120000e-002) (140, -7.02206343412399290000e-002) (141, 1.74069017171859740000e-001) (142, 2.52212435007095340000e-001) (143, 2.88790553808212280000e-001) (144, 4.14485670626163480000e-002) (145, 9.03345286846160890000e-001) (146, 7.24000573158264160000e-001) (147, 3.03477764129638670000e-001) (148, 1.57804667949676510000e+000) (149, 1.22786581516265870000e+000) (150, 7.26823389530181880000e-001) (151, 3.13158184289932250000e-001) (152, 4.90783043205738070000e-002) (153, -6.27946928143501280000e-002) (154, 1.26579880714416500000e+000) (155, 7.09939539432525630000e-001) (156, 6.89549624919891360000e-001) (157, 9.36823427677154540000e-001) (158, 8.64077270030975340000e-001) (159, 1.23558354377746580000e+000) (160, 7.61717081069946290000e-001) (161, 1.71188724040985110000e+000) (162, 2.33257696032524110000e-001) (163, 1.65243223309516910000e-001) (164, 4.99329149723052980000e-001) (165, 1.31017470359802250000e+000) (166, 1.12023460865020750000e+000) (167, 8.62383842468261720000e-001) (168, 3.92900735139846800000e-001) (169, 3.43543201684951780000e-001) (170, 2.58814752101898190000e-001) (171, 2.36261766403913500000e-002) (172, 5.49588985741138460000e-002) (173, -1.29906963557004930000e-002) (174, 3.00738513469696040000e-002) (175, 2.70076513290405270000e-001) (176, 5.14277100563049320000e-001) (177, 4.82373267412185670000e-001) (178, -1.12220740318298340000e+000) (0, 1.85034346580505370000e+000) (1, 1.72255754470825200000e-001) (2, 1.75790071487426760000e-001) (3, -1.06296949088573460000e-002) (4, -1.84552744030952450000e-001) (5, 2.80793547630310060000e-001) (6, 2.24403530359268190000e-001) (7, 8.63653182983398440000e-001) (8, 4.46547418832778930000e-001) (9, 5.94986021518707280000e-001) (10, 1.33968675136566160000e+000) (11, 1.05887699127197270000e+000) (12, 1.48810827732086180000e+000) (13, 4.90612775087356570000e-001) (14, 6.91784083843231200000e-001) (15, 6.37655794620513920000e-001) (16, 4.28329646587371830000e-001) (17, -1.17360658943653110000e-001) (18, 2.48816943168640140000e+000) (19, 4.57939863204956050000e-001) (20, 5.99845111370086670000e-001) (21, 1.77053427696228030000e+000) (22, 8.92268002033233640000e-001) (23, -1.96466013789176940000e-001) (24, -8.77743482589721680000e-001) (25, -2.89670348167419430000e-001) (26, -7.88880527019500730000e-001) (27, -1.38194620609283450000e-001) (28, -7.63376355171203610000e-002) (29, 1.09706811606884000000e-001) (30, 2.57952660322189330000e-001) (31, 2.83503353595733640000e-001) (32, 1.29578486084938050000e-001) (33, 3.84125083684921260000e-001) (34, 8.29322814941406250000e-001) (35, 6.26641273498535160000e-001) (36, 3.29693794250488280000e-001) (37, 2.51481801271438600000e-001) (38, 2.15859115123748780000e-001) (39, 3.90450119972229000000e-001) (40, 8.27671408653259280000e-001) (41, 1.05014646053314210000e+000) (42, 2.05380558967590330000e+000) (43, 1.28100979328155520000e+000) (44, 1.62474736571311950000e-001) (45, 1.54436305165290830000e-001) (46, -8.62853080034255980000e-002) (47, 3.13855290412902830000e-001) (48, 3.78928452730178830000e-001) (49, 4.85001534223556520000e-001) (50, -1.29196330904960630000e-001) (51, -2.27887183427810670000e-001) (52, -5.44718764722347260000e-002) (53, -2.31206849217414860000e-001) (54, -8.79055857658386230000e-002) (55, -1.74577400088310240000e-001) (56, 1.16844130679965020000e-002) (57, 9.57568874582648280000e-004) (58, 3.04221391677856450000e-001) (59, 4.53674383461475370000e-002) (60, -3.11524365097284320000e-002) (61, -1.23993895947933200000e-001) (62, -6.59022256731987000000e-002) (63, -1.72766614705324170000e-002) (64, 7.69733428955078130000e-001) (65, 8.66203665733337400000e-001) (66, 7.02081084251403810000e-001) (67, 6.07432901859283450000e-001) (68, 1.18291151523590090000e+000) (69, 1.44332802295684810000e+000) (70, 1.86824905872344970000e+000) (71, 1.11353778839111330000e+000) (72, 5.34869432449340820000e-001) (73, 4.23717111349105830000e-001) (74, 4.27916735410690310000e-001) (75, 4.84183400869369510000e-001) (76, 6.53511524200439450000e-001) (77, 8.04518461227416990000e-001) (78, 6.00858688354492190000e-001) (79, 5.73354840278625490000e-001) (80, 6.85358583927154540000e-001) (81, 4.02002632617950440000e-001) (82, 9.78501066565513610000e-002) (83, 1.28387644886970520000e-001) (84, 2.93952614068984990000e-001) (85, 8.07862877845764160000e-002) (86, -7.51180410385131840000e-001) (87, -5.15935182571411130000e-001) (88, -3.06664258241653440000e-001) (89, -1.79725542664527890000e-001) (90, -1.02484747767448430000e-002) (91, 1.91400080919265750000e-001) (92, -5.57032562792301180000e-002) (93, -9.50871855020523070000e-002) (94, 8.31637829542160030000e-002) (95, -3.22790592908859250000e-001) (96, -5.13046532869338990000e-002) (97, 3.03531438112258910000e-001) (98, 6.66123867034912110000e-001) (99, 3.36913824081420900000e-001) (100, 3.52145105600357060000e-001) (101, 4.47660505771636960000e-001) (102, 3.46909344196319580000e-001) (103, 2.17409729957580570000e-001) (104, 7.52961516380310060000e-001) (105, 5.94666957855224610000e-001) (106, 6.40211582183837890000e-001) (107, 9.15426611900329590000e-001) (108, 1.38653087615966800000e+000) (109, 5.06766617298126220000e-001) (110, 1.21304742991924290000e-001) (111, 9.10689771175384520000e-001) (112, 1.06183335185050960000e-001) (113, 6.38565421104431150000e-001) (114, -3.30146774649620060000e-002) (115, 2.37820491194725040000e-001) (116, -4.17591035366058350000e-002) (117, -2.90776580572128300000e-001) (118, -8.18663462996482850000e-002) (119, -5.37812411785125730000e-002) (120, -1.21697001159191130000e-002) (121, -9.36475619673728940000e-002) (122, 7.60250240564346310000e-002) (123, 1.51738122105598450000e-001) (124, 4.74000185728073120000e-001) (125, 1.71373829245567320000e-001) (126, 2.81592965126037600000e-001) (127, -2.53566335886716840000e-002) (128, 6.01415662094950680000e-003) (129, 1.17452338337898250000e-001) (130, 7.63940997421741490000e-003) (131, -6.66272997856140140000e-001) (132, -3.40017735958099370000e-001) (133, -1.80083841085433960000e-001) (134, -1.13066397607326510000e-001) (135, 5.60738444328308110000e-001) (136, 5.58240532875061040000e-001) (137, 4.52237755060195920000e-001) (138, -1.41028678044676780000e-002) (139, 9.92448180913925170000e-002) (140, 8.88010263442993160000e-002) (141, 4.02213074266910550000e-003) (142, -1.13999819755554200000e+000) (143, -5.45080721378326420000e-001) (144, -5.02310395240783690000e-001) (145, -9.00114551186561580000e-002) (146, 4.03710603713989260000e-001) (147, 4.74209457635879520000e-001) (148, 5.29335081577301030000e-001) (149, 1.32240211963653560000e+000) (150, 7.39806354045867920000e-001) (151, 7.93746411800384520000e-001) (152, 6.88889741897583010000e-001) (153, 5.94284772872924800000e-001) (154, 4.98475313186645510000e-001) (155, 1.03343617916107180000e+000) (156, 1.00515687465667720000e+000) (157, 4.86467123031616210000e-001) (158, 5.43775856494903560000e-001) (159, 4.04533445835113530000e-001) (160, 2.57513374090194700000e-001) (161, 8.88201057910919190000e-001) (162, 3.39027315378189090000e-001) (163, 4.24145132303237920000e-001) (164, 5.24245917797088620000e-001) (165, 2.38683015108108520000e-001) (166, -2.06702619791030880000e-001) (167, -1.79895266890525820000e-001) (168, -2.68712043762207030000e-001) (169, 2.52216428518295290000e-001) (170, -2.87662953138351440000e-001) (171, -3.59893552958965300000e-002) (172, -1.04621767997741700000e-001) (173, 5.78687414526939390000e-002) (174, 1.38075485825538640000e-001) (175, 1.28764137625694270000e-001) (176, 1.58359900116920470000e-001) (177, 3.03640216588974000000e-001) (178, -1.24640858173370360000e+000) (0, 5.20394682884216310000e-001) (1, 3.53490561246871950000e-002) (2, 4.85232882201671600000e-002) (3, -1.24070383608341220000e-001) (4, 4.43328231573104860000e-001) (5, -1.83794572949409480000e-001) (6, -3.97568494081497190000e-001) (7, -5.32912492752075200000e-001) (8, -1.22226262092590330000e+000) (9, -1.98554193973541260000e+000) (10, -9.68543767929077150000e-001) (11, -1.14130544662475590000e+000) (12, -2.85590201616287230000e-001) (13, 8.11858177185058590000e-002) (14, 4.36782538890838620000e-001) (15, 7.88596928119659420000e-001) (16, 3.38214278221130370000e-001) (17, 2.67408937215805050000e-001) (18, 6.92242681980133060000e-001) (19, 3.47644627094268800000e-001) (20, 7.03430950641632080000e-001) (21, 7.33993530273437500000e-001) (22, 1.10041046142578120000e+000) (23, 3.20245623588562010000e-001) (24, -6.90176188945770260000e-002) (25, -4.10572975873947140000e-001) (26, -6.19516633450984950000e-002) (27, -3.46978157758712770000e-002) (28, 2.11538020521402360000e-002) (29, -1.12620135769248010000e-002) (30, -1.75904765725135800000e-001) (31, -4.94721651077270510000e-001) (32, -7.83616006374359130000e-001) (33, -7.39503383636474610000e-001) (34, -2.45267525315284730000e-001) (35, -8.65667611360549930000e-002) (36, -1.39739185571670530000e-001) (37, -9.24832448363304140000e-002) (38, 3.94858270883560180000e-002) (39, -1.92771151661872860000e-001) (40, -2.78854727745056150000e-001) (41, 2.18918114900588990000e-001) (42, -3.75941276550292970000e-001) (43, 3.26232671737670900000e-001) (44, 1.28010168671607970000e-001) (45, 3.52816246449947360000e-002) (46, 9.03349280357360840000e-001) (47, 4.48355555534362790000e-001) (48, 3.54155689477920530000e-001) (49, 3.74410480260849000000e-001) (50, 2.55918622016906740000e-001) (51, 7.65859961509704590000e-001) (52, 1.29921233654022220000e+000) (53, 7.64864861965179440000e-001) (54, -2.35773667693138120000e-001) (55, -4.70078200101852420000e-001) (56, -2.34352126717567440000e-001) (57, -1.47314652800560000000e-001) (58, 2.37541459500789640000e-003) (59, -4.48198318481445310000e-002) (60, -1.17429465055465700000e-001) (61, -1.17411918938159940000e-001) (62, -3.77621173858642580000e-001) (63, -6.38488903641700740000e-002) (64, -3.64073246717453000000e-001) (65, -5.76060891151428220000e-001) (66, -1.27412140369415280000e-001) (67, -8.09490233659744260000e-002) (68, 5.92206001281738280000e-001) (69, 1.17101155221462250000e-001) (70, 4.38605308532714840000e-001) (71, -6.12899124622344970000e-001) (72, 3.61908644437789920000e-001) (73, 1.33180350065231320000e-001) (74, 3.27800422906875610000e-001) (75, 1.32624179124832150000e-001) (76, 4.79939401149749760000e-001) (77, 1.13071191310882570000e+000) (78, 6.73820197582244870000e-001) (79, 1.11657178401947020000e+000) (80, 7.81500935554504390000e-001) (81, 2.66907066106796260000e-001) (82, 2.21417844295501710000e-001) (83, 2.28036031126976010000e-001) (84, -2.50852443277835850000e-002) (85, -1.05674952268600460000e-001) (86, -1.68595761060714720000e-001) (87, 2.11793333292007450000e-002) (88, 9.04746428132057190000e-002) (89, 6.82618841528892520000e-003) (90, -3.19697856903076170000e-002) (91, -2.77565211057662960000e-001) (92, -1.89299321174621580000e+000) (93, -2.21004679799079900000e-001) (94, 1.46992102265357970000e-001) (95, 1.29852548241615300000e-001) (96, 6.36771172285079960000e-002) (97, 1.32945090532302860000e-001) (98, 2.76609268039464950000e-002) (99, 8.86666253209114070000e-002) (100, 3.24041247367858890000e-001) (101, 5.13712823390960690000e-001) (102, 6.78407192230224610000e-001) (103, 1.82876959443092350000e-001) (104, 4.55187894403934480000e-002) (105, 1.06443792581558230000e-001) (106, 8.44715237617492680000e-002) (107, 4.15435880422592160000e-001) (108, -4.19820457696914670000e-001) (109, -2.08895638585090640000e-001) (110, -6.93238601088523860000e-002) (111, -8.29354301095008850000e-002) (112, -7.12990313768386840000e-002) (113, -2.25265175104141240000e-001) (114, -8.68701934814453130000e-002) (115, -3.70201952755451200000e-002) (116, -1.60459294915199280000e-001) (117, 1.53872832655906680000e-001) (118, -1.24637536704540250000e-001) (119, -7.18583986163139340000e-002) (120, -8.53132084012031560000e-002) (121, 2.87629961967468260000e-001) (122, 5.18745891749858860000e-002) (123, -6.07971474528312680000e-002) (124, -4.92532588541507720000e-002) (125, -2.26616978645324710000e-001) (126, -1.36500716209411620000e-001) (127, -3.43592703342437740000e-001) (128, -2.75241076946258540000e-001) (129, -1.46161839365959170000e-001) (130, 1.09139092266559600000e-001) (131, 7.99763947725296020000e-002) (132, 6.93696558475494380000e-001) (133, 1.83702871203422550000e-001) (134, 2.34995722770690920000e-001) (135, 9.77410301566123960000e-002) (136, 1.93128168582916260000e-001) (137, -2.14043378829956050000e-001) (138, -4.62187558412551880000e-001) (139, -2.88454145193099980000e-002) (140, 4.07659448683261870000e-002) (141, 1.67856588959693910000e-001) (142, 1.05731718242168430000e-001) (143, -1.29086270928382870000e-001) (144, 1.49866059422492980000e-001) (145, 8.86339787393808360000e-003) (146, -2.89087537676095960000e-002) (147, -2.88517653942108150000e-001) (148, -1.12570977210998540000e+000) (149, -1.34421467781066890000e+000) (150, 1.29491120576858520000e-001) (151, 4.29447382688522340000e-001) (152, 3.02146285772323610000e-001) (153, 6.22305035591125490000e-001) (154, 4.12077367305755620000e-001) (155, -1.15226961672306060000e-001) (156, -3.71722668409347530000e-001) (157, -5.43313980102539060000e-001) (158, -6.39500200748443600000e-001) (159, -3.30830454826354980000e-001) (160, 1.77604362368583680000e-001) (161, -7.75012606754899020000e-003) (162, -3.96581709384918210000e-001) (163, -8.41113567352294920000e-001) (164, -1.84508055448532100000e-001) (165, 3.23982149362564090000e-001) (166, 7.20134615898132320000e-001) (167, 3.06438356637954710000e-001) (168, -5.03402471542358400000e-001) (169, -1.61807447671890260000e-001) (170, 4.20430243015289310000e-001) (171, 7.15258046984672550000e-002) (172, 6.99620306491851810000e-001) (173, 7.13505983352661130000e-001) (174, 3.37208449840545650000e-001) (175, -3.97590160369873050000e-001) (176, -1.06870524585247040000e-001) (177, -2.91851282119750980000e-001) (178, -5.00133800506591800000e+000) (0, 5.65366625785827640000e-001) (1, -3.63332629203796390000e-002) (2, -2.32834726572036740000e-001) (3, -4.40371841192245480000e-001) (4, 2.32873514294624330000e-001) (5, -2.66971081495285030000e-001) (6, -9.95877161622047420000e-002) (7, 1.18634052574634550000e-001) (8, -2.56433963775634770000e-001) (9, -2.59731084108352660000e-001) (10, -3.96555930376052860000e-001) (11, -9.09002497792243960000e-002) (12, -9.11757275462150570000e-002) (13, 3.81754845380783080000e-001) (14, 6.09290778636932370000e-001) (15, 2.85062342882156370000e-001) (16, 3.84408801794052120000e-001) (17, 4.11572158336639400000e-001) (18, 3.14472675323486330000e-001) (19, 2.91114747524261470000e-001) (20, 1.16350464522838590000e-001) (21, 2.28859379887580870000e-001) (22, 4.72957283258438110000e-001) (23, 2.09795325994491580000e-001) (24, -3.19882988929748540000e-001) (25, -4.09215331077575680000e-001) (26, -7.77582049369812010000e-001) (27, -1.62715756893157960000e+000) (28, -7.26198196411132810000e-001) (29, -3.74644905328750610000e-001) (30, -3.97354215383529660000e-001) (31, -2.56098955869674680000e-001) (32, -3.74221429228782650000e-002) (33, 2.35198698937892910000e-002) (34, 1.23477086424827580000e-001) (35, -2.02962219715118410000e-001) (36, -3.57855767011642460000e-001) (37, -8.99575173854827880000e-001) (38, -2.76618395000696180000e-002) (39, 9.05746817588806150000e-002) (40, 4.02474433183670040000e-001) (41, 2.62899369001388550000e-001) (42, 1.49694964289665220000e-001) (43, 4.41789805889129640000e-001) (44, 9.33406036347150800000e-003) (45, 6.25289440155029300000e-001) (46, 5.27286827564239500000e-001) (47, 2.88461327552795410000e-001) (48, 2.40287855267524720000e-001) (49, 6.37776196002960210000e-001) (50, 4.71027582883834840000e-001) (51, 3.61944049596786500000e-001) (52, 2.42360755801200870000e-001) (53, -3.56997609138488770000e-001) (54, -6.55419528484344480000e-001) (55, -8.61524999141693120000e-001) (56, -7.94802844524383540000e-001) (57, -4.79752838611602780000e-001) (58, -5.69359838962554930000e-001) (59, 1.19552351534366610000e-001) (60, 8.75842869281768800000e-002) (61, 1.40390008687973020000e-001) (62, 2.69716739654541020000e-001) (63, -7.36390203237533570000e-002) (64, -2.49147966504096980000e-001) (65, -2.88853626698255540000e-002) (66, -8.43455642461776730000e-002) (67, 4.29250150918960570000e-002) (68, -2.61016756296157840000e-001) (69, 8.16807150840759280000e-002) (70, -4.85322810709476470000e-002) (71, 1.61953538656234740000e-001) (72, 1.05473630130290990000e-001) (73, 2.00924664735794070000e-001) (74, 3.33498418331146240000e-001) (75, 3.65145951509475710000e-001) (76, 3.01888465881347660000e-001) (77, -3.53780835866928100000e-001) (78, -9.05751109123229980000e-001) (79, -4.38175529241561890000e-001) (80, 4.97895240783691410000e-001) (81, 3.75917553901672360000e-001) (82, -5.19798249006271360000e-002) (83, 2.36933946609497070000e-001) (84, 1.38626486063003540000e-001) (85, 4.12793979048728940000e-002) (86, 1.66412338614463810000e-001) (87, 9.54556390643119810000e-002) (88, 4.74767535924911500000e-002) (89, -6.79518431425094600000e-002) (90, -4.54128623008728030000e-001) (91, -1.35759770870208740000e+000) (92, -2.48648688197135930000e-001) (93, -2.96028107404708860000e-001) (94, -1.46204516291618350000e-001) (95, 1.39787554740905760000e-001) (96, 1.33615896105766300000e-001) (97, 3.38274449110031130000e-001) (98, 2.83084571361541750000e-001) (99, 2.25943922996521000000e-001) (100, 2.26118594408035280000e-001) (101, 2.10752055048942570000e-001) (102, -5.43775498867034910000e-001) (103, -4.49884496629238130000e-002) (104, 8.42089533805847170000e-001) (105, 9.88892912864685060000e-001) (106, 5.97087562084198000000e-001) (107, 3.36470365524291990000e-001) (108, -7.30021893978118900000e-001) (109, -7.56799995899200440000e-001) (110, -1.13012647628784180000e+000) (111, -8.69954764842987060000e-001) (112, -6.91292107105255130000e-001) (113, 2.50848442316055300000e-001) (114, 1.22605882585048680000e-001) (115, -4.93331998586654660000e-002) (116, 1.73263400793075560000e-001) (117, 3.69715280830860140000e-002) (118, 1.98811799287796020000e-001) (119, 6.20289668440818790000e-002) (120, 1.38633146882057190000e-001) (121, -6.46108910441398620000e-002) (122, 3.73118706047534940000e-002) (123, 8.88321340084075930000e-001) (124, 2.09814354777336120000e-001) (125, 2.49753985553979870000e-002) (126, -7.04749524593353270000e-002) (127, 3.72215479612350460000e-001) (128, 3.31101059913635250000e-001) (129, 9.77437555789947510000e-001) (130, 8.39757442474365230000e-001) (131, 7.59417355060577390000e-001) (132, 2.65935808420181270000e-001) (133, 3.12841892242431640000e-001) (134, 1.48872837424278260000e-001) (135, -4.18255120515823360000e-001) (136, -4.61332082748413090000e-001) (137, -4.12108339369297030000e-002) (138, 3.44815850257873540000e-001) (139, 1.83145478367805480000e-001) (140, 2.98122018575668330000e-001) (141, 1.09995141625404360000e-001) (142, 9.23477411270141600000e-002) (143, 2.04856440424919130000e-001) (144, -5.47884702682495120000e-001) (145, -9.71598148345947270000e-001) (146, -3.93475711345672610000e-001) (147, -9.54001471400260930000e-002) (148, -1.31753295660018920000e-001) (149, -2.58121043443679810000e-001) (150, -3.35246473550796510000e-001) (151, -1.20580181479454040000e-001) (152, -2.20880553126335140000e-001) (153, -5.78763671219348910000e-002) (154, -1.68353579938411710000e-002) (155, 8.94123464822769170000e-002) (156, 1.27076089382171630000e-001) (157, 1.29332140088081360000e-001) (158, -1.82080507278442380000e-001) (159, -1.73970893025398250000e-001) (160, -4.13157343864440920000e-001) (161, -2.02284410595893860000e-001) (162, -6.01903535425662990000e-002) (163, 4.32900339365005490000e-001) (164, 5.62128536403179170000e-002) (165, 9.87914949655532840000e-002) (166, 2.32502818107604980000e-001) (167, 4.52259838581085210000e-001) (168, 2.16958492994308470000e-001) (169, 2.80870348215103150000e-001) (170, -2.97111034393310550000e-001) (171, 1.42199456691741940000e-001) (172, -3.52205149829387660000e-002) (173, 9.83755588531494140000e-002) (174, 2.82040312886238100000e-002) (175, 1.13129012286663060000e-001) (176, -2.40417137742042540000e-001) (177, -3.29017460346221920000e-001) (178, 6.13843011856079100000e+000) (0, -5.19560992717742920000e-001) (1, 3.93288969993591310000e-001) (2, 2.37957701086997990000e-001) (3, 2.47485458850860600000e-001) (4, 8.66941064596176150000e-002) (5, -2.90289938449859620000e-001) (6, 2.86527067422866820000e-001) (7, 3.34636032581329350000e-001) (8, 3.70558977127075200000e-001) (9, 3.45773488283157350000e-001) (10, 4.63492423295974730000e-001) (11, 5.37629015743732450000e-002) (12, 3.88545304536819460000e-001) (13, 4.13640856742858890000e-001) (14, 1.42089441418647770000e-001) (15, 1.97585120797157290000e-001) (16, 1.60304367542266850000e-001) (17, 3.28055948019027710000e-001) (18, 2.13126510381698610000e-001) (19, 2.16909557580947880000e-001) (20, 9.02694836258888240000e-002) (21, -1.94617673754692080000e-001) (22, -6.52276426553726200000e-002) (23, -6.74911811947822570000e-002) (24, 5.85824787616729740000e-001) (25, 3.98371070623397830000e-001) (26, 4.49956744909286500000e-001) (27, 3.52538883686065670000e-001) (28, 2.83830791711807250000e-001) (29, 3.55016499757766720000e-001) (30, 4.24821764230728150000e-001) (31, 3.62464159727096560000e-001) (32, 2.50969111919403080000e-001) (33, 3.14374327659606930000e-001) (34, 3.17955434322357180000e-001) (35, 2.46902689337730410000e-001) (36, 2.69071012735366820000e-001) (37, 2.87072300910949710000e-001) (38, 4.19906198978424070000e-001) (39, 3.54968547821044920000e-001) (40, 3.71245622634887700000e-001) (41, -8.93898457288742070000e-002) (42, -2.95724660158157350000e-001) (43, -3.43041568994522090000e-001) (44, -2.34423562884330750000e-001) (45, -9.74444076418876650000e-002) (46, -2.69480317831039430000e-001) (47, 1.46558538079261780000e-001) (48, 1.63713514804840090000e-001) (49, -6.17488510906696320000e-002) (50, -1.84144135564565660000e-002) (51, -2.86146551370620730000e-001) (52, -5.93156695365905760000e-001) (53, -2.29947477579116820000e-001) (54, 2.33904197812080380000e-001) (55, 2.82155364751815800000e-001) (56, 2.36780926585197450000e-001) (57, 2.50797033309936520000e-001) (58, 6.20905756950378420000e-002) (59, 2.47839644551277160000e-001) (60, 6.25254735350608830000e-002) (61, 2.97959029674530030000e-001) (62, 3.61599355936050420000e-001) (63, 3.38427126407623290000e-001) (64, 4.63652938604354860000e-001) (65, 4.16611611843109130000e-001) (66, 3.14559608697891240000e-001) (67, 1.88011556863784790000e-001) (68, 2.62920945882797240000e-001) (69, 1.38205677270889280000e-001) (70, 2.82612293958663940000e-001) (71, -3.74434329569339750000e-002) (72, -2.30884224176406860000e-001) (73, -6.09380304813385010000e-002) (74, -8.05908963084220890000e-002) (75, -6.05819821357727050000e-002) (76, -4.22269590198993680000e-002) (77, 1.33706405758857730000e-001) (78, 5.28032705187797550000e-002) (79, -1.32284045219421390000e-001) (80, -1.64050251245498660000e-001) (81, 5.36059811711311340000e-002) (82, 1.53086289763450620000e-001) (83, 3.64483654499053960000e-001) (84, 3.83165627717971800000e-001) (85, -9.06672179698944090000e-002) (86, 2.65217155218124390000e-001) (87, 4.94272142648696900000e-001) (88, 4.85831320285797120000e-001) (89, 3.87460708618164060000e-001) (90, 3.88021439313888550000e-001) (91, 5.34888148307800290000e-001) (92, 1.85648128390312190000e-001) (93, 4.99286800622940060000e-001) (94, 4.21763092279434200000e-001) (95, -1.73232272267341610000e-001) (96, -1.88276484608650210000e-001) (97, -1.23646266758441930000e-001) (98, 6.35744258761405940000e-002) (99, -4.32444922626018520000e-002) (100, -7.61929154396057130000e-002) (101, 6.39890581369400020000e-002) (102, -1.48485988378524780000e-001) (103, 8.13953056931495670000e-002) (104, -2.18472793698310850000e-001) (105, -5.77151238918304440000e-001) (106, 6.92466571927070620000e-002) (107, 1.33044883608818050000e-001) (108, -1.23331397771835330000e-001) (109, 3.69321495294570920000e-001) (110, 5.02754032611846920000e-001) (111, 8.19695219397544860000e-002) (112, 9.06171575188636780000e-002) (113, 3.98790001869201660000e-001) (114, 2.05314218997955320000e-001) (115, -7.35020488500595090000e-002) (116, -2.44404505938291550000e-002) (117, 2.07640320062637330000e-001) (118, 1.34933710098266600000e-001) (119, 1.40708357095718380000e-001) (120, -4.58452552556991580000e-001) (121, -1.76435708999633790000e-001) (122, -3.49694520235061650000e-001) (123, 4.37450483441352840000e-002) (124, -3.05270910263061520000e-001) (125, -2.35255867242813110000e-001) (126, -1.04829452931880950000e-001) (127, 2.56887730211019520000e-002) (128, 4.80975061655044560000e-001) (129, 1.92149847745895390000e-001) (130, 6.24274432659149170000e-001) (131, -2.93338030576705930000e-001) (132, -2.79352992773056030000e-001) (133, 6.16872720420360570000e-002) (134, 5.63741149380803110000e-003) (135, 1.39141201972961430000e-001) (136, 4.98201623558998110000e-002) (137, -8.35791509598493580000e-003) (138, -9.23041403293609620000e-002) (139, -7.43488892912864690000e-002) (140, -1.41769930720329280000e-001) (141, 2.17808783054351810000e-001) (142, 1.03960782289505000000e-001) (143, 4.23723816871643070000e-001) (144, 4.48740154504776000000e-001) (145, 5.87721876800060270000e-002) (146, -3.60706821084022520000e-002) (147, -5.80059625208377840000e-002) (148, 5.10735213756561280000e-001) (149, 6.29109263420104980000e-001) (150, -2.11393926292657850000e-002) (151, -6.23030625283718110000e-002) (152, -1.10029250383377080000e-001) (153, -1.40956699848175050000e-001) (154, -5.42425394058227540000e-001) (155, -1.02517116069793700000e+000) (156, 3.16285304725170140000e-002) (157, 2.78479963541030880000e-001) (158, 2.65341311693191530000e-001) (159, 3.32386940717697140000e-001) (160, 3.10545355081558230000e-001) (161, -3.21970470249652860000e-002) (162, -7.86410123109817500000e-002) (163, -4.41955417394638060000e-001) (164, -3.02197545766830440000e-001) (165, 1.64260156452655790000e-002) (166, -5.24555929005146030000e-002) (167, 4.66793850064277650000e-002) (168, -2.77390610426664350000e-002) (169, 4.38684336841106410000e-002) (170, -5.07921874523162840000e-001) (171, -1.55964463949203490000e-001) (172, -2.45222479104995730000e-001) (173, 5.25972880423069000000e-002) (174, -2.03884299844503400000e-002) (175, 3.44649314880371090000e-001) (176, 2.78066873550415040000e-001) (177, -3.33588600158691410000e-001) (178, 2.80959773063659670000e+000) (0, 3.13895285129547120000e-001) (1, 6.93363487720489500000e-001) (2, 1.06020236015319820000e+000) (3, 9.74165081977844240000e-001) (4, 4.63443666696548460000e-001) (5, -3.75164076685905460000e-002) (6, 1.01330272853374480000e-001) (7, 5.26363737881183620000e-002) (8, 1.64969459176063540000e-001) (9, 3.78747791051864620000e-001) (10, 1.15437829494476320000e+000) (11, 5.30246794223785400000e-001) (12, 3.98990750312805180000e-001) (13, 3.73081028461456300000e-001) (14, 7.14595317840576170000e-001) (15, 5.99381148815155030000e-001) (16, 8.39489161968231200000e-001) (17, 3.75290840864181520000e-001) (18, 3.24871242046356200000e-001) (19, -5.38654662668704990000e-002) (20, 9.33921709656715390000e-002) (21, 4.21498388051986690000e-001) (22, 8.03961098194122310000e-001) (23, 1.13991248607635500000e+000) (24, 1.18736755102872850000e-002) (25, -1.11497558653354640000e-001) (26, 1.95547640323638920000e-001) (27, 4.38498854637146000000e-001) (28, 1.14378893375396730000e+000) (29, 1.09968459606170650000e+000) (30, 7.46124207973480220000e-001) (31, 1.03853553533554080000e-001) (32, 2.54650861024856570000e-001) (33, 2.19970405101776120000e-001) (34, 1.57028138637542720000e-001) (35, -4.93993423879146580000e-002) (36, -1.56687609851360320000e-002) (37, 3.58043587766587730000e-003) (38, 8.33536982536315920000e-002) (39, 5.08780837059021000000e-001) (40, 7.68263697624206540000e-001) (41, 2.79264062643051150000e-001) (42, 4.57699745893478390000e-002) (43, -4.53660488128662110000e-001) (44, -8.72817873954772950000e-001) (45, -8.49759876728057860000e-001) (46, 1.03874377906322480000e-001) (47, 1.33422803878784180000e+000) (48, 9.21912550926208500000e-001) (49, 3.79753887653350830000e-001) (50, -5.59393584728240970000e-001) (51, 3.46114665269851680000e-001) (52, 3.36170494556427000000e-001) (53, 1.86883673071861270000e-001) (54, 1.61000981926918030000e-001) (55, 2.16126486659049990000e-001) (56, 1.88541576266288760000e-001) (57, 1.52311718463897710000e+000) (58, 1.02733540534973140000e+000) (59, 4.75526064634323120000e-001) (60, 8.03376495838165280000e-001) (61, 5.44711053371429440000e-001) (62, 1.24834513664245610000e+000) (63, 3.56025272049009800000e-003) (64, -1.82981658726930620000e-002) (65, -3.45331206917762760000e-002) (66, -5.26232838630676270000e-001) (67, -3.08547019958496090000e-001) (68, -4.61894869804382320000e-002) (69, 2.75364190340042110000e-001) (70, 1.20852656662464140000e-001) (71, 1.47765529155731200000e+000) (72, 7.16436803340911870000e-001) (73, 6.88779354095458980000e-001) (74, 3.30337554216384890000e-001) (75, 1.29648074507713320000e-001) (76, -1.33425533771514890000e-001) (77, -7.44434744119644170000e-002) (78, 3.50686348974704740000e-002) (79, 1.84155017137527470000e-001) (80, 4.40511405467987060000e-001) (81, 9.11666691303253170000e-001) (82, 4.81871753931045530000e-001) (83, 3.65461468696594240000e-001) (84, 3.16338807344436650000e-001) (85, 2.14390859007835390000e-001) (86, 9.08074021339416500000e-001) (87, 8.42990934848785400000e-001) (88, 7.91308164596557620000e-001) (89, 1.00663769245147710000e+000) (90, 1.43350231647491460000e+000) (91, 1.33916115760803220000e+000) (92, 3.60094696283340450000e-001) (93, 1.62776596844196320000e-002) (94, -2.29692514985799790000e-002) (95, -1.34541481733322140000e-001) (96, 1.13156855106353760000e-001) (97, 2.74970471858978270000e-001) (98, 2.06134319305419920000e-001) (99, 1.74784094095230100000e-001) (100, 3.70087742805480960000e-001) (101, 4.27940815687179570000e-001) (102, 4.30045068264007570000e-001) (103, 6.82453095912933350000e-001) (104, 3.37010622024536130000e-002) (105, 2.27862581610679630000e-001) (106, 2.42524623870849610000e-001) (107, -5.96112191677093510000e-001) (108, -2.48608857393264770000e-001) (109, 1.03284931182861330000e+000) (110, 8.16947996616363530000e-001) (111, 1.10250580310821530000e+000) (112, 1.11770653724670410000e+000) (113, 1.05166697502136230000e+000) (114, 7.52182364463806150000e-001) (115, 8.67121338844299320000e-001) (116, 5.34176588058471680000e-001) (117, 2.12315499782562260000e-001) (118, 3.06518916040658950000e-002) (119, 5.67987620830535890000e-001) (120, 4.14266914129257200000e-001) (121, 1.40421986579895020000e-001) (122, -3.64656709134578700000e-002) (123, 2.93297190219163890000e-002) (124, -2.74647533893585210000e-001) (125, 5.45111820101737980000e-002) (126, -1.06157781556248660000e-002) (127, 2.25366204977035520000e-001) (128, 3.35294097661972050000e-001) (129, 5.62810897827148440000e-001) (130, 5.09514629840850830000e-001) (131, 1.66896700859069820000e-001) (132, 3.35294842720031740000e-001) (133, 8.36465731263160710000e-002) (134, 3.90679746866226200000e-001) (135, 1.99451208114624020000e-001) (136, -6.99729844927787780000e-002) (137, -4.34664748609066010000e-002) (138, 3.27048897743225100000e-001) (139, -1.23145051300525670000e-001) (140, 1.05828560888767240000e-001) (141, 1.49706944823265080000e-001) (142, 5.77784068882465360000e-002) (143, 1.88788533210754390000e-001) (144, 5.85616469383239750000e-001) (145, 6.51889741420745850000e-001) (146, 4.29201908409595490000e-002) (147, 4.39610838890075680000e-001) (148, 5.42526319622993470000e-002) (149, 2.11882904171943660000e-001) (150, 1.64646968245506290000e-001) (151, 8.64390358328819270000e-002) (152, 6.79434835910797120000e-001) (153, 4.46916252374649050000e-001) (154, 2.50117599964141850000e-001) (155, 4.50099408626556400000e-001) (156, 3.81782293319702150000e-001) (157, 2.42131277918815610000e-001) (158, 4.94079440832138060000e-001) (159, 3.57592791318893430000e-001) (160, -1.85426339507102970000e-001) (161, 1.85943633317947390000e-001) (162, 3.41412365436553960000e-001) (163, 7.13612079620361330000e-001) (164, 3.24392765760421750000e-001) (165, 2.57807463407516480000e-001) (166, 6.48311614990234380000e-001) (167, 5.94341039657592770000e-001) (168, 5.96933722496032710000e-001) (169, 1.44009053707122800000e-001) (170, 1.27723827958106990000e-001) (171, -2.47000113129615780000e-001) (172, -1.18566907942295070000e-001) (173, 9.20557439327239990000e-001) (174, 1.40129065513610840000e+000) (175, 2.02234482765197750000e+000) (176, 1.79994380474090580000e+000) (177, 3.50118851661682130000e+000) (178, 2.00666084885597230000e-001) (0, 3.81288695335388180000e+000) (1, 1.03602039813995360000e+000) (2, 8.44873845577239990000e-001) (3, 5.75453221797943120000e-001) (4, -6.63888335227966310000e-001) (5, -9.29424688220024110000e-002) (6, 6.63037151098251340000e-002) (7, -3.38392823934555050000e-001) (8, 3.61447595059871670000e-002) (9, 2.35674872994422910000e-001) (10, 5.46220242977142330000e-001) (11, 4.33950126171112060000e-001) (12, 5.25855600833892820000e-001) (13, 5.83221852779388430000e-001) (14, 1.22346603870391850000e+000) (15, 2.66689705848693850000e+000) (16, 9.35485363006591800000e-001) (17, 5.40140748023986820000e-001) (18, 1.80285125970840450000e-001) (19, 4.81442749500274660000e-001) (20, -2.25609093904495240000e-001) (21, 4.45621818304061890000e-001) (22, 7.47801125049591060000e-001) (23, -6.56951591372489930000e-002) (24, -1.19280643761157990000e-001) (25, -1.26644283533096310000e-001) (26, -3.83961260318756100000e-001) (27, -3.89398038387298580000e-002) (28, -1.19202613830566410000e-001) (29, -5.34306727349758150000e-002) (30, 8.56659337878227230000e-002) (31, 1.13812923431396480000e-001) (32, -5.28304763138294220000e-002) (33, 9.99151468276977540000e-002) (34, -4.99070510268211360000e-002) (35, -5.67985296249389650000e-001) (36, -1.11853003501892090000e+000) (37, -6.45159371197223660000e-003) (38, 3.25154840946197510000e-001) (39, 4.81860876083374020000e-001) (40, 5.73985219001770020000e-001) (41, 1.10252633690834050000e-001) (42, -4.08437907695770260000e-001) (43, -3.00739537924528120000e-002) (44, 3.05156499147415160000e-001) (45, 3.72693091630935670000e-001) (46, 4.59442853927612300000e-001) (47, 5.61531841754913330000e-001) (48, 4.11337345838546750000e-001) (49, 9.19987976551055910000e-001) (50, 6.40458405017852780000e-001) (51, 