#include "fann_net.h"

const enum fann_nettype_enum network_type = 0;

#ifdef TEST_EPILEPSY
	const fann_neuron fann_neurons[NUM_NEURONS] = {{0, 0, 0, 0}, {0, 0, 0, 0}, {0, 0, 0, 0}, {0, 0, 0, 0}, {0, 0, 0, 0}, {0, 0, 0, 0}, {0, 0, 0, 0}, {0, 0, 0, 0}, {0, 0, 0, 0}, {0, 0, 0, 0}, {0, 0, 0, 0}, {0, 0, 0, 0}, {0, 0, 0, 0}, {0, 0, 0, 0}, {0, 0, 0, 0}, {0, 0, 0, 0}, {0, 0, 0, 0}, {0, 0, 0, 0}, {0, 0, 0, 0}, {0, 0, 0, 0}, {0, 0, 0, 0}, {0, 0, 0, 0}, {0, 0, 0, 0}, {0, 0, 0, 0}, {0, 0, 0, 0}, {0, 0, 0, 0}, {0, 0, 0, 0}, {0, 0, 0, 0}, {0, 0, 0, 0}, {0, 0, 0, 0}, {0, 0, 0, 0}, {0, 0, 0, 0}, {0, 0, 0, 0}, {0, 0, 0, 0}, {0, 0, 0, 0}, {0, 0, 0, 0}, {0, 0, 0, 0}, {0, 0, 0, 0}, {0, 0, 0, 0}, {0, 0, 0, 0}, {0, 0, 0, 0}, {0, 0, 0, 0}, {0, 0, 0, 0}, {0, 0, 0, 0}, {0, 0, 0, 0}, {0, 0, 0, 0}, {0, 0, 0, 0}, {0, 0, 0, 0}, {0, 0, 0, 0}, {0, 0, 0, 0}, {0, 0, 0, 0}, {0, 0, 0, 0}, {0, 0, 0, 0}, {0, 0, 0, 0}, {0, 0, 0, 0}, {0, 0, 0, 0}, {0, 0, 0, 0}, {0, 0, 0, 0}, {0, 0, 0, 0}, {0, 0, 0, 0}, {0, 0, 0, 0}, {0, 0, 0, 0}, {0, 0, 0, 0}, {0, 0, 0, 0}, {0, 0, 0, 0}, {0, 0, 0, 0}, {0, 0, 0, 0}, {0, 0, 0, 0}, {0, 0, 0, 0}, {0, 0, 0, 0}, {0, 0, 0, 0}, {0, 0, 0, 0}, {0, 0, 0, 0}, {0, 0, 0, 0}, {0, 0, 0, 0}, {0, 0, 0, 0}, {0, 0, 0, 0}, {0, 0, 0, 0}, {0, 0, 0, 0}, {0, 0, 0, 0}, {0, 0, 0, 0}, {0, 0, 0, 0}, {0, 0, 0, 0}, {0, 0, 0, 0}, {0, 0, 0, 0}, {0, 0, 0, 0}, {0, 0, 0, 0}, {0, 0, 0, 0}, {0, 0, 0, 0}, {0, 0, 0, 0}, {0, 0, 0, 0}, {0, 0, 0, 0}, {0, 0, 0, 0}, {0, 0, 0, 0}, {0, 0, 0, 0}, {0, 0, 0, 0}, {0, 0, 0, 0}, {0, 0, 0, 0}, {0, 0, 0, 0}, {0, 0, 0, 0}, {0, 0, 0, 0}, {0, 0, 0, 0}, {0, 0, 0, 0}, {0, 0, 0, 0}, {0, 0, 0, 0}, {0, 0, 0, 0}, {0, 0, 0, 0}, {0, 0, 0, 0}, {0, 0, 0, 0}, {0, 0, 0, 0}, {0, 0, 0, 0}, {0, 0, 0, 0}, {0, 0, 0, 0}, {0, 0, 0, 0}, {0, 0, 0, 0}, {0, 0, 0, 0}, {0, 0, 0, 0}, {0, 0, 0, 0}, {0, 0, 0, 0}, {0, 0, 0, 0}, {0, 0, 0, 0}, {0, 0, 0, 0}, {0, 0, 0, 0}, {0, 0, 0, 0}, {0, 0, 0, 0}, {0, 0, 0, 0}, {0, 0, 0, 0}, {0, 0, 0, 0}, {0, 0, 0, 0}, {0, 0, 0, 0}, {0, 0, 0, 0}, {0, 0, 0, 0}, {0, 0, 0, 0}, {0, 0, 0, 0}, {0, 0, 0, 0}, {0, 0, 0, 0}, {0, 0, 0, 0}, {0, 0, 0, 0}, {0, 0, 0, 0}, {0, 0, 0, 0}, {0, 0, 0, 0}, {0, 0, 0, 0}, {0, 0, 0, 0}, {0, 0, 0, 0}, {0, 0, 0, 0}, {0, 0, 0, 0}, {0, 0, 0, 0}, {0, 0, 0, 0}, {0, 0, 0, 0}, {0, 0, 0, 0}, {0, 0, 0, 0}, {0, 0, 0, 0}, {0, 0, 0, 0}, {0, 0, 0, 0}, {0, 0, 0, 0}, {0, 0, 0, 0}, {0, 0, 0, 0}, {0, 0, 0, 0}, {0, 0, 0, 0}, {0, 0, 0, 0}, {0, 0, 0, 0}, {0, 0, 0, 0}, {0, 0, 0, 0}, {0, 0, 0, 0}, {0, 0, 0, 0}, {0, 0, 0, 0}, {0, 0, 0, 0}, {0, 0, 0, 0}, {0, 0, 0, 0}, {0, 0, 0, 0}, {0, 0, 0, 0}, {0, 0, 0, 0}, {0, 0, 0, 0}, {0, 0, 0, 0}, {0, 0, 0, 0}, {0, 0, 0, 0}, {0, 0, 0, 0}, {0, 0, 0, 0}, {178, 356, 1.0, 6}, {356, 534, 1.0, 6}, {534, 712, 1.0, 6}, {712, 890, 1.0, 6}, {890, 1068, 1.0, 6}, {1068, 1246, 1.0, 6}, {1246, 1424, 1.0, 6}, {1424, 1602, 1.0, 6}, {1602, 1780, 1.0, 6}, {1780, 1958, 1.0, 6}, {1958, 2136, 1.0, 6}, {2136, 2314, 1.0, 6}, {2314, 2492, 1.0, 6}, {2492, 2670, 1.0, 6}, {2670, 2848, 1.0, 6}, {2848, 3026, 1.0, 6}, {3026, 3204, 1.0, 6}, {3204, 3382, 1.0, 6}, {3382, 3560, 1.0, 6}, {3560, 3738, 1.0, 6}, {3738, 3916, 1.0, 6}, {3916, 4094, 1.0, 6}, {4094, 4272, 1.0, 6}, {4272, 4450, 1.0, 6}, {4450, 4628, 1.0, 6}, {4628, 4806, 1.0, 6}, {4806, 4984, 1.0, 6}, {4984, 5162, 1.0, 6}, {5162, 5340, 1.0, 6}, {5340, 5518, 1.0, 6}, {5518, 5696, 1.0, 6}, {5696, 5874, 1.0, 6}, {5874, 6052, 1.0, 6}, {6052, 6230, 1.0, 6}, {6230, 6408, 1.0, 6}, {6408, 6586, 1.0, 6}, {6586, 6764, 1.0, 6}, {6764, 6942, 1.0, 6}, {6942, 7120, 1.0, 6}, {7120, 7298, 1.0, 6}, {7298, 7476, 1.0, 6}, {7476, 7654, 1.0, 6}, {7654, 7832, 1.0, 6}, {7832, 8010, 1.0, 6}, {8010, 8188, 1.0, 6}, {8188, 8366, 1.0, 6}, {8366, 8544, 1.0, 6}, {8544, 8722, 1.0, 6}, {8722, 8900, 1.0, 6}, {8900, 9078, 1.0, 6}, {9078, 9256, 1.0, 6}, {9256, 9434, 1.0, 6}, {9434, 9612, 1.0, 6}, {9612, 9790, 1.0, 6}, {9790, 9968, 1.0, 6}, {9968, 10146, 1.0, 6}, {10146, 10324, 1.0, 6}, {10324, 10502, 1.0, 6}, {10502, 10680, 1.0, 6}, {10680, 10858, 1.0, 6}, {10858, 11036, 1.0, 6}, {11036, 11214, 1.0, 6}, {11214, 11392, 1.0, 6}, {11392, 11570, 1.0, 6}, {11570, 11748, 1.0, 6}, {11748, 11926, 1.0, 6}, {11926, 12104, 1.0, 6}, {12104, 12282, 1.0, 6}, {12282, 12460, 1.0, 6}, {12460, 12638, 1.0, 6}, {12638, 12816, 1.0, 6}, {12816, 12994, 1.0, 6}, {12994, 13172, 1.0, 6}, {13172, 13350, 1.0, 6}, {13350, 13528, 1.0, 6}, {13528, 13706, 1.0, 6}, {13706, 13884, 1.0, 6}, {13884, 14062, 1.0, 6}, {14062, 14240, 1.0, 6}, {14240, 14418, 1.0, 6}, {14418, 14596, 1.0, 6}, {14596, 14774, 1.0, 6}, {14774, 14952, 1.0, 6}, {14952, 15130, 1.0, 6}, {15130, 15308, 1.0, 6}, {15308, 15486, 1.0, 6}, {15486, 15664, 1.0, 6}, {15664, 15842, 1.0, 6}};

	const fann_type fann_weights[NUM_WEIGHTS] = {0.004718603, -0.14656818, 0.22681412, -0.16109379, 0.20541555, 0.05672161, -0.070972934, 0.24728613, 0.1336816, -0.03136043, 0.077022284, 0.37171808, 0.25931084, 0.05336449, -0.077405855, -0.17144395, 0.0052988804, 0.3403154, -0.054751676, 0.21943918, 0.13163777, -0.28956512, -0.107883304, 0.19264589, 0.15171497, -0.23929653, 0.1967317, -0.062229786, -0.10897205, 0.2622908, -0.1666222, -0.16567926, -0.30968577, 0.32168785, -0.23441511, 0.107300416, 0.14613996, -0.08164595, -0.18875852, 0.042557336, 0.16296501, -0.1557075, 0.13981815, 0.20304869, -0.11576081, 0.20126538, -0.069632344, -0.054647677, -0.034096207, -0.089918934, 0.22048001, -0.021130038, -0.069439106, 0.2574686, 0.06898847, -0.34343493, 0.050209545, -0.17535618, 0.036445912, -0.061208278, -0.27710378, 0.34099045, -0.13660145, -0.016903961, 0.13092464, 0.11196394, 0.08507697, 0.04762251, 0.23299724, 0.075469516, 0.11370663, -0.2567303, -0.19783401, 0.112615116, 0.509745, 0.06904229, 0.062582314, -0.052262425, 0.1763394, -0.099766344, -0.13374217, -0.050757267, -0.071502544, 0.19499746, -0.06199517, 0.1252915, -0.05551724, 0.11565939, 0.18593732, -0.08286806, 0.07650985, -0.2244514, 0.20629543, -0.16271797, -0.073281944, 0.26374075, 0.06174211, 0.10250961, 0.26639232, 0.007050384, 0.039665114, -0.16491432, 0.23850039, -0.26433194, 0.044536244, 0.33026898, 0.043038722, 0.21693107, 0.07706701, -0.33613682, -0.13883747, -0.09476206, 0.10850318, -0.4414606, 0.25838578, -0.08971821, -0.05183853, 0.19454688, -0.20344995, -0.26356852, -0.092358775, 0.20827563, 0.03648357, 0.08044977, -0.108844675, -0.11167062, 0.039540377, -0.20599324, -0.051340982, 0.07116189, -0.22056837, 0.17814778, -0.072484225, 0.034929384, -0.03115898, 0.061366256, 0.015079975, -0.1915691, 0.4518586, -0.08419477, -0.32776028, 0.012079489, 0.08782425, -0.28695196, -0.17156036, -0.3893746, 0.13685939, 0.055776376, -0.21804605, 0.020741012, -0.14925422, 0.044599947, 0.33436874, -0.09976053, -0.07367257, 0.1887818, -0.016186148, -0.15916592, 0.06840835, 0.04573732, -0.2840532, 0.08075808, 0.41707143, -0.072004445, -0.25413418, 0.18677384, -0.015210042, 0.09030025, -0.30129406, 0.08824881, -0.23630752, 0.08800626, 0.060653508, 0.085585065, -0.0023238955, -0.017036092, 0.10030995, 0.115444735, 0.18611613, -0.16287115, 0.0500498, 0.009793345, -0.1731993, 0.29593214, 0.11131864, -0.08403551, 0.0043776557, -0.10220072, 0.17723122, 0.13293897, 0.24492213, -0.27913067, 0.050184168, 0.1834272, -0.19577867, -0.035052978, 0.054886576, -0.27708846, -0.10942482, -0.15401037, 0.22056854, -0.3404674, 0.37683102, 0.09503874, 0.12380768, 0.4194525, -0.028334346, -0.3076036, -0.18810529, -0.061440464, -0.21910179, 0.12221215, 0.019052453, -0.3585899, -0.1400252, -0.30255187, 0.14894792, -0.11256608, -0.14600684, 0.12809063, 0.015980322, -0.17969425, -0.12975128, 0.22199939, -0.023302754, -0.037455145, 0.33165044, -0.18444428, -0.11647758, 0.068933256, -0.09861181, -0.098184794, -0.0136338025, -0.3396393, 0.12127685, -0.013349365, -0.056502104, 0.02435576, -0.20650358, 0.055349857, 0.17386876, -0.069733985, -0.040335912, 0.23088506, 0.017055893, -0.27636543, -0.0697965, -0.05336157, -0.3176715, 0.19777694, 0.25638846, -0.049266074, -0.30089656, 0.02174804, 0.058435656, 0.21607527, -0.044885993, -0.09766631, 0.03068756, 0.23752238, 0.115554124, 0.11937095, -0.25235403, 0.023096006, 0.24502188, -0.02558914, -0.097954445, -0.26169175, -0.13837276, -0.23603708, 0.019064145, 0.12714505, -0.019294772, -0.13866971, -0.01337154, -0.10236789, -0.040730957, 0.12222598, 0.22796832, -0.14446215, -0.06869262, 0.25906152, -0.12715338, 0.2863147, 0.13649729, -0.14292772, -0.10043334, -0.22136785, 0.16706693, -0.3652696, 0.40744036, 0.14574887, 0.03925531, 0.36611497, 0.082054496, -0.4328502, -0.17720084, -0.14626743, -0.08137307, 0.06493354, -0.07360284, -0.2646023, -0.18198068, -0.15761548, 0.26917776, -0.050372902, -0.020749437, -0.10215113, 0.048685487, 0.031843074, -0.010507893, 0.052519664, -0.07110889, -0.1529603, 0.088569835, -0.07691487, -0.1288925, 0.12288519, 0.052921347, 0.10394461, -0.11229615, -0.41455156, 0.22928317, -0.0823551, -0.092018574, -0.09038665, 0.017174905, 0.099342756, 0.30048698, 0.023439327, -0.017168967, 0.036449417, -0.13093051, -0.12238753, -0.024837539, -0.022160169, -0.3828234, 0.16479723, 0.33089253, 0.12967525, -0.25869012, -0.050003096, 0.069876194, 0.009810093, -0.062877424, -0.039089512, 0.08856486, 0.132314, 0.02618834, -0.16844483, -0.20224698, -0.10697341, 0.0047002034, 0.07170886, 0.13479434, -0.25947666, 0.028622441, -0.09599789, 0.06817574, 0.005396967, -0.051317956, -0.04048511, 0.15962051, 0.008429232, 0.020012932, 0.07123272, 0.23946907, -0.17628042, 0.0036978107, 0.15666762, 0.12708591, 0.108556755, 0.0021832006, -0.1753137, -0.043733496, -0.2314584, 0.09836726, -0.059317455, 0.19700669, 0.17835376, 0.06912122, 0.2260423, 0.06442585, -0.46520025, 0.04538495, -0.28743404, -0.13796346, 0.00035753797, 0.1682403, -0.14518185, -0.2826393, -0.11098296, 0.10561935, 0.106638275, 0.089063965, 0.11564284, -0.11653944, -0.13139473, -0.22909263, 0.11057615, -0.064438134, -0.07362144, -0.018926904, 0.036694653, -0.2194801, 0.2326092, -0.09396797, -0.020503083, -0.20039956, -0.4919285, -0.030136175, 0.09451855, -0.03776831, -0.17447846, -0.0420184, 0.023706978, 0.0047468008, -0.23267576, 0.14954804, -0.13088627, -0.2831541, -0.30081692, 0.016723022, -0.11379607, -0.28808448, 0.14616823, 0.23120597, -0.10892723, -0.12671931, -0.19531493, 0.31558284, -0.07276138, 0.07270161, 0.23554891, 0.013127343, 0.22354762, -0.023287935, 0.009703414, -0.1612712, 0.024029676, 0.16577798, -0.050248917, 0.23219468, 0.0006949448, -0.053639367, -0.07917246, 0.069692455, 0.037073478, 0.17150278, 0.069182225, -0.13374874, -0.23061667, 0.153014, -0.112566404, 0.27723828, 0.09700644, 0.015319313, 0.08759401, 0.060809404, 0.27706587, 0.0013456708, -0.28577232, -0.0022286188, -0.17390221, 0.23154533, -0.073270634, -0.03455629, -0.06915521, 0.16957495, 0.15514058, -0.04938556, -0.35384566, -0.20103128, -0.17981963, -0.22796601, -0.03100839, 0.18618827, -0.028473694, -0.24430396, 0.13485153, 0.24573858, 0.027397927, -0.26247087, -0.020978337, -0.120962195, -0.1941355, -0.28287086, -0.13614807, 0.03096573, -0.07186658, -0.1010137, -0.10429925, -0.23117347, 0.14575006, 0.15026683, 0.16155978, -0.29679486, -0.41748306, -0.090822384, -0.17250177, 0.054303154, -0.12537695, -0.2287971, 0.07759231, 0.123814404, -0.06877657, 0.10788203, -0.02609011, 0.021285847, -0.0436958, 0.05314042, 0.055367313, -0.2052544, 0.2738334, 0.04341229, 0.084287, 0.08199649, -0.34143355, 0.22893976, -0.047283117, 0.016305475, 0.03436138, -0.11501926, 0.37396285, -0.07057401, 0.06846319, -0.15511023, 0.03519685, -0.026369818, 0.023878723, 0.008415824, -0.05077076, 0.010738099, -0.06476525, -0.010087633, 0.1600548, 0.12283945, 0.16342804, -0.15840428, -0.28145918, 0.26749325, -0.009612232, 0.011938347, -0.19879976, 0.27265516, -0.031623866, -0.25504825, 0.15272915, 0.022744851, -0.38673997, -0.023018563, 0.0077701877, 0.15773897, -0.05570427, 0.046601366, -0.10318731, 0.034024037, 0.07917599, 0.10316041, -0.403696, -0.14715908, 0.1038904, -0.07287741, -0.12995428, 0.030189654, -0.017819893, -0.14424945, 0.1730913, -0.06176518, 0.4378453, -0.4220761, 0.14347374, -0.24008104, -0.24120885, -0.18076803, -0.013071387, 0.047783244, -0.32278532, 0.07041408, 0.20364563, -0.12090646, 0.22256252, 0.0656145, 0.23731409, -0.2763059, -0.17434378, 0.011688465, 0.092652805, 0.13068917, -0.2717358, -0.13633758, -0.08379532, 0.06616742, -0.36151576, 0.08306772, -0.10988472, -0.022143548, 0.084640965, 0.013255213, -0.03452758, -0.10851251, 0.0013293256, 0.038261913, 0.0825536, 0.047196142, -0.06379806, 0.040154055, 0.21157561, 0.16849458, 0.22364023, -0.08430588, 0.2653116, -0.025404427, -0.1501015, -0.07489112, 0.2711276, 0.16526665, -0.0266344, 0.23654002, -0.15494198, -0.066439934, -0.07424469, 0.12731044, 0.13075839, 0.15646794, 0.14871784, -0.0868664, -0.16979703, 0.08537762, 0.16150434, 0.19222091, -0.11143018, 0.13602322, 0.10622777, -0.11949486, 0.12597615, 0.04624092, -0.19791296, 0.091941416, 0.0024020257, 0.019486163, 0.14749396, 0.09916674, 0.09862448, 0.14045346, 0.02912199, -0.08568064, -0.36695102, -0.1309235, 0.081489235, -0.1646592, 0.0058233673, 0.19414094, -0.051012196, -0.26230174, 0.22676277, -0.1806495, 0.413543, -0.5495717, 0.12594695, -0.18818483, -0.09747978, -0.025716772, -0.26322803, 0.12148726, -0.3051931, -0.06591382, -0.042966504, -0.068260394, 0.39004484, -0.06801465, 0.298086, -0.2648549, -0.13468468, 0.012244647, 0.026128395, 0.15233833, -0.1427104, -0.27948314, -0.28539193, 0.081304856, -0.17156692, 0.23297763, -0.048521675, -0.16466098, 0.13020681, 0.10277671, -0.23847878, -0.29801986, 0.19010077, -0.03401355, 0.21663424, 0.004074901, -0.06558041, -0.07630225, 0.1074683, -0.063256025, 0.17752731, -0.21804008, 0.0071063763, 0.120908886, -0.21695516, -0.10737817, 0.31938794, 0.119988054, -0.106833614, 0.05759869, -0.28342706, 0.1288382, -0.005005911, -0.15032136, 0.122582205, 0.09031697, 0.19548482, -0.12467966, 0.08572494, 0.099321656, 0.10934726, -0.036989525, 0.022859802, 0.27518114, 0.03521092, -0.069940336, 0.003854221, 0.057717137, -0.07184962, 0.088821776, 0.18725403, 0.10119822, 0.10028267, -0.14968102, 0.17777698, -0.11369983, -0.16975889, -0.3167485, -0.30166438, -0.13647076, -0.11412794, 0.16255869, -0.13959177, 0.052818086, 0.12689792, -0.18042967, -0.021718238, -0.047631364, 0.41091153, -0.43675077, 0.064411104, -0.12205148, -0.1826659, -0.11674628, -0.26419556, -0.14126833, -0.20069496, 0.15720397, -0.057582717, -0.035804253, 0.27720907, 0.015332112, 0.2175943, 0.07938781, 0.13106266, -0.01140893, 0.08944252, 0.14394508, -0.30572513, -0.32007784, -0.29729173, -0.037217136, -0.16471227, 0.02956926, -0.06009911, -0.05569627, 0.1399364, -0.06991727, -0.39024046, -0.24736962, 0.061551154, 0.1707998, 0.18006048, 0.19386992, -0.15667084, -0.002168825, -0.058723405, -0.058882475, 0.08689593, -0.2695964, 0.228233, -0.16029513, -0.11866242, 0.074439384, 0.3239172, -0.12650925, -0.055296425, 0.02683778, -0.19710074, 0.31096077, 0.23439813, -0.1614539, -0.13935459, 0.05945974, 0.2108131, -0.17294833, -0.11119917, 0.2719762, 0.022998186, -0.021275977, 0.058145866, 0.0846376, 0.07606751, -0.06443208, 0.13190517, 0.10206861, -0.07868596, 0.1488369, 0.18349367, 0.10951391, -0.0008509859, -0.11527785, 0.107779905, -0.035393454, -0.13478032, -0.098908916, -0.11750486, -0.0461562, -0.19351706, 0.15103884, 0.023125857, 0.045959823, 0.25592288, -0.34942606, -0.04923067, -0.058956962, 0.07233028, -0.4590707, 0.06758476, -0.1961492, -0.08258375, -0.019991474, -0.041642763, -0.11001024, -0.057213064, 0.13141066, -0.012192905, 0.040023245, 0.20308934, 0.13208047, 0.32522976, -0.09319957, 0.02153437, 0.14629129, 0.004074795, 0.09439429, -0.28603035, -0.14094132, -0.07179852, -0.12166642, 0.06777603, -0.044164352, 0.26638225, -0.17664517, 0.051256247, -0.21746044, -0.3456061, -0.02472783, 0.082514286, -0.055138666, 0.1844031, 0.1794114, -0.04648976, 0.10302069, 0.07944748, -0.15087375, 0.025601072, -0.047597118, 0.23170085, -0.114174545, -0.06418917, 0.1539156, 0.40781906, 0.1418292, -0.10354505, 0.064357705, -0.13915017, 0.35200077, 0.13782467, -0.030459981, -0.18906769, 0.022875054, 0.2206655, -0.17585321, -0.011098157, 0.14181115, -0.04461295, -0.069180615, -0.17829129, -0.009390358, -0.002989521, 0.06956162, -0.05139099, 0.038108204, -0.104752116, 0.17871079, 0.065429926, -0.07221718, -0.09654877, -0.065128304, -0.058760256, 0.10046535, -0.259086, 0.06541243, 0.14951356, -0.15841343, -0.026251758, 0.17236388, -0.028771318, 0.124424994, 0.27228937, -0.043989185, -0.15156308, -0.001556615, 0.08340231, -0.37547103, -0.14102018, -0.23014903, 0.0050520697, 0.0071368115, 0.12662798, -0.13000208, -0.09650587, 0.097798094, -0.08009869, -0.050031573, 0.18332501, -0.06860133, 0.22966155, -0.04861062, 0.2261476, 0.2601392, 0.20643774, 0.09115609, -0.20879509, -0.3091039, -0.20647496, 0.072875954, -0.04829986, 0.06732037, 0.36443967, -0.10712958, -0.09532654, -0.1302946, -0.18059963, -0.2622674, 0.027838908, -0.16438463, 0.271755, -0.0779945, -0.13373128, 0.15574399, 0.00014789891, -0.13651936, 0.03412573, -0.21724686, 0.17419204, -0.1412169, -0.18728323, 0.12524721, 0.35784844, 0.10563787, -0.14365499, 0.14537095, -0.20950264, 0.16843112, 0.14861955, -0.06576788, -0.1817645, 0.015419598, 0.12689063, -0.089208506, -0.09242923, -0.14981496, -0.17992206, 0.10227749, 0.08699265, -0.076953135, -0.06492491, -0.09579713, 0.09210085, 0.23696864, 0.10648465, 0.18037558, -0.0043699844, 0.040309828, 0.116859846, -0.11521897, 0.044040095, -0.07378041, -0.2208491, -0.010647952, 0.2195371, -0.0961384, 0.11133902, 0.23018946, -0.16498445, 0.12770198, 0.14555548, -0.051616397, 0.047955424, -0.005225374, 0.09014703, -0.20643517, -0.06870223, -0.081509404, 0.08282442, -0.0060328036, 0.03233558, -0.016500385, -0.21547277, 0.23718704, -0.04209739, -0.09119197, -0.014618525, -0.042905204, 0.29450756, -0.10647994, -0.0065097823, 0.29904073, 0.010190095, 0.12136966, -0.29042348, -0.048765395, -0.08676929, -0.04506641, 0.10617311, 0.04713296, 0.28807932, -0.08398014, -0.10106352, 0.02735851, -0.027987022, -0.065946616, -0.009810577, -0.22745916, 0.11327747, 0.14075068, 0.0536944, 0.13982034, 0.14875372, -0.0845707, -0.15091562, -0.2341063, 0.1196242, 0.060750484, -0.045428086, -0.105171405, 0.27577433, -0.0070192064, -0.06782944, 0.18082437, -0.08213991, 0.19924328, 0.13500373, 0.15579419, -0.2286932, -0.03246781, 0.045481764, 0.1507971, 0.040408168, -0.063836135, -0.19325212, 0.095483914, -0.042540077, -0.016765146, -0.048829, 0.11270312, 0.22461425, 0.13611583, -0.07884385, 0.19454627, 0.026720675, -0.03322475, -0.08976033, 0.17532088, -0.04710649, -0.020833628, -0.1046609, -0.04040642, 0.22943223, -0.090178125, -0.009530914, 0.05430081, 0.13912265, 0.17061253, 0.19992562, -0.10074944, 0.10786954, -0.025886035, -0.09468457, 0.047648165, 0.047438283, -0.043627977, 0.26865885, 0.15597075, -0.056805946, 0.14322719, -0.13934435, 0.14062214, -0.019936757, -0.17437088, -0.09738885, -0.060037088, 0.052619312, -0.07978454, 0.12997274, 0.29260507, 0.05327456, -0.09943311, -0.2417178, 0.095840186, -0.008541745, 0.22387637, 0.08539677, -0.030785222, 0.12779164, 0.18511961, -0.0615635, 0.07360813, 0.042518836, -0.08329327, 0.19076395, -0.11906487, 0.17452686, 0.017360177, 0.008260592, 0.09357231, -0.0035286928, -0.056559704, -0.047244422, -0.26830947, 0.28700617, -0.034462128, 0.09627138, 0.018417455, 0.19857073, 0.011942972, 0.029824438, 0.26139265, -0.10166393, 0.015290323, 0.1345207, -0.085362576, 0.05836169, 0.28520355, -0.19929567, 0.05743088, -0.08470415, 0.005481863, 0.02410526, -0.1128244, -0.0031496861, -0.059744757, -0.03365175, 0.02891192, 0.12810692, 0.14553556, 0.053231124, 0.15938993, -0.12397633, -0.20802486, -0.02905219, 0.1115814, -0.31685582, 0.0965553, -0.09823225, 0.053607903, -0.044487797, -0.16719191, 0.1383722, 0.16300473, 0.047230575, 0.18668267, -0.014604177, 0.18275446, 0.15437922, -0.01012017, -0.33235708, 0.019145878, 0.031410668, -0.207221, -0.014012526, -0.07999911, -0.06414624, 0.15538244, 0.112385176, 0.21101731, 0.20870687, -0.26379323, -0.15701766, -0.015342332, 0.08420825, -0.1764424, 0.04790476, 0.27922648, -0.09893381, -0.1226614, -0.13998479, 0.051954005, 0.023474062, 0.19900402, 0.14577761, -0.24057703, -0.029868731, -0.020057054, -0.059113484, 0.07476988, -0.09518778, -0.08593175, 0.040751226, 0.066242345, 0.16387717, 0.15985692, 0.05027255, -0.0459804, -0.03380039, -0.09358141, 0.033467487, -0.23690122, 0.040000677, 0.15790041, 0.15746239, -0.026042726, 0.13538533, -0.15176877, 0.2799911, 0.34754118, -0.045432877, 0.06847019, -0.10696984, -0.094359525, -0.113041386, 0.31079924, -0.140237, 0.20456551, -0.10384033, -0.14205998, 0.20440532, -0.04007498, 0.030357106, -0.14930971, 0.041371364, -0.06607309, 0.23351838, -0.0838556, 0.07921082, -0.07806931, -0.18625768, -0.21560545, 0.019240733, 0.2272766, -0.29752934, 0.02954034, -0.059970226, -0.03262125, 0.1976783, -0.0070446366, 0.06419372, 0.2276542, 0.12977275, 0.07986776, -0.10894193, 0.1275463, -0.059434038, -0.101923026, -0.3147455, 0.11832798, 0.06400475, -0.11292566, 0.041798655, -0.14980502, 0.17020577, 0.21972586, -0.027564885, 0.08298967, 0.14298226, -0.10591878, -0.09616678, -0.04139295, 0.2876591, 0.07186363, -0.029733505, 0.13713881, 0.1159755, -0.016773995, 0.021418218, 0.13964716, -0.016029656, -0.010198652, 0.2000169, -0.2686379, -0.21469432, -0.035380926, 0.1527626, 0.07387598, -0.025279697, 0.0004025873, -0.21267611, -0.093355365, -0.026928326, 0.08310776, -0.08137755, -0.03492509, -0.1354897, 0.1414694, -0.15040064, -0.15644202, 0.03290777, 0.054588024, -0.034543652, 0.18437572, 0.1671233, -0.044394918, 0.14504053, 0.1487963, -0.23873553, 0.14794382, -0.18606317, -0.14574139, -0.15086399, 0.3013849, 0.06596813, 0.22394216, -0.007725888, 0.014654982, 0.0528102, 0.09654311, 0.080605425, -0.17260507, 0.011396864, 0.1412904, 0.18226464, 0.04655316, 0.0076467693, -0.06571949, -0.001078972, -0.086543135, -0.078813404, 0.17348054, -0.11773785, 0.08928483, -0.0036027252, -0.035058793, 0.19158445, -0.040698215, -0.0052487548, 0.20166837, 0.0486425, -0.0055904742, 0.1074653, 0.11059481, 0.082094386, 0.054382592, -0.16723123, 0.024396019, 0.07870563, -0.20516254, 0.043305207, -0.041861612, -0.101545215, 0.054184753, -0.07799641, 0.15186971, 0.32906738, -0.18708047, -0.28299978, -0.22297499, 0.35725373, -0.09408127, 0.06870136, -0.077029824, 0.042988237, -0.002143374, -0.2635831, 0.0036340624, -0.004611691, -0.011807428, 0.1560843, -0.1860487, -0.16388106, 0.11258876, -0.057385366, -0.079204306, -0.178312, 0.1578359, -0.21018353, -0.24322928, 0.06722761, -0.13667798, 0.035869677, -0.06982081, 0.009224415, -0.0459359, -0.04603919, -0.19739701, 0.12273833, 0.19059439, -0.16594185, 0.08210423, 0.24307543, -0.10807673, 0.21001612, 0.26479465, -0.05498223, 0.113994166, 0.0066317706, -0.14773965, -0.022725062, 0.36090112, -0.0075673764, 0.08404338, 0.12577665, -0.19169365, 0.3105176, -0.13579695, -0.17867112, -0.089093216, -0.1804675, 0.15127961, 0.102310285, -0.041599493, -0.03637559, 0.0152419945, -0.18199053, -0.03910813, 0.0134193795, -0.103781246, -0.17243862, 0.04789419, 0.07504021, -0.08299826, 0.08561458, 0.033214536, -0.056238122, -0.11080965, 0.041855138, 0.15620108, -0.010190321, 0.17489316, -0.004317009, 0.09914251, -0.3277156, 0.08931487, -0.08474674, -0.007914791, 0.16254672, -0.22772953, 0.14083724, -0.08007576, 0.11403916, 0.14299835, 0.16518559, 0.08712924, -0.11378619, -0.046093963, 0.27600917, -0.10782052, 0.10090471, -0.014174242, -0.04993837, -0.043143682, -0.23197058, 0.2603727, 0.23831978, 0.09492715, 0.08726227, -0.11431439, -0.07845607, -0.16146205, -0.021811102, 0.032772034, -0.15487503, 0.02664232, -0.26374742, -0.18642406, -0.17707759, -0.055466462, -0.11501567, -0.010638152, -0.11813332, 0.262927, -0.15209234, -0.029303113, 0.12581085, 0.01147466, 0.04046193, 0.1352416, 0.07612942, 0.0098271575, -0.03816168, 0.09954992, -0.18600035, 0.21076493, -0.057944722, -0.3010662, 0.1420528, 0.3012998, 0.14651057, 0.09729291, 0.27317888, -0.1549906, 0.22617508, 0.0018961951, -0.021846112, -0.07977839, -0.20184872, -0.08600771, 0.049493592, -0.23087385, -0.11213306, -0.053893354, -0.009232926, -0.15956604, -0.06805364, -0.01678073, 0.0035619142, -0.13568263, -0.11425666, 0.054255355, -0.013870593, -0.03182141, -0.17351425, -0.10626525, 0.227671, 0.060415477, -0.064324535, 0.082922205, -0.16190755, 0.08372949, -0.12964621, 0.051199354, -0.028790789, -0.1275903, 0.17921863, -0.23074088, 0.15103486, -0.13519484, 0.015658837, -0.030764211, 0.12942496, 0.036523018, -0.04463488, -0.07333305, 0.21510588, 0.15315264, 0.23498578, 0.060443204, -0.031989872, 0.15155798, -0.07096247, 0.12608556, 0.07772361, 0.1417144, 0.23264183, 0.18348318, 0.0023171445, -0.09372587, -0.2243368, -0.22505079, -0.075923614, 0.15197034, -0.2827267, -0.061161492, -0.28951263, 0.023952594, 0.04335118, -0.043181043, 0.043244332, 0.2857395, -0.17198083, -0.0028509195, 0.17234375, 0.02175097, -0.11856671, 0.12600149, 0.18621746, -0.002882258, 0.046558548, 0.15382677, -0.101482816, 0.13417345, -0.19376013, -0.0034392579, 0.07820864, 0.12786926, 0.0862074, -0.05399781, 0.2020007, -0.0123872, 0.1917413, 0.02717196, 0.15792145, -0.16770735, -0.12473113, 0.10308256, -0.22520734, -0.3024675, 0.03273246, 0.23984352, -0.013178476, 0.017018227, -0.060691915, -0.08953347, -0.07429735, 0.031936567, -0.018709986, -0.15627666, 0.15722188, 0.16529197, -0.22660036, 0.11742106, 0.21468413, 0.08556366, -0.052289616, 0.026686056, -0.06205169, 0.024407983, -0.0512408, -0.30959833, 0.014171828, 0.01706651, 0.22543587, 0.01711273, 0.000376345, -0.117791, 0.071461186, -0.27196988, -0.12813106, 0.023644214, -0.058191836, 0.010802919, 0.14573532, 0.017095748, 0.3946901, -0.025917236, -0.14802736, 0.03341262, -0.04331204, 0.20994729, 0.07345345, -0.06866991, 0.2497475, -0.025415922, 0.007846793, -0.1660684, -0.085339814, -0.119890384, -0.024873985, 0.3928975, -0.2779904, 0.025131317, -0.33029488, -0.06530142, -0.24182728, -0.026108932, 0.1307951, 0.36890015, -0.041789226, -0.2495508, 0.06964392, -0.18319148, 0.09990405, 0.22874898, 0.26959857, 0.17326908, 0.1245627, -0.09525528, -0.19512242, 0.19151586, 0.0075741033, -0.06578958, 0.09187687, -0.02769547, 0.04178145, -0.029336564, 0.04103939, 0.050616328, 0.19129297, 0.06483931, 0.19948827, -0.24189287, -0.2711718, 0.08300263, -0.15396418, -0.09059978, -0.12111372, 0.0145244915, -0.075006366, -0.115320034, -0.016328506, -0.12940143, 0.21206582, 0.105888955, -0.08511349, 0.0013172483, -0.078093685, 0.047671296, -0.2917814, 0.17740633, -0.094739914, 0.07822908, -0.07515619, -0.01680883, -0.19723462, 0.016343402, -0.07843409, -0.411352, -0.058685247, 0.091107026, 0.11235903, -0.0872774, -0.10578493, -0.33904472, -0.040653676, -0.2602232, -0.077458836, 0.14845711, -0.014889775, -0.12770216, 0.073941, -0.1256786, 0.31514323, -0.04875031, -0.31489247, 0.09167389, 0.050115626, -0.04297868, 0.2005065, 0.11792993, 0.091126576, 0.20432413, -0.059425186, -0.11099785, -0.03109994, -0.08384023, -0.19841005, 0.43512583, -0.15468162, -0.01668795, -0.16499172, 0.06316712, -0.10004337, -0.13606283, 0.0025870325, 0.26450604, -0.14223489, 0.10503007, -0.022050504, 0.014193262, 0.06453366, -0.074947186, 0.2878809, -0.069404036, 0.017940562, -0.121728286, -0.09173536, 0.19926816, -0.080116354, 0.049758215, -0.07355335, -0.09109676, 0.21551332, -0.07748882, 0.19871983, -0.10515346, -0.09100249, 0.26153642, 0.012828012, -0.3447939, -0.2269057, -0.11678497, -0.4415506, -0.12992243, -0.08227468, -0.15949172, 0.13803326, -0.11294085, 0.08050152, 0.027244236, -0.0046111653, 0.07772108, -0.10299044, 0.07541474, 0.26339978, 0.27946687, -0.058250476, 0.041105982, -0.12091637, -0.02539247, -0.17707522, 0.031697042, -0.2670083, -0.089198425, 0.048128735, -0.364358, 0.074253544, -0.037571643, -0.0047231824, -0.07741915, 0.087204486, -0.045139853, 0.090405226, -0.17477152, -0.15032406, -0.039639466, -0.2008476, -0.08075303, -0.010423117, -0.0522404, 0.16280681, -0.21412462, -0.25681627, 0.020574292, -0.17662013, -0.20983078, -0.098411836, -0.10208787, 0.15704197, -0.042914845, 0.033761833, -0.27388167, -0.10451017, -0.08170715, -0.21087511, 0.23439464, -0.10111856, -0.086284876, -0.24058908, -0.0448451, -0.28172675, -0.18784682, 0.085202046, 0.001765852, -0.102151535, -0.054318752, 0.046671856, -0.054942373, 0.06542079, -0.07629023, 0.33164087, -0.12381952, 0.15792137, 0.044319067, -0.1552951, 0.17187767, -0.15934964, -0.08042421, -0.0051018097, -0.12886442, -0.067332424, -0.09081303, 0.030827347, -0.19721778, -0.18560867, -0.06200941, 0.16603662, -0.10332886, 0.046441443, -0.06717254, -0.3942133, -0.1796608, -0.13761781, -0.018495997, 0.10208599, -0.027407086, 0.12256713, 0.05184779, 0.11703405, 0.09034852, 0.12577118, 0.032229304, 0.10006415, 0.3169501, -0.25510472, 0.10188313, 0.054837737, -0.20678759, -0.044741847, -0.10191061, -0.1986567, -0.0970924, 0.01619824, -0.20164458, 0.075558, -0.083176374, -0.08964655, 0.11439462, -0.11019299, -0.03142988, 0.057274595, -0.18066773, -0.023566293, 0.06488981, -0.20947668, -0.060121644, 0.07322048, -0.1936217, 0.119168095, -0.11529109, -0.21508493, -0.07709564, 0.016915064, -0.024197979, -0.1899204, -0.05361684, -0.09032563, -0.18247916, 0.032646965, -0.1579859, -0.058123983, 0.12681931, 0.058588326, 0.23588535, 0.0905851, -0.07694534, -0.14325808, 0.01999898, -0.1657048, -0.09993514, -0.033748053, 0.11064491, -0.007389577, 0.15872903, -0.048465025, 0.14350274, 0.00027541706, -0.10797011, 0.33329323, -0.28499317, 0.08188507, -0.120779686, 0.061287034, 0.10900388, -0.06636221, 0.07632525, -0.08873879, -0.21535203, 0.04847874, -0.05480311, 0.059960112, -0.28852186, -0.12771942, -0.08874406, -0.07850332, -0.21447319, 0.16084954, -0.013736372, -0.18711063, -0.18068923, -0.3516895, -0.12117529, 0.17564759, -0.107339464, 0.04911732, -0.123197116, 0.1362156, -0.14018387, 0.037835684, 0.11828732, -0.0030651665, 0.13462391, -0.27893832, 0.16700275, 0.013401709, -0.007617816, 0.0302931, 0.06056403, -0.2044595, -0.13407153, -0.07019037, -0.20085749, 0.32010233, -0.21052252, -0.052908514, -0.11396737, 0.066559725, -0.18886752, 0.025822876, -0.19111964, -0.111695826, -0.045820005, -0.03824879, 0.17000945, 0.12476691, -0.18400201, -0.17097302, 0.011835538, -0.065296754, 0.1553175, -0.24168853, -0.24980308, -0.20134792, -0.18829295, 0.09701061, -0.28142267, 0.015811464, -0.21869506, 0.1395497, 0.014920105, -0.18338989, 0.18192318, 0.03635731, 0.16305396, -0.16652155, 0.032122705, -0.21193762, 0.020596422, -0.19138588, 0.120492496, 0.042152792, -0.1486401, 0.1603789, -0.06364878, 0.09553782, 0.028340535, 0.12376051, -0.070464775, 0.15848945, -0.06806358, -0.013019204, 0.089843325, 0.15007924, -0.09569034, -0.1845751, -0.15682587, -0.057991385, -0.046399217, 0.2158595, -0.29399166, -0.2339675, 0.034419402, 0.04372553, 0.02482302, 0.21038036, -0.17657606, 0.011984003, -0.18388379, -0.18599725, 0.08160665, 0.06418815, 0.11170204, 0.23990858, -0.2534092, -0.0557567, 0.008928204, 0.072461255, 0.110632546, -0.041528907, -0.029719103, -0.16440737, 0.006249885, 0.20120618, -0.084997915, -0.08589391, -0.07518841, 0.030589001, -0.06477647, -0.14823017, -0.31633765, 0.055531107, -0.2428122, -0.07760054, 0.14282994, 0.14999384, -0.08857667, 0.049397625, -0.13494635, -0.1386622, -0.023344584, 0.11832625, 0.025369313, -0.10841191, -0.16509679, -0.085045986, -0.119425975, -0.15324153, 0.033216577, -0.1468952, -0.038143292, -0.15829957, 0.08283501, -0.1742914, -0.35272077, 0.15186489, -0.39754257, -0.0095946, 0.04953974, -0.23534836, 0.21248531, 0.1699695, 0.02209828, -0.154308, -0.18842752, -0.039658286, 0.06380911, -0.09166607, 0.013120419, -0.14097595, -0.2035772, 0.13138062, 0.009846673, 0.1704136, -0.11758953, 0.028035767, -0.0910697, -0.08521807, 0.16969487, -0.18002862, 0.009695691, 0.14035213, -0.12022875, -0.045360323, -0.1301755, 0.002649687, 0.035107788, 0.09212983, -0.07937616, -0.23280543, -0.17385334, -0.046085175, -0.2221975, 0.1410104, -0.2753308, 0.09168543, -0.01846721, -0.16567811, -0.10199595, 0.10594553, 0.013491964, -0.021675456, -0.24749146, 0.011002908, 0.03140951, -0.16967013, 0.011185196, 0.07473094, -0.17375419, -0.111211665, 0.12736617, 0.20152599, 0.011176815, -0.19510111, 0.14546244, 0.04317417, 0.21046396, 0.097304836, -0.2646191, -0.0777841, -0.29365352, -0.1616594, 0.09784075, -0.029667426, 0.18133329, 0.04300045, -0.026899263, -0.06552657, -0.1320038, -0.012618051, 0.21492873, 0.12685472, -0.10986872, -0.04304456, 0.020248901, 0.1466066, -0.008477807, -0.28997114, -0.27115202, -0.012536361, -0.016382296, -0.07451062, -0.15867479, 0.20012705, -0.23722497, 0.106757216, -0.022722496, -0.10372971, 0.060689118, -0.02986384, -0.17944717, 0.12153506, -0.1571897, -0.014045749, 0.18091841, -0.18776153, -0.0326875, -0.23273428, -0.2835157, 0.14671716, 0.11293568, 0.12862232, 0.061645843, 0.0013108456, -0.004557075, -0.0668988, 0.17166552, -0.0020769676, 0.008724606, 0.05900579, -0.07916211, -0.067173585, 0.17930274, 0.24221572, -0.06263341, -0.02962405, 0.094626874, -0.2367019, 0.08856005, -0.044203475, -0.13738371, 0.17419371, -0.18499509, -0.09582371, 0.043608394, -0.15919796, -0.10006461, 0.083126396, 0.03833486, 0.030547298, 0.039881017, -0.063585535, -0.2451677, -0.0420081, 0.22429323, 0.20571719, 0.0552598, -0.08617376, -0.13232802, -0.022667753, -0.027193923, -0.037434187, -0.107761644, -0.06817337, -0.020530459, 0.09252781, -0.042035572, 0.026117383, -0.18104713, 0.08314055, 0.07817359, 0.11486358, 0.24721187, -0.007459793, 0.022917176, -0.041963838, -0.019990614, -0.040438265, 0.1201302, -0.09620799, -0.12920801, -0.09238793, 0.13872166, 0.023284296, -0.06334458, -0.1085372, -0.22676992, -0.042154264, 0.19252193, -0.24080332, -0.3754852, 0.087464295, -0.23526375, 0.11912776, -0.21080695, -0.088505395, 0.06912492, -0.26748702, -0.18624589, 0.1911055, -0.24972299, 0.25351775, 0.03105601, -0.12059775, -0.31116953, -0.29276314, -0.101688474, 0.025165197, 0.03161356, 0.11903499, -0.07613021, -0.123471074, 0.15700084, -0.06025924, 0.02021657, 0.03616151, 0.10613682, 0.18851103, 0.11322894, 0.06840983, 0.16218509, 0.1849992, -0.18917802, 0.055173956, 0.094414055, -0.001505586, -0.14698324, -0.15961431, -0.19661456, 0.18958694, -0.08551325, 0.010087498, -0.00072400103, 0.120786615, -0.009441877, -0.12362604, -0.03639121, -0.09195215, -0.14393036, -0.085870124, -0.17741856, 0.007881702, -0.1482122, 0.11076729, -0.1370198, 0.15583405, 0.07405042, 0.19028133, 0.10671504, 0.06181865, -0.11847921, -0.13742563, 0.17675841, 0.023764553, 0.13646156, -0.20272031, -0.16099049, -0.16661286, 0.05669523, 0.03012278, 0.1568918, 0.07249963, 0.078237236, 0.005227458, -0.08465264, 0.18439363, 0.040276658, -0.22289552, -0.013579244, 0.13648818, 0.01397134, 0.14139056, -0.03987423, 0.099493146, -0.07372363, 0.019948041, 0.1666244, -0.22718635, -0.29119593, 0.14950106, -0.04999858, -0.0066985465, -0.06647278, 0.0030886678, 0.014733635, -0.10572588, -0.030341616, 0.18670641, -0.01328986, 0.23476161, 0.050486457, 0.10322574, -0.28480238, -0.15775454, -0.069578074, -0.08409536, 0.014492735, 0.23309407, -0.16069378, -0.14060819, 0.25436634, 0.14486235, 0.096694075, -0.09004138, 0.032901857, -0.030706331, -0.00023256523, 0.020241156, 0.010628981, 0.22521582, -0.046219815, 0.27555126, 0.17379667, 0.108589545, -0.03296961, 0.012386054, 0.13303338, 0.08385734, 0.13301167, -0.026739484, -0.030644372, -0.02196973, -0.020797845, 0.0919275, -0.15018655, -0.20517287, -0.025038972, -0.08406312, -0.039360363, -0.09598327, -0.18588826, 0.05928119, 0.0438974, 0.06354186, 0.07398703, 0.14283155, -0.022490913, -0.11918131, 0.07474221, -0.14679942, 0.1624173, -0.0662734, 0.12736839, -0.36046764, -0.04261613, 0.033622168, 0.26791772, 0.0895337, 0.28920802, 0.25186148, -0.046162244, -0.11613213, -0.13270652, 0.19528553, 0.06410991, -0.31537846, 0.1673366, 0.059723955, 0.22578184, -0.08702402, 0.13108997, -0.03708181, -0.106197014, 0.07918852, 0.06800172, -0.10765682, -0.121764414, 0.050562453, -0.22300772, -0.011863725, -0.053730275, -0.14209086, -0.06318684, -0.46305257, 0.019747939, 0.2335571, 0.18418558, 0.15834612, 0.137121, -0.0040281266, -0.26413003, -0.37200058, -0.043377303, -0.074539006, -0.13267982, -0.0053945775, -0.052976567, -0.3523566, 0.20348464, -0.03516579, -0.04108702, -0.008420365, 0.0008522376, 0.19645858, -0.05486861, 0.17339045, 0.11061981, 0.17216058, -0.075607486, 0.09333557, 0.057746958, 0.11891086, -0.08709159, -0.06586885, 0.09296458, 0.3631783, 0.0081849005, 0.19380315, -0.2830954, -0.12461207, -0.05849686, -0.06920418, -0.24691324, -0.10828811, 0.058794532, 0.15131101, -0.101689704, 0.087680504, -0.09935644, 0.2487099, -0.08737923, 0.16406408, 0.31733868, 0.13677521, -0.031133976, -0.1695358, 0.10062926, 0.08317857, -0.022883797, 0.05348061, -0.11640699, -0.2971214, -0.17775252, 0.037985094, 0.20778829, 0.10862623, 0.23091078, 0.26801383, -0.046952922, 0.049424678, -0.04555742, 0.21500175, 0.037359502, -0.24364547, 0.11009334, 0.10389449, 0.1685001, 0.10753749, 0.19241565, 0.0018003089, -0.071143605, 0.37860304, 0.025716158, 0.012624973, -0.06158826, 0.00681967, -0.09621989, -0.06578315, 0.045513496, -0.03416884, -0.17043021, -0.17361282, 0.18672262, 0.21429679, 0.12688899, 0.1640966, 0.27357548, 0.24492577, -0.039951056, -0.38158843, -0.1711117, -0.028089492, 0.11325406, 0.049268976, -0.040311016, -0.22446607, 0.26234248, -0.01425505, -0.06950588, -0.013596839, 0.15632935, 0.2107323, 0.25469968, 0.16120118, 0.04395595, 0.25414345, 0.19050656, 0.14871956, 0.15772194, 0.3255991, -0.06953581, -0.009561136, 0.12492277, 0.17020619, -0.12539363, 0.019201238, -0.14214349, -0.2215908, -0.21189594, 0.024673961, -0.10184133, -0.27741367, 0.04111574, -0.1050175, -0.0010664357, 0.19248581, -0.13262898, 0.12100736, 0.15539645, 0.2673752, 0.2007671, 0.23339938, 0.14604646, -0.03149286, 0.1475737, -0.054565854, 0.10713751, -0.10382427, -0.1193217, -0.17085664, -0.097039804, -0.0014471032, -0.0740877, -0.14017843, 0.18046103, 0.282822, -0.22459523, 0.09867509, -0.20973055, 0.1415243, -0.05507339, -0.15108605, 0.017269328, 0.2440954, -0.1678797, 0.13407257, 0.086434364, 0.14245245, -0.096837856, 0.36341658, 0.0232854, 0.11846148, 0.05269019, -0.018340323, -0.18725587, 0.057816133, 0.06801704, 0.0881335, -0.0480224, -0.17205463, -0.14744413, 0.060529847, 0.16924526, 0.11988865, 0.21326287, 0.35026923, -0.14029679, -0.11768961, -0.005181199, 0.13109519, 0.058911797, 0.07952316, -0.085636884, -0.09077265, 0.38973722, 0.07394862, -0.14976355, -0.024876887, -0.14947714, -0.058286756, 0.22731921, 0.039571915, 0.16190723, 0.038807437, -0.038025815, 0.04508296, 0.00079897884, 0.31106836, -0.21192366, 0.03756977, 0.22352313, 0.27291313, -0.12956826, -0.08675056, 0.034551237, 0.062319197, -0.050171133, 0.21927169, -0.101512164, -0.29822016, 0.017585237, 0.08697471, -0.16215311, 0.297109, -0.036132134, 0.065791324, 0.18078758, 0.23378098, 0.08841572, 0.23857832, -0.22697403, -0.0016137897, -0.0013443739, 0.056519464, 0.090931654, -0.107936166, -0.1837422, -0.11602055, 0.22749649, -0.26258233, -0.030928591, -0.25754696, 0.09787309, -0.05962991, -0.33199835, 0.19664012, -0.20962065, 0.10244364, -0.1682194, -0.0230038, 0.039521206, 0.027506571, -0.21742135, 0.09699045, 0.07898813, -0.004534622, -0.041361302, 0.2714138, -0.07898974, 0.19438545, 0.12772894, 0.0677278, -0.1322586, -0.1212727, -0.24712458, 0.17620155, -0.07192888, -0.2641772, -0.11700646, 0.31003103, -0.13704188, -0.047194727, -0.085907735, 0.22039647, 0.037800908, -0.060618542, -0.29477045, 0.057063278, -0.02961975, 0.08334799, -0.25400817, 0.08327982, 0.2491391, -0.12768161, -0.11337534, -0.069388196, -0.11112592, 0.15603527, -0.05556407, -0.12551062, -0.083599225, -0.010304817, -0.06842726, -0.15493077, -0.11616177, 0.31651175, -0.026930217, -0.026052173, 0.12807287, 0.14339998, -0.15984409, -0.04526243, 0.14041181, -0.05603677, -0.03127295, 0.14891133, -0.037834268, -0.2476134, 0.16243875, 0.100161634, -0.039311282, 0.03196352, -0.008591845, -0.124266244, -0.09617468, 0.043268487, 0.21934368, 0.3477927, -0.07096164, -0.041413754, 0.04943089, 0.1905626, 0.23105304, 0.16577542, -0.34890413, -0.26695856, 0.010725628, -0.2235971, -0.07711011, -0.29654956, 0.13719097, -0.031191617, -0.16432178, -0.017920205, -0.20736605, -0.113404006, -0.23448676, -0.02695023, -0.10660152, -0.003510831, -0.20768973, -0.11182691, -0.13252318, -0.13668843, -0.18664671, 0.05760785, -0.07234192, 0.19777822, 0.0624686, -0.22041863, -0.134132, 0.13221551, -0.07736395, 0.013806492, -0.10011735, -0.044573933, -0.1337765, 0.23174357, -0.074810274, 0.098363765, -0.021111934, 0.12710707, 0.03469827, -0.14672641, -0.17426853, 0.06468067, -0.044271503, 0.061039712, -0.2779935, -0.030434823, 0.06927429, 0.090498164, -0.2358191, -0.029163744, -0.06790421, 0.15487298, -0.014688669, -0.13014828, -0.039383635, -0.04687043, -0.10220362, 0.06568145, 0.040877655, 0.1180616, -0.077763006, 0.10516864, 0.15736549, 0.19209856, 0.18531062, 0.14016473, 0.022454713, 0.0008649577, -0.07826268, 0.0026682278, 0.082418606, -0.35648093, -0.15897095, -0.06792624, 0.116948344, 0.11232134, 0.14756837, -0.049242374, -0.15313113, 0.15086992, -0.12961751, 0.27462515, -0.26361144, -0.2247266, -0.014457518, 0.13005115, 0.20507577, 0.17708091, -0.1609737, 0.0060698045, 0.15240297, -0.06929826, -0.11219711, -0.31860024, -0.059603494, -0.006619162, -0.3779579, -0.03184013, -0.2566023, 0.013864819, -0.015528765, -0.020655414, -0.17622583, -0.12275766, -0.011515848, 0.0772272, 0.107691236, -0.13136412, -0.2556705, 0.08770845, -0.07627684, 0.12526742, -0.18510108, -0.2013952, -0.1709033, 0.09469689, -0.20801765, 0.09989834, -0.02921329, -0.034605972, -0.049694546, 0.028724866, -0.031955156, -0.23187959, -0.05418459, 0.07651623, 0.30375648, 0.19316933, -0.047604, 0.025298713, -0.23115808, 0.031547345, -0.13280305, -0.13848945, 0.08949375, -0.007964442, -0.031753544, -0.054125935, -0.016401784, 0.0998678, -0.008771203, -0.108258076, 0.045368556, -0.022803629, 0.084993385, -0.17106833, -0.07144801, 0.03935257, -0.083823524, 0.031606387, 0.022596532, 0.054650165, 0.07538897, 0.07276412, 0.13264644, -0.056466028, -0.085643075, -0.07480574, -0.025375003, -0.21586342, -0.028434286, 0.0700994, -0.04674175, 0.20945562, 0.02232494, -0.35644406, -0.18090682, 0.22509903, -0.0968649, 0.3080201, -0.032989565, -0.22484204, 0.094536856, 0.14414231, -0.206145, 0.38828942, -0.27070302, -0.050043475, 0.14361475, 0.1295595, -0.043503147, -0.16730654, -0.13964094, -0.27400035, -0.06901944, -0.1963082, -0.08423647, -0.0016575375, 0.0006329574, 0.021936785, -0.1843654, -0.08481193, -0.0271485, -0.14024667, -0.06898973, -0.18635282, -0.19629866, -0.017954392, 0.019690698, -0.06623813, -0.07305617, -0.12493741, 0.05193697, 0.16911058, -0.18211092, -0.17055394, -0.16424932, 0.03630906, -0.106795646, 0.0709184, 0.10071519, -0.23797217, 0.016047142, 0.16351952, 0.17826383, 0.11976098, -0.06472872, 0.15966003, -0.17696664, -0.11542908, -0.20106775, 0.1545534, 0.017467828, 0.04444121, -0.024551809, -0.041315366, -0.11338592, -0.07978466, -0.06207063, -0.016246961, 0.052776407, 0.030877978, 0.055517178, -0.17015712, -0.090707384, -0.05806082, 0.034996737, 0.03517602, 0.11529098, 0.09634485, -0.016836677, -0.11712858, 0.12713987, -0.03662953, 0.088423744, 0.026285682, 0.0045908075, -0.101585664, 0.07327127, -0.14114502, -0.005039346, 0.038933266, -0.19626197, -0.21851361, -0.0669539, 0.23330428, -0.03886781, 0.20449483, -0.12428103, -0.15675561, -0.03276627, 0.09892431, -0.22609667, 0.36957383, -0.3747306, 0.15016341, 0.22023855, 0.1860813, 0.031082867, -0.28463405, -0.16443254, -0.18012176, -0.10941913, -0.15129459, -0.256324, 0.009572171, 0.072368875, 0.20359948, -0.12663086, 0.06481652, -0.17255248, -0.061567523, -0.116328724, -0.23483354, -0.089129396, -0.17556322, 0.088851735, -0.017509194, -0.1193145, 0.04947347, -0.15061219, -0.025145005, -0.19234027, -0.14247581, -0.2611493, -0.05214113, -0.094398476, -0.12985645, -0.11329823, -0.16751266, -0.22146669, 0.2341562, 0.14985646, 0.10884501, 0.056516167, 0.1581699, -0.16981825, 0.11684742, 0.01762382, 0.14026108, 0.19173785, -0.031232726, -0.06788838, -0.094715804, 0.1035216, -0.08940696, 0.112418324, -0.11583431, 0.13856211, 0.16949552, -0.114704266, -0.06045459, 0.24966484, -0.013892858, -0.11027303, 0.23853461, -0.050884265, -0.00026081663, 0.018797832, -0.041264594, -0.13133082, -0.047530793, 0.010397592, 0.051335152, 0.22407743, -0.1882213, -0.102088735, -0.06327851, -0.1488465, -0.07710338, -0.25270426, -0.3627759, -0.07286121, 0.02264592, -0.1614333, 0.09515686, -0.0013915204, 0.089988746, -0.08892054, -0.0012297886, -0.32077807, 0.1642107, -0.23581737, -0.15401731, 0.062468145, 0.096359946, 0.09230472, -0.28230587, -0.13129747, -0.09753835, -0.15297125, 0.07157283, -0.007219443, 0.04424571, 0.12306132, 0.15063535, 0.013021534, -0.21041253, -0.05810866, -0.40132207, -0.09978122, -0.0064409836, -0.1780292, -0.13243882, -0.07174377, -0.28654656, -0.18004677, -0.16088729, 0.12619251, -0.21021047, -0.21783216, -0.25371912, -0.05818562, -0.0481107, -0.14183296, -0.25467306, 0.072950386, -0.3114954, 0.05102542, 0.35575628, -0.018088445, -0.1386028, -0.047125377, 0.14689435, -0.24623846, -0.009373403, 0.12486297, 0.021779353, 0.18391609, -0.21785443, -0.12807013, 0.104306415, 0.121249825, 0.13543797, 0.11461419, -0.062029276, 0.25135735, 0.027577339, 0.0896459, -0.055720363, 0.15124181, 0.046554577, 0.05648945, 0.05610412, -0.09205994, 0.04574216, -0.0036198897, 0.0040531238, 0.16225992, 0.065643035, -0.1270312, -0.08652985, 0.02645479, 0.023637507, -0.091601916, -0.04239823, 0.00714075, -0.09610528, -0.2746028, -0.11989761, 0.22475888, 0.10122776, -0.014409825, -0.0090839835, 0.04869694, -0.0036668826, -0.21271414, -0.27539426, -0.38886634, -0.049806796, -0.07084449, 0.086951554, 0.04228675, -0.08251103, 0.03626188, -0.18844295, -0.12871335, -0.07118267, -0.039395597, -0.15867686, 0.06098442, -0.02252462, 0.1878457, 0.20751837, -0.05477538, -0.17133136, -0.1599173, -0.40490845, -0.07957368, -0.18940213, 0.14539453, -0.105279654, -0.023674974, 0.02065757, -0.010717442, 0.025695216, -0.04416937, -0.091475286, -0.08829164, -0.19465636, -0.004782165, -0.010746099, 0.11871217, -0.1117474, 0.17463154, -0.3348798, -0.15872836, 0.24219078, -0.1694713, 0.031176174, -0.1031093, 0.21173477, -0.12686297, 0.18842985, 0.0771088, -0.12474038, 0.04688057, 0.1307666, -0.0017586823, -0.10586089, -0.039122988, -0.09940103, -0.08647085, -0.0006070493, 0.05907177, 0.18298219, 0.058833506, -0.20851819, -0.008955683, -0.07392688, 0.07239126, -0.099143185, 0.06349583, 0.20015316, -0.12264991, -0.054066442, -0.011695729, 0.008595385, -0.028378049, 0.033155296, 0.11960724, -0.10711545, -0.08689407, -0.08201712, 0.05505856, -0.107315406, -0.3262861, -0.0031026006, 0.19775221, -0.09018192, 0.17669813, -0.14394426, 0.08950358, 0.099299185, 0.009019607, -0.17271268, -0.37079644, -0.14357086, -0.071982384, 0.03574021, 0.2672989, 0.11048504, 0.03939085, -0.07733687, 0.21810126, 0.042338483, -0.109488696, 0.1533617, -0.108312674, -0.122892745, 0.11369289, 0.25833985, 0.084025614, -0.23211245, -0.13996609, -0.35193998, -0.017414842, -0.23706725, 0.1577372, 0.014825168, -0.06204441, -0.029695539, 0.114912786, -0.08953167, 0.22986302, -0.1714168, 0.0536992, -0.09784744, -0.020702178, -0.22081187, 0.042041402, -0.09313335, 0.16420783, -0.31500202, -0.0009039985, 0.21881855, -0.081377, -0.28807813, 0.12307228, 0.35733607, -0.17830947, -0.08165034, 0.04124332, 0.090078354, -0.080294564, 0.22500506, -0.009757737, -0.11293673, 0.047660373, -0.10146891, -0.05775284, -0.2563166, 0.09673991, 0.15926775, -0.04501071, -0.019136935, 0.078125596, 0.13531053, -0.054993644, -0.15238135, -0.12563765, -0.04763338, -0.077004924, -0.20965315, 0.260432, -0.2045767, -0.053703785, -0.20148861, 0.17531756, -0.01787285, 0.056191143, 0.16020961, -0.17919534, -0.13764215, -0.30558747, 0.034811545, 0.19102874, -0.06028844, -0.0149902925, -0.054526657, 0.026529696, 0.06392026, 0.058955926, -0.15045422, -0.10741917, 0.0014077979, -0.14827703, -0.13782673, 0.23347193, -0.16168499, 0.16943158, 0.0035172089, -0.010305904, 0.27671763, -0.031182595, 0.08192939, -0.027702963, -0.08901433, -0.023700954, 0.014490063, -0.13527995, -0.28689742, 0.04950652, -0.0693902, -0.013795793, -0.02658961, 0.07677069, -0.20179959, -0.08903687, -0.07051443, 0.18398629, -0.2188909, 0.06567486, -0.24530315, -0.11084815, -0.076034114, 0.18914816, 0.020768559, -0.043008577, 0.043021716, -0.042897, -0.30704105, -0.023146715, 0.12721194, -0.1686202, -0.18767403, -0.120006524, 0.31698108, 0.001062472, 0.14691131, 0.004307797, 0.16814195, -0.15505615, 0.18244986, 0.22929709, 0.0016484538, -0.052156225, -0.12618873, -0.03151527, -0.14006452, -0.010173739, 0.022658762, -0.13601829, 0.077364214, -0.09779345, 0.08391051, -0.124590635, -0.030387208, -0.14602235, -0.14280047, -0.18474306, -0.05700578, 0.22432256, -0.06861256, -0.08747399, -0.13567303, 0.038271524, 0.12892725, -0.102508076, 0.2614029, -0.053329494, -0.1805499, -0.20059665, 0.023841567, 0.31244645, -0.18940094, -0.04037248, -0.054050643, 0.2345004, -0.05047204, 0.07215478, -0.16467845, -0.16175272, -0.19549215, 0.030096617, -0.0394877, 0.026117533, 0.050423846, 0.1679798, 0.10216556, 0.26960275, 0.17362179, 0.050241582, 0.062264193, 0.015230636, -0.10479102, 0.08560018, -0.084141284, 0.073528916, -0.2876202, -0.107947625, -0.18938309, -0.07329319, -0.17935288, 0.174963, -0.16200697, -0.13409469, 0.050333425, 0.10005821, -0.06407135, 0.14440538, -0.2568967, 0.16841497, -0.19526058, -0.043734584, 0.17797415, 0.09485833, -0.09956603, 0.22991957, -0.06172358, 0.1088877, 0.17189078, 0.0053093685, -0.3627813, 0.07061325, 0.19165526, -0.07928948, 0.05978346, 0.07668059, 0.17126878, -0.13071045, 0.19568662, 0.10770589, -0.07690636, 0.048031162, -0.15813917, -0.25176802, -0.16495596, 0.105665684, -0.164848, 0.023285666, -0.043872967, 0.12402941, 0.14436339, 0.009637483, 0.076964356, -0.07089267, -0.14888477, -0.10649529, -0.16398524, -0.012232109, 0.09762552, -0.13640462, -0.17871226, -0.10016668, -0.12247972, 0.035524398, 0.2399033, -0.16361456, -0.17843975, -0.1712657, -0.02422058, 0.20948759, -0.013141764, -0.09982332, -0.04315066, -0.07028355, 0.2067901, 0.26582158, -0.20296232, 0.1246495, -0.09612608, -0.010622416, -0.10954178, 0.18027076, 0.13488854, 0.013440117, -0.06347849, 0.27517033, 0.033793915, -0.044593338, 0.1250269, -0.0013574583, -0.06780623, 0.2385908, -0.09845546, 0.07890402, -0.046465833, 0.040741794, -0.06399667, -0.11221402, -0.19595638, 0.09807304, 0.06381119, 0.102819346, 0.10418443, 0.22657453, 0.055791765, 0.11218971, 0.04993569, 0.040537767, -0.20885059, -0.17486581, 0.20757753, 0.10442801, 0.07211791, 0.31454688, -0.13760445, 0.059500277, -0.09626974, -0.16164255, -0.26820052, -0.013047718, 0.19750063, 0.20139007, -0.072972625, 0.14277689, 0.014485913, -0.26113805, -0.033646334, 0.05709615, -0.16186209, -0.14164208, -0.2895901, -0.14251852, -0.18000247, -0.018267183, -0.12728342, 0.11573203, 0.031378806, -0.094689876, 0.12105669, -0.07468847, -0.17561726, -0.03997012, -0.07603524, -0.18924908, 0.10548309, 0.042774707, -0.09568411, 0.17718853, -0.149008, 0.18292972, -0.20581739, -0.06384324, 0.18919481, -0.21019082, -0.330821, -0.05551774, 0.114782356, 0.088617735, -0.13328734, -0.053871594, -0.31344774, -0.051002696, 0.3023159, 0.3552737, -0.0348018, -0.07014268, -0.1005357, 0.0063063805, 0.08743397, 0.09167212, 0.21682946, -0.024776319, -0.13530557, 0.18050194, -0.08898689, -0.11998028, 0.1128002, -0.10035168, -0.010166169, 0.18243256, 0.09841574, 0.051489346, -0.047494683, -0.12183805, 0.027127866, -0.035359498, 0.03380674, -0.025359327, -0.15836316, -0.11824035, -0.038080364, 0.093367994, -0.18245703, -0.09894335, -0.069995634, -0.022509094, -0.18060455, -0.09188098, -0.032353546, 0.0077291313, -0.07255096, 0.055667683, -0.2010627, 0.13212207, 0.18684663, -0.036464963, -0.12990822, -0.07473068, 0.099428475, 0.033991467, -0.019971386, 0.23875469, 0.08151027, -0.0060943337, -0.13164873, 0.07995438, -0.31998384, -0.10059777, -0.31188777, -0.07652973, -0.1704581, -0.021612408, 0.08754419, -0.061802525, -0.04786394, -0.0030938056, 0.17120399, -0.16927283, 0.011209704, -0.07116608, -0.068893775, 0.016852735, 0.1665794, -0.13716608, 0.035011012, 0.16594009, 0.016933132, 0.12447845, -0.029990572, -0.15325166, 0.2049869, -0.30315614, -0.19407482, 0.035119344, -0.1279007, 0.029456059, 0.09140173, -0.20387878, -0.1854933, -0.07766826, 0.2010795, 0.32793954, -0.30265233, 0.16555609, 0.08983565, 0.06393958, -0.02590498, -0.078543626, 0.08286918, -0.18979113, -0.15385129, 0.041412987, -0.22825816, -0.17334455, 0.25893795, -0.14987741, 0.11553817, -0.03867154, 0.06484349, 0.12339975, -0.09620916, -0.10118909, -0.08154717, -0.036662426, -0.05972096, 0.030926116, -0.06959873, -0.023888709, 0.16473164, 0.08419334, -0.009217407, -0.018114863, 0.086125396, 0.103572376, 0.017882898, -0.10926152, -0.13185482, 0.19421406, -0.10363525, 0.086421914, -0.031331528, 0.10761562, -0.008911549, -0.13305578, -0.17139137, 0.14932999, 0.12921582, 0.06577696, 0.14807016, 0.24229519, -0.0064968537, -0.25095636, -0.27383667, 0.04923527, -0.016138121, -0.18377419, -0.23242971, -0.12891574, -0.03613368, 0.0035699592, -0.12467554, 0.0026461168, 0.008061284, 0.14430352, 0.02150708, -0.0051626875, 0.044606335, -0.24684799, -0.26270953, -0.1360797, 0.30469283, -0.02706108, -0.12982441, 0.16660385, 0.07080257, -0.0016554978, 0.03583245, -0.010269232, 0.036557354, -0.26424545, -0.2146678, 0.028775537, -0.07926378, -0.049279537, 0.2280509, -0.010095925, -0.107890934, -0.17658378, 0.15702581, 0.2304846, -0.05674163, 0.062329464, 0.085867606, -0.013672477, -0.08512963, -0.1640632, -0.098587535, -0.07988472, -0.033063166, 0.14716193, -0.13283797, -0.2387923, 0.027384588, -0.049932886, 0.28034434, 0.090018615, 0.07550002, 0.09411959, -0.062811784, -0.19375727, 0.065874524, -0.35166165, 0.02208964, 0.031307634, 0.02254523, -0.007986854, -0.039665762, 0.017215958, 0.0155524025, 0.16500235, -0.13896215, -0.014262493, 0.024165997, -0.19225317, -0.05331902, 0.083407424, 0.005793333, 0.011491571, 0.070423946, 0.19027664, -0.119639434, 0.09823024, -0.24193536, -0.15454769, 0.024031056, 0.17012918, 0.122495726, 0.11208347, -0.027725384, 0.09205027, -0.10912897, -0.007497749, -0.055138897, -0.31222013, -0.064872876, -0.23810512, -0.01852049, -0.18646842, 0.095598884, -0.0466608, -0.0018603953, -0.025822118, -0.1746502, 0.06353442, -0.13623732, -0.08233174, -0.19613202, 0.08500441, 0.41263646, -0.12721837, 0.05608768, 0.041291837, -0.062170252, 0.19086291, -0.07534601, -0.1952323, 0.117470086, -0.06569069, -0.29949433, 0.13592222, 0.10057337, -0.20634194, 0.07637854, -0.0057104435, -0.07754118, -0.124238975, -0.0044978126, 0.06785607, -0.07822067, 0.05829188, -0.11185294, -0.016419142, -0.13546197, -0.06442774, -0.0706327, -0.11192195, 0.003809607, -0.17910172, -0.1503782, 0.027534762, 0.027519673, -0.027030211, 0.31072623, -0.06972195, 0.04496307, 0.05304119, 0.019532623, -0.062337622, -0.19291948, -0.29055282, -0.2072412, -0.012891283, 0.00027440992, -0.05009363, -0.010442374, -0.07504572, 0.051981755, 0.06486536, -0.11567647, 0.05098922, -0.034988075, -0.1885656, 0.13301446, 0.15735328, -0.14354596, -0.14990132, 0.09906346, 0.20502935, -0.054849222, -0.029138664, -0.18085928, -0.121601894, -0.041813638, 0.030735238, 0.044463385, -0.045209397, 0.1099685, 0.096696034, -0.029006217, -0.10148023, -0.26893017, -0.24222709, -0.0019337989, -0.015196775, 0.17274477, -0.09678421, 0.030303994, 0.120037936, 0.00012560668, -0.056233823, -0.17989638, -0.118330956, 0.0022764592, -0.0017738002, -0.20108584, -0.070180416, 0.15856707, 0.11341409, 0.121339776, -0.04660648, -0.1311892, -0.034764178, -0.059642233, -0.18598633, 0.14630622, -0.1521107, -0.15942329, 0.006397277, -0.04511309, 0.05762706, 0.3187207, 0.010558896, -0.15858804, 0.05900519, -0.09165886, 0.23862278, -0.2358434, -0.06402465, -0.07452746, 0.07468721, -0.015270766, -0.10476242, -0.06964998, -0.07233442, -0.0022866828, -0.28711292, -0.009978338, 0.14730246, 0.11810799, -0.004292564, 0.3840715, 0.19778766, 0.06534811, -0.07531085, -0.069117635, 0.089614436, -0.19259746, -0.20720702, -0.037129346, 0.09846022, -0.054851804, -0.109128214, 0.05583396, 0.03901956, 0.14616531, -0.14946665, 0.09698891, 0.2033701, 0.007708349, -0.07189909, 0.22837938, -0.0019310282, -0.11807938, -0.11736325, -0.12510288, 0.11931651, -0.25773513, 0.21588747, 0.0838563, 0.046551447, 0.027098358, 0.05475271, -0.17818815, -0.0660549, 0.06348121, 0.02359514, 0.20481612, 0.08995229, -0.13650772, -0.11332702, 0.0384344, -0.1244091, -0.04183088, -0.25005338, -0.19599149, 0.017247146, -0.08037734, 0.07549236, -0.16917022, 0.026946776, 0.21875373, -0.07487573, -0.198139, -0.06850863, 0.09496733, 0.015866222, 0.2518297, -0.105136685, -0.106752686, 0.0047939164, -0.019539032, -0.17906037, 0.15875886, -0.007463452, -0.15638182, 0.10690273, 0.12576245, 0.03166529, 0.3014047, -0.13385929, -0.00045771975, 0.12830812, 0.032711666, 0.032543145, -0.1736913, 0.26161054, -0.24982464, 0.25045702, -0.22901413, 0.029560821, 0.09514324, -0.072230026, -0.12194222, -0.24305575, 0.22556539, 0.12113581, 0.061098505, -0.12985553, 0.14392415, 0.22162168, -0.003750067, -0.13971148, 0.28099045, -0.123537906, -0.29815522, -0.06921284, -0.23656571, 0.21962053, 0.11819289, 0.106744535, 0.21885997, 0.011020575, -0.054046243, 0.033998925, 0.017848134, -0.0145016955, -0.101563245, 0.09224178, 0.36418265, -0.002002425, -0.034364518, -0.15095724, -0.009084898, 0.0331749, -0.17216861, -0.049343333, -0.1110022, -0.054367665, -0.19068603, 0.15665679, -0.13817514, -0.20182443, 0.12839423, -0.063203156, 0.24214625, -0.09854933, -0.14981237, -0.059733555, 0.16652939, -0.122006774, -0.018551365, -0.077452, 0.03589691, 0.021187877, -0.12648742, 0.14197038, -0.19647035, -0.17481162, 0.2121847, 0.15987973, -0.15245895, 0.09476627, 0.24294625, 0.09841285, 0.21189356, -0.11910994, -0.17061912, 0.14563608, 0.018910445, -0.1763961, 0.012860628, 0.020714985, 0.026194898, -0.07990114, -0.042465694, -0.00040332152, 0.23437075, -0.008834564, -0.17204453, -0.046079572, -0.16675061, 0.0777394, -0.17279616, 0.103264555, -0.08373982, 0.1696101, -0.22097217, 0.06257048, 0.15127766, -0.06370885, -0.016125299, -0.3907225, 0.12136221, 0.076321416, 0.014680702, -0.27370146, 0.22342645, 0.0028412328, 0.0027500442, -0.065156385, 0.31080732, 0.019947398, -0.007091311, -0.04289856, 0.034591578, 0.13637242, 0.077321574, 0.08834604, 0.23520121, -0.016765734, -0.11287763, 0.1803375, 0.013147968, 0.16283253, 0.054330837, -0.11178426, 0.3133108, 0.033208102, -0.1259855, -0.008582797, 0.059193376, -0.09328003, -0.018857624, -0.037207842, -0.15250845, -0.09081263, -0.0415321, 0.11224423, -0.13378042, -0.038967032, 0.05330017, 0.11581411, -0.00603272, 0.06285033, -0.2652711, 0.10881681, -0.015219115, -0.21673474, -0.058173716, -0.06524492, 0.11314403, -0.09530048, -0.044639356, 0.04285438, -0.099773, -0.2225572, -0.020648317, 0.097153045, -0.025207348, 0.091177605, -0.074184574, -0.089469254, 0.06251027, -0.16038823, -0.24518448, 0.14809537, 0.14470722, -0.1725644, -0.01514079, 0.02105917, 0.09819207, 0.0990804, 0.16063672, 0.08618766, 0.0014801753, -0.0007048499, 0.0036223275, -0.08415138, -0.14852229, -0.20481427, -0.38620722, 0.1950507, 0.05397331, 0.18503268, -0.24524397, -0.040092476, 0.066779904, 0.08220352, -0.013262248, -0.11142127, 0.09858265, 0.06972639, 0.21017829, -0.19160967, -0.06387348, 0.20522386, 0.08417218, 0.017696952, 0.28316727, 0.10312647, -0.19915754, -0.04509881, -0.12455793, 0.060433567, -0.13746642, -0.050746147, 0.14170343, -0.21609432, -0.2327872, 0.2028986, 0.1709363, 0.10521053, 0.065605246, 0.17067969, 0.017493445, -0.23099925, -0.11071869, -0.16008125, -0.0780539, -0.080844544, -0.10412726, -0.087312736, -0.19212003, -0.030381395, 0.025186758, 0.14911611, -0.022038378, -0.047129728, -0.06362339, 0.076750316, 0.10732611, -0.1879062, -0.23799063, -0.06060328, 0.031108718, -0.23921397, 0.04911295, -0.023874518, -0.072581515, -0.21686666, 0.15923013, -0.15780324, -0.180611, -0.130689, 0.080729894, 0.047094423, 0.18674742, 0.0070908475, 0.12751336, -0.27147862, 0.15695259, -0.11753634, -0.11816108, 0.0519352, -0.060216807, -0.15966736, -0.2711391, -0.09387713, -0.11063153, -0.06376268, -0.046376646, 0.31445304, -0.15597521, 0.22467472, -0.08578683, -0.09298318, -0.03680254, -0.1713901, -0.34554553, 0.16848409, 0.14039138, 0.2546805, 0.0024653526, 0.13292505, 0.04852237, 0.005799772, 0.1486013, -0.16964585, -0.010239174, 0.024962107, -0.031012183, -0.12478386, -0.07270723, 0.28544524, 0.22053994, 0.0045098965, 0.05371202, 0.24888866, 0.046076078, -0.19699489, 0.22104572, 0.009825366, -0.22887503, -0.05892687, 0.028940827, -0.12995511, -0.046293586, 0.083132684, -0.07923296, -0.020728279, -0.18886131, 0.2452045, -0.024890797, 0.017515197, -0.16140074, -0.06862701, -0.074711286, -0.11406006, 0.06821735, 0.057027083, -0.08704949, -0.014828952, 0.08010016, 0.23002487, -0.080279835, -0.102716945, 0.15725054, 0.10366017, -0.19230562, 0.021518689, -0.1904494, 0.19518135, 0.118630566, -0.100257434, 0.028300505, -0.18779095, -0.1107098, -0.2490054, -0.12259241, -0.13009006, -0.0027495758, -0.22888085, 0.17897862, 0.08521621, 0.003349826, 0.06526338, 0.095698394, -0.21328603, 0.17741255, 0.02795901, 0.05973955, 0.050802365, 0.0018961789, 0.1441643, 0.025849659, -0.07956738, -0.07063858, 0.104788706, 0.002626309, 0.29738536, -0.3121129, 0.29421884, -0.08553994, 0.18197769, -0.0702193, -0.12776047, -0.15590711, 0.079331346, 0.21560994, 0.017681237, -0.062429953, -0.089155816, 0.0898699, -0.15379947, -0.0012583756, -0.10603271, 0.10642124, -0.21954387, -0.060102645, -0.113741286, -0.03619518, 0.22144097, 0.19685821, 0.053101163, -0.039070282, 0.37991843, -0.20018382, -0.2604047, 0.27047372, 0.064031936, -0.08046997, -0.030277316, 0.13356136, -0.24900493, 0.10101807, 0.21495956, -0.085141316, 0.106590524, 0.034445047, 0.13360502, 0.18490729, -0.18455389, -0.16547236, -0.038060814, 0.009437935, -0.24287045, -0.109845534, -0.23388922, -0.16061756, 0.1851466, -0.02669869, 0.34128684, -0.08322391, 0.11546865, -0.012442728, -0.00906004, -0.22720265, 0.021531673, -0.2644565, 0.02274647, -0.15600911, 0.017619627, -0.07741722, -0.02187152, -0.042526532, -0.12606016, 0.106613494, -0.23421362, -0.09587542, -0.09158847, 0.1816814, -0.017514363, 0.099605106, 0.14990894, 0.12172296, -0.1669756, 0.19411886, -0.111159444, -0.105387695, -0.29946238, 0.15314175, 0.0008074837, -0.014653679, -0.19702643, -0.06522747, 0.09241797, -0.16808735, 0.10803906, -0.35992396, 0.12223535, -0.1544898, 0.19117859, -0.18890926, -0.2082019, -0.25223055, 0.04891719, 0.082352296, 0.17154264, 0.16063088, -0.14980161, 0.24597228, -0.15233923, -0.0056097517, -0.0014858303, -0.007137423, -0.08610791, -0.017768707, 0.07787628, 0.17678687, 0.0552971, 0.010098901, 0.12971129, 0.07092104, 0.43625337, -0.0377287, -0.29972252, 0.26997557, -0.056115933, -0.0730223, 0.012959153, 0.036205776, -0.16140716, 0.04529424, 0.054206602, -0.04925435, 0.021466173, 0.16734727, 0.26090756, 0.15443647, -0.23243862, -0.13517132, 0.2738726, 0.16139959, -0.059376534, -0.05155142, -0.20962094, 0.053432725, 0.006001566, 0.14344175, 0.22169581, -0.04537179, 0.107722886, -0.080591545, 0.09584623, -0.19530252, -0.043215066, -0.15907788, 0.28475446, -0.06748617, -0.009608546, -0.2174108, -0.09301544, -0.0811146, -0.12836792, -0.13294987, -0.104587436, 0.04741765, -0.1100393, 0.16102323, 0.11754963, 0.005145716, -0.05037538, -0.09080132, -0.21376021, 0.3413548, 0.04376398, 0.020638887, -0.057751182, 0.114929356, 0.18439415, -0.08710952, 0.08759041, -0.20130308, -0.119457945, -0.14499184, 0.2416324, -0.28948522, -0.09589076, 0.011814208, -0.12753236, -0.15726735, 0.13580838, -0.31749827, 0.1838695, 0.29195485, -0.05807936, 0.0510019, 0.026604086, 0.11036635, -0.13912718, 0.08770574, 0.18979791, -0.009861074, -0.27603325, -0.014077234, 0.09501659, 0.2136674, 0.21282692, 0.15136914, 0.17791541, 0.027387548, 0.15926951, -0.27238154, -0.062149826, 0.15165164, -0.23795588, 0.075071864, 0.43725273, 0.10801604, 0.07854799, 0.14870761, 0.031369515, 0.15906249, -0.12000028, -0.064697854, 0.1580055, 0.2804504, -0.1864248, -0.07172073, 0.1974213, 0.078988016, -0.1872931, 0.07799439, -0.10096981, -0.19974197, -0.07060301, -0.10283989, 0.28608143, -0.19381468, -0.19445066, -0.14938432, 0.19466196, -0.24791464, -0.18776043, 0.05674922, -0.01067085, -0.007959079, 0.08540253, -0.09291115, -0.12108523, -0.15876628, 0.043613996, -0.34125435, -0.24810745, 0.12137501, -0.22381637, 0.1921889, 0.03189001, 0.20751517, 0.06750665, 0.007886762, -0.06689306, 0.34138647, -0.0031617307, 0.06624792, -0.27759013, -0.19077817, 0.14280291, -0.10914782, -0.029295618, -0.18414953, -0.16105527, -0.10105943, -0.04961811, -0.21486954, 0.059423935, 0.017250977, 0.054265376, 0.07274136, -0.08700678, 0.0007633909, 0.08727395, 0.119141564, -0.023782166, 0.24644545, -0.0672311, -0.0577015, -0.034508858, 0.0075344085, 0.15609212, -0.023659686, -0.14001125, 0.18205447, -0.12416603, -0.110878244, 0.0038619153, -0.069321506, 0.2810518, 0.21991798, 0.14364398, -0.26853254, -0.05977642, 0.13577025, -0.1062981, 0.19838716, 0.22783692, 0.027595516, 0.192553, 0.25174737, -0.15709779, 0.04513644, 0.038920324, 0.04994923, -0.003756002, 0.20148529, -0.23369177, 0.15612191, 0.117569916, 0.03824027, -0.019991735, 0.07954422, -0.13584913, -0.087380216, 0.0042523644, 0.10488099, -0.056083847, -0.101570204, 0.051850934, -0.11716486, 0.1988881, -0.38730893, 0.03609982, -0.07220049, 0.16118136, -0.22523731, -0.10484011, -0.16161089, -0.25250188, 0.13578205, 0.2463222, -0.37651658, -0.26162753, -0.06859653, 0.01271354, 0.29391882, 0.010196649, 0.116309956, 0.12816553, -0.17466517, -0.05540461, 0.084041595, -0.11904315, 0.03645476, -0.18540855, -0.19251987, 0.07512196, -0.09649966, -0.15887575, -0.03663988, 0.0699012, -0.11404117, 0.049070027, -0.10234978, 0.018161256, 0.17919503, -0.100364916, -0.11770039, -0.035404384, -0.1389508, 0.13282095, -0.06240483, 0.028251797, 0.12540728, 0.009686359, -0.039238323, -0.16954471, -0.0015713021, -0.0031192647, -0.038975284, -0.19938128, 0.07813687, -0.15050496, -0.10238705, -0.2962712, 0.063837774, 0.1728071, 0.00630946, -0.07011458, -0.3385619, -0.10545488, 0.32366276, -0.06387477, 0.16803057, 0.3685217, 0.18463601, 0.36559674, 0.22323316, 0.0035889912, -0.09933368, -0.021397842, 0.20221001, 0.1824221, 0.0675579, -0.023896508, 0.036931034, -0.055311684, 0.098868795, 0.023015266, 0.084427185, -0.31765205, -0.09413685, 0.021082135, -0.08112322, -0.0016689079, 0.044356503, 0.036853626, -0.07484641, 0.06467576, -0.37373123, -0.034886554, -0.053199407, -0.03216056, -0.1947639, 0.11474741, -0.08978849, -0.15281148, 0.12445975, 0.2673673, -0.2295942, -0.18511043, -0.2279664, -0.1420147, 0.031808037, -0.17608735, 0.19254959, -0.14308344, -0.2498262, -0.053072684, 0.16806844, 0.00044502685, 0.14895153, -0.2447983, -0.110205695, 0.09949402, 0.010984319, -0.324007, 0.02153102, -0.16259575, 0.10211291, -0.0827699, -0.025436057, 0.03383713, -0.07759698, -0.16804497, 0.055160888, -0.3119871, 0.03142359, 0.09916252, -0.09120124, 0.054045618, -0.06933528, 0.07687281, 0.1761499, -0.23214628, 0.10691738, 0.011757513, -0.045722038, -0.22095864, -0.09628426, 0.010635191, -0.27429718, -0.43988553, -0.08503786, 0.066844225, 0.121180214, 0.06454356, -0.23718391, -0.072192416, 0.34059253, 0.111630924, 0.0016227182, 0.3354527, -0.0021108955, 0.37325454, 0.13796863, -0.03148293, -0.05442795, -0.09365702, -0.011423417, 0.07259869, -0.013207868, 0.15552075, 0.020681232, -0.06270505, 0.03387069, -0.16569653, 0.1611084, -0.15446012, 0.010209562, -0.09741252, -0.087768175, -0.20254576, -0.25237626, 0.09558331, -0.09710819, 0.2591285, -0.01225787, 0.061081246, 0.07230777, 0.12742251, 0.0074478714, 0.0061584585, 0.0471032, -0.01656966, -0.08132501, -0.07877063, -0.41496086, -0.10693679, -0.22262953, 0.055458225, 0.24080649, -0.10954355, 0.16801481, 0.10231992, -0.1674151, -0.1286998, -0.001029486, -0.11349858, 0.19108443, -0.09074481, -0.11911287, 0.11441311, -0.10353532, -0.23175134, 0.07401341, -0.1456234, 0.08151909, -0.21189472, -0.20113218, -0.120695226, 0.15387894, -0.122567125, 0.15818958, -0.24997936, -0.1635734, 0.13363272, 0.08952817, 0.119412206, 0.16923316, -0.059125613, 0.13931897, -0.09775792, 0.10798882, 0.03375449, -0.003144659, 0.011632079, -0.10705403, -0.1630865, -0.34071285, -0.3209644, -0.17829981, 0.18524104, 0.20496888, -0.007780009, -0.29733157, 0.06678814, 0.19083354, 0.077639684, -0.07152138, 0.030467222, 0.042529903, 0.025055582, -0.022983624, 0.09141277, -0.13944277, 0.0005770602, 0.24420932, -0.07518409, -0.025475746, 0.007339344, -0.112949945, -0.13381942, 0.0059702876, -0.014636635, -0.017136015, -0.21534093, -0.16242845, -0.04398195, -0.089759946, -0.06227439, -0.32429293, 0.115460046, 0.19748853, 0.20900726, -0.14324784, 0.10400691, 0.047356144, 0.12181378, -0.14884026, -0.07270624, 0.12817913, -0.020831566, 0.14452149, -0.12922989, -0.04114311, -0.3076718, -0.23436715, 0.102871306, 0.118380934, -0.02203021, 0.17843421, 0.18238606, -0.21292607, 0.108366944, 0.18190432, -0.19258998, 0.14991738, -0.17140701, -0.25403082, 0.20082547, -0.02356914, -0.045971382, 0.039049685, 0.061898336, 0.16173153, 0.028647201, -0.0051935855, -0.007959686, 0.0091976905, -0.2671637, -0.05865681, -0.23495787, -0.11883017, -0.033408042, -0.15993686, -0.09059534, 0.20498756, -0.10452473, 0.012640701, -0.049568847, 0.25316375, -0.0016295599, -0.2389096, -0.027125886, 0.08463983, -0.13644704, -0.14039461, -0.015681807, -0.06951838, -0.08594109, 0.07506477, -0.27612036, -0.12642954, 0.13003924, 0.2300773, 0.031693906, -0.04765375, 0.0650591, 0.26108608, 0.16242559, 0.107029684, -0.1726598, -0.13426057, 0.020063883, 0.109612554, 0.046019007, -0.064078785, -0.066554144, 0.038496662, -0.09340516, 0.09025904, -0.17182258, 0.018230408, -0.21527615, -0.015802698, 0.01698952, -0.21811725, -0.18063852, -0.3702631, 0.17322636, 0.043515906, 0.28179955, -0.16859524, 0.21879137, 0.010533165, -0.06895661, 0.08428609, -0.1279416, 0.08421006, -0.13007855, 0.058611322, -0.16961788, -0.16076973, -0.30539834, -0.3193073, 0.17436838, 0.18861234, -0.00029727822, 0.043821882, 0.03773171, -0.15949193, 0.21906507, 0.14909585, -0.12616228, 0.11385421, 0.1215549, -0.08616641, 0.11103095, 0.009144388, -0.006892245, -0.240227, -0.06955188, -0.0210936, 0.046536263, -0.06190494, -0.108305216, 0.11760879, -0.072427936, 0.09020795, -0.057776686, 0.13303319, -0.12124438, -0.22534323, 0.06223594, 0.0040327134, -0.14572847, 0.13111956, -0.28271806, 0.1060723, 0.02173604, -0.3212628, -0.06745171, -0.11521842, -0.14004347, -0.23083077, 0.020685526, 0.17858784, -0.03178889, 0.07339134, -0.17962196, 0.14623962, 0.020381834, 0.15888794, 0.13717183, 0.14940692, -0.06319337, 0.18486738, 0.19164291, 0.0030710485, -0.23024717, -0.17475232, 0.06488503, 0.033681467, 0.02315396, -0.26644295, 0.115469806, 0.19670013, -0.06034429, -0.044277094, 0.1929752, 0.27509034, -0.2579531, 0.07576054, -0.05605361, -0.11059757, 0.08768092, -0.22942713, -0.0025119178, 0.12463869, 0.19587459, 0.1461464, 0.28602368, 0.002112965, 0.15825017, 0.09029434, -0.05292934, 0.18086214, 0.028577643, 0.21430033, -0.07371408, -0.1468506, -0.35261723, -0.0724153, 0.03955417, 0.08980789, 0.08994225, 0.14852634, 0.18342961, -0.06507522, 0.012637003, 0.23450944, 0.05609964, -0.083504565, -0.075248785, -0.16863865, 0.20231687, -0.20311505, 0.12459744, -0.069910824, -0.09258132, 0.061741967, -0.118520066, -0.04642023, 0.07910018, 0.3049009, -0.17865701, 0.10374359, -0.14278279, -0.05817358, 0.021478212, -0.31769398, -0.03464705, 0.05990629, -0.09236723, 0.1569183, -0.25843826, 0.2814264, -0.08196639, -0.33074564, -0.22626165, -0.012784835, -0.211011, -0.04472592, 0.16780458, 0.10575485, -0.16345039, -0.06583151, -0.3236291, -0.028760698, 0.29242033, -0.078200206, 0.11176942, 0.019027457, 0.014681648, 0.18763101, 0.12799582, -0.08298846, -0.11442194, -0.11904214, 0.15675807, -0.021023812, -0.09488217, 0.004156069, 0.031743616, 0.12812816, -0.317355, -0.21322343, 0.21960719, 0.046869278, -0.08861883, -0.1039237, -0.07516142, -0.12298575, 0.039035745, -0.00025250012, -0.0019785506, 0.051804062, 0.17969728, 0.0643397, 0.22776762, -0.0011334438, 0.06550462, 0.10888571, -0.029283395, 0.15564947, -0.12497632, 0.047025695, 0.021807535, 0.03148636, -0.28269005, -0.21696341, -0.06715471, 0.23852637, -0.012598653, 0.1696631, -0.008789177, -0.02337009, 0.19161496, 0.21458033, -0.067437716, -0.011677789, 0.22834222, 0.014985199, 0.10532184, -0.16392046, 0.04587437, 0.0888072, -0.16010977, 0.028929094, -0.038401388, -0.031105706, 0.16796161, 0.3465943, -0.12472063, -0.0035993129, 0.09846126, 0.10582224, 0.056747265, -0.1365438, -0.08327185, 0.007273507, 0.045577157, -0.0680982, -0.18083106, 0.2164685, -0.1202701, -0.12427566, -0.30722803, -0.2713692, -0.058527935, -0.04598415, 0.082623184, -0.024981365, -0.09486883, -0.13676327, -0.29322597, 0.026140269, 0.19447856, -0.046659194, 0.307844, 0.033072285, -0.07927196, 0.114509925, -0.030498523, -0.08438204, -0.24967356, -0.17840332, 0.0691001, 0.120453626, 0.09824171, -0.1362448, 0.25952798, 0.24454622, -0.068913795, -0.17617172, 0.11509109, 0.18232064, 0.020219715, 0.2045651, -0.11733476, 0.043555863, 0.19855344, -0.15421046, 0.031672116, -0.03716565, 0.24291252, -0.08645163, 0.22325131, -0.10245493, -0.00512996, -0.034042932, -0.032366097, 0.083894275, -0.2375629, -0.13562773, 0.12071616, -0.03509272, -0.18606082, -0.1554391, -0.028180327, 0.09809222, 0.0019064614, 0.031078264, -0.19070145, -0.07357359, 0.11369785, 0.1522007, -0.103279375, -0.32845584, 0.1391519, 0.20858835, 0.30959344, -0.06718372, 0.13364327, 0.06194743, -0.2168081, -0.18709305, -0.023899017, 0.019774925, 0.0023954283, 0.14362185, -0.08473436, 0.017081274, -0.1011953, -0.2370813, -0.21245565, 0.029176803, 0.020193871, -0.14290336, 0.22577427, 0.11589919, 0.09600426, 0.31646806, -0.21391091, -0.14885424, -0.14340061, -0.30703238, -0.23790507, -0.063202985, 0.13673589, 0.12381969, 0.038014337, 0.04777453, -0.06180997, -0.19489427, -0.20840321, -0.11092262, 0.2962329, -0.09941849, 0.10332472, -0.1361638, 0.020853836, -0.13271116, -0.26812512, -0.031086193, -0.049045146, 0.1263175, 0.025655102, -0.15861757, 0.3169212, 0.05808048, 0.042708803, 0.096059315, 0.0840775, 0.08381664, 0.08066127, -0.094759285, -0.08350907, 0.16357662, 0.19197223, 0.10158213, -0.05978138, -0.1728385, 0.28648537, -0.13600312, 0.033565994, -0.08942297, -0.2722494, -0.09749378, 0.19737215, 0.15521169, -0.27533698, 0.06392097, 0.045473706, -0.27167362, 0.0073476625, -0.16668418, 0.09189713, 0.021878866, 0.06486971, -0.13258213, -0.050593644, -0.040464006, -0.130608, -0.15913683, 0.08489599, -0.435695, 0.22826882, 0.07263011, 0.37515604, -0.17177312, -0.15291803, 0.12852292, -0.115096316, -0.011558524, 0.1636389, -0.10637666, -0.18860343, 0.30427146, -0.17643338, -0.21815415, -0.07627128, -0.329118, -0.20464529, 0.0057067703, 0.058193274, -0.2029366, 0.05387009, -0.05379118, 0.15932244, 0.2712476, -0.22491355, 0.08592208, -0.16361773, -0.20775554, -0.35016003, -0.1957185, 0.039056852, -0.06564002, 0.14861013, -0.22506347, -0.25070974, -0.21390511, -0.1784575, -0.21366535, 0.18642883, -0.12475867, 0.23687348, -0.22336638, -0.17499736, -0.11439857, 0.0026766576, -0.11688829, -0.13689928, -0.046593454, -0.025810378, 0.07694963, -0.021581236, -0.016097672, 0.16944622, -0.048931487, 0.12768587, 0.29237643, -0.21606348, -0.109180085, -0.30914387, 0.14501816, 0.18995596, 0.18840997, -0.077776305, -0.01109651, 0.01148566, 0.05325403, -0.015641991, -0.06926005, -0.16908295, -0.012105638, 0.13354757, -0.11008635, -0.20800823, -0.10915218, -0.044497862, -0.11931715, -0.030097365, -0.02792717, 0.25777173, -0.078228965, -0.12651856, -0.12488688, -0.12643808, -0.26305264, -0.097403444, -0.25092807, -0.019628767, -0.40460452, 0.19648781, 0.049927115, 0.30908844, -0.18558553, -0.24941419, 0.07620654, 0.17184663, -0.023896383, -0.03576213, 0.09166146, 0.00981236, 0.04157138, -0.31035993, -0.17737614, -0.10072972, -0.12411947, -0.4538967, 0.11025546, 0.05953584, -0.026218884, 0.028647881, -0.106202014, -0.065619715, 0.059590783, -0.06492222, 0.12026453, -0.023445502, -0.47682744, -0.11786405, -0.10647341, 0.0705394, 0.124611735, 0.009409678, -0.19256957, -0.0450752, -0.20946124, -0.26407355, -0.043884628, 0.20371535, -0.13690567, 0.20373541, -0.018974582, -0.10799302, -0.14437315, -0.100714535, -0.16386743, 0.099942476, -0.009922667, 0.02060721, -0.2208333, -0.03725331, 0.21233796, 0.054868374, 0.11233815, -0.15188184, 0.02607088, -0.1656188, 0.092416815, -0.20215929, 0.02721421, -0.023665894, 0.08410869, -0.1824171, -0.17326683, 0.0294471, -0.043269664, 0.0039833626, 0.14978305, -0.18131766, -0.06880904, 0.11304419, 0.1445958, -0.036561076, -0.17879006, 0.16783054, 0.0021280698, -0.09569907, -0.036860663, 0.05685784, 0.14965753, 0.09988334, -0.14545241, -0.06986956, -0.07887123, -0.15005423, -0.25241947, 0.014905681, -0.32713047, -0.058921415, -0.003898813, 0.02136339, 0.034173977, -0.24691029, 0.13043323, 0.09661591, -0.096109726, 0.13153718, -0.20294471, 0.011587459, 0.09812048, 0.080259174, -0.20799808, -0.053052194, -0.05842289, -0.46601352, -0.060049243, 0.081946485, 0.024921535, -0.041455347, -0.02544802, -0.05306143, 0.0036248027, -0.21887445, -0.038069118, -0.1999727, -0.48885393, -0.05654167, -0.17895435, 0.16388538, 0.13255484, 0.21632013, -0.053165704, 0.06503243, -0.27123165, -0.0051802834, -0.015774107, 0.14064884, -0.0023439028, 0.16001292, -0.12532003, 0.079507306, -0.28068596, -0.10694239, -0.105109304, 0.106352784, -0.1996682, 0.13533741, -0.09808309, 0.19586846, -0.043731056, 0.2155361, -0.17320554, 0.12617669, 0.063201785, -0.20557192, -0.06206857, -0.15046239, 0.028552096, 0.19267167, 0.12376205, 0.07822097, -0.06825024, -0.06145381, 0.16095877, 0.04361482, -0.02424775, -0.0047623487, 0.14195682, 0.020142991, -0.00031304825, 0.03707419, -0.011730547, 0.12727526, 0.077752076, -0.09669452, -0.2527319, 0.19411375, 0.10582175, 0.023293566, -0.07549222, 0.020534705, -0.13380359, 0.044567928, -0.095794536, 0.19911379, -0.25491995, -0.03257179, 0.0050577275, -0.0037375896, -0.05708451, -0.26003882, -0.00545605, 0.0470404, -0.068170734, -0.12383602, -0.15546122, -0.015750749, -0.060990326, 0.14120299, 0.040935095, -0.16865262, -0.058639754, -0.25972003, -0.15523659, 0.1526506, -0.026196994, 0.064629525, 0.08426268, 0.18321808, 0.09665509, 0.020188171, -0.07108248, -0.11468893, -0.2771263, 0.039543454, -0.14533342, 0.1087054, 0.027091926, 0.12694095, -0.22798544, -0.044345744, -0.008099419, 0.00020762428, -0.073647745, -0.069024414, 0.064492546, 0.22156681, 0.13540453, 0.18272702, -0.15984094, 0.15410821, -0.16682118, 0.12624659, -0.06290702, -0.0874801, 0.095180474, 0.045775514, 0.18214267, 0.10162675, -0.029408041, 0.027756501, 0.14718701, 0.051121347, -0.048717294, 0.1110311, -0.11978256, 0.094783604, 0.15507588, -0.050683282, -0.15154672, -0.26394957, 0.007414118, -0.05723933, -0.13714613, -0.0356624, 0.013492224, 0.034834545, -0.075361535, 0.12712154, 0.067348324, 0.08640797, 0.0446764, -0.0021301252, -0.3099756, 0.14991134, 0.13406862, -0.18343663, -0.057912145, -0.058918703, -0.09418887, 0.08440373, 0.08612161, 0.12656288, -0.19326572, -0.108123064, -0.17469105, -0.18588872, -0.030088093, -0.076473586, -0.21983534, 0.120354585, -0.039174534, 0.18040845, -0.22722569, -0.021092942, 0.12069557, -0.06761462, -0.11790791, 0.17017321, 0.057797484, -0.3413804, 0.028184233, 0.041751765, -0.12857784, 0.012689054, 0.05328246, 0.06265584, 0.20617047, -0.045487743, -0.17522475, -0.17406157, -0.36582828, 0.051060557, 0.06680832, -0.14763479, 0.0020268224, 0.13429369, -0.058755867, 0.10289554, -0.117678575, 0.1481948, 0.11549341, -0.14737228, 0.01882991, 0.08427808, -0.00090214756, 0.1958382, -0.22417443, 0.29851654, -0.12389579, -0.03638745, 0.040133636, -0.016465843, 0.021563917, 0.053094454, 0.10048142, 0.18294917, -0.05800199, -0.05576542, 0.03920576, -0.21271431, 0.13928798, 0.09359723, 0.11389671, 0.14236984, 0.114310324, -0.04525694, 0.010519955, -0.20077306, 0.008041969, 0.05066926, -0.004469581, 0.17047028, 0.14654613, -0.038366046, -0.10517436, -0.039962567, -0.037886854, 0.08468875, -0.039736338, 0.19090714, -0.29918215, -0.028828833, 0.099387646, -0.0668136, 0.1132219, -0.21469682, -0.20337881, -0.18433, -0.11137405, -0.1881211, 0.032041464, 0.025821917, -0.18857045, -0.044948157, -0.11564249, -0.11470649, -0.35237682, 0.19059293, -0.045412317, 0.018492352, 0.03700482, -0.0007936894, 0.18888465, -0.08291929, -0.13962835, 0.038446568, -0.11832265, -0.15862492, 0.095835015, -0.073379114, 0.14649245, -0.12420463, -0.19999953, 0.10730314, 0.08888932, 0.03435231, -0.32254055, -0.023304708, -0.02738809, 0.19975115, 0.0733354, -0.19543935, -0.0033971611, 0.13267758, 0.04078873, -0.1248151, 0.14367168, 0.15420005, 0.0114204185, -0.2772925, -0.19328406, 0.22901209, -0.11198211, 0.3591209, -0.036639214, 0.25702208, -0.05576837, 0.023708163, 0.14237861, -0.08415729, 0.018921368, -0.10773823, 0.08019611, 0.13490184, -0.093621016, -0.018900799, -0.07368827, -0.19870579, -0.0877421, 0.29015487, 0.0056398264, 0.023569783, -0.2081975, 0.031955324, 0.24880663, -0.119614884, 0.06195623, -0.17523207, -0.1525649, 0.30122387, 0.027045112, -0.13451283, -0.07881256, -0.10797018, 0.05806404, -0.0703464, 0.3116786, 0.05588341, -0.18708229, -0.104662575, -0.11135579, 0.016010588, 0.014287297, -0.106256425, -0.34535185, -0.115995325, 0.18172717, -0.023204925, -0.043467015, -0.12108337, -0.096871175, -0.0029792048, -0.069039576, -0.083223015, -0.45371753, 0.037653442, -0.072250344, -0.090357356, -0.050930765, 0.07273725, 0.18872875, -0.1713573, 0.005487141, -0.033539977, 0.055824786, 0.24317636, -0.08507238, -0.038809374, 0.30211356, -0.14696576, 0.037035603, 0.08999798, 0.08338908, -0.09165779, -0.24944231, 0.20161578, 0.13717702, 0.39133865, 0.19976366, -0.23544402, 0.094619095, 0.11157324, 0.08860928, -0.054693665, -0.04002315, 0.3097323, 0.23343009, -0.24980935, -0.17503439, 0.2484138, 0.07564333, 0.289701, -0.12045454, 0.29328924, 0.035036083, 0.06984007, -0.018210175, -0.16970955, -7.774572e-05, -0.11980418, 0.21198002, -0.055404376, -0.023743922, -0.06586577, 0.1376927, -0.04370798, -0.04887391, 0.2820193, -0.048856027, -0.08435546, -0.038533445, -0.16116601, 0.1162173, -0.16952482, -0.02139578, -0.07649508, -0.34478867, 0.21447884, 0.060688436, -0.15856323, 0.025909109, -0.13828465, -0.013302228, 0.19320141, 0.16712868, 0.13154308, 0.003095564, -0.032404993, 0.13044018, 0.087895535, 0.09891125, 0.18063979, -0.22685191, 0.012198685, 0.15981247, 0.021631183, -0.10354364, 0.043653406, -0.116627716, 0.14690855, 0.005794373, -0.0843159, -0.34960938, -0.058760386, -0.056524873, -0.02171002, 0.073202334, 0.04076617, 0.07232562, -0.1346844, -0.071200445, -0.0022549217, 0.061636567, 0.3010117, -0.030446803, 0.06371054, 0.29658103, -0.06866596, -0.03900786, -0.12648517, 0.19083431, -0.121660784, -0.20876983, -0.011491779, -0.060086627, 0.34127915, -0.02163668, -0.32081643, 0.12346811, 0.05622518, -0.024101757, -0.06811005, 0.018617, 0.07586358, 0.19124714, -0.0133847445, -0.14968649, 0.04184605, -0.14029239, 0.28946948, -0.020542938, 0.34422177, 0.026335193, 0.046789296, -0.090583436, 0.05539755, -0.0005036091, -0.29944965, 0.18861933, -0.121805415, -0.22862627, 0.10420636, -0.14991263, -0.05886112, -0.1831416, 0.03099626, 0.10889382, -0.005580844, -0.10705834, -0.10882363, 0.09322765, -0.20920125, 0.23853596, 0.24905172, -0.37843516, 0.037672237, 0.006878197, 0.031272683, -0.07048618, -0.2214091, -0.07388726, 0.18067995, 0.45409107, -0.076831274, -0.09119233, -0.009900379, 0.053892236, 0.2146371, 0.054588024, 0.034363817, -0.11454025, 0.15814318, 0.19877872, 0.11310099, 0.059088245, 0.028284932, 0.067092836, 0.16307034, -0.17294401, -0.11776452, -0.47698587, -0.27221182, -0.05752743, 0.004751096, 0.061486617, -0.12990747, 0.037559062, 0.047200676, -0.006457469, -0.13922916, 0.09533389, 0.13990745, 0.13121955, 0.22650689, 0.11219719, 0.056057017, -0.021477476, 0.18467344, 0.1634432, -0.102009535, -0.20226386, -0.10840602, -0.15333438, 0.18779258, -0.050481644, -0.36865774, -0.0022920778, 0.19053224, 0.07094496, 0.03405484, -0.08194979, -0.10097416, -0.0704395, -0.09055439, 0.011026982, -0.17910163, 0.001149181, 0.10357859, -0.27176386, 0.14178564, -0.05839998, -0.05676576, -0.024981711, 0.14517057, 0.1417827, 0.006043771, 0.23249027, -0.08588188, -0.30195585, 0.12698174, -0.008354363, 0.18510672, -0.23246136, 0.050348703, -0.026039742, -0.20677893, 0.21997853, -0.045043387, 0.036285553, -0.14647977, -0.016909517, 0.24766795, -0.2802885, 0.042247787, -0.30617473, 0.093132675, 0.122952886, -0.06511417, 0.20590657, -0.07147823, 0.42316455, 0.06328632, -0.123016976, -0.18279554, 0.020563956, 0.12795033, 0.043066468, -0.023375582, -0.29021057, -0.10573454, -0.003460134, 0.054825228, -0.16900355, 0.20133056, 0.18489683, 0.06426364, -0.17427212, 0.078137815, -0.31269798, -0.08236115, -0.17074035, 0.22166272, -0.03216123, -0.027976893, -0.07068796, -0.002667779, -0.00452617, -0.06775316, -0.018722579, 0.18498756, 0.0259681, -0.013579709, 0.24799922, -0.07206011, -0.09328193, 0.0040483405, 0.06624549, -0.04821221, 0.024680998, -0.02009679, -0.10113631, 0.22208783, 0.016748881, -0.33065075, -0.067128316, -0.08054806, 0.012067811, -0.13140951, 0.17319457, -0.106202096, -0.13323782, -0.032565627, -0.044658385, 0.06312846, -0.06444838, 0.03669793, -0.22428508, -0.0012852536, -0.0062570754, -0.061072804, 0.16320159, -0.065304324, 0.07759343, -0.19619887, 0.27451447, -0.112351306, -0.19793794, -0.06625598, -0.1007303, 0.15052138, -0.07197982, 0.16992792, -0.06972853, -0.20372543, 0.08545197, 0.10186285, 0.049735613, 0.009140136, 0.15003309, -0.037455566, -0.12037445, -0.047872186, -0.18885589, 0.044192974, -0.063758515, -0.0048852055, 0.12234787, -0.103901885, 0.22859278, 0.19045469, -0.119579785, -0.1490633, -0.16160601, 0.13113499, -0.21826465, 0.17513828, -0.18746999, -0.042455256, 0.100505315, -0.1392379, -0.31771383, 0.15589355, 0.2751379, -0.003498792, -0.023137724, 0.16763386, -0.2876481, 0.026436975, 0.12769373, 0.26444355, -0.25073916, -0.17245507, -0.16504279, -0.0640686, 0.07455089, 0.017522987, 0.08171191, 0.07120393, 0.20287864, -0.12049378, 0.23022044, 0.21040109, 0.06689568, -0.0828065, 0.10875507, -0.13956644, -0.09606957, 0.12625737, 0.10170421, 0.19219166, -0.17197001, -0.32907596, -0.20792994, 0.09638199, 0.10745844, -0.15160508, 0.12732409, -0.21623763, -0.26928884, 0.039537847, -0.1390137, -0.11287666, -0.4059775, 0.20974953, -0.11557675, 0.019720014, -0.099847965, 0.18237507, 0.057786226, -0.076531336, -0.06307381, -0.19650933, 0.13261648, 0.10736044, -0.07363146, -0.05407277, -0.024666006, 0.2685533, -0.09876939, 0.16501717, -0.063668214, 0.010843455, 0.026856216, -0.09539648, -0.15208557, -0.027018234, 0.036395837, 0.07107593, -0.04785221, 0.089052916, -0.30158854, -0.21725999, -0.08600854, -0.06726979, 0.20194814, 0.1205053, 0.3739585, 0.15502322, 0.020645898, 0.054374095, -0.17397211, 0.15783674, -0.039891057, -0.0009573125, 0.10277065, -0.1824772, 0.023014585, 0.057706885, -0.24754146, 0.37962726, 0.1655501, 0.12631261, 0.3155113, 0.11549601, -0.3188515, -0.088774145, 0.1974202, 0.061799414, -0.104188465, -0.03443653, -0.16274947, -0.16850834, -0.1269575, 0.12489796, -0.087547466, -0.09087305, 0.04009509, -0.054590907, 0.22080952, 0.031471558, 0.048600387, -0.15604746, 0.014602618, -0.06470274, 0.120042704, -0.15374698, -0.020912942, 0.031222174, -0.17345859, -0.12588897, -0.108243376, -0.118825205, 0.22088745, 0.07382085, 0.036123287, -0.266099, -0.2821165, -0.044168234, 0.06757361, -0.1479424, -0.19351068, 0.10153091, 0.0026381882, 0.015497185, -0.16335899, 0.17873216, 0.05513144, 0.088604026, -0.102617696, 0.08735703, 0.10798176, 0.15569918, -0.10109005, -0.22867027, -0.14852166, 0.25853088, -0.045506317, 0.0809467, -0.14481403, 0.03568383, -0.06906124, -0.13731293, -0.14558421, -0.285412, 0.068214394, -0.022520095, -0.15114492, 0.13450006, -0.0635616, -0.22304271, 0.014578685, 0.00024322138, 0.10841773, 0.08979643, 0.14997314, 0.027477501, 0.002987014, 0.0730977, -0.06401688, 0.195787, 0.11615496, 0.25885466, 0.25481865, -0.18607152, -0.0059865247, 0.081328265, -0.13945223, 0.09380409, 0.2615516, 0.06714951, 0.4289774, -0.008515737, 0.07511018, -0.068698496, 0.08095328, 0.23775896, -0.23863769, -0.19416946, 0.08850123, 0.013624166, -0.09902023, 0.020371284, 0.17342862, -0.05746375, 0.12478181, -0.17797121, 0.08402104, 0.06300611, 0.15523471, -0.27750358, -0.018486055, -0.03991404, 0.017615642, -0.08338342, -0.20523658, 0.22307403, -0.028682271, -0.17930062, -0.18909095, -0.08373063, 0.046945162, 0.09412571, -0.03526794, -0.07911474, 0.14976026, 0.21595496, 0.2772734, -0.22308393, -0.20263888, 0.19671904, 0.2133828, 0.096413694, -0.083092414, 0.22473246, -0.16155882, 0.100077875, 0.14914674, -0.04114197, -0.14229509, -0.009066501, -0.14344706, -0.013304551, -0.1552209, 0.09257236, 0.047293887, -0.146082, 0.11798457, 0.09571278, 0.21441527, -0.039618522, -0.18175618, -0.17779511, -0.113374166, -0.09590673, -0.10397381, -0.002066035, 0.013541269, -0.032390736, -0.08155981, -0.22384402, 0.20356295, 0.27971438, 0.16576423, 0.22010149, 0.0040254043, 0.066361696, -0.058493793, -0.051768847, -0.07686004, 0.035636976, 0.2957878, 0.08784049, 0.021108948, 0.07288911, -0.34710187, 0.22031145, 0.18760666, -0.047622498, 0.2735228, -0.18993115, -0.044997077, -0.12815046, -0.029767148, 0.16553643, -0.24070086, -0.02743396, -0.06858272, -0.05610721, -0.010301754, 0.07666338, 0.12751982, -0.14946291, -0.0836963, 0.0778009, -0.20602193, 0.28135967, -0.023911217, -0.20936137, -0.09308238, -0.2320649, 0.06553819, -0.149446, -0.048278425, 0.11632395, 0.15726998, -0.08925751, 0.06846608, -0.11061227, 0.10980631, 0.038494114, -0.030577838, 0.17022881, 0.1625139, 0.14028525, 0.340553, -0.32760233, -0.043137096, 0.024002317, 0.0350694, -0.029489886, -0.14003266, 0.08555088, -0.026233666, -0.022465143, -0.038840313, 0.021962868, 0.013204888, -0.050063208, 0.111541435, 0.19213918, -0.13503338, 0.1187136, -0.08080123, -0.14744045, 0.00037607795, 0.041500323, 0.03406284, -0.049059052, 0.02853584, -0.1502502, -0.21330945, 0.038947266, 0.13366623, 0.07055281, 0.015366249, -0.19509523, -0.18551059, -0.24275617, 0.07435486, 0.25953025, 0.16661857, 0.052902035, 0.006437759, 0.28154877, -0.07611753, -0.12701692, -0.09452458, 0.2576868, 0.15055823, -0.0943025, -0.14234109, -0.17568329, -0.18278918, 0.17588396, -0.020820152, -0.20613083, 0.33332345, 0.07649828, -0.011123781, -0.11151864, 0.09838373, 0.20268233, -0.16927853, 0.07528152, 0.12958746, 0.14028253, -0.084666476, -0.010501538, 0.2812955, -0.07720654, -0.19161135, -0.08679008, -0.20324473, 0.18338269, -0.09834423, -0.028328802, -0.12851608, -0.19074592, -0.055530794, 0.08994238, 0.039623562, -0.054359857, -0.0132285375, 0.10449, 0.08165613, 0.054495003, 0.020443873, 0.21906015, -0.18197338, -0.038402252, 0.107272476, 0.08533148, 0.492977, -0.042723835, -0.019725822, 0.0021182848, 0.09970115, 0.17619748, -0.116182454, -0.04351501, 0.08964255, -0.11620403, 0.0005992045, 0.097108975, 0.03528854, 0.0072171898, 0.09691361, 0.11685679, 0.11171673, -0.09557349, -0.17652932, -0.24278738, 0.20360327, 0.006421881, 0.100076094, -0.11312382, -0.13133141, -0.1503199, -0.2663849, 0.07972766, 0.008555208, 0.19195783, 0.15078607, -0.066090055, -0.25846174, -0.25846472, 0.23818745, 0.2976824, -0.0015533997, -0.085223936, -0.081248425, 0.10552731, 0.09197625, -0.07230549, -0.1721454, 0.2080385, 0.2630928, -0.056861803, -0.27873474, -0.15274218, -0.17821749, -0.0035391676, -0.06881404, -0.16448799, 0.27066395, 0.0014912802, -0.061246965, 0.21151675, 0.07102153, 0.23450203, -0.15520619, 0.13346095, 0.08278105, 0.12215564, -0.12474283, 0.098943666, 0.12599811, -0.21209677, -0.019114986, -0.21089882, 0.047618262, 0.22898412, -0.19660744, -0.02021991, -0.00481547, -0.23200728, 0.14048466, 0.05490311, 0.08862599, 0.055589154, -0.22880138, -0.124084234, 0.08813421, -0.03851768, -0.17969823, -0.05502343, 0.09991436, 0.062305022, 0.19506522, -0.054122075, 0.26808864, -0.18736345, -0.10195735, -0.11132054, 0.06558143, -0.025893496, -0.12423445, -0.052673135, -0.021150453, -0.1044823, -0.105784684, -0.004215656, 0.09995705, -0.17432044, 0.15216681, 0.0030063423, 0.14639711, -0.24566706, -0.17268285, -0.047703657, 0.15092331, 0.05400475, 0.131924, -0.13616034, 0.059123777, -0.08851495, 0.024732765, -0.1559854, 0.28947204, 0.2660252, 0.10317591, -0.076229855, -0.06103077, -0.27133188, 0.3761455, 0.15961316, -0.15590253, 0.113168076, -0.08290032, 0.16288622, -0.027571466, -0.12503728, -0.13720664, -0.016189389, 0.032227628, -0.180092, -0.3478746, 0.03996378, -0.107704625, 0.047696553, 0.093429685, -0.15950865, 0.23508044, 0.13932613, 0.151161, 0.03403734, 0.18958408, 0.09355797, -0.12120934, 0.33294377, -0.06769353, 0.15619501, -0.10612285, 0.009125192, -0.15507379, -0.24224423, 0.07061066, -0.18947291, -0.1675225, 0.24674343, -0.27101123, 0.045652762, -0.23606883, 0.012652239, 0.01665055, -0.037226442, 0.27499336, 0.052449428, -0.21495157, 0.10218164, 0.054530583, -0.1322604, -0.106125526, -0.060050912, -0.11091058, -0.0884396, 0.32434073, -0.022280663, 0.07457645, 0.036053825, -0.040796973, -0.08566528, 0.040484708, 0.041877266, -0.13141616, 0.0018160697, 0.058959756, 0.06662288, 0.08770331, -0.054088622, 0.029636398, -0.041727394, 0.1266655, 0.20883736, -0.027464524, -0.4145833, -0.24810599, -0.082196094, 0.15903166, -0.007931598, -0.12524265, -0.2808846, 0.041578036, 0.05310032, 0.052732695, -0.12106999, 0.22291613, 0.14694676, 0.13212621, -0.21102892, -0.11451224, -0.30428973, 0.41263375, 0.22482033, -0.12551963, -0.18703285, 0.16752526, 0.032109227, 0.20322733, -0.27381086, 0.06334998, 0.22226748, -0.01344148, -0.1169931, -0.41694215, -0.07084123, 0.053990424, 0.06738102, 0.10567945, -0.19388594, 0.017380677, 0.060687147, 0.13448466, -0.01529194, -0.12438642, -0.052101854, -0.11253169, 0.19488093, -0.084811255, -0.056178268, -0.25069034, 0.041889332, -0.2532273, -0.18202996, 0.046578623, -0.11972825, 0.12427363, 0.20895234, -0.22087611, -0.10498195, -0.16722143, 0.027159218, 0.15662855, -0.118521884, 0.09230728, -0.12104868, -0.10798776, 0.083112575, -0.038209546, -0.0552708, -0.11103254, -0.06266032, 0.12601405, -0.03270884, 0.21239702, 0.08473509, 0.019274399, 0.11725413, 0.012890831, -0.116523385, -0.121878505, 0.27709395, -0.028422581, 0.085119225, -0.034564164, 0.0236384, 0.114875115, 0.114913195, 0.19716607, -0.04472166, 0.03607324, 0.25440347, 0.034238096, -0.45870164, -0.032755084, 0.12458086, 0.17402883, -0.17533314, 0.08959379, -0.09890704, 0.11638837, 0.16646023, -0.10562069, 0.025557363, 0.1953318, 0.22286308, 0.22836503, -0.029308386, -0.026546441, -0.25709203, 0.2355646, 0.14429766, -0.080522664, -0.28206345, 0.2289374, 0.049279395, 0.1774947, -0.23704801, 0.032761563, 0.072758906, 0.20948353, 0.0057211053, -0.30497974, 0.05988886, 0.083758906, -0.12879057, -0.045555625, -0.1695634, 0.07042261, -0.041721746, 0.1934941, -0.14217018, -0.21239345, -0.089669645, 0.0136843985, 0.37287465, -0.14990956, 0.05970326, -0.098888524, 0.1863849, -0.17265692, -0.30805725, -0.0655607, -0.072353855, -0.107354224, 0.034317836, 0.07546629, 0.08576887, -0.1907716, -0.096602574, 0.12424569, 0.08956332, 0.12575942, 0.13897353, -0.08987235, -0.09419178, -0.078021154, 0.022370467, -0.11963373, -0.019491063, -0.06469017, -0.09446195, -0.15056787, 0.00919423, 0.11680727, 0.037005972, 0.2767272, 0.010727088, 0.071871005, 0.045939937, -0.009024808, -0.01144953, -0.21586215, -0.013163589, 0.23282608, 0.13545133, -0.06211541, -0.12965658, 0.14197667, 0.065353274, -0.063088834, -0.15261759, 0.09348099, 0.086052775, -0.00660542, -0.2631905, -0.037090577, -0.25599694, 0.06069359, 0.21725385, 0.23065822, -0.02242305, 0.20031096, 0.0059614806, 0.11693922, -0.024629258, 0.21719451, -0.17769001, 0.20890458, 0.09259191, -0.13377464, -0.049808227, 0.3477836, -0.25320837, 0.14587842, 0.05332843, 0.022597808, 0.14638059, 0.1950597, 0.09014598, -0.12860784, 0.06287282, -0.0106020365, -0.092447825, 0.17384376, -0.14044245, 0.0002841438, -0.03737399, 0.17639336, 0.02917324, -0.18737578, -0.104683734, -0.14368759, 0.28528678, -0.067735806, -0.09630251, 0.013330541, 0.06712791, -0.24066868, -0.1759125, -0.0023896154, -0.041312203, 0.07456135, 0.20703533, 0.09090281, -0.10034826, -0.07085881, -0.1334318, 0.17942615, -0.29356876, 0.026850514, 0.22519808, -0.060237445, -0.1962509, 0.066608086, 0.003926132, 0.14861825, 0.18114536, 0.06610967, -0.13942616, -0.2531141, -0.10260557, 0.16674376, 0.09313906, 0.3595637, -0.10640558, -0.12901133, 0.12894799, -0.095837414, 0.19089219, -0.20203996, 0.04251085, 0.27604145, 0.081797205, 0.1596812, -0.17504968, 0.205102, -0.030768566, -0.15730979, -0.17824972, 0.053006366, 0.17362729, 0.18785344, -0.1008735, 0.14085454, -0.07330147, 0.18451938, 0.26792645, -0.04257646, -0.05420846, -0.012368167, 0.05993138, -0.07538135, 0.22056311, 0.104639105, -0.08319102, 0.016267164, -0.13499431, -0.26363906, -0.120104, 0.07378686, 0.014182252, -0.11250248, 0.11313427, 0.11510904, 0.20941739, 0.2064251, 0.07699, 0.17337197, 0.09745771, -0.15110005, -0.090833694, 0.07519419, 0.1661983, -0.23518464, 0.016132396, 0.096013725, 0.0031640271, 0.049535494, -0.020024393, -0.019942671, 0.14637117, -0.2263615, -0.013877211, 0.06874399, 0.13495274, -0.059634823, -0.0757117, 0.04487065, 0.0115745375, 0.15462424, 0.16975075, 0.019103372, -0.09780238, -0.0069691427, -0.082949206, 0.04196358, -0.026000388, 0.19652383, -0.07812771, 0.085995056, 0.025841417, 0.03741961, -0.28323233, 0.20343272, 0.1973397, 0.08391233, -0.111593395, -0.33031055, -0.12185699, 0.14120962, -0.07051763, 0.23873378, 0.06723881, -0.19360863, 0.23219569, -0.17160526, 0.24384114, 0.026751498, -0.06081351, 0.19470021, -0.0840326, 0.16319889, -0.2591235, 0.02203703, -0.14425744, -0.15154816, -0.3438216, 0.06551994, -0.03293722, -0.0597446, -0.13870233, -0.053631593, -0.117624395, 0.20110756, 0.13756894, -0.027123684, -0.12936074, -0.08950377, 0.034812197, -0.013159038, 0.28236285, 0.20816761, -0.08338543, 0.17585032, -0.053876307, -0.15673034, 0.043334626, -0.1311719, 0.052425448, -0.12888081, -0.0038328068, 0.110818096, 0.20017496, 0.02742532, -0.16763267, 0.2710281, 0.082160614, -0.0136710815, -0.0002379333, 0.044934336, 0.07851383, -0.10254821, 0.14854857, -0.03381151, -0.07627629, -0.11021677, -0.20815383, 0.053378496, 0.04847748, -0.156929, -0.00503817, -0.056729853, 0.345887, -0.14358532, -0.23413044, 0.12522261, 0.020904338, -0.13595448, 0.11335729, -0.1123026, 0.18279508, 0.0039822594, 0.012887953, -0.08079338, -0.019589795, 0.13571845, 0.1343199, 0.0726059, -0.118492186, 0.12980042, -0.19078359, 0.059398104, -0.007346662, 0.052350685, 0.13980912, -0.13174528, 0.17807297, 0.1984439, 0.06897278, -0.030061645, 0.0063628447, -0.12750018, 0.27082863, -0.17976107, 0.16648304, -0.07623398, -0.019171448, 0.27921256, -0.037858944, 0.12566496, -0.1476178, 0.23842384, -0.007619186, 0.093172535, -0.05544603, 0.16873482, 0.038278423, -0.07621876, 0.11980099, -0.02774592, 0.07752781, 0.1552229, 0.1314635, 0.105584025, -0.24806827, -0.15722778, -0.08673004, -0.07400047, 0.056557655, 0.16160326, 0.041761473, -0.07828726, -0.080450796, -0.20109649, -0.08623364, -0.08772527, -0.067378536, 0.030847372, 0.17696267, -0.029021708, 0.112601005, 0.16175063, -0.020836718, 0.38358033, -0.02951711, 0.09157429, 0.12000049, -0.024193859, 0.24477623, -0.16900444, 0.06773587, 0.027586685, -0.12321688, 0.10012227, 0.060681105, -0.26291245, 0.053406566, -0.09022883, -0.045558702, 0.11760014, 0.16587569, -0.033737987, -0.0050844676, 0.039177973, 0.10565475, -0.04761264, 0.03915042, -0.28655782, 0.27452758, -0.1086571, 0.03379951, 0.101980746, -0.15195914, 0.1041642, 0.15901531, 0.07485453, 0.104523234, 0.03809747, -0.26870614, 0.17816475, 0.0464666, 0.15342547, -0.020845382, -0.12476898, 0.19367127, 0.20041013, 0.0408421, 0.044343557, 0.19533864, -0.27129236, 0.22029515, -0.1635791, 0.15033829, -0.090685405, -0.02517438, 0.32549468, -0.13823722, 0.09867066, -0.117145106, 0.058100577, -0.06555273, -0.010235276, -0.22286788, 0.14579771, -0.19271457, -0.14858007, 0.13037531, 0.24454856, -0.19938599,