#ifndef FANN_FANN_NET_H_
#define FANN_FANN_NET_H_

const enum fann_nettype_enum network_type = 0;

fann_neuron fann_neurons[112] = {{0, 0, 0.00000000000000000000e+00, 0}, {0, 0, 0.00000000000000000000e+00, 0}, {0, 0, 0.00000000000000000000e+00, 0}, {0, 0, 0.00000000000000000000e+00, 0}, {0, 0, 0.00000000000000000000e+00, 0}, {0, 0, 0.00000000000000000000e+00, 0}, {0, 6, 1.00000000000000000000e+00, 6}, {6, 12, 1.00000000000000000000e+00, 6}, {12, 18, 1.00000000000000000000e+00, 6}, {18, 24, 1.00000000000000000000e+00, 6}, {24, 30, 1.00000000000000000000e+00, 6}, {30, 36, 1.00000000000000000000e+00, 6}, {36, 42, 1.00000000000000000000e+00, 6}, {42, 48, 1.00000000000000000000e+00, 6}, {48, 54, 1.00000000000000000000e+00, 6}, {54, 60, 1.00000000000000000000e+00, 6}, {60, 66, 1.00000000000000000000e+00, 6}, {66, 72, 1.00000000000000000000e+00, 6}, {72, 78, 1.00000000000000000000e+00, 6}, {78, 84, 1.00000000000000000000e+00, 6}, {84, 90, 1.00000000000000000000e+00, 6}, {90, 96, 1.00000000000000000000e+00, 6}, {96, 102, 1.00000000000000000000e+00, 6}, {102, 108, 1.00000000000000000000e+00, 6}, {108, 114, 1.00000000000000000000e+00, 6}, {114, 120, 1.00000000000000000000e+00, 6}, {120, 126, 1.00000000000000000000e+00, 6}, {126, 132, 1.00000000000000000000e+00, 6}, {132, 138, 1.00000000000000000000e+00, 6}, {138, 144, 1.00000000000000000000e+00, 6}, {144, 150, 1.00000000000000000000e+00, 6}, {150, 156, 1.00000000000000000000e+00, 6}, {156, 162, 1.00000000000000000000e+00, 6}, {162, 168, 1.00000000000000000000e+00, 6}, {168, 174, 1.00000000000000000000e+00, 6}, {174, 180, 1.00000000000000000000e+00, 6}, {180, 186, 1.00000000000000000000e+00, 6}, {186, 192, 1.00000000000000000000e+00, 6}, {192, 198, 1.00000000000000000000e+00, 6}, {198, 204, 1.00000000000000000000e+00, 6}, {204, 210, 1.00000000000000000000e+00, 6}, {210, 216, 1.00000000000000000000e+00, 6}, {216, 222, 1.00000000000000000000e+00, 6}, {222, 228, 1.00000000000000000000e+00, 6}, {228, 234, 1.00000000000000000000e+00, 6}, {234, 240, 1.00000000000000000000e+00, 6}, {240, 246, 1.00000000000000000000e+00, 6}, {246, 252, 1.00000000000000000000e+00, 6}, {252, 258, 1.00000000000000000000e+00, 6}, {258, 264, 1.00000000000000000000e+00, 6}, {264, 270, 1.00000000000000000000e+00, 6}, {270, 276, 1.00000000000000000000e+00, 6}, {276, 282, 1.00000000000000000000e+00, 6}, {282, 288, 1.00000000000000000000e+00, 6}, {288, 294, 1.00000000000000000000e+00, 6}, {294, 300, 1.00000000000000000000e+00, 6}, {300, 300, 1.00000000000000000000e+00, 6}, {300, 351, 1.00000000000000000000e+00, 6}, {351, 402, 1.00000000000000000000e+00, 6}, {402, 453, 1.00000000000000000000e+00, 6}, {453, 504, 1.00000000000000000000e+00, 6}, {504, 555, 1.00000000000000000000e+00, 6}, {555, 606, 1.00000000000000000000e+00, 6}, {606, 657, 1.00000000000000000000e+00, 6}, {657, 708, 1.00000000000000000000e+00, 6}, {708, 759, 1.00000000000000000000e+00, 6}, {759, 810, 1.00000000000000000000e+00, 6}, {810, 861, 1.00000000000000000000e+00, 6}, {861, 912, 1.00000000000000000000e+00, 6}, {912, 963, 1.00000000000000000000e+00, 6}, {963, 1014, 1.00000000000000000000e+00, 6}, {1014, 1065, 1.00000000000000000000e+00, 6}, {1065, 1116, 1.00000000000000000000e+00, 6}, {1116, 1167, 1.00000000000000000000e+00, 6}, {1167, 1218, 1.00000000000000000000e+00, 6}, {1218, 1269, 1.00000000000000000000e+00, 6}, {1269, 1320, 1.00000000000000000000e+00, 6}, {1320, 1371, 1.00000000000000000000e+00, 6}, {1371, 1422, 1.00000000000000000000e+00, 6}, {1422, 1473, 1.00000000000000000000e+00, 6}, {1473, 1524, 1.00000000000000000000e+00, 6}, {1524, 1575, 1.00000000000000000000e+00, 6}, {1575, 1626, 1.00000000000000000000e+00, 6}, {1626, 1677, 1.00000000000000000000e+00, 6}, {1677, 1728, 1.00000000000000000000e+00, 6}, {1728, 1779, 1.00000000000000000000e+00, 6}, {1779, 1830, 1.00000000000000000000e+00, 6}, {1830, 1881, 1.00000000000000000000e+00, 6}, {1881, 1932, 1.00000000000000000000e+00, 6}, {1932, 1983, 1.00000000000000000000e+00, 6}, {1983, 2034, 1.00000000000000000000e+00, 6}, {2034, 2085, 1.00000000000000000000e+00, 6}, {2085, 2136, 1.00000000000000000000e+00, 6}, {2136, 2187, 1.00000000000000000000e+00, 6}, {2187, 2238, 1.00000000000000000000e+00, 6}, {2238, 2289, 1.00000000000000000000e+00, 6}, {2289, 2340, 1.00000000000000000000e+00, 6}, {2340, 2391, 1.00000000000000000000e+00, 6}, {2391, 2442, 1.00000000000000000000e+00, 6}, {2442, 2493, 1.00000000000000000000e+00, 6}, {2493, 2544, 1.00000000000000000000e+00, 6}, {2544, 2595, 1.00000000000000000000e+00, 6}, {2595, 2646, 1.00000000000000000000e+00, 6}, {2646, 2697, 1.00000000000000000000e+00, 6}, {2697, 2748, 1.00000000000000000000e+00, 6}, {2748, 2799, 1.00000000000000000000e+00, 6}, {2799, 2850, 1.00000000000000000000e+00, 6}, {2850, 2850, 1.00000000000000000000e+00, 6}, {2850, 2901, 1.00000000000000000000e+00, 6}, {2901, 2952, 1.00000000000000000000e+00, 6}, {2952, 3003, 1.00000000000000000000e+00, 6}, {3003, 3003, 1.00000000000000000000e+00, 6}};

fann_type fann_weights[3003] = {-1.73438079833984375000e+02, 4.27577667236328125000e+01, 3.84366683959960937500e+01, -6.68795928955078125000e+01, 4.17678184509277343750e+01, -8.21173286437988281250e+00, 1.25712135314941406250e+02, -4.01481056213378906250e+01, -2.25075645446777343750e+01, -5.60237360000610351562e+00, 1.78301792144775390625e+01, 3.93543853759765625000e+01, -2.52207061767578125000e+02, 3.74214447021484375000e+02, 3.83205749511718750000e+02, 1.48986840820312500000e+03, 1.50000000000000000000e+03, 1.47339221191406250000e+03, -3.03506866455078125000e+02, 3.15623893737792968750e+01, 4.42462882995605468750e+01, 6.55811523437500000000e+02, -2.43475914001464843750e+00, -2.38441410064697265625e+01, -1.48959985351562500000e+03, 5.99911560058593750000e+02, 5.92469055175781250000e+02, 1.38620434570312500000e+03, -1.49416259765625000000e+03, 1.49627221679687500000e+03, -3.33678741455078125000e+01, 3.60710263252258300781e+00, 4.14930820465087890625e+00, 4.63467178344726562500e+01, -2.90312061309814453125e+01, -6.63398551940917968750e+00, 1.49999621582031250000e+03, 2.45057861328125000000e+02, 2.44842910766601562500e+02, 1.44147448730468750000e+03, 1.48016955566406250000e+03, 1.41395654296875000000e+03, -1.56296676635742187500e+02, 6.36964836120605468750e+01, 3.79154014587402343750e+01, 1.38917068481445312500e+02, 1.77332324981689453125e+01, 4.19651794433593750000e+01, 1.18374679565429687500e+02, 3.58901858329772949219e+00, 9.22615528106689453125e+00, 1.94056320190429687500e+01, 1.04603866577148437500e+02, -3.03279819488525390625e+01, -7.21891021728515625000e+00, 5.92944240570068359375e+00, 7.73326492309570312500e+00, -3.98780021667480468750e+01, 3.89419841766357421875e+00, -1.12338151931762695312e+01, 1.58725097656250000000e+02, 6.21040611267089843750e+01, 6.79106750488281250000e+01, 5.06934852600097656250e+01, 5.25431365966796875000e+01, -1.96818768978118896484e+00, 1.86601054668426513672e+00, 3.50941963195800781250e+01, 3.68898124694824218750e+01, 1.24549682617187500000e+02, -5.95634984970092773438e+00, -4.91073799133300781250e+01, 2.58258113861083984375e+01, 1.41281390190124511719e+00, -3.91193270683288574219e+00, 9.24230499267578125000e+01, -4.37980575561523437500e+01, -3.41227626800537109375e+00, 5.34531745910644531250e+01, -4.92002201080322265625e+00, -1.01425580978393554688e+01, 1.02018371582031250000e+02, 1.46744415283203125000e+02, -2.40710411071777343750e+01, 1.67554931640625000000e+02, 5.13743352890014648438e+00, 1.35567808151245117188e+01, -5.77906951904296875000e+01, 5.19376640319824218750e+01, 1.82954730987548828125e+01, 1.32513809204101562500e+02, -8.32771835327148437500e+01, -7.31350021362304687500e+01, 1.55720443725585937500e+02, 8.38256759643554687500e+01, 4.80815315246582031250e+01, 2.82845344543457031250e+01, 4.98398818969726562500e+01, 7.87082595825195312500e+01, 1.61756286621093750000e+02, -1.36840848922729492188e+01, 1.25039205551147460938e+01, 1.49293237304687500000e+03, 2.95270324707031250000e+02, 8.99591796875000000000e+02, 1.49104663085937500000e+03, 1.05698730468750000000e+03, 4.72160263061523437500e+01, -9.61950073242187500000e+01, 9.34961414337158203125e+00, 2.00569114685058593750e+01, 9.92660140991210937500e+01, -7.06697225570678710938e+00, 1.42021245956420898438e+01, -3.79433380126953125000e+02, -6.99548873901367187500e+01, -8.83461532592773437500e+01, -1.57418838500976562500e+02, 7.63607635498046875000e+01, 1.17837476730346679688e+01, 1.23191719055175781250e+02, -1.09767448425292968750e+02, -1.08884407043457031250e+02, 2.36330230712890625000e+02, 4.56382369995117187500e+01, -1.02981252670288085938e+01, 9.59892654418945312500e+01, 1.62514297485351562500e+02, 1.91576965332031250000e+02, 1.94351867675781250000e+02, -5.37954826354980468750e+01, -1.65264797210693359375e+00, -4.61718444824218750000e+02, 2.52347774505615234375e+01, 2.31174755096435546875e+01, 5.21845779418945312500e+01, 2.99611225128173828125e+01, 2.29712696075439453125e+01, -1.14824577331542968750e+02, 3.99224090576171875000e+01, 5.22371292114257812500e+01, -1.55324249267578125000e+01, 7.30634613037109375000e+01, 4.21506614685058593750e+01, 4.48498115539550781250e+01, 1.59592971801757812500e+01, 1.54247522354125976562e+01, -5.60667381286621093750e+01, 3.83166527748107910156e+00, 1.68150157928466796875e+01, 5.94395446777343750000e+01, -8.74607467651367187500e+00, -4.45996475219726562500e+00, -6.04710731506347656250e+01, 3.96366271972656250000e+01, 1.98465900421142578125e+01, -2.15604534149169921875e+01, -4.79779529571533203125e+00, -1.81614284515380859375e+01, -2.42573299407958984375e+01, -1.60434417724609375000e+01, -1.83311653137207031250e+01, -1.54270889282226562500e+02, 6.31529569625854492188e+00, 1.41734771728515625000e+01, -2.39940071105957031250e+01, 8.08095855712890625000e+01, 4.01274833679199218750e+01, -7.09722948074340820312e+00, 1.37486740112304687500e+02, 1.44507232666015625000e+02, -3.86513557434082031250e+01, 5.18144302368164062500e+01, 1.74650173187255859375e+01, -1.05069152832031250000e+02, 1.69477596282958984375e+01, 1.73871097564697265625e+01, -1.10279052734375000000e+02, 3.10231342315673828125e+01, -1.22562551498413085938e+00, 3.32420745849609375000e+02, 4.65940818786621093750e+01, 6.01382179260253906250e+01, -8.23422851562500000000e+01, 5.71740531921386718750e+01, -2.86716079711914062500e+00, -4.01724014282226562500e+01, -1.95976581573486328125e+01, -1.61433639526367187500e+01, -3.95908279418945312500e+01, -2.20472469329833984375e+01, 1.01305932998657226562e+01, -1.50976257324218750000e+02, 1.63879966735839843750e+01, 1.43839597702026367188e+01, 1.17212495803833007812e+01, -3.20378036499023437500e+01, 1.28547155857086181641e+00, 1.14784688949584960938e+01, 1.02331590652465820312e+01, 3.80855598449707031250e+01, -1.35351608276367187500e+02, -2.73627357482910156250e+01, 1.19211912155151367188e+01, 1.25806617736816406250e+02, 1.57708196640014648438e+01, 1.38921213150024414062e+01, -1.12115631103515625000e+02, 1.11371406555175781250e+02, 6.35793161392211914062e+00, 1.83223876953125000000e+02, -1.96037063598632812500e+01, 5.82093000411987304688e+00, -1.22623619079589843750e+02, -7.68091082572937011719e-01, 3.11990880966186523438e+00, 1.49953344726562500000e+03, 2.60439422607421875000e+02, 2.52428192138671875000e+02, 9.62417114257812500000e+02, 3.75964622497558593750e+01, -4.28349418640136718750e+01, 1.55316192626953125000e+02, 1.45531478881835937500e+02, -1.26767501831054687500e+02, -2.19512207031250000000e+02, 1.06253826618194580078e+00, 1.21427478790283203125e+01, -1.05087121582031250000e+03, 1.47571020507812500000e+03, 1.47332055664062500000e+03, 4.36274627685546875000e+02, 4.02389739990234375000e+02, 1.43228125000000000000e+03, 1.20641777038574218750e+02, -1.08179979324340820312e+01, -2.21218109130859375000e+01, 1.17923316955566406250e+02, 4.03696060180664062500e+01, 2.96393013000488281250e+01, 4.67236053466796875000e+02, -4.52307815551757812500e+01, -4.26566085815429687500e+01, 2.68915985107421875000e+02, 1.01156711578369140625e+01, -3.78125305175781250000e+01, 1.49996386718750000000e+03, -3.65313232421875000000e+02, -9.28892150878906250000e+02, -3.73199493408203125000e+02, -1.45145214843750000000e+03, 1.49200146484375000000e+03, 4.01437568664550781250e+01, 4.33956680297851562500e+01, 3.54612388610839843750e+01, 5.91226997375488281250e+01, -5.31268310546875000000e+01, 6.97762155532836914062e+00, -7.04331731796264648438e+00, 8.53064298629760742188e-01, 1.45580852031707763672e+00, 6.16569900512695312500e+01, 5.41527986526489257812e+00, -1.20345735549926757812e+01, -7.09385757446289062500e+01, 3.88963627815246582031e+00, 1.33578691482543945312e+01, -2.68691741943359375000e+02, 4.53222389221191406250e+01, -2.96331653594970703125e+01, -3.58702697753906250000e+01, -1.60060520172119140625e+01, -1.65883655548095703125e+01, 1.11067626953125000000e+02, -3.21380767822265625000e+01, 5.35828304290771484375e+00, 1.69620803833007812500e+02, -2.25262565612792968750e+01, -2.24189014434814453125e+01, -3.63294143676757812500e+01, 6.51434946060180664062e+00, 3.80118668079376220703e-01, -4.02089614868164062500e+01, -3.76610374450683593750e+01, -5.49913749694824218750e+01, -3.00366020202636718750e+01, -2.04215927124023437500e+01, -1.55866394042968750000e+01, 1.36599768066406250000e+03, 1.28142224121093750000e+03, 1.28494445800781250000e+03, 1.49148779296875000000e+03, 1.49997387695312500000e+03, 1.48176843261718750000e+03, 3.13436546325683593750e+01, 6.92801437377929687500e+01, 4.71897125244140625000e+01, -1.03303855895996093750e+02, -1.91239013671875000000e+02, 6.26473486423492431641e-01, -1.47383325195312500000e+03, -5.69672424316406250000e+02, -1.48839294433593750000e+03, -1.47745507812500000000e+03, 1.37794152832031250000e+03, 1.05123252868652343750e+02, -1.42225964355468750000e+03, -1.50000000000000000000e+03, -3.55839019775390625000e+02, -6.90133728027343750000e+02, -1.50000000000000000000e+03, 1.31509167480468750000e+03, -1.50000000000000000000e+03, -1.45606018066406250000e+03, 1.48557604980468750000e+03, 1.19333691406250000000e+03, 1.47331799316406250000e+03, 5.81461791992187500000e+02, 9.13910598754882812500e+01, 1.43749182128906250000e+03, -1.34944335937500000000e+03, 1.50000000000000000000e+03, 1.50000000000000000000e+03, -6.53288803100585937500e+01, -7.32224365234375000000e+02, 1.49524255371093750000e+03, -1.41432690429687500000e+03, -8.53506042480468750000e+02, -1.47605725097656250000e+03, 6.54594482421875000000e+02, 1.46388574218750000000e+03, 7.67918884277343750000e+02, -1.96925796508789062500e+02, -3.90146118164062500000e+02, 1.28704910278320312500e+02, 1.50000000000000000000e+03, 1.37086669921875000000e+03, 1.27889672851562500000e+03, 1.49813183593750000000e+03, -8.69094238281250000000e+02, 2.00101898193359375000e+02, -5.11015075683593750000e+02, -1.45861962890625000000e+03, 1.50000000000000000000e+03, 1.50000000000000000000e+03, -1.15369482421875000000e+03, -1.16992871093750000000e+03, 1.43028076171875000000e+03, 3.63268463134765625000e+02, -2.87199890136718750000e+02, 1.83668956756591796875e+01, -1.50000000000000000000e+03, 3.20894958496093750000e+02, -1.44877087402343750000e+03, -1.09049842834472656250e+02, 1.49827343750000000000e+03, 6.56879699707031250000e+02, -1.48988867187500000000e+03, -1.44682336425781250000e+03, -1.20424694824218750000e+03, -1.26769506835937500000e+03, 1.16536535644531250000e+03, 1.47842346191406250000e+03, -1.50000000000000000000e+03, -1.42612585449218750000e+03, -9.19444091796875000000e+02, -1.47540063476562500000e+03, 8.99601623535156250000e+02, -1.48835205078125000000e+03, 1.45860388183593750000e+03, -1.42780847167968750000e+03, -1.31561572265625000000e+03, 1.49999499511718750000e+03, 1.48859509277343750000e+03, -1.39043518066406250000e+03, 1.49991125488281250000e+03, -1.49735461425781250000e+03, -4.19082763671875000000e+02, -9.01920104980468750000e+02, 1.25903662109375000000e+03, 5.47410156250000000000e+02, -1.20012463378906250000e+03, -1.47417004394531250000e+03, -1.43015856933593750000e+03, -8.71616516113281250000e+02, 1.36629711914062500000e+03, 1.35980017089843750000e+03, 2.13250320434570312500e+02, -1.46910229492187500000e+03, -1.24669873046875000000e+03, -1.46500573730468750000e+03, 1.31857437133789062500e+02, -4.27505111694335937500e+01, 1.41551916503906250000e+03, 1.50000000000000000000e+03, 1.49044445800781250000e+03, -7.48631591796875000000e+02, 1.12365075683593750000e+03, 7.39171569824218750000e+02, 6.49195312500000000000e+02, 4.07578155517578125000e+02, 1.42314483642578125000e+02, -1.50000000000000000000e+03, 1.50000000000000000000e+03, -1.48003955078125000000e+03, 8.84476867675781250000e+02, 7.57136352539062500000e+02, -1.49473986816406250000e+03, 2.88292266845703125000e+02, -1.45348059082031250000e+03, 1.48722619628906250000e+03, -1.50000000000000000000e+03, 4.98613677978515625000e+02, 1.49919519042968750000e+03, -1.80442642211914062500e+02, 5.62241943359375000000e+02, -1.42938537597656250000e+03, -1.44662451171875000000e+03, -1.45153759765625000000e+03, -9.02441223144531250000e+02, 1.48673278808593750000e+03, 6.26443542480468750000e+02, -1.50000000000000000000e+03, 1.13042541503906250000e+03, 1.18035961914062500000e+03, -1.48309020996093750000e+03, 1.49780078125000000000e+03, -1.47500000000000000000e+03, 1.46063244628906250000e+03, 1.41105407714843750000e+03, -1.67571228027343750000e+02, -1.09065344238281250000e+03, -1.40889184570312500000e+03, 1.35477600097656250000e+03, -1.42088000488281250000e+03, -8.66140502929687500000e+02, 1.49967395019531250000e+03, 1.50000000000000000000e+03, 1.41726538085937500000e+03, -1.49839135742187500000e+03, 3.94794342041015625000e+02, 1.50000000000000000000e+03, 1.48291516113281250000e+03, -5.16455078125000000000e+02, 4.79423828125000000000e+02, -1.45902307128906250000e+03, -8.56195800781250000000e+02, 1.45644790649414062500e+02, 1.27052404785156250000e+03, -6.03880798339843750000e+02, -5.31698730468750000000e+02, -1.44671423339843750000e+03, 4.99495124816894531250e+00, -1.35148668289184570312e+01, 3.80788993835449218750e+01, 6.72803421020507812500e+01, -1.13601058959960937500e+02, -1.91793785095214843750e+01, 7.73289108276367187500e+01, 3.83572883605957031250e+01, 2.08768653869628906250e+01, 7.52353744506835937500e+01, -7.43984069824218750000e+01, -2.00836410522460937500e+01, -7.96289138793945312500e+01, -2.22265872955322265625e+01, -1.00308780670166015625e+01, 3.59853019714355468750e+01, 7.16825056076049804688e+00, -6.54340934753417968750e+00, 4.50846519470214843750e+01, 1.44266525268554687500e+02, -2.79879550933837890625e+01, 1.62447662353515625000e+01, -5.63759384155273437500e+01, 5.04119453430175781250e+01, 2.35640072822570800781e+00, 1.52058572769165039062e+01, 5.40346717834472656250e+00, -7.54472579956054687500e+01, 2.52689819335937500000e+01, -1.01543664932250976562e+01, -9.80807800292968750000e+01, -7.04050481319427490234e-01, -2.39900379180908203125e+01, -4.17591323852539062500e+01, 1.67320899963378906250e+01, 5.94310808181762695312e+00, 7.69176177978515625000e+01, 6.59246397018432617188e+00, -1.09989624023437500000e+02, -4.09716033935546875000e+01, -7.71485185623168945312e+00, -3.81362104415893554688e+00, -3.02984905242919921875e+01, -1.56594753265380859375e+01, 9.98122634887695312500e+01, -5.64273910522460937500e+01, -4.13951759338378906250e+01, -2.19678100585937500000e+02, 7.72009201049804687500e+01, -4.64184284210205078125e+00, 1.42914667129516601562e+01, 8.52486801147460937500e+00, -1.50000000000000000000e+03, 1.50000000000000000000e+03, -7.87051391601562500000e+02, -1.48562121582031250000e+03, 1.46812390136718750000e+03, -1.50000000000000000000e+03, 1.13873589038848876953e+00, -1.41020202636718750000e+03, 1.49999707031250000000e+03, -1.50000000000000000000e+03, 1.38686743164062500000e+03, 1.49993237304687500000e+03, -1.33783398437500000000e+03, -1.30328356933593750000e+03, -9.01085083007812500000e+02, -1.30454077148437500000e+03, -1.24915429687500000000e+03, -1.33122888183593750000e+03, 1.18354040527343750000e+03, 1.40872167968750000000e+03, -1.50000000000000000000e+03, 5.41212463378906250000e+02, 1.31090612792968750000e+03, -1.55901245117187500000e+02, 1.49983728027343750000e+03, -1.50000000000000000000e+03, -2.47475982666015625000e+02, -1.06898828125000000000e+03, -6.94113403320312500000e+02, -1.44050646972656250000e+03, -8.73847290039062500000e+02, 1.43578662109375000000e+03, -3.37698944091796875000e+02, 1.10037467956542968750e+02, 1.49976049804687500000e+03, 1.50000000000000000000e+03, 1.49540307617187500000e+03, -5.51024108886718750000e+02, -1.34976196289062500000e+03, 8.66842224121093750000e+02, -1.36477856445312500000e+03, 1.23417126464843750000e+03, 1.16726806640625000000e+03, 7.71569824218750000000e+02, -1.50000000000000000000e+03, -1.28187850952148437500e+02, -5.96904663085937500000e+02, 1.49467480468750000000e+03, -1.03423767089843750000e+03, -1.46032849121093750000e+03, -6.44128513336181640625e+00, -1.50000000000000000000e+03, 1.49204492187500000000e+03, 1.37257348632812500000e+03, -1.48889233398437500000e+03, -1.39690283203125000000e+03, -1.50000000000000000000e+03, -1.42841357421875000000e+03, -1.43449658203125000000e+03, 1.49961706542968750000e+03, -1.50000000000000000000e+03, 1.49994274902343750000e+03, 1.49988854980468750000e+03, -1.50000000000000000000e+03, 9.02523376464843750000e+02, -1.20359094238281250000e+03, -1.46696105957031250000e+03, -1.49051403808593750000e+03, -1.49962353515625000000e+03, 1.50000000000000000000e+03, -1.40917358398437500000e+03, -5.98783630371093750000e+02, 1.45336523437500000000e+03, 5.12494140625000000000e+02, -1.48069580078125000000e+03, 1.09904614257812500000e+03, -1.50000000000000000000e+03, -1.42403771972656250000e+03, -1.40887829589843750000e+03, 1.45804504394531250000e+03, 6.25156494140625000000e+02, 5.29480056762695312500e+01, 3.47269409179687500000e+02, -1.38590014648437500000e+03, 4.83695129394531250000e+02, 9.99373840332031250000e+02, 1.50000000000000000000e+03, -8.65274719238281250000e+02, 9.55374633789062500000e+02, -1.48322106933593750000e+03, -1.14226696777343750000e+03, -1.46051684570312500000e+03, -6.03924102783203125000e+01, -1.47107983398437500000e+03, 1.49995678710937500000e+03, 1.34515747070312500000e+02, -5.92545043945312500000e+02, 1.48344458007812500000e+03, -1.69098220825195312500e+02, 1.78679122924804687500e+02, -1.49414562988281250000e+03, -8.16180847167968750000e+02, 2.13003692626953125000e+01, 7.05163049697875976562e+00, 6.35158996582031250000e+01, 2.29808282852172851562e+00, -2.60367717742919921875e+01, -4.39267730712890625000e+00, 1.13974714279174804688e+01, 1.44486999511718750000e+02, 6.08982467651367187500e+01, -6.51230087280273437500e+01, 5.41349220275878906250e+00, 3.07807981967926025391e-01, -6.80970382690429687500e+01, 5.98305168151855468750e+01, 1.16794576644897460938e+01, 8.81749801635742187500e+01, 5.42943534851074218750e+01, 4.78830871582031250000e+01, -1.66328506469726562500e+01, 2.52738618850708007812e+00, 2.03760848999023437500e+02, -5.46903610229492187500e+01, 6.62449955940246582031e-01, 6.99022293090820312500e+01, -5.11306495666503906250e+01, -1.05044927597045898438e+01, 2.00928630828857421875e+01, 2.21822261810302734375e+01, 5.37431335449218750000e+01, 2.43057689666748046875e+01, 5.54135513305664062500e+01, 2.08231658935546875000e+02, 3.43811492919921875000e+01, 8.17998275756835937500e+01, 5.23786277770996093750e+01, -1.48080701828002929688e+01, 9.80163650512695312500e+01, 6.68735351562500000000e+01, -1.50816860198974609375e+01, 6.94004745483398437500e+01, -5.87127952575683593750e+01, -1.64027843475341796875e+01, -7.69468212127685546875e+00, -5.00316238403320312500e+00, 1.45391769409179687500e+02, 2.40901260375976562500e+01, 1.93469436645507812500e+02, -5.44814467430114746094e-01, 1.47962417602539062500e+01, -5.27493476867675781250e+01, 2.87409281730651855469e+00, 1.50000000000000000000e+03, 6.23714843750000000000e+02, 2.15560317993164062500e+02, 1.42622705078125000000e+03, 2.57840820312500000000e+02, 1.50000000000000000000e+03, 1.49628869628906250000e+03, 1.47078149414062500000e+03, -1.49995642089843750000e+03, 1.50000000000000000000e+03, -1.39319689941406250000e+03, 1.40090722656250000000e+03, 1.50000000000000000000e+03, 1.50000000000000000000e+03, 1.49988854980468750000e+03, -2.29838211059570312500e+02, 1.49875720214843750000e+03, 6.32380310058593750000e+02, -1.49103979492187500000e+03, -3.58311981201171875000e+02, 8.70252624511718750000e+02, -1.44668798828125000000e+03, -1.08016992187500000000e+03, -1.37330493164062500000e+03, 4.08956481933593750000e+02, 1.50000000000000000000e+03, 1.42706762695312500000e+03, 1.00401745605468750000e+03, 1.49843029785156250000e+03, 1.45058374023437500000e+03, -9.93822692871093750000e+02, 1.46000268554687500000e+03, 1.15603503417968750000e+03, 1.50000000000000000000e+03, -1.40816027832031250000e+03, -1.50000000000000000000e+03, -1.47944104003906250000e+03, 1.29592736816406250000e+03, 1.49369616699218750000e+03, -6.31571716308593750000e+02, 1.45923168945312500000e+03, -1.09710151672363281250e+02, 1.49988500976562500000e+03, -1.50000000000000000000e+03, -1.91077362060546875000e+02, 1.30472973632812500000e+03, 1.43568334960937500000e+03, -1.46253576660156250000e+03, -5.13415466308593750000e+02, 1.33575646972656250000e+03, 2.12174034118652343750e+01, -3.62565307617187500000e+02, 8.09780700683593750000e+02, -1.48014807128906250000e+03, 1.49817626953125000000e+03, 1.49999707031250000000e+03, 7.35145629882812500000e+02, -1.36170703125000000000e+03, -1.37142492675781250000e+03, 1.49045422363281250000e+03, -1.49963793945312500000e+03, 1.50000000000000000000e+03, 1.49753637695312500000e+03, 1.50000000000000000000e+03, 1.02852172851562500000e+03, -1.19243847656250000000e+03, 1.51908950805664062500e+02, -1.39206225585937500000e+03, -1.26932568359375000000e+03, 1.49190124511718750000e+03, 1.42378710937500000000e+03, -1.29267468261718750000e+03, -1.50000000000000000000e+03, -1.22115625000000000000e+03, -1.48122460937500000000e+03, 1.49370214843750000000e+03, -1.45013647460937500000e+03, 1.49965356445312500000e+03, 7.62106140136718750000e+02, 5.76434631347656250000e+02, -1.48503503417968750000e+03, -1.05700646972656250000e+03, 1.22819030761718750000e+03, -1.33676684570312500000e+03, 1.50000000000000000000e+03, -1.02617333984375000000e+03, -1.39937939453125000000e+03, 1.23260998535156250000e+03, 1.18700366210937500000e+03, -8.29044982910156250000e+02, -1.39303845214843750000e+03, 1.49612707519531250000e+03, 2.08414707183837890625e+01, 8.32513854980468750000e+02, -1.50000000000000000000e+03, -1.50000000000000000000e+03, -4.72252044677734375000e+02, 4.79715332031250000000e+02, 9.58424255371093750000e+02, 1.50000000000000000000e+03, -1.44528845214843750000e+03, -1.87853920459747314453e+00, 1.12790403366088867188e+01, -1.15511665344238281250e+01, -6.12418556213378906250e+00, -1.28358020782470703125e+01, -5.68211603164672851562e+00, 4.77333498001098632812e+00, 1.79437675476074218750e+01, -2.91541080474853515625e+01, 1.35181531906127929688e+01, 4.13115196228027343750e+01, -1.34490509033203125000e+01, 8.06920814514160156250e+00, 1.50031614303588867188e+01, -3.36139945983886718750e+01, -5.03683471679687500000e+01, -3.98738002777099609375e+00, -1.06338758468627929688e+01, 7.85461044311523437500e+00, 3.39482045173645019531e+00, 1.70000343322753906250e+01, 9.18614673614501953125e+00, 2.38183212280273437500e+01, 2.79983258247375488281e+00, 1.64057862758636474609e+00, 7.97740859985351562500e+01, 8.22534103393554687500e+01, 1.21648979187011718750e+01, 5.89132356643676757812e+00, -3.01461658477783203125e+01, 4.45233631134033203125e+00, 3.90899276733398437500e+01, 4.40548019409179687500e+01, -9.43177700042724609375e+00, 1.96144104003906250000e+01, 3.62254600524902343750e+01, 1.87035045623779296875e+01, 4.70360527038574218750e+01, -1.54823756217956542969e+00, -7.50690412521362304688e+00, -7.95588064193725585938e+00, -1.13465032577514648438e+01, 4.13750791549682617188e+00, -4.45430278778076171875e+00, 1.62190208435058593750e+01, 7.15441131591796875000e+01, 1.06049489974975585938e+00, -4.70359268188476562500e+01, 1.06352128982543945312e+01, -2.89416275024414062500e+01, 2.56758842468261718750e+01, 7.13303613662719726562e+00, -2.41608703613281250000e+02, 1.46682922363281250000e+03, -1.45816430664062500000e+03, 1.49790405273437500000e+03, 2.55345428466796875000e+02, -1.50000000000000000000e+03, -1.42228283691406250000e+03, 1.49992480468750000000e+03, -7.22651977539062500000e+02, -1.50000000000000000000e+03, 1.48008215332031250000e+03, 5.13970718383789062500e+01, -6.67918457031250000000e+02, 1.49616955566406250000e+03, 1.48875183105468750000e+03, -5.65398742675781250000e+02, -1.29371667480468750000e+03, 4.88504089355468750000e+02, 1.22985449218750000000e+03, -1.43166345214843750000e+03, -8.26805725097656250000e+02, 1.40269689941406250000e+03, 1.31203137207031250000e+03, 7.10111267089843750000e+02, 1.49562890625000000000e+03, -1.50000000000000000000e+03, 1.49975585937500000000e+03, 6.82513610839843750000e+02, -4.00080444335937500000e+02, -1.46271630859375000000e+03, -1.44773352050781250000e+03, 1.47733996582031250000e+03, -9.83204956054687500000e+02, 1.47708166503906250000e+03, -1.36892614746093750000e+03, 3.19557800292968750000e+02, 1.44458056640625000000e+03, -1.48449121093750000000e+03, 7.37802612304687500000e+02, -7.18765625000000000000e+02, -1.32928442382812500000e+03, 8.84960083007812500000e+02, -8.16817016601562500000e+01, -1.37967858886718750000e+03, -6.93254760742187500000e+02, 1.01202832031250000000e+03, -7.51335083007812500000e+02, 1.45052099609375000000e+03, 1.43189184570312500000e+03, -1.47672766113281250000e+03, -2.76210999488830566406e+00, 1.41979150390625000000e+03, -1.66242599487304687500e+02, 4.47646759033203125000e+02, 7.61872100830078125000e+01, -1.47421972656250000000e+03, 1.56322280883789062500e+02, 2.39934341430664062500e+02, 1.49990759277343750000e+03, -1.33600561523437500000e+03, 9.56079223632812500000e+02, -3.02261535644531250000e+02, -1.44320288085937500000e+03, -2.42740203857421875000e+02, 1.49390942382812500000e+03, 1.32844323730468750000e+03, 7.37903564453125000000e+02, 1.18524926757812500000e+03, 7.29049499511718750000e+02, -1.39405114746093750000e+03, 1.49780224609375000000e+03, 1.46431030273437500000e+03, 2.89753326416015625000e+02, 1.02592651367187500000e+03, 1.49466296386718750000e+03, -1.29141162109375000000e+03, 1.46433972167968750000e+03, 9.65891662597656250000e+02, -1.29735998535156250000e+03, 1.21170666503906250000e+03, 1.49647387695312500000e+03, 1.46935864257812500000e+03, -1.03606042480468750000e+03, 1.49607189941406250000e+03, 5.23182189941406250000e+02, -8.07120056152343750000e+02, -6.71580627441406250000e+02, -1.38293200683593750000e+03, 1.36290832519531250000e+03, 9.15178527832031250000e+02, 8.94007385253906250000e+02, 1.49920324707031250000e+03, 3.05557891845703125000e+02, 5.01564331054687500000e+02, -1.95306884765625000000e+02, -2.08583480834960937500e+02, 1.43126745605468750000e+03, 1.49622351074218750000e+03, -6.87027709960937500000e+02, -1.03615869140625000000e+03, 1.47582922363281250000e+03, -6.02705240249633789062e+00, 1.63643417358398437500e+01, 6.56449356079101562500e+01, -1.93701038360595703125e+01, 3.83151092529296875000e+01, 2.05297183990478515625e+00, -1.73893871307373046875e+01, 2.33667325973510742188e+00, 6.70493240356445312500e+01, -4.84259376525878906250e+01, 9.25528717041015625000e+01, -1.74948673248291015625e+01, -1.29974546432495117188e+01, 5.48953704833984375000e+01, 4.10269851684570312500e+01, 2.05078387260437011719e+00, -1.58329277038574218750e+01, -2.16523990631103515625e+01, 2.88951854705810546875e+01, 4.88666419982910156250e+01, 3.44881248474121093750e+01, 9.57619323730468750000e+01, 3.11581344604492187500e+01, -3.64114189147949218750e+01, 2.15723228454589843750e+01, 5.57249183654785156250e+01, 1.25966720581054687500e+02, 2.97186717987060546875e+01, 9.78225479125976562500e+01, 1.21073236465454101562e+01, 4.82019882202148437500e+01, -8.41008567810058593750e+00, -6.18724937438964843750e+01, 6.72793865203857421875e+00, -3.08176765441894531250e+01, 3.22245903015136718750e+01, 1.69071788787841796875e+01, -9.89280605316162109375e+00, 2.50942468643188476562e+00, -1.43991813063621520996e-01, 3.53823051452636718750e+01, 6.01557922363281250000e+01, 9.43313407897949218750e+00, -3.75490989685058593750e+01, -1.00986261367797851562e+01, -3.04621791839599609375e+01, 6.63351287841796875000e+01, 5.13408813476562500000e+01, 7.09803438186645507812e+00, -4.96112012863159179688e+00, -1.77680397033691406250e+01, 3.28473353385925292969e+00, -2.02021255493164062500e+01, -2.75308628082275390625e+01, -2.81361103057861328125e+01, 1.60579395294189453125e+01, -5.26727724075317382812e+00, 3.30144996643066406250e+01, 2.17910556793212890625e+01, 2.42138576507568359375e+01, 2.33268756866455078125e+01, 1.37795547485351562500e+02, 2.58511519432067871094e+00, -3.70941963195800781250e+01, 1.45117731094360351562e+01, -3.17514610290527343750e+01, 7.92357730865478515625e+00, -2.37548255920410156250e+01, -3.64215049743652343750e+01, 5.53352813720703125000e+01, 1.09804168701171875000e+02, 5.51783905029296875000e+01, 8.23180556297302246094e-01, 3.19290962219238281250e+01, 1.57119922637939453125e+01, 2.12591915130615234375e+01, 1.16717041015625000000e+02, 1.47698431015014648438e+01, -3.03796815872192382812e+00, -2.48780288696289062500e+01, 2.82196083068847656250e+01, 4.65521354675292968750e+01, -1.48019752502441406250e+01, 6.63721895217895507812e+00, -1.38259019851684570312e+01, -5.20112180709838867188e+00, 7.19291229248046875000e+01, 1.89830932617187500000e+01, 4.75260658264160156250e+01, 8.67934703826904296875e+00, 2.36442832946777343750e+01, 2.79369888305664062500e+01, 3.48624563217163085938e+00, 8.95525836944580078125e+00, -5.25743026733398437500e+01, 4.68703269958496093750e-01, -2.23209743499755859375e+01, 2.94360427856445312500e+01, -3.38158416748046875000e+01, -1.28401145935058593750e+01, -1.52874498367309570312e+01, -3.70076408386230468750e+01, 4.84432077407836914062e+00, -5.49876060485839843750e+01, 1.70231685638427734375e+01, 2.05078887939453125000e+01, -2.93399677276611328125e+01, 8.69297885894775390625e+00, -2.93032002449035644531e+00, 1.50419206619262695312e+01, -1.36787567138671875000e+01, 1.02960872650146484375e+01, -5.09056746959686279297e-01, 2.56067276000976562500e+01, -1.37727200984954833984e+00, -8.01654624938964843750e+00, -1.05977010726928710938e+01, 2.72388381958007812500e+01, 2.31163048744201660156e+00, -1.35784292221069335938e+01, 2.15121517181396484375e+01, 2.51761341094970703125e+01, -1.63385653495788574219e+00, 3.25920867919921875000e+01, 8.61479187011718750000e+00, -8.33357143402099609375e+00, 1.55828123092651367188e+01, 3.38220138549804687500e+01, 2.00507488250732421875e+01, -2.84308967590332031250e+01, 2.19115734100341796875e+01, -8.58463001251220703125e+00, -3.52359695434570312500e+01, 2.42776679992675781250e+01, -5.35786914825439453125e+00, 4.42791223526000976562e+00, -1.72208919525146484375e+01, 1.52957344055175781250e+01, 3.41884689331054687500e+01, 1.25049333572387695312e+01, -2.18098621368408203125e+01, 1.03714666366577148438e+01, 5.32204914093017578125e+00, 1.11988439559936523438e+01, 4.16924238204956054688e+00, -2.86083889007568359375e+01, 7.50529174804687500000e+01, 2.52317452430725097656e+00, -3.09963302612304687500e+01, -4.04453506469726562500e+01, 4.21996450424194335938e+00, -2.78730659484863281250e+01, 1.08511857986450195312e+01, 3.38026022911071777344e+00, -1.46850317382812500000e+03, 1.32210351562500000000e+03, 1.50000000000000000000e+03, -1.29383813476562500000e+03, 1.49432995605468750000e+03, -1.24827380371093750000e+03, -1.43077966308593750000e+03, -1.50000000000000000000e+03, 1.49995825195312500000e+03, 1.38892126464843750000e+03, -1.33283642578125000000e+03, -2.39565002441406250000e+02, -1.50000000000000000000e+03, -1.50000000000000000000e+03, -1.36549987792968750000e+03, 1.49989306640625000000e+03, 1.49987988281250000000e+03, -1.36062548828125000000e+03, 1.43379882812500000000e+03, 1.25192590332031250000e+03, -1.41660229492187500000e+03, 1.43166943359375000000e+03, 1.44857690429687500000e+03, 8.97695983886718750000e+02, 1.49987719726562500000e+03, -8.27367736816406250000e+02, -1.34825158691406250000e+03, -1.47341577148437500000e+03, -1.36859680175781250000e+03, -3.36168823242187500000e+02, 1.45763195800781250000e+03, -1.39609484863281250000e+03, -1.44232531738281250000e+03, -1.50000000000000000000e+03, 1.48815673828125000000e+03, 1.50000000000000000000e+03, -1.41933862304687500000e+03, -1.48291540527343750000e+03, 4.43232299804687500000e+02, -2.40079994201660156250e+01, -9.29171203613281250000e+02, -1.47291394042968750000e+03, -1.10604187011718750000e+03, 1.50000000000000000000e+03, 1.46579943847656250000e+03, -1.38734570312500000000e+03, -1.35586926269531250000e+03, 1.48664514160156250000e+03, -1.49343164062500000000e+03, -1.44063256835937500000e+03, 1.00709800720214843750e+01, 3.71579360961914062500e+01, 8.26658630371093750000e+01, 4.83348464965820312500e+01, 5.33441085815429687500e+01, -1.33780610561370849609e+00, 2.15811462402343750000e+01, 1.04149665832519531250e+01, 5.94650306701660156250e+01, -1.61930103302001953125e+01, 4.81201057434082031250e+01, -6.32404232025146484375e+00, 3.65652961730957031250e+01, 4.30550308227539062500e+01, 8.29120635986328125000e+00, 1.19889259338378906250e+01, -7.04445648193359375000e+01, 1.33738107681274414062e+01, -3.44623136520385742188e+00, -5.23241806030273437500e+01, 1.35979709625244140625e+01, 1.96576213836669921875e+01, 9.03467655181884765625e+00, 1.53541383743286132812e+01, -2.23733940124511718750e+01, -3.94417114257812500000e+01, 2.12519016265869140625e+01, 2.56538314819335937500e+01, 3.56523208618164062500e+01, 6.22923202514648437500e+01, 9.91812973022460937500e+01, 1.55850000381469726562e+01, 2.93382797241210937500e+01, 5.98405036926269531250e+01, 3.46568489074707031250e+01, -4.03263015747070312500e+01, 2.28724212646484375000e+01, 2.19849987030029296875e+01, 6.87380065917968750000e+01, 4.71346426010131835938e+00, 8.99186420440673828125e+00, 3.09456558227539062500e+01, 1.49423503875732421875e+01, 5.86683387756347656250e+01, 2.55144348144531250000e+01, 1.15570312500000000000e+02, 7.45804748535156250000e+01, 1.02937461853027343750e+02, 2.45545692443847656250e+01, 5.73018760681152343750e+01, 8.48591003417968750000e+01, 1.86851227283477783203e+00, 1.48262011718750000000e+03, -1.32124816894531250000e+03, 1.48866748046875000000e+03, -4.99101135253906250000e+02, -9.78203918457031250000e+02, -7.53456359863281250000e+02, -1.20976855468750000000e+03, 1.46455554199218750000e+03, -1.26561303710937500000e+03, 1.49237231445312500000e+03, -1.50000000000000000000e+03, 7.74713012695312500000e+02, -1.32422338867187500000e+03, 1.47392102050781250000e+03, 1.09528356933593750000e+03, 7.59060974121093750000e+02, 9.09749450683593750000e+02, 1.13420788574218750000e+03, 1.48173864746093750000e+03, -1.13744519042968750000e+03, -3.77571502685546875000e+02, -1.40961718750000000000e+03, 9.08609619140625000000e+02, 1.49999902343750000000e+03, -1.47096826171875000000e+03, -9.31818603515625000000e+02, 1.49995007324218750000e+03, 3.61676361083984375000e+02, 8.44450561523437500000e+02, 1.50000000000000000000e+03, 1.41763537597656250000e+03, 1.07744042968750000000e+03, -4.68889862060546875000e+02, -3.82455810546875000000e+02, -1.20117175292968750000e+03, 1.47805236816406250000e+03, -1.17729138183593750000e+03, -1.45258361816406250000e+03, 1.72148422241210937500e+02, -1.17980444335937500000e+03, -6.30483398437500000000e+01, 1.32006774902343750000e+03, -5.54252746582031250000e+02, 1.50000000000000000000e+03, 9.32128845214843750000e+02, 1.39174914550781250000e+03, 1.34586608886718750000e+03, -1.10760571289062500000e+03, 1.48337939453125000000e+03, 1.46909655761718750000e+03, 1.00658833980560302734e+00, 1.50000000000000000000e+03, 1.44699438476562500000e+03, 1.31841357421875000000e+03, -1.19954089355468750000e+03, 1.33136608886718750000e+03, 1.50000000000000000000e+03, 3.41921966552734375000e+02, -6.29408950805664062500e+01, 1.49656311035156250000e+03, 1.50000000000000000000e+03, -1.33849426269531250000e+03, 7.22017639160156250000e+02, 1.50000000000000000000e+03, 1.50000000000000000000e+03, -1.17858203125000000000e+03, -1.49440148925781250000e+03, -5.22934204101562500000e+02, -9.80943832397460937500e+01, -1.22018750000000000000e+03, -1.42517639160156250000e+03, 1.49904077148437500000e+03, 1.49879785156250000000e+03, -7.90140304565429687500e+01, 1.50000000000000000000e+03, -1.41301403808593750000e+03, 1.50000000000000000000e+03, 3.74640319824218750000e+02, 3.55667755126953125000e+02, 1.38211926269531250000e+03, 1.47427929687500000000e+03, -1.53119750976562500000e+02, 5.02692626953125000000e+02, -1.20043469238281250000e+03, 4.32802429199218750000e+02, 1.47709594726562500000e+03, -1.13787756347656250000e+03, -8.26346801757812500000e+02, 1.14139392089843750000e+03, 1.49957104492187500000e+03, -3.12550140380859375000e+02, -1.41612768554687500000e+03, 1.45965917968750000000e+03, 1.03237744140625000000e+03, -4.37275146484375000000e+02, -8.51640136718750000000e+02, 5.36322021484375000000e+02, 6.57008300781250000000e+02, -1.23193896484375000000e+03, -1.82819808959960937500e+02, 1.44090393066406250000e+03, 3.42868351936340332031e+00, -1.44779162597656250000e+03, 3.35473449707031250000e+02, 1.24448107910156250000e+03, 3.14755615234375000000e+02, 1.55429870605468750000e+02, -9.88987976074218750000e+02, 2.43758850097656250000e+02, 1.41916259765625000000e+03, 1.49720715332031250000e+03, -1.22700183105468750000e+03, 8.16471496582031250000e+02, 1.49911059570312500000e+03, -1.48792602539062500000e+03, 5.24431945800781250000e+02, -1.32231982421875000000e+03, 1.25924914550781250000e+03, -1.31932165527343750000e+03, -1.14558044433593750000e+03, 1.48326550292968750000e+03, -1.38695886230468750000e+03, -1.40819873046875000000e+03, -1.76494125366210937500e+02, 1.45926672363281250000e+03, -1.15627819824218750000e+03, -1.46225805664062500000e+03, -1.37304516601562500000e+03, 1.49115332031250000000e+03, -2.19650466918945312500e+02, 4.17863067626953125000e+02, -1.28301367187500000000e+03, -4.03016143798828125000e+02, 8.57013427734375000000e+02, -1.11499792480468750000e+03, -1.46201293945312500000e+03, -3.79857215881347656250e+01, 1.34808325195312500000e+03, 1.48346350097656250000e+03, -1.45610693359375000000e+03, 1.05302795410156250000e+03, 1.19282714843750000000e+03, -1.87654617309570312500e+02, 7.18712829589843750000e+02, 1.00056320190429687500e+02, 1.50000000000000000000e+03, 1.50000000000000000000e+03, -1.06819970703125000000e+03, 3.27434692382812500000e+02, 1.14400952148437500000e+03, 1.48024182128906250000e+03, 5.66896362304687500000e+02, 1.91831817626953125000e+01, -1.42056274414062500000e+03, 8.49200256347656250000e+02, -7.72227478027343750000e+01, 8.41990356445312500000e+01, 1.46979992675781250000e+03, -6.05750061035156250000e+02, -1.43701013183593750000e+03, -1.38427807617187500000e+03, -1.43184692382812500000e+03, -1.50000000000000000000e+03, -3.00216156005859375000e+02, -1.33679162597656250000e+03, -1.50000000000000000000e+03, -1.49527819824218750000e+03, 1.49856884765625000000e+03, 1.49472045898437500000e+03, 1.23326049804687500000e+03, 7.81869384765625000000e+02, -1.45896008300781250000e+03, -6.14160339355468750000e+02, -1.43183581542968750000e+03, 1.46623095703125000000e+03, 1.42302795410156250000e+03, 1.48162548828125000000e+03, -1.05240612792968750000e+03, -1.50000000000000000000e+03, -1.31594665527343750000e+03, -1.61941790580749511719e+00, 1.72056823730468750000e+02, 1.42830712890625000000e+03, 1.49975866699218750000e+03, -9.44602722167968750000e+02, 1.49944482421875000000e+03, -1.48318872070312500000e+03, 1.31401025390625000000e+03, 1.50000000000000000000e+03, -6.37526306152343750000e+02, -5.81717529296875000000e+01, 7.99226562500000000000e+02, 1.47223266601562500000e+03, -1.40142663574218750000e+03, -2.03192016601562500000e+02, -9.90833679199218750000e+02, 1.50000000000000000000e+03, 7.75353515625000000000e+02, 5.40284606933593750000e+02, -1.34360192871093750000e+03, 1.49789843750000000000e+03, 8.95007263183593750000e+02, 9.21227172851562500000e+02, -6.27708792686462402344e-01, 2.16449722290039062500e+02, 6.62480545043945312500e+01, 4.82978868484497070312e+00, 6.85281524658203125000e+01, 7.68266439437866210938e+00, -2.61348552703857421875e+01, 5.06847839355468750000e+01, 8.52564620971679687500e+01, 6.44915962219238281250e+00, -3.14312171936035156250e+01, -6.71845912933349609375e+00, 3.59947433471679687500e+01, 2.86623420715332031250e+01, 1.28839263916015625000e+02, 9.02445793151855468750e+00, 3.59687652587890625000e+01, 5.99222259521484375000e+01, 8.12270965576171875000e+01, -1.79635562896728515625e+01, 1.61817321777343750000e+01, 9.58971862792968750000e+01, 4.11539497375488281250e+01, -1.86219081878662109375e+01, 6.83940200805664062500e+01, -7.49187850952148437500e+01, 2.81771812438964843750e+01, 3.12564029693603515625e+01, 1.10324623107910156250e+02, 5.41996688842773437500e+01, 1.04015403747558593750e+02, 8.93139038085937500000e+01, 1.26324699401855468750e+02, 1.72893035888671875000e+02, -3.36473236083984375000e+01, -6.07723350524902343750e+01, 4.87601928710937500000e+01, -7.14992523193359375000e+01, 7.71524047851562500000e+01, -1.15920057296752929688e+01, 3.86858444213867187500e+01, 6.29218444824218750000e+01, 6.21769809722900390625e+00, -1.12222909927368164062e+00, -1.03835182189941406250e+01, 1.19585922241210937500e+02, 5.98841400146484375000e+01, 1.54311523437500000000e+02, 3.55541687011718750000e+01, 4.59314651489257812500e+01, 6.92434310913085937500e+01, 6.19020521640777587891e-01, 1.50000000000000000000e+03, -1.48561486816406250000e+03, -1.44783584594726562500e+02, 1.39761413574218750000e+03, -1.28207226562500000000e+03, 1.50000000000000000000e+03, 1.32543859863281250000e+03, 1.49988269042968750000e+03, -1.49308056640625000000e+03, 1.50000000000000000000e+03, -1.49822082519531250000e+03, -1.46138684082031250000e+03, 1.50000000000000000000e+03, 4.78101806640625000000e+01, 1.49914477539062500000e+03, 1.45261352539062500000e+03, 5.18410339355468750000e+02, 1.49990771484375000000e+03, -1.50000000000000000000e+03, 1.62132125854492187500e+02, 1.42725292968750000000e+03, -4.22007598876953125000e+02, 1.42177380371093750000e+03, 1.37030593872070312500e+02, -1.47773889160156250000e+03, 1.50000000000000000000e+03, 1.50000000000000000000e+03, -1.47052453613281250000e+03, 1.49977734375000000000e+03, 1.37902490234375000000e+03, 1.49980725097656250000e+03, -8.20777648925781250000e+02, 1.49367382812500000000e+03, 7.98252258300781250000e+02, -1.14988232421875000000e+03, -4.89126434326171875000e+02, -1.47214196777343750000e+03, -1.19152343750000000000e+03, 1.15923449707031250000e+03, 1.49504980468750000000e+03, 1.43881103515625000000e+03, 1.49975097656250000000e+03, 8.36937683105468750000e+02, -1.44246606445312500000e+03, -1.46005187988281250000e+03, 5.98913650512695312500e+01, 8.44805053710937500000e+02, 1.43497912597656250000e+03, -9.49498596191406250000e+02, 1.49112121582031250000e+03, -1.48477001953125000000e+03, 8.75741455078125000000e+02, 1.46827832031250000000e+03, 1.37912133789062500000e+03, -6.92608703613281250000e+02, -4.92523376464843750000e+02, 1.49696459960937500000e+03, 6.78975402832031250000e+02, 1.48794787597656250000e+03, -1.45853344726562500000e+03, 1.49409313964843750000e+03, 2.84199951171875000000e+02, -1.49811206054687500000e+03, -1.47932568359375000000e+03, 1.05482336425781250000e+03, 1.39432702636718750000e+03, 1.04794348144531250000e+03, 1.49554016113281250000e+03, 1.42529565429687500000e+03, -3.69999847412109375000e+02, 7.30803588867187500000e+02, 1.50000000000000000000e+03, 2.74273132324218750000e+02, 1.50000000000000000000e+03, 1.31114184570312500000e+03, -1.50000000000000000000e+03, 1.38002050781250000000e+03, 1.31911743164062500000e+03, 1.49484313964843750000e+03, 1.15270642089843750000e+03, 1.40634619140625000000e+03, 1.44169934082031250000e+03, -1.33169299316406250000e+03, 1.48091284179687500000e+03, 1.35473663330078125000e+02, -1.13573425292968750000e+03, 1.42695483398437500000e+03, -1.47823193359375000000e+03, 1.91341827392578125000e+02, 1.24006262207031250000e+03, 3.10890441894531250000e+02, 8.88973022460937500000e+02, 1.50000000000000000000e+03, -1.06701879882812500000e+03, 1.38761914062500000000e+03, 1.10681945800781250000e+03, -2.08564453125000000000e+02, -2.78355285644531250000e+02, -6.21998779296875000000e+02, -1.45570336914062500000e+03, 1.47098669433593750000e+03, 8.10942611694335937500e+01, 1.47023901367187500000e+03, 1.20381896972656250000e+03, -1.45699877929687500000e+03, 1.42667700195312500000e+03, 2.66634429931640625000e+02, -8.56439636230468750000e+02, -1.19397094726562500000e+03, 1.49419653320312500000e+03, 1.16797290039062500000e+03, 1.50000000000000000000e+03, 1.48535827636718750000e+03, -7.39975128173828125000e+01, 1.50000000000000000000e+03, -5.04411407470703125000e+02, 7.44850708007812500000e+02, 1.05616981506347656250e+02, -1.36526721191406250000e+03, -1.49633374023437500000e+03, -1.42197937011718750000e+03, 1.47166564941406250000e+03, -7.77896240234375000000e+02, 9.58870788574218750000e+02, 1.18310913085937500000e+03, 1.58444824218750000000e+02, 1.06914135742187500000e+03, 1.50000000000000000000e+03, 7.58254013061523437500e+01, 1.27636328125000000000e+03, -1.35537097167968750000e+03, 1.36597473144531250000e+02, 6.35420593261718750000e+02, 4.23580017089843750000e+02, -1.98138504028320312500e+02, 3.99581329345703125000e+02, 1.49599816894531250000e+03, 6.01592346191406250000e+02, -8.60649475097656250000e+02, 1.50000000000000000000e+03, 6.11508972167968750000e+02, 1.46352624511718750000e+03, 1.41876708984375000000e+03, -1.22977258300781250000e+03, 1.41687902832031250000e+03, -1.48147863769531250000e+03, -1.50000000000000000000e+03, -1.24126806640625000000e+03, 1.06028881835937500000e+03, 9.69901199340820312500e+01, -1.02610705566406250000e+03, 1.48190478515625000000e+03, 1.30076396465301513672e+00, 1.02107318115234375000e+03, 1.43242736816406250000e+03, -1.38561596679687500000e+03, 1.44221887207031250000e+03, 1.43561450195312500000e+03, -1.49710412597656250000e+03, -8.22262802124023437500e+01, 1.26381909179687500000e+03, -6.45643005371093750000e+02, 1.33843359375000000000e+03, 1.50000000000000000000e+03, 1.49642565917968750000e+03, -1.04737280273437500000e+03, -1.49386743164062500000e+03, 1.49804418945312500000e+03, 2.82526123046875000000e+02, -1.39507617187500000000e+03, -1.37145019531250000000e+03, 1.48540173339843750000e+03, -1.09617187500000000000e+03, -3.94180633544921875000e+02, -1.14720788574218750000e+03, 9.73153259277343750000e+02, -1.49933715820312500000e+03, 1.27763684082031250000e+03, -1.47286022949218750000e+03, 1.49063781738281250000e+03, 1.49733215332031250000e+03, -5.97398864746093750000e+02, -1.54198532104492187500e+02, -2.78871688842773437500e+01, 1.08956372070312500000e+03, 1.12824353027343750000e+03, 1.20989550781250000000e+03, 1.50000000000000000000e+03, -6.14589904785156250000e+02, 1.00398895263671875000e+03, 1.49487707519531250000e+03, -1.38361572265625000000e+02, 1.25429870605468750000e+03, 1.28973535156250000000e+03, 1.16027490234375000000e+03, 1.17822875976562500000e+03, -1.50000000000000000000e+03, -1.50000000000000000000e+03, 1.50000000000000000000e+03, 8.46065856933593750000e+02, -1.21712316894531250000e+03, 1.50000000000000000000e+03, -1.42295617675781250000e+03, 3.08468961715698242188e+00, 1.47144055175781250000e+03, -1.33476489257812500000e+03, 1.49323974609375000000e+03, -1.25884338378906250000e+03, 1.31610632324218750000e+03, 1.50000000000000000000e+03, 1.49955529785156250000e+03, -4.15948394775390625000e+02, 1.49981713867187500000e+03, 3.08287902832031250000e+02, -1.50000000000000000000e+03, -1.29174340820312500000e+03, -1.50000000000000000000e+03, -1.24384008789062500000e+03, 1.82984283447265625000e+02, -9.22433959960937500000e+02, -4.81318725585937500000e+02, 1.41593530273437500000e+03, -1.42729809570312500000e+03, 1.62567291259765625000e+02, -1.24576733398437500000e+03, 1.50000000000000000000e+03, 1.07977371215820312500e+02, -8.16164855957031250000e+01, 1.48891760253906250000e+03, 1.47954296875000000000e+03, 1.40725354003906250000e+03, -1.31080737304687500000e+03, -1.46288488769531250000e+03, 1.26986242675781250000e+03, 1.28987158203125000000e+03, -1.36894384765625000000e+03, 1.49429956054687500000e+03, -4.50425598144531250000e+02, 1.39830725097656250000e+03, 1.40422143554687500000e+03, -1.40564160156250000000e+03, 5.56257873535156250000e+02, 1.49986315917968750000e+03, 1.47597070312500000000e+03, 1.34524414062500000000e+03, 1.25031799316406250000e+03, 4.91509307861328125000e+02, 1.50000000000000000000e+03, 1.50000000000000000000e+03, 1.43562707519531250000e+03, -9.65750610351562500000e+02, 1.49969970703125000000e+03, -1.50000000000000000000e+03, 1.50000000000000000000e+03, 3.14280819892883300781e+00, 1.50000000000000000000e+03, 1.42948913574218750000e+03, -1.49422277832031250000e+03, 1.46234497070312500000e+03, -1.08500423431396484375e+01, 2.16796207427978515625e+01, 4.86854217529296875000e+02, 1.49968676757812500000e+03, -1.08566174316406250000e+03, 1.45098962402343750000e+03, -1.50000000000000000000e+03, 1.46555358886718750000e+03, -2.47613845825195312500e+02, 9.60764892578125000000e+02, 1.49905603027343750000e+03, -9.71124450683593750000e+02, 1.49308630371093750000e+03, 1.31230639648437500000e+03, -1.04908776855468750000e+03, -3.26454124450683593750e+01, 1.49912805175781250000e+03, -1.18591967773437500000e+03, 1.00948577880859375000e+03, -1.42006384277343750000e+03, -8.64461303710937500000e+02, 1.50000000000000000000e+03, 9.27335754394531250000e+02, 1.49986816406250000000e+03, 1.48438769531250000000e+03, -2.61587463378906250000e+02, 3.06305603027343750000e+02, 3.68460578918457031250e+01, 5.95561767578125000000e+02, 1.49938488769531250000e+03, 2.23615379333496093750e+01, -1.13363818359375000000e+03, -1.38438928222656250000e+03, 1.08959973144531250000e+03, 1.21684289550781250000e+03, 1.35010766601562500000e+03, 1.35758508300781250000e+03, -6.49264450073242187500e+01, 5.22052124023437500000e+02, 3.19323303222656250000e+02, -3.46168975830078125000e+02, 1.49937927246093750000e+03, 1.28066381835937500000e+03, 9.56146179199218750000e+02, 1.27452685546875000000e+03, 4.33022399902343750000e+02, 8.02346038818359375000e+01, -1.50000000000000000000e+03, 1.50000000000000000000e+03, 1.48671643066406250000e+03, -1.49567163085937500000e+03, -5.19081237792968750000e+02, -1.12004981994628906250e+02, 7.66270080566406250000e+02, -1.23870666503906250000e+03, 1.49999694824218750000e+03, -1.50000000000000000000e+03, 1.25596740722656250000e+03, 1.50000000000000000000e+03, -1.41511560058593750000e+03, 1.03531945800781250000e+03, -1.41198474121093750000e+03, -1.12465942382812500000e+03, -1.01451397705078125000e+03, -1.47848706054687500000e+03, 1.50000000000000000000e+03, 1.19586645507812500000e+03, 7.66266174316406250000e+02, 1.30280126953125000000e+03, 1.40620336914062500000e+03, -1.40147802734375000000e+03, 8.70178588867187500000e+02, -1.50000000000000000000e+03, -7.64675598144531250000e+02, -1.62573501586914062500e+02, 1.50000000000000000000e+03, -1.30609802246093750000e+03, -1.36641333007812500000e+03, 1.48923742675781250000e+03, -1.45342480468750000000e+03, 1.49893603515625000000e+03, -1.26333764648437500000e+03, 3.22170440673828125000e+02, 1.49943676757812500000e+03, 1.09267041015625000000e+03, 3.70759248733520507812e+00, -7.21278991699218750000e+02, -1.50000000000000000000e+03, 1.44820263671875000000e+03, -1.40623925781250000000e+03, 1.49998474121093750000e+03, -1.26086291503906250000e+03, -1.42814038085937500000e+03, -1.42994921875000000000e+03, -1.93668426513671875000e+02, 1.46692309570312500000e+03, -1.49286975097656250000e+03, 2.41225218772888183594e+00, -1.11334838867187500000e+03, 1.43707019042968750000e+03, 4.85825286865234375000e+02, 1.87780899047851562500e+02, 1.49941613769531250000e+03, -4.43118743896484375000e+02, 9.30592529296875000000e+02, 1.46162280273437500000e+03, 1.49924487304687500000e+03, -1.41734460449218750000e+03, 1.50000000000000000000e+03, 1.49209558105468750000e+03, 1.50000000000000000000e+03, -1.34312353515625000000e+03, -1.13981054687500000000e+03, -4.15787902832031250000e+02, -1.33842712402343750000e+03, -1.25908105468750000000e+03, 1.42410400390625000000e+03, 1.19252490234375000000e+03, 1.30074084472656250000e+03, 1.01913085937500000000e+03, 6.31298278808593750000e+02, -1.17097998046875000000e+03, -1.33448559570312500000e+03, -1.35990808105468750000e+03, -1.36967553710937500000e+03, 1.44149121093750000000e+03, 1.04934252929687500000e+03, -1.49527124023437500000e+03, -1.25494006347656250000e+03, 9.79816467285156250000e+02, -1.48901416015625000000e+03, 1.50000000000000000000e+03, -1.35520361328125000000e+03, -1.48736889648437500000e+03, 1.48338916015625000000e+03, 5.22934020996093750000e+02, 6.44282348632812500000e+02, -1.49568969726562500000e+03, -1.46014648437500000000e+03, 5.29150695800781250000e+02, 9.09673156738281250000e+02, -1.50000000000000000000e+03, -9.01285705566406250000e+01, 1.02954895019531250000e+03, 8.18654357910156250000e+02, -1.45060400390625000000e+03, 1.50000000000000000000e+03, -1.50000000000000000000e+03, 6.48181200027465820312e+00, -1.48079345703125000000e+03, 1.30968176269531250000e+03, -1.07400549316406250000e+03, -1.49849243164062500000e+03, -1.18274621582031250000e+03, 1.46822753906250000000e+03, -1.49282751464843750000e+03, -1.50000000000000000000e+03, 1.39303356933593750000e+03, -1.50000000000000000000e+03, 1.08898791503906250000e+03, -1.16205541992187500000e+03, -1.50000000000000000000e+03, -1.50000000000000000000e+03, -5.09158172607421875000e+02, 5.64582519531250000000e+02, -8.75916137695312500000e+01, -1.16509631347656250000e+03, 8.24869506835937500000e+02, 1.44820153808593750000e+03, -4.11000640869140625000e+02, 1.49291101074218750000e+03, 1.49972900390625000000e+03, 1.49287011718750000000e+03, 1.49999584960937500000e+03, -1.40598010253906250000e+03, -1.02361663818359375000e+03, -1.22126257324218750000e+03, -4.44406097412109375000e+02, -1.37713195800781250000e+03, -1.17696380615234375000e+02, -1.49252172851562500000e+03, -1.40124731445312500000e+03, 1.48828857421875000000e+03, 1.47961413574218750000e+03, 1.49680419921875000000e+03, 1.41043054199218750000e+03, -1.42951196289062500000e+03, -3.59481353759765625000e+02, 1.49918981933593750000e+03, -1.48684020996093750000e+03, 1.48949694824218750000e+03, 7.66332580566406250000e+02, 1.50000000000000000000e+03, 1.43530737304687500000e+03, -1.32944396972656250000e+03, -6.03844177246093750000e+02, 1.20141601562500000000e+03, -1.15515454101562500000e+03, -5.87378417968750000000e+02, 8.26785182952880859375e+00, 2.90317230224609375000e+01, -1.28841540527343750000e+03, -1.39201000976562500000e+03, -1.31400985717773437500e+02, 1.46245959472656250000e+03, 1.26164440917968750000e+03, 1.27852429199218750000e+03, -1.05690051269531250000e+03, 8.79297546386718750000e+02, -1.36189404296875000000e+03, 1.50000000000000000000e+03, 1.44040466308593750000e+03, 1.50000000000000000000e+03, -4.82939243316650390625e+00, -1.44680688476562500000e+03, 1.49008190917968750000e+03, -9.10721862792968750000e+02, -3.56540344238281250000e+02, 1.42818115234375000000e+03, 6.98275146484375000000e+02, -1.46874230957031250000e+03, -8.08362060546875000000e+02, -2.74393554687500000000e+02, -1.32100756835937500000e+03, 1.45191918945312500000e+03, -1.47501477050781250000e+03, 1.45281079101562500000e+03, -1.50000000000000000000e+03, 1.49971569824218750000e+03, -1.26568420410156250000e+03, -1.23343237304687500000e+03, -7.66873962402343750000e+02, -1.47654187011718750000e+03, -1.10727795410156250000e+03, -1.27512097167968750000e+03, -1.50000000000000000000e+03, 1.47174047851562500000e+03, 1.22329028320312500000e+03, -4.96592102050781250000e+02, 1.38447546386718750000e+03, 1.50000000000000000000e+03, 1.27662976074218750000e+03, 1.50000000000000000000e+03, -1.47947143554687500000e+03, 6.88911071777343750000e+02, 3.83858367919921875000e+02, 4.10089538574218750000e+02, 4.70396636962890625000e+02, 1.41421325683593750000e+03, -1.37646228027343750000e+03, 1.62855982780456542969e+00, -1.50000000000000000000e+03, -1.31930346679687500000e+03, -1.49130981445312500000e+03, -8.97823608398437500000e+02, 1.49999975585937500000e+03, -1.16374305725097656250e+02, 1.18715539550781250000e+03, -1.46079052734375000000e+03, -1.05123156738281250000e+03, -1.50000000000000000000e+03, 1.43051416015625000000e+03, 4.65172698974609375000e+02, -1.38931945800781250000e+03, -1.46793676757812500000e+03, -1.03044136047363281250e+02, 8.83462280273437500000e+02, -1.99147857666015625000e+02, 3.19513214111328125000e+02, 1.50000000000000000000e+03, 3.19635833740234375000e+02, -1.44232983398437500000e+03, -1.28232434082031250000e+03, 2.23135147094726562500e+02, -1.34046240234375000000e+03, 1.35046630859375000000e+03, -1.49403796386718750000e+03, -1.49991040039062500000e+03, -1.31982238769531250000e+03, 2.71902801513671875000e+02, -1.17238842773437500000e+03, -1.39153747558593750000e+03, -9.01026672363281250000e+02, -1.18248437500000000000e+03, -6.32642822265625000000e+02, 9.95755493164062500000e+02, -1.33304101562500000000e+03, 1.45540673828125000000e+03, -1.48880261230468750000e+03, 7.12979125976562500000e+02, 4.48702209472656250000e+02, 1.16669116210937500000e+03, 1.47670996093750000000e+03, 1.21996459960937500000e+03, -8.41693725585937500000e+02, 7.11842163085937500000e+02, 2.33898010253906250000e+01, -1.30368423461914062500e+02, 1.42050732421875000000e+03, -1.39219262695312500000e+03, -1.09069506835937500000e+03, 5.95435857772827148438e+00, 1.00306243896484375000e+03, -1.25118054199218750000e+03, -1.46967590332031250000e+03, 1.38950390625000000000e+03, 9.86817810058593750000e+02, 1.49928857421875000000e+03, -7.97090576171875000000e+02, 1.50000000000000000000e+03, 5.45671691894531250000e+02, 5.83809326171875000000e+02, -3.85698242187500000000e+01, -1.45005798339843750000e+03, 1.50000000000000000000e+03, 1.00831169128417968750e+02, -1.29120435714721679688e+01, 1.50000000000000000000e+03, 1.39632910156250000000e+03, 1.43506604003906250000e+03, 9.48680664062500000000e+02, -7.61888366699218750000e+02, 1.03531237792968750000e+03, 1.35761193847656250000e+03, 1.34048303222656250000e+03, 1.46288903808593750000e+03, -1.41390136718750000000e+03, 1.49988049316406250000e+03, -1.36014636230468750000e+03, 9.88391601562500000000e+02, -1.20090454101562500000e+03, 3.63199691772460937500e+01, 7.75022094726562500000e+02, -1.09200109863281250000e+03, 9.77343933105468750000e+02, -1.21658996582031250000e+03, -1.02509106445312500000e+03, -1.47984387207031250000e+03, -1.29377282714843750000e+03, 1.49800195312500000000e+03, 1.06740124511718750000e+03, -4.25534606933593750000e+02, 1.31482312011718750000e+03, 8.69275573730468750000e+02, -1.10084387207031250000e+03, -1.50000000000000000000e+03, 2.39051971435546875000e+02, -7.54215698242187500000e+02, -1.19393615722656250000e+03, 1.50000000000000000000e+03, 1.29234692382812500000e+03, 8.45888244628906250000e+02, 6.75142717361450195312e+00, 1.48944653320312500000e+03, -1.44774914550781250000e+03, 1.49656152343750000000e+03, 1.23352709960937500000e+03, -1.46484863281250000000e+03, 3.44040740966796875000e+02, 1.03842736816406250000e+03, 1.49975061035156250000e+03, 1.32093420410156250000e+03, -9.68433227539062500000e+02, -1.50000000000000000000e+03, -1.35505004882812500000e+03, -1.50000000000000000000e+03, 7.81377380371093750000e+02, 2.82618103027343750000e+02, 1.27627697753906250000e+03, 1.49994812011718750000e+03, 1.41659436035156250000e+03, -1.36448107910156250000e+03, 1.15732226562500000000e+03, 7.21867553710937500000e+02, 1.23924755859375000000e+03, 1.44677124023437500000e+03, -3.25945617675781250000e+02, -1.48523950195312500000e+03, -9.81181579589843750000e+02, 2.90176757812500000000e+02, 1.43343627929687500000e+03, 1.32778088378906250000e+03, -7.20818237304687500000e+02, 1.25461328125000000000e+03, -1.45277038574218750000e+03, 1.49798632812500000000e+03, 1.44027819824218750000e+03, 1.13885589599609375000e+02, 1.33562390136718750000e+03, 2.54960937500000000000e+02, 1.26031628417968750000e+03, 1.00796936035156250000e+03, 2.94793415069580078125e+01, 4.75940765380859375000e+02, 9.11177917480468750000e+02, -5.68959594726562500000e+02, 1.50000000000000000000e+03, -2.74930328369140625000e+02, 1.34395361328125000000e+03, 1.47997839355468750000e+03, -9.51165954589843750000e+02, -5.34211181640625000000e+02, 1.50000000000000000000e+03, 1.54034018516540527344e+00, -1.46703557968139648438e+01, 6.55188679695129394531e-01, -4.01512384414672851562e+00, -4.93886756896972656250e+01, -3.70016306638717651367e-01, 7.96686410903930664062e+00, 2.49144032597541809082e-01, -9.03844356536865234375e+00, 3.70126495361328125000e+01, 1.56319026947021484375e+01, 4.81995010375976562500e+00, -2.35936565399169921875e+01, -3.47040748596191406250e+01, 2.74602088928222656250e+01, -4.82329559326171875000e+00, 2.00428943634033203125e+01, 6.40995836257934570312e+00, 1.67778587341308593750e+01, 2.74845962524414062500e+01, 1.11449537277221679688e+01, -1.41266012191772460938e+01, 1.62434692382812500000e+01, 1.62699756622314453125e+01, 1.24026918411254882812e+01, 1.33242330551147460938e+01, 2.80078907012939453125e+01, -1.73811745643615722656e+00, -7.38640880584716796875e+00, -6.98040580749511718750e+00, -1.91797304153442382812e+00, 7.02705764770507812500e+00, 1.09358835220336914062e+01, -2.62879037857055664062e+00, 1.46954250335693359375e+01, 5.27033472061157226562e+00, 1.66336536407470703125e+01, -6.87906932830810546875e+00, -4.44927177429199218750e+01, -3.98565983772277832031e+00, -1.10800447463989257812e+01, 7.26212024688720703125e+00, 4.72776859998703002930e-01, -8.34499359130859375000e+00, 5.40799484252929687500e+01, 1.06980400085449218750e+01, -9.68726062774658203125e+00, -3.01201581954956054688e+00, -3.34288239479064941406e+00, -7.70808506011962890625e+00, -1.56370792388916015625e+01, 4.80232238769531250000e-01, -8.41824035644531250000e+01, 5.56798591613769531250e+01, 3.73965377807617187500e+01, -3.13677811622619628906e+00, 5.05573129653930664062e+00, 5.93777580261230468750e+01, 2.57689361572265625000e+01, -9.76762104034423828125e+00, 9.34873123168945312500e+01, -1.25277305603027343750e+02, 1.92944889068603515625e+01, -1.27499168395996093750e+02, -3.81312042236328125000e+02, 3.69029884338378906250e+01, -8.18276596069335937500e+00, 2.70362518310546875000e+02, 1.87562198638916015625e+01, -1.00573854446411132812e+01, -4.78042106628417968750e+01, -2.09397387504577636719e+00, 3.25089912414550781250e+01, 2.56233406066894531250e+01, 4.67739295959472656250e+01, 3.83133816719055175781e+00, 3.15608520507812500000e+01, 5.11068908691406250000e+02, -5.04875411987304687500e+01, -8.57602539062500000000e+01, -1.04125022888183593750e+01, 2.72438907623291015625e+01, 9.49884262084960937500e+01, 5.74721755981445312500e+01, 8.93042831420898437500e+01, 1.06103919982910156250e+02, -6.14361619949340820312e+00, 3.36019968986511230469e+00, -3.91749954223632812500e+01, -1.16765346527099609375e+01, -1.69781284332275390625e+01, -1.36604785919189453125e+01, -2.13912338256835937500e+02, 2.90595684051513671875e+01, -4.05477790832519531250e+01, 7.46561706542968750000e+02, 2.61357517242431640625e+01, -6.80503845214843750000e+01, 6.09160244464874267578e-01, 4.30407762527465820312e+00, 2.30259227752685546875e+01, -1.10012960433959960938e+00, 5.90686178207397460938e+00, -4.05773468017578125000e+02, 1.21738410949707031250e+02, 1.49376184082031250000e+03, -6.07490173339843750000e+02, 3.50284179687500000000e+02, 1.45423010253906250000e+03, -1.38221728515625000000e+03, 9.68268493652343750000e+02, 1.49999975585937500000e+03, -2.83237457275390625000e+02, -1.50000000000000000000e+03, 1.41716967773437500000e+03, -1.50000000000000000000e+03, -4.95584411621093750000e+02, 3.77542419433593750000e+02, 1.43343200683593750000e+03, 1.12030273437500000000e+03, -1.31041711425781250000e+03, 9.41023254394531250000e+02, 8.49564819335937500000e+02, -1.39399645996093750000e+03, 8.91396545410156250000e+02, 1.94469329833984375000e+02, 1.49999133300781250000e+03, -1.41421472167968750000e+03, -2.86958160400390625000e+02, -1.45894750976562500000e+03, -7.70820129394531250000e+02, 1.22706848144531250000e+03, -1.42226989746093750000e+03, 1.28341491699218750000e+03, -1.45554431152343750000e+03, 1.50000000000000000000e+03, -9.95171142578125000000e+02, 8.45563583374023437500e+01, 1.50000000000000000000e+03, -5.85187500000000000000e+02, 4.08934051513671875000e+02, 9.31529617309570312500e+01, 1.44540002441406250000e+03, -1.39945056152343750000e+03, -3.24843719482421875000e+02, -1.40941162109375000000e+03, 1.50000000000000000000e+03, 6.42310852050781250000e+02, -2.87313079833984375000e+02, -1.19842712402343750000e+03, 3.01763519287109375000e+02, 2.38769378662109375000e+02, 1.49610791015625000000e+03, 4.12126827239990234375e+00, 1.57078313827514648438e+01, -7.54092407226562500000e+00, 1.90971546173095703125e+01, 1.46233234405517578125e+01, 4.24801397323608398438e+00, 2.52195854187011718750e+01, 1.60902004241943359375e+01, -2.17441406250000000000e+01, 2.25826954841613769531e+00, 6.47919921875000000000e+01, 2.08473415374755859375e+01, -3.00930995941162109375e+01, 2.30525226593017578125e+01, 1.65601272583007812500e+01, 2.26908168792724609375e+01, 1.02611131668090820312e+01, 6.02021217346191406250e+00, 1.92419509887695312500e+01, 3.34842529296875000000e+01, 4.57969017028808593750e+01, -2.40520114898681640625e+01, 1.05258703231811523438e+00, 1.51147346496582031250e+01, 1.55153551101684570312e+01, 1.21102914810180664062e+01, 5.24767799377441406250e+01, -1.38786935806274414062e+01, -5.87778043746948242188e+00, 1.47335395812988281250e+01, -2.79561214447021484375e+01, -1.03445215225219726562e+01, 1.69158115386962890625e+01, 1.68099193572998046875e+01, -1.36280555725097656250e+01, 1.71302375793457031250e+01, 2.19494590759277343750e+01, 3.01287531852722167969e+00, -2.62449302673339843750e+01, -4.25605535507202148438e+00, 1.11019659042358398438e+01, -5.39547824859619140625e+00, -6.94522571563720703125e+00, 1.51445569992065429688e+01, 2.99455394744873046875e+01, -3.07458496093750000000e+00, 3.29047355651855468750e+01, -4.43735027313232421875e+00, 8.07408905029296875000e+00, 1.18765192031860351562e+01, -1.63743896484375000000e+01, 6.19807100296020507812e+00, 5.64793281555175781250e+01, 1.23971652984619140625e+01, 1.04185543060302734375e+01, 4.77039756774902343750e+01, -9.43868541717529296875e+00, 1.34541063308715820312e+01, 1.93745288848876953125e+01, 8.30658569335937500000e+01, 2.51011848449707031250e+01, -1.89424762725830078125e+01, 3.54463806152343750000e+01, 3.94172859191894531250e+01, 2.63319053649902343750e+01, 7.00262985229492187500e+01, 9.27773189544677734375e+00, 7.92291793823242187500e+01, 2.17953853607177734375e+01, 9.33208770751953125000e+01, -1.07364028930664062500e+02, 3.58097672462463378906e+00, 7.32244186401367187500e+01, -8.84331321716308593750e+00, 1.10940227508544921875e+01, 4.73098831176757812500e+01, -3.46692619323730468750e+01, 2.03480577468872070312e+00, 7.88803253173828125000e+01, 3.60142707824707031250e+01, 3.53467483520507812500e+01, 7.94889068603515625000e+01, 1.18169965744018554688e+01, 5.39086303710937500000e+01, -7.33640098571777343750e+00, -1.17821445465087890625e+01, -4.06838073730468750000e+01, 2.21371536254882812500e+01, -3.88273358345031738281e+00, 7.60834732055664062500e+01, 2.95625495910644531250e+00, 4.15624008178710937500e+01, 4.02654037475585937500e+01, -2.57509708404541015625e+00, 3.04656620025634765625e+01, -1.09271345138549804688e+01, 5.70129966735839843750e+01, 5.71928558349609375000e+01, 1.02930549621582031250e+02, 4.63839411735534667969e-01, 6.79949874877929687500e+01, 1.96606330871582031250e+01, -2.05397558212280273438e+00, 1.50000000000000000000e+03, 1.45084594726562500000e+03, 1.49927355957031250000e+03, 1.47514172363281250000e+03, -1.45923876953125000000e+03, -7.15118225097656250000e+02, 1.49825231933593750000e+03, 1.50000000000000000000e+03, 1.46805456542968750000e+03, 1.50000000000000000000e+03, 1.50000000000000000000e+03, 1.46761547851562500000e+03, 1.50000000000000000000e+03, 1.45944213867187500000e+03, -7.91179870605468750000e+02, -5.25966064453125000000e+02, 1.26658300781250000000e+03, -5.81593139648437500000e+02, 1.46509680175781250000e+03, 3.69333618164062500000e+02, 1.44470153808593750000e+03, -2.00793014526367187500e+02, -1.05513671875000000000e+03, -1.48492797851562500000e+03, -1.48402062988281250000e+03, 1.49998144531250000000e+03, -9.91384277343750000000e+01, 1.49282092285156250000e+03, 7.29495971679687500000e+02, -1.06252124023437500000e+03, -1.43319787597656250000e+03, 1.05014990234375000000e+03, -1.40186120605468750000e+03, 1.50000000000000000000e+03, -3.47009887695312500000e+02, -1.27257629394531250000e+03, 1.24107397460937500000e+03, 1.50000000000000000000e+03, 9.99704284667968750000e+01, -1.35124768066406250000e+03, 1.49646435546875000000e+03, 1.35955285644531250000e+03, -7.25017578125000000000e+02, -1.50000000000000000000e+03, -1.46814709472656250000e+03, 1.49836108398437500000e+03, 1.36351416015625000000e+03, -9.43901306152343750000e+02, 1.49456311035156250000e+03, -1.50000000000000000000e+03, -1.69453406333923339844e+00, -1.37050231933593750000e+03, 1.51475418090820312500e+02, -1.29971789550781250000e+03, -1.49869677734375000000e+03, 1.80418212890625000000e+02, -1.50000000000000000000e+03, -1.36707849121093750000e+03, -1.45733093261718750000e+03, 1.48796716308593750000e+03, -1.79770950317382812500e+02, 9.03693908691406250000e+02, 4.97971466064453125000e+02, -1.50000000000000000000e+03, -1.48869384765625000000e+03, -9.38287414550781250000e+02, -9.75696166992187500000e+02, 2.04846801757812500000e+02, -1.17054272460937500000e+03, 1.49182214355468750000e+03, 1.48026013183593750000e+03, -1.08677380371093750000e+03, 1.47061926269531250000e+03, 1.44907678222656250000e+03, 1.43289648437500000000e+03, 1.49998828125000000000e+03, -1.50000000000000000000e+03, -1.03395422363281250000e+03, -1.05180163574218750000e+03, -1.21947009277343750000e+03, -1.21485156250000000000e+03, 8.52122009277343750000e+02, -1.44852807617187500000e+03, -1.48814794921875000000e+03, -7.74990051269531250000e+02, 4.75992889404296875000e+02, 1.92075233459472656250e+01, 1.18247338867187500000e+03, -1.36074841308593750000e+03, -1.38927392578125000000e+03, -1.90721633911132812500e+02, -1.30059472656250000000e+03, -9.57650451660156250000e+02, 1.25560913085937500000e+02, 1.50000000000000000000e+03, 1.23885900878906250000e+03, 5.99436828613281250000e+02, -1.46394372558593750000e+03, -8.65485229492187500000e+02, 1.45517980957031250000e+03, -1.45721130371093750000e+03, -4.57448089599609375000e+02, -1.50000000000000000000e+03, 1.50000000000000000000e+03, -1.00071624755859375000e+03, -4.58410301208496093750e+01, -1.47785815429687500000e+03, -1.50000000000000000000e+03, -6.38818603515625000000e+02, -1.48469421386718750000e+03, 1.44546435546875000000e+03, -1.50000000000000000000e+03, 1.50000000000000000000e+03, 1.50000000000000000000e+03, 1.45992431640625000000e+03, -6.06165466308593750000e+02, -1.05009704589843750000e+03, -1.46734484863281250000e+03, -1.46778552246093750000e+03, -2.93343475341796875000e+02, 1.50000000000000000000e+03, 5.49450622558593750000e+02, -1.43084301757812500000e+03, 1.27259423828125000000e+03, 1.49989233398437500000e+03, -1.41265319824218750000e+03, 1.49923059082031250000e+03, -1.50000000000000000000e+03, -1.15588781738281250000e+03, 1.10131018066406250000e+03, -6.63738647460937500000e+02, -1.50000000000000000000e+03, -1.34364099121093750000e+03, 1.49101171875000000000e+03, -8.82465942382812500000e+02, 9.92473266601562500000e+02, 7.95564208984375000000e+02, 1.03226660156250000000e+03, 1.49776062011718750000e+03, -7.46479614257812500000e+02, -1.48991540527343750000e+03, -1.46411230468750000000e+03, -3.12249633789062500000e+02, 4.54849609375000000000e+02, 1.48462451171875000000e+03, -1.49612011718750000000e+03, -3.99198944091796875000e+02, -1.17427783203125000000e+03, -6.20761833190917968750e+01, 1.48115466308593750000e+03, 7.61811584472656250000e+02, -1.46020178222656250000e+03, 1.30937185287475585938e+01, -1.49741638183593750000e+03, -9.98118225097656250000e+02, 1.50000000000000000000e+03, 6.26139282226562500000e+02, 4.12370483398437500000e+02, -5.00006713867187500000e+02, -1.27364465332031250000e+03, -1.48614038085937500000e+03, 1.49871215820312500000e+03, -1.50000000000000000000e+03, -1.12974279785156250000e+03, 1.53858032226562500000e+01, -1.50000000000000000000e+03, -1.41446899414062500000e+03, -1.49382763671875000000e+03, 1.42308093261718750000e+03, -9.26492309570312500000e+02, 1.12498449707031250000e+03, 1.49851367187500000000e+03, 8.94844909667968750000e+02, -1.45384777832031250000e+03, 1.44492956542968750000e+03, 1.37497973632812500000e+03, -4.86356124877929687500e+01, 1.49999902343750000000e+03, -1.50000000000000000000e+03, -1.28251025390625000000e+03, -1.28954833984375000000e+03, -7.19588073730468750000e+02, -1.35037854003906250000e+03, -1.28773010253906250000e+03, -1.46510070800781250000e+03, -1.48991040039062500000e+03, -4.04238220214843750000e+02, 1.48783178710937500000e+03, 1.17942077636718750000e+03, -1.37689965820312500000e+03, -1.43052624511718750000e+03, -2.61734985351562500000e+02, -1.39639135742187500000e+03, 1.49823083496093750000e+03, -1.09809533691406250000e+03, -1.05750292968750000000e+03, 1.48349829101562500000e+03, 1.15041699218750000000e+03, -1.47003088378906250000e+03, -1.37060266113281250000e+03, 6.75411071777343750000e+02, -1.43672900390625000000e+03, 7.84446594238281250000e+02, 8.02977523803710937500e+01, 1.47901599121093750000e+03, 1.50000000000000000000e+03, 8.37373107910156250000e+02, -3.35356903076171875000e+01, 7.66528503417968750000e+02, 1.47661145019531250000e+03, 2.95130737304687500000e+02, 1.47828369140625000000e+03, 1.45784399414062500000e+03, 8.92070983886718750000e+02, -1.50000000000000000000e+03, -1.23425573730468750000e+03, -1.50000000000000000000e+03, 7.32910949707031250000e+02, -8.07298889160156250000e+01, -1.42265600585937500000e+03, 1.49955053710937500000e+03, -1.22260681152343750000e+03, 1.24691674804687500000e+03, 1.47482128906250000000e+03, 1.45630322265625000000e+03, -8.68385925292968750000e+02, 1.06412548828125000000e+03, 1.49872875976562500000e+03, -9.97796691894531250000e+02, 1.19686254882812500000e+03, -6.31415283203125000000e+02, 3.36039398193359375000e+02, 1.09440844726562500000e+03, 1.49915588378906250000e+03, 1.39831701660156250000e+03, 1.48028918457031250000e+03, 1.50000000000000000000e+03, 1.33520812988281250000e+03, 1.46147265625000000000e+03, 1.50000000000000000000e+03, -1.12736584472656250000e+03, 1.34044519042968750000e+03, 1.50000000000000000000e+03, 1.44540002441406250000e+03, 5.10701255798339843750e+01, 1.40425109863281250000e+03, 3.71636383056640625000e+02, 1.50000000000000000000e+03, -1.50000000000000000000e+03, 1.46054333496093750000e+03, -9.45319702148437500000e+02, -1.45594042968750000000e+03, 1.46725598144531250000e+03, 1.49960827636718750000e+03, 4.08178901672363281250e+00, -1.27764450073242187500e+02, -4.61181144714355468750e+01, 1.41075134277343750000e+02, -1.50386600494384765625e+01, 2.00056571960449218750e+01, 1.97952442169189453125e+01, -1.73400669097900390625e+01, 9.66064548492431640625e+00, 1.10212036132812500000e+02, -2.46107208251953125000e+02, -1.51328191757202148438e+01, -4.02953605651855468750e+01, -1.38870529174804687500e+02, 1.47880233764648437500e+02, 3.49159584045410156250e+01, 1.18397949218750000000e+02, 1.55922592163085937500e+02, 1.50940380096435546875e+01, 2.14191856384277343750e+01, -3.67292747497558593750e+01, 1.85902385711669921875e+01, 3.31223754882812500000e+01, 5.11147575378417968750e+01, 4.28230400085449218750e+01, -1.06430101394653320312e+01, -4.08359241485595703125e+00, -2.23440017700195312500e+01, -1.95453701019287109375e+01, -5.80756111145019531250e+01, -3.20330429077148437500e+01, -4.75791025161743164062e+00, 1.86251945495605468750e+01, 8.33973464965820312500e+01, 8.78850173950195312500e+01, 5.08978576660156250000e+01, 1.34790506362915039062e+01, 7.82660446166992187500e+01, 1.88938255310058593750e+01, -3.30998191833496093750e+01, 7.78792572021484375000e+01, -1.19249315261840820312e+01, 2.07784824371337890625e+01, -1.36017208099365234375e+01, 1.16372863769531250000e+02, 1.50352722167968750000e+02, 9.72300720214843750000e+00, 9.24389076232910156250e+00, 1.16134292602539062500e+02, 5.78528785705566406250e+01, -8.69335079193115234375e+00, 8.26960086822509765625e+00, 1.50000000000000000000e+03, -1.39489465332031250000e+03, 1.48978662109375000000e+03, -1.40450195312500000000e+03, -7.13402343750000000000e+02, 1.50000000000000000000e+03, 1.30970825195312500000e+03, 1.43433300781250000000e+03, 1.37710571289062500000e+03, 1.50000000000000000000e+03, -1.50000000000000000000e+03, -1.48087915039062500000e+03, -1.35299645996093750000e+03, -1.92487670898437500000e+02, -8.80909729003906250000e+02, -9.69517822265625000000e+02, 1.41127075195312500000e+03, -1.35117004394531250000e+03, -1.50000000000000000000e+03, -2.91365081787109375000e+02, 1.41743994140625000000e+03, 1.50000000000000000000e+03, 3.81414855957031250000e+02, 1.48196313476562500000e+03, -9.53403442382812500000e+02, 1.50000000000000000000e+03, -1.47759387207031250000e+03, -5.78825622558593750000e+02, -3.45634155273437500000e+02, 1.50000000000000000000e+03, 1.49986572265625000000e+03, -5.71231628417968750000e+02, 1.48335729980468750000e+03, 1.49628271484375000000e+03, -1.40090368652343750000e+03, 1.49135546875000000000e+03, -1.38715258789062500000e+03, 1.49640893554687500000e+03, 1.49893737792968750000e+03, 1.49522814941406250000e+03, 1.09342834472656250000e+03, 1.47797399902343750000e+03, 6.02440490722656250000e+02, 1.50000000000000000000e+03, 1.50000000000000000000e+03, -1.19110314941406250000e+03, -1.50000000000000000000e+03, 1.49856799316406250000e+03, -1.46103698730468750000e+03, 1.50000000000000000000e+03, -1.94595623016357421875e+01, -1.47890185546875000000e+03, 1.49890319824218750000e+03, 1.16420886230468750000e+03, -1.31665429687500000000e+03, -1.43048046875000000000e+03, 1.86244598388671875000e+02, 5.10270233154296875000e+02, -1.50000000000000000000e+03, 1.49990612792968750000e+03, -1.48753393554687500000e+03, 1.46576806640625000000e+03, 1.49999853515625000000e+03, -1.50000000000000000000e+03, -1.44318176269531250000e+03, -1.31492724609375000000e+03, 2.68227416992187500000e+02, 3.99072937011718750000e+02, -1.30675134277343750000e+03, 1.49753283691406250000e+03, 1.43676599121093750000e+03, -1.38457946777343750000e+03, 1.14812292480468750000e+03, 1.49442089843750000000e+03, -1.45069506835937500000e+03, 1.49980822753906250000e+03, -1.50000000000000000000e+03, -1.02871325683593750000e+03, -1.47420104980468750000e+03, -1.11362518310546875000e+02, -1.49038562011718750000e+03, 5.85833435058593750000e+02, 3.05766357421875000000e+02, -1.01721545410156250000e+03, -2.11960556030273437500e+02, -1.17759655761718750000e+03, 1.50000000000000000000e+03, 1.49871203613281250000e+03, -1.49892993164062500000e+03, -1.42901757812500000000e+03, -1.24547595214843750000e+03, -1.49601538085937500000e+03, -3.52211181640625000000e+02, 1.19132629394531250000e+02, 1.50000000000000000000e+03, 1.46231506347656250000e+03, -1.03615185546875000000e+03, -1.47541760253906250000e+03, 1.48726586914062500000e+03, 1.07838134765625000000e+03, -5.66812744140625000000e+02, 1.24412631988525390625e+01, -1.50000000000000000000e+03, 1.40392358398437500000e+03, 1.49987573242187500000e+03, 6.81813354492187500000e+02, 8.93331237792968750000e+02, -1.50000000000000000000e+03, 1.49631469726562500000e+03, 1.49676403808593750000e+03, -5.40069030761718750000e+02, -1.50000000000000000000e+03, 1.50000000000000000000e+03, 1.49836840820312500000e+03, -1.26964343261718750000e+03, 6.57714172363281250000e+02, 1.38621264648437500000e+03, 5.04327239990234375000e+01, 9.40815368652343750000e+02, 6.62669921875000000000e+02, 1.38199340820312500000e+03, -9.43348693847656250000e+01, 1.01882147216796875000e+03, -7.33810974121093750000e+02, -1.01781610107421875000e+03, 3.15893096923828125000e+01, 1.41949877929687500000e+03, -1.50000000000000000000e+03, -1.44978112792968750000e+03, -8.50417297363281250000e+02, -2.24238983154296875000e+02, 1.49984423828125000000e+03, 1.46640942382812500000e+03, 1.18128784179687500000e+03, 3.21616088867187500000e+02, 1.49489196777343750000e+03, -1.14741430664062500000e+03, 4.73323852539062500000e+02, 1.44569873046875000000e+03, 3.63674560546875000000e+02, -1.53263427734375000000e+02, 1.50000000000000000000e+03, -1.50000000000000000000e+03, -2.73713970184326171875e+01, -8.17645935058593750000e+02, -1.45655554199218750000e+03, 9.09058715820312500000e+02, -1.01504058837890625000e+02, 1.15476574707031250000e+03, 1.49828454589843750000e+03, 1.49635815429687500000e+03, -6.72042907714843750000e+02, 3.90949916839599609375e+00, -1.50000000000000000000e+03, 1.50000000000000000000e+03, 1.50000000000000000000e+03, 1.32904370117187500000e+03, -1.21481042480468750000e+03, -1.50000000000000000000e+03, -9.18681091308593750000e+02, -4.95061859130859375000e+02, 1.48140100097656250000e+03, -1.50000000000000000000e+03, 1.50000000000000000000e+03, 1.49933972167968750000e+03, 1.04308874511718750000e+03, 3.09356201171875000000e+02, 9.91627273559570312500e+01, 4.87837127685546875000e+02, -8.04350646972656250000e+02, 1.03535754394531250000e+03, 1.50000000000000000000e+03, 7.46812866210937500000e+02, -1.13371154785156250000e+03, -1.39400854492187500000e+03, -6.25125671386718750000e+02, -1.44575671386718750000e+03, 9.19156982421875000000e+02, -1.50000000000000000000e+03, -1.46842590332031250000e+03, -1.45581030273437500000e+03, -3.39487762451171875000e+02, -3.65891540527343750000e+02, -1.46644226074218750000e+03, 1.45556518554687500000e+03, -6.54158081054687500000e+02, 1.24882482910156250000e+03, 5.67267700195312500000e+02, 8.77511718750000000000e+02, 1.46492895507812500000e+03, -5.62683105468750000000e+02, -4.57687805175781250000e+02, 1.21518896484375000000e+03, -1.50000000000000000000e+03, 1.18036096191406250000e+03, 3.71224914550781250000e+02, -1.39212316894531250000e+03, -6.50142822265625000000e+02, 2.37422561645507812500e+02, 6.41125244140625000000e+02, 1.28279553222656250000e+03, 1.49288317871093750000e+03, -1.48298449707031250000e+03, 1.00676810741424560547e+00, -3.91641594469547271729e-02, -3.35834175348281860352e-02, 1.03999525308609008789e-02, -5.85740394890308380127e-02, 5.67950773984193801880e-03, -1.36027317494153976440e-02, -1.25825569033622741699e-01, -8.70327092707157135010e-03, 3.40825021266937255859e-02, 7.06392005085945129395e-02, 2.28039827197790145874e-02, -4.10776324570178985596e-02, -8.02433714270591735840e-02, 4.55657429993152618408e-02, 2.41637732833623886108e-02, -2.97652166336774826050e-02, 4.56262715160846710205e-02, -1.62387650925666093826e-03, 2.55435816943645477295e-02, -2.09453795105218887329e-02, -4.86836917698383331299e-02, 8.35758596658706665039e-02, 1.85436476022005081177e-02, -4.16422588750720024109e-03, 7.99141544848680496216e-03, 3.74777652323246002197e-02, -3.58292683959007263184e-02, -5.37828635424375534058e-03, 3.10072824358940124512e-02, 1.09589859843254089355e-01, -1.75644326955080032349e-02, -9.53558273613452911377e-03, -2.50025484710931777954e-02, 1.09131960198283195496e-02, -1.88221894204616546631e-02, 2.02568173408508300781e-02, -3.65664005279541015625e-01, -3.20117250084877014160e-02, -4.60118278861045837402e-02, -5.75712658464908599854e-02, 3.54883112013339996338e-02, 1.50732155889272689819e-02, 2.68233772367238998413e-02, -5.53435320034623146057e-03, 4.85937949270009994507e-03, -4.55000311136245727539e-01, -3.55771258473396301270e-02, -2.03610397875308990479e-02, 2.12261434644460678101e-02, 2.13594231754541397095e-02, 9.18923139572143554688e-01, 1.14452922716736793518e-02, -1.76833402365446090698e-02, -1.45341670140624046326e-02, -4.91175912320613861084e-02, -9.75478067994117736816e-03, -1.15939835086464881897e-02, 1.42340809106826782227e-01, 2.02158489264547824860e-03, -2.85119395703077316284e-02, -1.08673527836799621582e-01, -2.74135936051607131958e-02, -4.34214482083916664124e-03, 1.15564323961734771729e-01, -7.95120298862457275391e-02, -2.29213312268257141113e-01, 9.15917288511991500854e-03, 9.75554585456848144531e-02, 3.31216044723987579346e-02, 2.84480974078178405762e-02, 1.13927535712718963623e-02, 2.85600381903350353241e-03, 3.68971638381481170654e-02, 4.22540940344333648682e-02, -1.67291425168514251709e-02, 1.53459217399358749390e-02, -6.91550038754940032959e-03, 1.52809945866465568542e-02, 3.63095849752426147461e-02, -3.16958911716938018799e-02, -3.29247191548347473145e-02, -2.49935640022158622742e-03, 8.10935627669095993042e-03, -3.95101029425859451294e-03, -2.00050249695777893066e-02, 3.57736125588417053223e-02, -1.67791381478309631348e-01, 1.32189676165580749512e-01, 2.51148380339145660400e-02, -6.97453096508979797363e-02, 1.37003973126411437988e-01, 9.46106575429439544678e-03, -4.30142171680927276611e-02, -2.68887653946876525879e-02, -1.00843189284205436707e-02, 2.28063631802797317505e-02, 9.38996225595474243164e-02, 7.60358348488807678223e-02, -9.21546760946512222290e-03, -3.40513251721858978271e-02, -8.65315198898315429688e-02, 7.04665035009384155273e-02, -3.59963905066251754761e-03, 5.90625740587711334229e-02, 2.58327815681695938110e-02, 9.81659665703773498535e-02, 5.00306934118270874023e-02, 3.05371638387441635132e-02, -1.03318855166435241699e-01, -2.59457498788833618164e-01, 6.73941045533865690231e-04, 3.79614010453224182129e-02, 3.38113084435462951660e-02, 4.79326024651527404785e-02, -4.56629805266857147217e-02, 3.30581553280353546143e-02, 2.57310181856155395508e-01, 9.67487394809722900391e-02, -2.26395234465599060059e-01, 5.67021360620856285095e-03, -8.13273042440414428711e-02, 2.17925617471337318420e-03, 1.17569796741008758545e-01, -2.51743704080581665039e-01, -6.14516437053680419922e-02, -4.73603419959545135498e-03, 2.61143874377012252808e-03, -3.00216041505336761475e-02, 4.38437089323997497559e-02, 5.66401798278093338013e-03, 2.53267101943492889404e-02, -6.61218985915184020996e-02, 3.13440337777137756348e-02, -4.08609211444854736328e-02, 1.52529571205377578735e-02, -1.47488992661237716675e-03, 3.51002290844917297363e-02, 2.75852233171463012695e-01, 2.46640723198652267456e-02, 7.54106640815734863281e-02, 1.22093655169010162354e-01, -1.08732216060161590576e-01, -3.21523621678352355957e-02, 1.84019744396209716797e-01, 3.69597896933555603027e-02, 9.53316614031791687012e-02, 7.37425908446311950684e-02, 1.16849049925804138184e-01, -2.71464604884386062622e-02, 6.53505697846412658691e-02, 6.59263581037521362305e-02, 9.13322791457176208496e-02, 1.11474490165710449219e+00};

fann_layer fann_layers[4] = {{0, 6}, {6, 57}, {57, 108}, {108, 112}};


#endif // FANN_FANN_NET_H_
